
#include "eml_net.h"
static const float XX_MLP_L36_layer_0_biases[36] = { 0.252407f, 0.216363f, 0.186455f, 0.242660f, -0.131909f, -0.076951f, -0.070835f, 0.035652f, 0.099210f, -0.125788f, -0.283406f, -0.059435f, -0.112924f, 0.260786f, 0.228986f, 0.212500f, 0.090235f, -0.091836f, 0.028810f, 0.185909f, -0.236728f, 0.177565f, -0.270598f, 0.186615f, 0.181391f, -0.264801f, 0.074995f, 0.001447f, -0.194730f, -0.207375f, 0.161159f, 0.039923f, 0.284857f, 0.284412f, 0.290560f, -0.224929f };
static const float XX_MLP_L36_layer_0_weights[1188] = { 0.028179f, 0.126912f, 0.026153f, 0.012013f, -0.042108f, 0.076474f, -0.036809f, 0.231055f, 0.269651f, -0.068742f, 0.174231f, 0.017041f, 0.039868f, 0.249575f, -0.252989f, -0.244322f, -0.221638f, 0.037411f, 0.167161f, 0.213822f, 0.252790f, 0.197459f, -0.014443f, 0.124941f, -0.226322f, 0.082663f, -0.210339f, 0.276776f, 0.011560f, -0.051326f, -0.139853f, 0.162037f, -0.025861f, -0.050284f, -0.256023f, 0.066944f, 0.066109f, 0.068964f, 0.209686f, 0.111636f, -0.082480f, -0.037245f, 0.116557f, -0.259365f, 0.098559f, 0.100637f, -0.170622f, -0.218847f, -0.108782f, -0.081158f, 0.041400f, -0.036213f, 0.291836f, -0.283059f, -0.171691f, -0.200224f, 0.077508f, -0.126623f, -0.066109f, -0.092688f, -0.201135f, -0.229766f, 0.092198f, -0.213459f, -0.178526f, -0.077357f, 0.189309f, -0.237634f, 0.199309f, -0.260420f, 0.285328f, -0.074673f, 0.281178f, 0.061835f, 0.141105f, -0.271777f, -0.128092f, -0.223997f, -0.120230f, -0.224862f, -0.107348f, -0.050565f, -0.257051f, 0.113514f, 0.039279f, -0.138366f, 0.013711f, -0.239481f, 0.044797f, 0.253190f, -0.107001f, 0.098732f, -0.217159f, 0.127586f, -0.124206f, -0.186854f, 0.051022f, -0.283025f, 0.193998f, -0.292108f, 0.104870f, -0.135642f, 0.138710f, 0.272584f, -0.148177f, 0.044903f, 0.054285f, 0.042605f, -0.163318f, 0.267017f, -0.031182f, 0.204298f, 0.117648f, -0.119487f, 0.185068f, -0.061038f, 0.224760f, 0.047932f, 0.225135f, 0.113549f, 0.132848f, 0.000781f, 0.268983f, 0.084921f, -0.044903f, 0.062713f, -0.283564f, -0.117025f, 0.094463f, -0.123806f, 0.069709f, -0.042011f, -0.214987f, -0.118967f, 0.041263f, 0.053594f, 0.043835f, 0.090353f, 0.089705f, -0.040447f, 0.233870f, -0.078116f, -0.037827f, 0.231142f, 0.180575f, 0.120247f, -0.235788f, 0.247397f, 0.126432f, 0.294200f, -0.206744f, 0.217109f, -0.199117f, 0.068153f, -0.221851f, 0.205244f, 0.181238f, 0.040669f, -0.054740f, -0.254131f, 0.116522f, -0.027418f, 0.130974f, 0.216080f, 0.280427f, 0.209878f, -0.287947f, -0.082611f, 0.135638f, -0.193661f, 0.012407f, -0.262838f, -0.176934f, -0.283978f, 0.173197f, -0.162828f, -0.091207f, 0.252376f, 0.120538f, -0.276153f, -0.197753f, 0.071644f, 0.045546f, -0.154583f, 0.256086f, 0.067214f, 0.021015f, 0.053026f, 0.135717f, -0.110909f, -0.060026f, -0.171125f, -0.185073f, 0.262076f, 0.141279f, -0.005627f, -0.160761f, -0.144875f, -0.260660f, -0.038679f, -0.110998f, 0.115798f, -0.072097f, -0.188959f, -0.280329f, -0.255222f, 0.105800f, -0.027308f, 0.021573f, 0.233944f, 0.289186f, -0.166965f, 0.096178f, -0.139587f, -0.282704f, 0.152383f, -0.106159f, -0.068729f, 0.052225f, 0.195285f, 0.076114f, 0.219733f, -0.133558f, 0.175778f, -0.185457f, 0.267042f, 0.110661f, -0.167784f, 0.263837f, 0.136119f, -0.145117f, -0.169129f, 0.010720f, -0.279563f, -0.172515f, -0.044440f, -0.074224f, -0.021433f, -0.131097f, 0.051107f, 0.214583f, -0.225571f, 0.010250f, -0.217125f, 0.127672f, -0.061426f, 0.038515f, -0.186739f, -0.209457f, -0.007129f, -0.085225f, 0.259887f, 0.156480f, 0.146654f, 0.238101f, -0.245684f, 0.030782f, 0.049821f, 0.272435f, -0.122585f, -0.152852f, -0.235734f, -0.285194f, 0.253323f, 0.100211f, 0.168174f, -0.128729f, 0.050962f, -0.257164f, -0.008478f, 0.281611f, 0.222051f, -0.095449f, 0.272219f, -0.158234f, 0.264994f, 0.260310f, 0.176460f, 0.076934f, 0.220743f, -0.122071f, 0.205795f, 0.069520f, -0.287077f, -0.090097f, -0.207517f, 0.284167f, -0.012757f, -0.001539f, 0.082256f, -0.077509f, -0.214148f, 0.189975f, -0.182922f, 0.006676f, -0.162589f, -0.237180f, 0.213609f, 0.278913f, 0.271785f, 0.239773f, 0.161623f, -0.098406f, -0.247053f, -0.054683f, -0.158011f, -0.216747f, -0.263375f, 0.133046f, -0.288142f, 0.159560f, -0.208195f, -0.247985f, -0.242039f, 0.101468f, -0.150176f, -0.046864f, 0.033834f, 0.212641f, 0.133904f, -0.135453f, -0.217385f, -0.262227f, -0.117027f, -0.140386f, -0.025867f, 0.181369f, 0.287296f, -0.020355f, -1.018489f, -0.188047f, 0.170175f, -0.261357f, 0.116183f, 0.164772f, 0.163606f, -0.157417f, -0.230314f, 0.051663f, -0.208645f, -0.054992f, -0.053929f, 0.283869f, -0.261548f, 0.159103f, -0.390260f, 0.273914f, -0.152901f, -0.052671f, 0.273155f, 0.085853f, -0.460430f, -0.175690f, -0.075118f, -0.088528f, 0.131964f, -0.131167f, -0.218886f, -0.146109f, 0.305438f, -0.184520f, 0.238257f, 0.025827f, -0.025401f, 0.225324f, -0.024496f, 0.132207f, -0.059552f, 0.238292f, 0.112071f, 0.117731f, -0.101605f, 0.151442f, 0.080244f, -0.153328f, -0.200212f, 0.174799f, 0.270810f, -0.024688f, 0.053661f, 0.210903f, -0.025233f, 0.266504f, 0.044676f, 0.189178f, 0.241124f, 0.186086f, -0.200873f, 0.076004f, -0.059905f, -0.257900f, -0.044803f, -0.142320f, 0.205852f, -0.275246f, 0.270691f, -0.085299f, -0.084510f, -0.285258f, -0.185629f, -0.058227f, 0.253088f, -0.236134f, 0.262625f, 0.217912f, -0.027034f, -0.102206f, -0.157619f, 0.067510f, -0.275377f, -0.285680f, -0.042002f, -0.254739f, -0.146284f, -0.164451f, -0.145559f, -0.217662f, -0.287789f, -0.226774f, 0.069876f, 0.279699f, 0.289191f, -0.053637f, -0.198787f, 0.081819f, -0.005722f, 0.288636f, -0.256369f, 0.167043f, -0.124796f, -0.152507f, 0.095838f, -0.149765f, 0.097818f, 0.010209f, -0.044783f, 0.032254f, -0.125606f, 0.121831f, -0.050215f, -0.082252f, 0.193831f, 0.250634f, -0.267750f, -0.157688f, -0.089341f, 0.185757f, 0.286326f, 0.276584f, 0.238833f, -0.119984f, 0.290172f, -0.147786f, -0.232424f, 0.266039f, -0.157223f, 0.111918f, -0.260467f, 0.136065f, 0.225134f, -0.134211f, -0.071330f, -0.074138f, 0.146728f, -0.154633f, -0.193531f, -0.029908f, -0.115318f, 0.200034f, -0.154671f, 0.001411f, 0.261011f, 0.079064f, 0.216601f, 0.259622f, 0.147893f, 0.117700f, 0.275991f, 0.291619f, -0.028414f, -0.253094f, -0.122245f, -0.205030f, -0.048687f, -0.217414f, 0.061418f, -0.069102f, 0.233172f, 0.275846f, 0.027677f, -0.132850f, 0.054358f, 0.233994f, -0.055004f, 0.030714f, -0.134699f, -0.026317f, -0.058015f, -0.148411f, 0.003476f, -0.111831f, -0.074973f, 0.014702f, 0.147755f, -0.098192f, 0.250155f, 0.213643f, -0.266186f, -0.145289f, -0.031779f, -0.233178f, -0.089364f, 0.141599f, 0.106462f, 0.072180f, 0.124163f, -0.174027f, -0.093364f, 0.103942f, 0.223660f, 0.025803f, -0.128203f, -0.277047f, 0.124043f, -0.290275f, -0.075059f, 0.017985f, 0.248931f, -0.242104f, -0.055472f, -0.280545f, -0.092797f, 0.072087f, -0.130299f, -0.171181f, -0.226646f, 0.045495f, 0.115079f, 0.101435f, 0.264683f, -0.293290f, 0.086812f, 0.059209f, 0.052316f, 0.272932f, -0.284946f, 0.115879f, 0.184998f, 0.005781f, -0.097922f, 0.171530f, -0.237533f, -0.034186f, 0.011765f, 0.114389f, -0.241283f, -0.160516f, -0.052947f, 0.072721f, 0.228210f, 0.070080f, -0.216175f, 0.283406f, 0.219243f, 0.001603f, 0.249087f, 0.024405f, 0.249679f, 0.194561f, 0.276180f, 0.247573f, -0.273632f, -0.191809f, -0.065470f, 0.266646f, -0.117977f, -0.201420f, 0.227830f, -0.073713f, 0.294287f, -0.186909f, 0.128912f, -0.035231f, -0.249774f, 0.115802f, -0.148976f, -0.270961f, -0.259531f, -0.234111f, 0.239285f, 0.141476f, 0.184856f, 0.100749f, -0.025132f, -0.110295f, 0.360117f, -0.169629f, -0.008062f, -0.078835f, 0.290216f, -0.191987f, -0.100448f, 0.106364f, -0.248758f, 0.128154f, -0.015641f, -0.129305f, -0.151538f, 0.008559f, -0.077985f, -0.039653f, -0.098412f, 0.275869f, -0.216186f, -0.246198f, -0.029679f, 0.060741f, 0.083483f, -0.060595f, 0.294458f, -0.087404f, 0.130579f, 0.081729f, 0.184629f, 0.302150f, 0.233699f, 0.156030f, -0.058235f, -0.098448f, -0.094104f, -0.264995f, -0.119485f, -0.036345f, 0.062128f, 0.157792f, 0.270116f, -0.226274f, -0.241377f, 0.052899f, 0.170077f, 0.265268f, -0.059208f, 0.275536f, -0.043538f, -0.070574f, -0.207796f, 0.108815f, 0.091920f, 0.213533f, -0.237524f, -0.001314f, 0.047821f, -0.152417f, -0.195198f, 0.212069f, -0.260362f, -0.017327f, -0.226569f, -0.025325f, 0.283066f, -0.044990f, 0.210593f, -0.225695f, -0.134917f, -0.056741f, -0.059085f, 0.101076f, -0.091580f, 0.126085f, 0.082089f, -0.059467f, -0.040244f, 0.067545f, -0.253575f, 0.190145f, 0.090480f, 0.133506f, 0.021778f, -0.229728f, -0.056008f, -0.055808f, -0.105543f, -0.277221f, 0.139925f, -0.230137f, 0.062697f, 0.119851f, 0.079493f, 0.270787f, -0.233962f, 0.216543f, -0.277668f, 0.020593f, -0.056474f, 0.014263f, -0.079560f, -0.182494f, -0.283606f, 0.010704f, 0.202159f, -0.074773f, -0.163446f, -0.247389f, -0.244570f, -0.164311f, -0.235899f, -0.138572f, -0.255871f, -0.256192f, 0.210120f, -0.199271f, 0.035199f, 0.161275f, -0.025708f, -0.204432f, -0.177169f, -0.039524f, 0.016652f, -0.088795f, 0.166008f, 0.148045f, 0.251956f, -0.277760f, 0.233370f, -0.063359f, 0.223152f, 0.112519f, 0.287423f, 0.152916f, -0.079887f, 0.000627f, -0.072902f, -0.079672f, -0.141002f, -0.002377f, 0.107184f, -0.131320f, 0.014430f, -0.225661f, -0.200612f, -0.267274f, 0.277668f, -0.292575f, -0.189574f, 0.066560f, -0.246902f, 0.225230f, 0.129468f, 0.274923f, 0.004522f, -0.117716f, 0.029204f, 0.254083f, 0.012244f, -0.137308f, 0.222578f, -0.140695f, -0.294068f, -0.104140f, -0.276113f, 0.306006f, -0.033215f, -0.032681f, -0.096662f, -0.302925f, 0.262462f, 0.354451f, -0.072694f, 0.264770f, 0.137886f, 0.103616f, -0.212282f, 0.223591f, -0.378209f, 0.314212f, -0.164448f, -0.341097f, 0.299052f, 0.165327f, 0.059549f, -0.232558f, -0.051691f, 0.202205f, 0.205075f, -0.182277f, -0.247919f, -0.125378f, -0.260138f, -0.044431f, -0.975735f, 0.051875f, -0.426899f, -0.029949f, -0.225571f, 0.434765f, 0.007022f, 0.087362f, -0.158463f, -0.147207f, -0.009794f, -0.712283f, 0.082394f, 0.631987f, -0.072302f, 0.187204f, 0.005868f, 0.267951f, -0.200820f, 0.566961f, 0.379649f, 0.066225f, -0.119049f, -0.136784f, 0.049247f, -0.315996f, -0.556309f, -0.187303f, -0.000745f, 0.144631f, -0.057384f, -0.075891f, -0.559428f, -0.069377f, -0.245209f, -0.172063f, -0.425073f, -0.478362f, 0.085867f, 0.178637f, -0.201025f, 0.062314f, -0.226682f, 0.134401f, 0.081071f, 0.183971f, -0.012158f, 0.244670f, -0.265779f, -0.122147f, 0.126831f, -0.048297f, -0.192883f, -0.231654f, 0.187156f, -0.015838f, 0.225455f, 0.137587f, -0.053241f, -0.074600f, 0.009224f, 0.229454f, 0.139939f, -0.291845f, 0.114508f, 0.247412f, 0.124120f, -0.190518f, -0.009721f, -0.212133f, -0.083160f, 0.257798f, 0.249648f, -0.128076f, -0.094583f, 0.059102f, 0.273179f, -0.207715f, -0.143363f, 0.220312f, -0.004782f, 0.235294f, -0.185471f, 0.019267f, -0.102461f, -0.108197f, -0.031330f, -0.039469f, -0.084132f, 0.244736f, 0.136675f, 0.134200f, -0.123902f, 0.045831f, 0.164651f, 0.174330f, -0.091691f, 0.159752f, 0.139123f, -0.211428f, 0.215823f, -0.034607f, -0.008015f, -0.030450f, 0.040013f, 0.071462f, -0.001074f, 0.216320f, 0.075334f, -0.058135f, -0.049133f, 0.183323f, -0.089532f, -0.170175f, -0.259861f, 0.221769f, 0.246845f, -0.224041f, -0.097622f, -0.191455f, -0.226531f, 0.235829f, -0.261340f, 0.283375f, -0.238000f, 0.214363f, 0.039223f, -0.077898f, -0.092981f, 0.151785f, -0.109359f, 0.092782f, 0.010219f, -0.008867f, 0.236592f, 0.032228f, 0.192772f, 0.133036f, -0.272144f, 0.161071f, -0.166981f, 0.237765f, -0.269569f, -0.098449f, -0.236065f, -0.014397f, 0.188739f, -0.119023f, -0.205867f, -0.100103f, 0.185116f, -0.212090f, -0.160793f, -0.254277f, 0.121321f, -0.061788f, -0.111560f, 0.128939f, -0.096735f, 0.134332f, 0.185894f, -0.166513f, 0.279443f, -0.199130f, -0.123355f, -0.188846f, -0.091116f, -0.011759f, 0.013079f, 0.208545f, 0.229684f, -0.165074f, 0.072479f, -0.229127f, -0.024198f, -0.104782f, -0.108222f, -0.010271f, 0.135545f, -0.254082f, 0.223624f, 0.138486f, -0.190790f, 0.258563f, 0.003723f, 0.291586f, -0.177807f, 0.021024f, -0.130845f, -0.115492f, 0.053707f, 0.247808f, 0.180035f, 0.133364f, 0.034899f, 0.248957f, -0.005164f, 0.220474f, 0.196472f, -0.167594f, 0.158156f, -0.287596f, -0.104574f, -0.163617f, 0.007000f, 0.150951f, -0.231558f, 0.008132f, 0.258946f, -0.160036f, 0.101697f, 0.053859f, -0.289499f, -0.015019f, 0.123423f, -0.268949f, 0.221749f, 0.008970f, -0.279741f, -0.163452f, 0.267563f, 0.045100f, -0.230698f, -0.123555f, -0.032621f, -0.282528f, -0.052126f, -0.006791f, -0.151171f, 0.052866f, 0.149353f, -0.155810f, 0.070434f, 0.082345f, 0.263623f, 0.162592f, 0.209265f, -0.005325f, -0.185640f, 0.291168f, -0.218420f, 0.006514f, -0.255116f, 0.261105f, 0.274119f, 0.129389f, -0.092049f, -0.145482f, -0.140661f, -0.221065f, 0.015696f, -0.211245f, -0.108109f, 0.073506f, 0.135520f, -0.280569f, -0.041215f, 0.089610f, 0.208338f, -0.014411f, 0.276723f, -0.138222f, -0.286917f, -0.009582f, -0.143836f, 0.190918f, -0.157602f, -0.111556f, 0.171077f, 0.126885f, 0.034062f, 0.120789f, -0.047738f, -0.291780f, -0.288186f, 0.006732f, -0.245739f, -0.264671f, 0.274417f, 0.211728f, -0.205227f, -0.294492f, 0.259229f, -0.130473f, -0.185031f, 0.112920f, -0.230659f, -0.138802f, 0.280196f, 0.082318f, 0.012231f, -0.060204f, 0.161892f, -0.211752f, 0.275621f, 0.212979f, 0.069390f, -0.269579f, 0.118458f, 0.243742f, 0.014495f, -0.085974f, -0.223948f, 0.150333f, 0.227071f, -0.235759f, 0.152740f, -0.284823f, 0.275455f, 0.067857f, 0.030927f, -0.120342f, 0.253183f, -0.138061f, 0.193530f, 0.286101f, 0.167138f, 0.011200f, -0.255920f, -0.016268f, -0.036414f, -0.175281f, -0.045066f, -0.083890f, -0.198348f, -0.034575f, -0.139893f, 0.013012f, -0.274148f, 0.239582f, 0.186582f, 0.031011f, 0.207485f, 0.272706f, -0.229701f, 0.077160f, 0.293701f, 0.287741f, 0.060937f, -0.219381f, 0.049064f, -0.293666f, -0.177572f, 0.269007f, -0.099979f, 0.081619f, -0.129242f, 0.264111f, 0.134796f, -0.100466f, 0.172118f, -0.231091f, -0.063507f, -0.164417f, 0.108358f, -0.234464f, -0.060731f, -0.131725f, 0.003741f, -0.088526f, 0.121734f, -0.280389f, 0.079019f, -0.158889f, -0.136408f, 0.177081f, 0.268062f, -0.100242f, 0.192739f, -0.233553f, 0.079018f, 0.148051f, -0.202893f, -0.043247f, 0.231606f, -0.233803f, -0.289014f, 0.053424f, -0.038021f, 0.176157f, 0.249956f, -0.118442f, -0.065884f, -0.008096f, 0.048828f, 0.285335f, 0.115682f, -0.065141f, -0.139322f, 0.262226f, -0.041636f, 0.130506f, 0.250884f, 0.097114f, -0.045380f, -0.177525f, -0.078159f, 0.139098f, 0.088766f };
static const float XX_MLP_L36_layer_1_biases[10] = { 0.426650f, 0.196961f, 0.023261f, -0.204424f, 0.445692f, -0.205511f, 0.198216f, 0.057371f, -0.255421f, -0.416017f };
static const float XX_MLP_L36_layer_1_weights[360] = { 0.112150f, -0.339093f, 0.010066f, 0.063048f, -0.199037f, -0.024164f, -0.229522f, -0.119213f, -0.122059f, 0.077207f, -0.463004f, -0.192054f, 0.162156f, -0.210361f, -0.388881f, -0.377333f, -0.193851f, -0.067791f, 0.493968f, -0.057504f, -0.373901f, -0.528769f, 0.524638f, 0.275142f, 0.486646f, 0.106135f, 0.467016f, -0.013705f, -0.086284f, 0.228618f, -0.090201f, -0.368231f, 0.027504f, 0.061760f, 0.350186f, 0.232499f, 0.148382f, 0.121013f, -0.034816f, -0.030961f, 0.156242f, 0.304771f, 0.503185f, -0.039740f, 0.296318f, 0.220977f, -0.046150f, -0.433311f, 0.132533f, -0.069639f, 0.069253f, 0.029453f, 0.258797f, -0.262840f, 0.148809f, -0.029358f, -0.045603f, 0.294845f, -0.188093f, -0.094540f, -0.288519f, 0.214506f, -0.219842f, -0.254399f, -0.409956f, -0.182572f, -0.154427f, 0.497166f, 0.413314f, 0.112330f, -0.316175f, 0.164511f, -0.073710f, -0.113322f, 0.368954f, -0.422305f, 0.283409f, -0.049386f, 0.010211f, 0.261358f, 0.108117f, 0.287754f, 0.126523f, -0.408139f, 0.135426f, 0.123779f, 0.012423f, -0.163286f, 0.060901f, -0.054451f, 0.345418f, 0.281459f, 0.235118f, 0.471489f, 0.287829f, 0.418178f, 0.114940f, -0.505770f, -0.509641f, -0.308848f, 0.350030f, 0.408869f, 0.305868f, -0.127898f, -0.297434f, 0.369076f, -0.173353f, -0.121866f, 0.192380f, -0.241633f, 0.204965f, -0.133328f, -0.038692f, 0.155016f, -0.186852f, -0.299042f, -0.175668f, 0.122645f, 0.204109f, 0.373898f, -0.012152f, 0.156137f, -0.010329f, -0.048273f, -0.001221f, 0.246808f, -0.123576f, -0.248268f, -0.171215f, 0.128157f, -0.064164f, -0.356504f, -0.058599f, -0.066130f, 0.263132f, 0.244802f, 0.160389f, 0.079941f, -0.229002f, -0.069012f, 0.169703f, 0.307458f, 0.289625f, -0.028322f, 0.297518f, 0.176250f, 0.082605f, 0.024120f, 0.156728f, -0.531662f, -0.392034f, 0.024848f, -0.244614f, -0.120469f, -0.233373f, -0.231459f, 0.116414f, -0.173307f, 0.419356f, 0.146698f, -0.114619f, -0.106354f, 0.376936f, -0.146504f, -0.264904f, -0.009415f, -0.112245f, -0.063282f, -0.181748f, 0.226812f, -0.316833f, -0.593256f, 0.518723f, -0.069086f, 0.498307f, 0.445519f, 0.304805f, 0.038641f, -0.068530f, 0.114724f, 0.507197f, 0.452487f, -0.209151f, -0.225220f, 0.190814f, 0.115778f, -0.290032f, -0.019478f, -0.032445f, -0.401815f, -0.311598f, -0.468017f, -0.152321f, -0.443446f, -0.246096f, 0.058139f, -0.301820f, -0.124617f, -0.108716f, 0.034560f, 0.053245f, -0.072625f, -0.068741f, 0.326873f, -0.038692f, 0.198312f, -0.154900f, -0.180372f, -0.012310f, -0.058918f, -0.111514f, 0.072692f, 0.166048f, 0.312908f, 0.302430f, 0.267820f, 0.031832f, -0.364589f, -0.128521f, 0.069335f, 0.218225f, 0.254779f, -0.043635f, 0.364800f, -0.011448f, -0.100352f, -0.013338f, -0.029388f, 0.186308f, 0.279417f, 0.386843f, 0.445561f, -0.285672f, 0.034898f, 0.120245f, -0.136607f, 0.011562f, 0.228203f, -0.064476f, 0.233283f, 0.070178f, 0.000648f, -0.119150f, -0.315735f, 0.042983f, 0.181499f, -0.371818f, 0.268628f, 0.115276f, 0.472573f, -0.046678f, -0.076019f, -0.139529f, -0.143392f, 0.069439f, 0.108460f, -0.317810f, -0.047466f, -0.269318f, 0.384226f, 0.259147f, 0.469665f, -0.017631f, 0.350226f, -0.005039f, -0.044889f, -0.063281f, -0.060404f, -0.265523f, 0.092183f, 0.150409f, -0.268768f, 0.020278f, -0.275586f, -0.303700f, 0.008930f, -0.164543f, 0.142967f, -0.259236f, -0.069770f, 0.139244f, -0.043479f, 0.244141f, -0.082957f, 0.355349f, -0.006901f, -0.338914f, -0.052816f, 0.080976f, 0.257625f, 0.056035f, -0.204142f, 0.142363f, 0.138034f, -0.166647f, 0.277376f, 0.079453f, 0.437868f, 0.192254f, 0.354559f, 0.014504f, 0.139228f, -0.258082f, -0.034973f, -0.028349f, 0.231405f, -0.295093f, 0.507020f, 0.417333f, -0.132543f, 0.103449f, 0.210395f, -0.086236f, 0.275575f, 0.164075f, -0.245425f, -0.015660f, 0.257048f, -0.186618f, -0.117892f, -0.144354f, -0.280387f, 0.299395f, -0.069872f, -0.195865f, 0.191167f, 0.193826f, 0.533675f, 0.414012f, 0.135101f, -0.390779f, 0.105055f, -0.218535f, -0.248836f, 0.201596f, 0.284570f, 0.066185f, 0.290801f, -0.169896f, 0.184445f, -0.056788f, 0.102760f, -0.097391f, -0.128613f, -0.244252f, 0.064033f, -0.188061f, 0.081584f, -0.170104f, -0.130626f, -0.530657f, -0.344593f, -0.146531f, 0.048224f, 0.329280f, 0.121552f, 0.474710f, 0.200820f, 0.157636f, 0.254086f };
static float XX_MLP_L36_buf1[36];
static float XX_MLP_L36_buf2[36];
static const EmlNetLayer XX_MLP_L36_layers[2] = { 
{ 36, 33, XX_MLP_L36_layer_0_weights, XX_MLP_L36_layer_0_biases, EmlNetActivationTanh }, 
{ 10, 36, XX_MLP_L36_layer_1_weights, XX_MLP_L36_layer_1_biases, EmlNetActivationSoftmax } };
static EmlNet XX_MLP_L36 = { 2, XX_MLP_L36_layers, XX_MLP_L36_buf1, XX_MLP_L36_buf2, 36 };

    int32_t
    XX_MLP_L36_predict(const float *features, int32_t n_features)
    {
        return eml_net_predict(&XX_MLP_L36, features, n_features);
    }
    

    int32_t
    XX_MLP_L36_regress(const float *features, int32_t n_features, float *out, int32_t out_length)
    {
        return eml_net_regress(&XX_MLP_L36, features, n_features, out, out_length);
    }
    

    float
    XX_MLP_L36_regress1(const float *features, int32_t n_features)
    {
        return eml_net_regress1(&XX_MLP_L36, features, n_features);
    }
    