
#include "eml_net.h"
static const float XX_MLP_L46_layer_0_biases[46] = { -0.100722f, 0.264163f, 0.082487f, 0.209998f, 0.030832f, 0.133166f, 0.149118f, 0.225017f, -0.192720f, 0.032124f, -0.039476f, 0.233236f, -0.217663f, 0.265984f, 0.206941f, -0.234897f, -0.004979f, 0.119913f, 0.131264f, 0.224050f, 0.165279f, -0.104211f, -0.000863f, 0.111220f, -0.199286f, -0.168666f, -0.010449f, -0.111203f, 0.199835f, 0.047554f, -0.083414f, 0.192269f, 0.168042f, 0.274682f, 0.191429f, -0.047150f, -0.205314f, 0.187754f, -0.242652f, -0.082527f, 0.231356f, 0.253964f, 0.077476f, 0.103979f, -0.252189f, 0.007981f };
static const float XX_MLP_L46_layer_0_weights[1518] = { 0.028101f, 0.121508f, 0.056641f, 0.024183f, -0.042804f, 0.081451f, -0.034401f, 0.195754f, 0.255887f, -0.078481f, 0.160792f, 0.011435f, 0.035666f, 0.234571f, -0.236436f, -0.207147f, -0.264445f, 0.145912f, 0.153314f, 0.195025f, 0.263804f, 0.166313f, -0.024571f, 0.156420f, -0.210399f, 0.077121f, -0.196576f, 0.245132f, 0.008853f, -0.047036f, -0.179564f, 0.150640f, -0.024309f, 0.038020f, -0.256606f, 0.036617f, 0.089841f, 0.064464f, 0.244584f, 0.070635f, 0.187951f, -0.034707f, 0.098427f, -0.239454f, 0.094637f, 0.094052f, -0.159525f, -0.204971f, -0.101732f, -0.075305f, 0.038684f, -0.033846f, 0.269181f, -0.235730f, -0.160636f, -0.210666f, 0.084390f, -0.139027f, -0.011683f, -0.140877f, -0.187969f, -0.218244f, 0.086165f, -0.257238f, -0.167237f, -0.088472f, 0.176924f, -0.222159f, 0.176349f, -0.222223f, 0.262614f, -0.017279f, 0.262780f, 0.058711f, 0.162204f, -0.253990f, -0.144174f, -0.209312f, -0.112348f, -0.209962f, -0.086296f, -0.061286f, -0.212286f, 0.106013f, 0.036709f, -0.088801f, 0.067455f, -0.223811f, 0.038442f, 0.237089f, -0.099741f, 0.092273f, -0.202944f, 0.119235f, -0.116075f, -0.174618f, 0.047684f, -0.264506f, 0.181305f, -0.273003f, 0.098009f, -0.126769f, 0.129634f, 0.254748f, -0.138482f, 0.041976f, 0.050732f, 0.039827f, -0.152631f, 0.249537f, -0.029143f, 0.190929f, 0.109949f, -0.111648f, 0.172956f, -0.057043f, 0.210056f, 0.044796f, 0.210404f, 0.106119f, 0.124153f, 0.000730f, 0.251374f, 0.079364f, -0.041969f, 0.058642f, -0.265009f, -0.109372f, 0.088289f, -0.115705f, 0.065048f, -0.039262f, -0.200887f, -0.111182f, 0.038562f, 0.050087f, 0.040967f, 0.084441f, 0.083834f, -0.037800f, 0.218568f, -0.072997f, -0.035350f, 0.216020f, 0.168767f, 0.112376f, -0.220346f, 0.231185f, 0.118085f, 0.274953f, -0.193220f, 0.202903f, -0.186027f, 0.063701f, -0.207342f, 0.191815f, 0.169388f, 0.038086f, -0.051159f, -0.237466f, 0.108813f, -0.025606f, 0.122392f, 0.201942f, 0.262097f, 0.196111f, -0.269108f, -0.077177f, 0.126752f, -0.180991f, 0.011595f, -0.245639f, -0.165355f, -0.265387f, 0.161885f, -0.152167f, -0.085239f, 0.235946f, 0.112699f, -0.258040f, -0.184813f, 0.066956f, 0.042567f, -0.144468f, 0.239332f, 0.062830f, 0.019640f, 0.049564f, 0.126828f, -0.103429f, -0.056098f, -0.159935f, -0.172914f, 0.244915f, 0.132035f, -0.005250f, -0.150231f, -0.135395f, -0.243605f, -0.036132f, -0.103734f, 0.108147f, -0.067381f, -0.176935f, -0.261987f, -0.238524f, 0.098869f, -0.025485f, 0.020162f, 0.218637f, 0.270264f, -0.156035f, 0.089896f, -0.130452f, -0.264243f, 0.142396f, -0.099187f, -0.064224f, 0.048690f, 0.182473f, 0.071062f, 0.205386f, -0.124819f, 0.164274f, -0.173070f, 0.249569f, 0.103306f, -0.156761f, 0.246624f, 0.127243f, -0.135622f, -0.158017f, 0.010032f, -0.261444f, -0.161236f, -0.041512f, -0.069355f, -0.020077f, -0.122566f, 0.047833f, 0.200549f, -0.210808f, 0.009579f, -0.202796f, 0.119528f, -0.057289f, 0.036059f, -0.174571f, -0.195752f, -0.006584f, -0.079583f, 0.242756f, 0.146241f, 0.137058f, 0.222522f, -0.229608f, 0.028767f, 0.046561f, 0.254610f, -0.114564f, -0.142851f, -0.220309f, -0.266533f, 0.236747f, 0.093655f, 0.157170f, -0.120305f, 0.047627f, -0.240338f, -0.007922f, 0.263190f, 0.207522f, -0.089204f, 0.254408f, -0.147880f, 0.247655f, 0.243283f, 0.165057f, 0.071900f, 0.206583f, -0.114152f, 0.192236f, 0.064971f, -0.268283f, -0.084219f, -0.193915f, 0.265574f, -0.012102f, -0.001420f, 0.076874f, -0.072433f, -0.200134f, 0.177544f, -0.170908f, 0.006239f, -0.151976f, -0.221659f, 0.199529f, 0.260663f, 0.254059f, 0.224085f, 0.151049f, -0.091967f, -0.230888f, -0.051146f, -0.147587f, -0.202529f, -0.246157f, 0.124335f, -0.269305f, 0.149138f, -0.194542f, -0.231733f, -0.226204f, 0.094829f, -0.140380f, -0.043832f, 0.031620f, 0.198693f, 0.125171f, -0.126522f, -0.203119f, -0.245068f, -0.109354f, -0.131115f, -0.024174f, 0.101020f, 0.107824f, -0.119320f, -0.066182f, -0.175743f, 0.159039f, -0.244256f, 0.108580f, 0.153611f, 0.152901f, -0.132601f, -0.069551f, 0.048283f, -0.125215f, -0.071183f, -0.166977f, -0.022127f, -0.251000f, 0.165241f, -0.233172f, 0.010382f, -0.106482f, 0.042740f, 0.253230f, 0.080236f, -0.256098f, -0.038362f, 0.005521f, 0.019940f, 0.099979f, -0.122584f, -0.204564f, -0.059155f, 0.251561f, -0.172447f, 0.222666f, 0.024144f, -0.023749f, 0.210573f, -0.022816f, 0.123557f, -0.055655f, 0.222701f, 0.104740f, 0.110027f, -0.094957f, 0.141530f, 0.074994f, -0.143295f, -0.187106f, 0.163364f, 0.253063f, -0.023073f, 0.050148f, 0.197171f, -0.023578f, 0.249063f, 0.041753f, 0.176800f, 0.225341f, 0.173910f, -0.187725f, 0.071046f, -0.055981f, -0.241025f, -0.041871f, -0.133008f, 0.192382f, -0.257232f, 0.252981f, -0.079699f, -0.078980f, -0.266622f, -0.173493f, -0.054424f, 0.236616f, -0.220682f, 0.245427f, 0.203659f, -0.025265f, -0.095519f, -0.147321f, 0.063100f, -0.257359f, -0.266992f, -0.039246f, -0.238067f, -0.136725f, -0.149297f, -0.126545f, -0.203354f, -0.269272f, -0.277775f, 0.164319f, 0.261400f, 0.276015f, -0.072522f, -0.182169f, 0.076482f, -0.094953f, 0.269673f, -0.241474f, 0.156113f, -0.111198f, -0.142524f, 0.121010f, -0.139964f, 0.093331f, 0.009540f, 0.066766f, -0.242474f, -0.011290f, 0.113859f, -0.046929f, -0.076864f, 0.181194f, 0.233311f, -0.250231f, -0.098332f, -0.131654f, 0.169933f, 0.262315f, 0.258147f, 0.280009f, -0.156506f, 0.264442f, -0.138114f, -0.215954f, 0.246206f, -0.146933f, 0.074112f, -0.191690f, 0.118788f, 0.210396f, -0.125428f, -0.066668f, -0.069285f, 0.137124f, -0.144515f, -0.180874f, -0.027949f, -0.107772f, 0.186959f, -0.144551f, 0.001317f, 0.243941f, 0.073857f, 0.202442f, 0.242634f, 0.138214f, 0.110001f, 0.257935f, 0.272503f, -0.026558f, -0.236527f, -0.114214f, -0.191613f, -0.045476f, -0.203225f, 0.057387f, -0.064594f, 0.217928f, 0.257838f, 0.025842f, -0.124110f, 0.050834f, 0.218686f, -0.051406f, 0.028704f, -0.125855f, -0.024556f, -0.054174f, -0.138669f, 0.003233f, -0.104514f, -0.069980f, 0.013763f, 0.138129f, -0.091768f, 0.233787f, 0.199702f, -0.248753f, -0.135787f, -0.029688f, -0.217921f, -0.083526f, 0.132337f, 0.099496f, 0.067448f, 0.116038f, -0.162640f, -0.087254f, 0.097141f, 0.209026f, 0.024074f, -0.119773f, -0.258924f, 0.115936f, -0.271244f, -0.070179f, 0.016831f, 0.232651f, -0.226264f, -0.051839f, -0.262188f, -0.086749f, 0.067371f, -0.121773f, -0.159979f, -0.211816f, 0.042520f, 0.107627f, 0.094779f, 0.247403f, -0.274099f, 0.081137f, 0.055337f, 0.048911f, 0.255069f, -0.266290f, 0.108297f, 0.172893f, 0.005405f, -0.091509f, 0.160304f, -0.221991f, -0.031948f, 0.011002f, 0.106905f, -0.225495f, -0.150054f, -0.049440f, 0.067957f, 0.213283f, 0.065496f, -0.202027f, 0.264885f, 0.204919f, 0.001513f, 0.232789f, 0.022808f, 0.233334f, 0.181832f, 0.258110f, 0.231375f, -0.255728f, -0.179259f, -0.061106f, 0.249212f, -0.110218f, -0.187143f, 0.212923f, -0.029546f, 0.224812f, -0.187276f, 0.088804f, -0.032912f, -0.233432f, 0.108286f, -0.139229f, -0.253754f, -0.242546f, -0.241921f, 0.224733f, 0.132219f, 0.219403f, 0.095119f, 0.015951f, -0.107785f, 0.274466f, -0.075954f, -0.016178f, -0.067104f, 0.264352f, -0.179321f, -0.094806f, 0.099383f, -0.240750f, 0.059114f, -0.012339f, -0.119047f, -0.144183f, 0.007999f, -0.072836f, -0.023968f, -0.089580f, 0.259326f, -0.202033f, -0.222233f, -0.086386f, 0.050172f, 0.087687f, -0.056630f, 0.275165f, -0.081641f, 0.122076f, 0.075833f, 0.172548f, 0.262485f, 0.214851f, 0.145834f, 0.109270f, -0.090706f, -0.194195f, -0.241069f, -0.142258f, -0.037313f, 0.012128f, 0.150543f, 0.252846f, -0.210925f, -0.216615f, 0.049661f, 0.135258f, 0.191882f, 0.240243f, 0.266513f, -0.055227f, -0.065954f, -0.194118f, 0.101932f, 0.086403f, 0.199560f, -0.221980f, -0.001225f, 0.044669f, -0.142447f, -0.182459f, 0.198193f, -0.243330f, -0.016193f, -0.211744f, -0.023668f, 0.264561f, -0.042051f, 0.196774f, -0.210927f, -0.126112f, -0.053027f, -0.055219f, 0.094447f, -0.085586f, 0.117824f, 0.076717f, -0.055580f, -0.037607f, 0.063143f, -0.236983f, 0.177631f, 0.084562f, 0.124755f, 0.020351f, -0.214685f, -0.052369f, -0.052126f, -0.098637f, -0.259081f, 0.130768f, -0.214843f, 0.058595f, 0.112004f, 0.074293f, 0.253072f, -0.218653f, 0.202375f, -0.259498f, 0.019245f, -0.052780f, 0.013329f, -0.074352f, -0.170553f, -0.265050f, 0.010005f, 0.188898f, -0.069881f, -0.152752f, -0.231190f, -0.228568f, -0.153560f, -0.220447f, -0.129505f, -0.239129f, -0.239429f, 0.196372f, -0.186232f, 0.032898f, 0.150707f, -0.024024f, -0.191056f, -0.165576f, -0.036938f, 0.015562f, -0.082967f, 0.155145f, 0.138312f, 0.235469f, -0.259631f, 0.218096f, -0.059214f, 0.208524f, 0.105163f, 0.268616f, 0.142911f, -0.074694f, 0.000567f, -0.068132f, -0.074463f, -0.131783f, -0.002219f, 0.100171f, -0.124805f, -0.270973f, -0.210892f, -0.187102f, -0.248984f, 0.302414f, -0.273461f, -0.177094f, 0.112824f, -0.230903f, 0.210493f, 0.210003f, 0.257079f, 0.004258f, -0.110013f, 0.016176f, 0.237458f, 0.016366f, -0.128310f, 0.193352f, -0.070596f, -0.273842f, -0.140081f, -0.091685f, 0.197750f, -0.022872f, -0.030542f, -0.090217f, 0.206943f, 0.245289f, 0.300973f, -0.073595f, 0.256775f, 0.170574f, 0.095888f, -0.133595f, -0.245866f, -0.201362f, 0.233014f, -0.113507f, -0.025274f, -0.003330f, 0.153157f, 0.210623f, -0.202734f, -0.040289f, 0.190170f, 0.184260f, -0.219141f, -0.187418f, -0.108508f, -0.268449f, -0.041524f, -0.214361f, -0.061084f, -0.139367f, 0.053152f, -0.183447f, 0.262317f, 0.238694f, -0.059639f, -0.144183f, -0.137575f, 0.211299f, -0.253546f, 0.074105f, -0.050541f, -0.065390f, 0.185106f, 0.183143f, 0.250419f, -0.081610f, 0.219117f, 0.148802f, -0.074159f, 0.067059f, -0.072877f, 0.201156f, -0.209357f, -0.155863f, -0.176639f, -0.046721f, 0.127370f, 0.009036f, -0.006793f, -0.275201f, -0.069364f, -0.240560f, -0.163516f, 0.276064f, -0.172965f, 0.197508f, 0.166948f, -0.187871f, 0.058266f, -0.211838f, 0.125607f, 0.075768f, 0.171934f, -0.011362f, 0.228665f, -0.248389f, -0.114155f, 0.118529f, -0.045136f, -0.180263f, -0.216497f, 0.174910f, -0.014803f, 0.210713f, 0.128584f, -0.049758f, -0.069718f, 0.008617f, 0.214446f, 0.130781f, -0.272749f, 0.107016f, 0.231223f, 0.115999f, -0.178028f, -0.009084f, -0.198256f, -0.077719f, 0.240930f, 0.233317f, -0.119696f, -0.088392f, 0.055235f, 0.255296f, -0.194124f, -0.133982f, 0.205896f, -0.004469f, 0.219897f, -0.173335f, 0.018006f, -0.095756f, -0.101118f, -0.029280f, -0.036886f, -0.078627f, 0.228723f, 0.127732f, 0.125419f, -0.115795f, 0.042832f, 0.153878f, 0.162923f, -0.085691f, 0.149299f, 0.130020f, -0.197594f, 0.201701f, -0.032342f, -0.007490f, -0.028458f, 0.037395f, 0.066786f, -0.001003f, 0.202166f, 0.070405f, -0.054331f, -0.045918f, 0.171327f, -0.083673f, -0.159040f, -0.242858f, 0.207258f, 0.230694f, -0.209381f, -0.091234f, -0.178928f, -0.211708f, 0.220398f, -0.244240f, 0.264833f, -0.222428f, 0.200337f, 0.036657f, -0.072801f, -0.086897f, 0.141854f, -0.102203f, 0.086715f, 0.009542f, -0.008287f, 0.221116f, 0.030077f, 0.180092f, 0.124331f, -0.254337f, 0.150532f, -0.156055f, 0.222207f, -0.251942f, -0.092007f, -0.220618f, -0.013455f, 0.176389f, -0.111235f, -0.192373f, -0.093553f, 0.173002f, -0.198213f, -0.150272f, -0.237641f, 0.113381f, -0.057745f, -0.104261f, 0.120502f, -0.090406f, 0.125541f, 0.173731f, -0.155622f, 0.261159f, -0.186098f, -0.115304f, -0.176490f, -0.085124f, -0.010989f, 0.012223f, 0.194900f, 0.214657f, -0.154276f, 0.067737f, -0.214141f, -0.022620f, -0.097933f, -0.101141f, 0.028775f, 0.347608f, -0.237457f, 0.227043f, 0.026162f, -0.167244f, 0.242056f, -0.056813f, 0.337265f, -0.247424f, 0.019241f, 0.033131f, -0.006780f, 0.048642f, 0.232442f, 0.313272f, 0.123432f, -0.466272f, 0.232762f, -0.245571f, 0.206048f, 0.193616f, -0.211444f, 0.261178f, -0.268881f, -0.097653f, -0.149057f, 0.043210f, 0.175184f, -0.221752f, -0.256238f, 0.231725f, -0.149226f, 0.144626f, 0.147843f, -0.310007f, 0.169227f, 0.110243f, -0.251351f, 0.200063f, 1.722799f, -0.258689f, -0.253930f, 0.311158f, 0.401530f, -0.216353f, -0.120244f, 0.357233f, -0.264042f, 0.138861f, -0.000252f, -0.084241f, 0.048856f, 0.201613f, -0.080388f, 0.268672f, 0.076957f, 0.306871f, 0.291179f, 0.189689f, -0.005280f, -0.187932f, 0.273283f, -0.194388f, -0.015732f, -0.246499f, 0.244641f, 0.275055f, 0.210933f, 0.222872f, -0.135379f, -0.129360f, -0.205427f, 0.013436f, -0.186942f, -0.101014f, 0.299701f, 0.121399f, -0.268980f, -0.022680f, 0.082004f, 0.161328f, -0.022369f, 0.255966f, -0.129178f, -0.546099f, -0.164060f, -0.134425f, 0.155000f, -0.000833f, 0.528220f, 0.160518f, 0.118582f, 0.031996f, 0.112963f, -0.044847f, -0.272675f, -0.269331f, 0.006185f, -0.229682f, -0.247397f, 0.256581f, 0.197874f, -0.192265f, -0.275222f, 0.243438f, -0.122182f, -0.173150f, 0.105555f, -0.215565f, -0.129720f, 0.261861f, 0.076869f, 0.011393f, -0.056261f, 0.151299f, -0.197896f, 0.257586f, 0.199043f, 0.064850f, -0.251814f, 0.110707f, 0.227791f, 0.013546f, -0.080348f, -0.209295f, 0.140496f, 0.212215f, -0.220332f, 0.142747f, -0.266186f, 0.257430f, 0.063422f, 0.028903f, -0.112469f, 0.236617f, -0.129114f, 0.180867f, 0.267381f, 0.156202f, 0.010467f, -0.239170f, -0.015205f, -0.034032f, -0.163812f, -0.042117f, -0.078401f, -0.185370f, -0.032313f, -0.130740f, 0.012160f, -0.256210f, 0.223906f, 0.174373f, 0.028982f, 0.193909f, 0.254862f, -0.214672f, 0.072112f, 0.274483f, 0.268914f, 0.056949f, -0.205027f, 0.045854f, -0.274451f, -0.165954f, 0.251405f, -0.093457f, 0.076278f, -0.120786f, 0.246830f, 0.125977f, -0.093893f, 0.160813f, -0.215971f, -0.059351f, -0.153659f, 0.101266f, -0.219123f, -0.056757f, -0.123106f, 0.003496f, -0.082733f, 0.113769f, -0.262043f, 0.073851f, -0.148503f, -0.127483f, 0.165494f, 0.251099f, -0.101114f, 0.180128f, -0.218272f, 0.073848f, 0.138364f, -0.189618f, -0.040786f, 0.216452f, -0.218499f, -0.265615f, 0.049929f, -0.035534f, 0.164631f, 0.233399f, -0.110702f, -0.061509f, -0.007566f, 0.048587f, 0.266690f, 0.108764f, -0.060878f, -0.130206f, 0.245068f, -0.200878f, 0.121406f, 0.234468f, 0.090760f, -0.042411f, -0.165910f, -0.073045f, 0.114023f, 0.082420f, 0.235891f, 0.202206f, 0.174255f, 0.226783f, -0.123278f, -0.071916f, -0.066200f, 0.033319f, 0.092718f, -0.117557f, -0.264862f, -0.055546f, -0.105535f, 0.243723f, 0.214003f, 0.198595f, 0.084330f, -0.085824f, 0.026925f, 0.173745f, -0.221237f, 0.165946f, -0.252892f, 0.174404f, 0.169522f, -0.247475f, 0.070088f, 0.001352f, -0.181988f, -0.193806f, 0.150614f, 0.037311f, 0.266219f, 0.265804f, 0.271547f, -0.210211f, 0.241557f, -0.140788f, -0.023032f, 0.141877f, -0.163358f, 0.036550f, -0.173171f, -0.217861f, -0.211345f, -0.078466f, -0.273023f, -0.041419f, 0.090502f, -0.054187f, -0.228301f, -0.241036f, -0.122297f, -0.182268f, 0.256522f, -0.190193f, 0.168364f, 0.047624f, 0.037747f, 0.006798f, 0.260026f, -0.076901f, 0.158546f, 0.027389f, -0.057524f, 0.250389f, 0.056737f, -0.210057f, -0.045451f, 0.162135f, 0.106789f, 0.224316f, -0.132626f, 0.140218f, -0.022116f, 0.040559f, 0.248116f, 0.265129f, 0.199301f, -0.077663f, 0.213692f, 0.076399f, -0.037284f, -0.255889f, 0.149172f, 0.000761f, 0.157672f, 0.136102f, 0.163367f, -0.108986f, 0.167642f, 0.026873f, -0.014702f, 0.099411f, -0.259921f, -0.219194f, -0.114129f, 0.266781f, -0.196411f, -0.093372f, -0.247423f, -0.091033f, -0.099032f, 0.246367f, 0.189813f, -0.064744f, -0.261937f, 0.181451f, 0.088967f, -0.190149f, 0.273424f, -0.221944f, 0.208498f, -0.113399f, -0.035632f, 0.170195f, 0.097839f, 0.241533f, 0.066770f, -0.221751f, 0.211851f, 0.147284f, 0.115468f, -0.244803f, -0.057200f, -0.183302f, 0.177426f, 0.110527f, 0.210182f, 0.257166f, 0.156165f, 0.272221f, 0.063121f, -0.255722f, -0.267739f, -0.085962f, 0.184297f, 0.201742f, 0.253990f, -0.239685f, -0.252968f, 0.227793f, -0.108953f, 0.032757f, 0.266952f, -0.054871f, 0.091425f, -0.054583f, 0.147823f, 0.015309f, -0.144672f, -0.126088f, -0.133353f, 0.017819f, 0.112118f, 0.247630f, 0.106977f, 0.155146f, -0.182480f, -0.069418f, -0.047522f, 0.102726f, -0.112500f, -0.108250f, -0.079431f, 0.171009f, 0.042766f, -0.234760f, -0.232348f, -0.070976f, 0.146939f, 0.103998f, 0.114635f, 0.147280f, -0.117309f, 0.026598f, 0.023912f, 0.132093f, 0.251818f, -0.122392f, 0.161648f, 0.088169f, 0.044038f, 0.151485f, 0.244741f, -0.255366f, -0.194345f, 0.141260f, -0.229428f, 0.009014f, -0.154407f, -0.124403f, 0.111250f, -0.258947f, 0.205766f, -0.030602f, 0.001319f, 0.022073f, 0.080221f, -0.085512f, -0.219860f, -0.100106f, -0.182913f, 0.030940f, -0.100299f, 0.252477f, 0.256703f, 0.066211f, 0.064762f, 0.267531f, 0.213462f, 0.146101f, -0.102745f, -0.074115f, -0.164655f, -0.007084f, 0.270280f, 0.227169f, -0.210357f, -0.261705f, 0.219720f, 0.020487f, -0.165249f, 0.095714f, 0.079493f, -0.208298f, -0.132503f, -0.242475f, -0.159919f, -0.202665f, -0.169081f, 0.102225f, -0.248306f, -0.219449f, -0.201636f, -0.101118f, -0.110924f, -0.135004f, 0.138090f, 0.274500f, 0.018728f, 0.244835f, -0.056986f, -0.216788f, -0.050282f, -0.112370f, -0.003633f, 0.086563f, -0.021468f, 0.239851f, 0.212074f, 0.111326f, -0.005685f, -0.203006f, -0.056764f, 0.112662f, -0.118566f, -0.218273f, 0.224825f, 0.115225f, 0.063538f, 0.161219f, 0.185001f, -0.009117f, 0.210103f, 0.229521f, -0.125923f, 0.059277f, 0.014652f, 0.020915f, 0.241230f, -0.107376f, 0.266458f, 0.221646f, -0.022751f, 0.174973f, 0.148293f, 0.098052f, -0.099304f, -0.167310f, 0.094543f, 0.189039f, -0.266630f, 0.078710f, -0.031487f, 0.219417f, -0.098400f, -0.014505f, 0.008158f, -0.198175f, 0.117342f, 0.182146f, -0.223501f, -0.117930f, -0.254620f, 0.252107f, 0.092140f, 0.255857f, 0.017359f, 0.165440f, -0.069220f, -0.080565f, -0.067096f, 0.087124f, -0.077466f, 0.220674f, 0.266744f, -0.258792f, -0.168868f, -0.213719f, -0.252239f, -0.148578f, -0.029316f, 0.185742f, -0.154885f, -0.003337f, 0.236796f, 0.091450f, 0.164295f, 0.028125f, 0.265923f, 0.048869f, -0.250505f, -0.166465f, -0.052415f, 0.055822f, 0.151018f, -0.056703f, 0.116754f, 0.159770f };
static const float XX_MLP_L46_layer_1_biases[10] = { 0.417762f, -0.064180f, -0.176256f, -0.250833f, 0.256429f, -0.127229f, 0.081848f, 0.187618f, -0.400497f, -0.293927f };
static const float XX_MLP_L46_layer_1_weights[460] = { -0.136124f, -0.158184f, -0.263486f, -0.208746f, -0.119624f, 0.002983f, 0.022347f, 0.270124f, -0.049470f, -0.055389f, -0.250439f, -0.330016f, -0.052467f, 0.155425f, 0.011747f, 0.250408f, 0.077032f, 0.204401f, 0.096518f, 0.349037f, 0.074323f, 0.022837f, 0.082057f, -0.340876f, 0.280226f, -0.192777f, 0.122332f, 0.339082f, -0.008768f, -0.136648f, -0.192099f, 0.152656f, 0.053316f, 0.137092f, 0.166552f, -0.150186f, 0.178426f, -0.081387f, -0.167023f, 0.331358f, 0.411123f, -0.182114f, 0.170970f, -0.289656f, -0.005374f, 0.288292f, 0.035590f, -0.081444f, -0.116429f, -0.028588f, -0.004613f, 0.278815f, 0.181412f, -0.289409f, -0.146841f, -0.306067f, -0.132766f, -0.061508f, 0.052334f, 0.051338f, 0.329303f, 0.293214f, 0.283307f, 0.149647f, 0.265219f, 0.137540f, -0.089769f, 0.119755f, -0.367121f, -0.385293f, 0.018029f, -0.178228f, 0.144148f, -0.129585f, 0.139150f, 0.147176f, -0.160129f, -0.164042f, -0.043025f, -0.085751f, 0.164072f, 0.269397f, 0.402047f, -0.218625f, 0.102493f, -0.140890f, -0.392526f, -0.244315f, -0.239503f, 0.051524f, -0.165927f, -0.165314f, 0.417227f, -0.254869f, 0.155043f, 0.363964f, 0.123957f, 0.069768f, 0.112445f, 0.010539f, 0.187731f, -0.018655f, -0.083192f, 0.165900f, -0.217369f, -0.248278f, 0.266831f, 0.049237f, -0.216724f, -0.141886f, -0.096973f, -0.036253f, 0.449187f, -0.105720f, -0.287538f, 0.030491f, 0.112636f, 0.264965f, 0.215540f, -0.256964f, -0.460291f, -0.302300f, 0.018946f, 0.386338f, 0.295327f, -0.013727f, 0.415535f, -0.264505f, 0.227834f, -0.301614f, -0.124947f, 0.120840f, -0.157440f, -0.015539f, -0.117031f, 0.208996f, 0.189981f, 0.141137f, 0.179207f, -0.270244f, 0.052639f, 0.045806f, -0.081128f, -0.138296f, -0.090345f, 0.245639f, -0.097845f, -0.221030f, -0.392592f, 0.168495f, -0.270727f, -0.138326f, -0.010935f, 0.266848f, -0.306939f, 0.317920f, -0.018765f, 0.288319f, -0.267903f, -0.140497f, 0.230291f, -0.232163f, -0.029649f, -0.234331f, -0.284954f, 0.041066f, -0.322151f, -0.152553f, -0.099456f, -0.272056f, 0.119115f, -0.168630f, -0.180780f, 0.166528f, 0.229588f, -0.338240f, 0.088763f, 0.184286f, -0.137292f, 0.125928f, 0.302554f, 0.178906f, -0.141944f, -0.308521f, -0.279398f, -0.070184f, -0.054295f, -0.101359f, 0.092040f, -0.054853f, -0.204713f, -0.064905f, 0.117632f, 0.293193f, -0.123667f, 0.129269f, -0.094401f, 0.248553f, -0.173679f, 0.067767f, -0.095125f, 0.347100f, 0.106293f, 0.257783f, 0.076223f, -0.060512f, 0.119223f, -0.105409f, -0.089500f, 0.113951f, -0.178705f, -0.222307f, 0.066809f, -0.106485f, -0.355001f, 0.265445f, 0.134428f, -0.016728f, 0.258981f, -0.247080f, 0.122121f, -0.215245f, -0.152603f, -0.242281f, 0.212426f, -0.317734f, 0.340100f, 0.190123f, -0.231694f, 0.246207f, 0.114705f, 0.240857f, 0.279900f, 0.041965f, 0.139865f, -0.051173f, -0.076437f, -0.156184f, 0.259021f, -0.143008f, -0.373282f, -0.082116f, -0.105304f, -0.303033f, 0.119855f, 0.186590f, 0.201347f, 0.113157f, 0.342083f, 0.259413f, 0.025521f, 0.036600f, 0.016336f, -0.354593f, 0.023427f, 0.368595f, 0.173232f, 0.024578f, -0.153452f, 0.247768f, -0.028828f, 0.267815f, 0.269508f, 0.005251f, -0.287623f, 0.035809f, -0.159874f, 0.133151f, -0.059662f, 0.293122f, 0.335735f, -0.081118f, 0.048587f, -0.000694f, 0.319030f, -0.219602f, 0.171249f, 0.181797f, -0.282154f, -0.255907f, 0.357482f, 0.353345f, -0.268363f, 0.143808f, -0.136919f, -0.146156f, -0.259307f, -0.179218f, -0.153957f, -0.086938f, 0.103411f, -0.245968f, -0.029126f, 0.035362f, 0.255680f, -0.195413f, 0.235096f, -0.148526f, 0.055139f, 0.027532f, -0.294265f, -0.250735f, 0.007894f, 0.138715f, 0.279636f, 0.094652f, 0.316267f, 0.150619f, -0.055429f, -0.143835f, -0.000837f, -0.028212f, -0.174549f, -0.240949f, 0.011378f, -0.129635f, 0.153168f, -0.152181f, -0.309813f, -0.238622f, 0.223984f, -0.215880f, -0.334453f, 0.238411f, -0.095277f, 0.052526f, 0.275713f, 0.106241f, 0.347387f, 0.101328f, -0.079131f, 0.082501f, 0.179308f, 0.244692f, -0.277711f, 0.143331f, 0.112383f, 0.048994f, -0.057033f, -0.083500f, 0.151436f, 0.150998f, 0.266090f, 0.129801f, 0.295299f, 0.089949f, -0.228679f, -0.112709f, -0.203863f, -0.195328f, -0.118286f, -0.209869f, -0.074136f, 0.078499f, -0.010843f, -0.336851f, -0.042445f, 0.049344f, -0.177420f, -0.361689f, 0.201933f, 0.001734f, -0.185270f, 0.241961f, 0.252806f, 0.040677f, -0.352029f, -0.212960f, -0.109125f, 0.290011f, -0.051265f, 0.247261f, -0.349172f, 0.012652f, 0.138581f, -0.333480f, 0.111682f, 0.163429f, -0.292120f, 0.089397f, -0.104803f, -0.241277f, -0.292259f, -0.362548f, -0.020610f, 0.335045f, 0.056976f, 0.266940f, 0.065235f, 0.113293f, 0.136728f, 0.415509f, -0.095640f, 0.136175f, -0.256479f, -0.153958f, -0.348992f, 0.333598f, 0.212520f, -0.167680f, 0.107581f, -0.007459f, -0.245678f, -0.171078f, 0.375889f, -0.154289f, 0.284010f, -0.355284f, -0.085958f, -0.300313f, -0.510959f, 0.001266f, -0.228421f, 0.109366f, 0.083561f, -0.163477f, 0.254176f, 0.273635f, -0.057923f, 0.198785f, 0.151237f, -0.134069f, -0.038135f, -0.121496f, 0.134884f, 0.130594f, -0.055336f, 0.220615f, -0.310059f, 0.062528f, -0.005487f, 0.173954f, 0.278560f, 0.002865f, 0.010900f, 0.113946f, 0.013955f, -0.031452f, -0.028935f, -0.126387f, 0.198942f, -0.057577f, -0.020765f, -0.184450f, -0.189512f, -0.086219f, -0.007875f, -0.246305f, -0.295840f, -0.356110f, -0.288039f, -0.172134f, -0.162717f, 0.113030f, 0.108644f, 0.076223f, -0.054351f, -0.208062f, -0.076180f, 0.006113f };
static float XX_MLP_L46_buf1[46];
static float XX_MLP_L46_buf2[46];
static const EmlNetLayer XX_MLP_L46_layers[2] = { 
{ 46, 33, XX_MLP_L46_layer_0_weights, XX_MLP_L46_layer_0_biases, EmlNetActivationTanh }, 
{ 10, 46, XX_MLP_L46_layer_1_weights, XX_MLP_L46_layer_1_biases, EmlNetActivationSoftmax } };
static EmlNet XX_MLP_L46 = { 2, XX_MLP_L46_layers, XX_MLP_L46_buf1, XX_MLP_L46_buf2, 46 };

    int32_t
    XX_MLP_L46_predict(const float *features, int32_t n_features)
    {
        return eml_net_predict(&XX_MLP_L46, features, n_features);
    }
    

    int32_t
    XX_MLP_L46_regress(const float *features, int32_t n_features, float *out, int32_t out_length)
    {
        return eml_net_regress(&XX_MLP_L46, features, n_features, out, out_length);
    }
    

    float
    XX_MLP_L46_regress1(const float *features, int32_t n_features)
    {
        return eml_net_regress1(&XX_MLP_L46, features, n_features);
    }
    