
#include <eml_net.h>
static const float X60_MLP_L46_layer_0_biases[46] = { 0.339954f, -0.051211f, 0.665368f, -0.096110f, -0.740652f, 1.964788f, 0.137744f, -0.096152f, -0.082222f, -0.136402f, 0.046636f, 0.471841f, 0.115431f, 0.783766f, -0.394984f, -0.170551f, 0.889706f, 0.356056f, 0.068462f, 0.016477f, -0.318807f, 0.191194f, 0.171481f, -0.498849f, 0.627401f, -0.589524f, -0.658786f, 0.364159f, -0.083394f, 0.709899f, 0.366636f, 0.089720f, 0.010316f, -0.718559f, -0.182699f, -0.541431f, -0.000523f, -0.551145f, -0.040721f, -0.033411f, 0.371961f, -0.013212f, 0.188386f, 0.053442f, -0.092416f, -0.499761f };
static const float X60_MLP_L46_layer_0_weights[1380] = { -0.086706f, 0.602953f, -0.829260f, 0.418583f, -0.328430f, 0.317924f, -1.709884f, 2.031997f, -0.336595f, 0.473085f, 0.815796f, 0.778121f, 0.155787f, 1.448855f, -0.924806f, -0.230737f, -0.093577f, 0.094982f, -0.505816f, 1.066791f, 0.397677f, 0.793733f, -0.373107f, 0.722983f, 0.197010f, -0.980622f, -1.189877f, 0.237174f, -2.101295f, -0.408867f, -0.869183f, -0.324114f, -0.048900f, -0.957565f, -0.127363f, 0.855779f, 1.073245f, 0.259468f, 2.445275f, -0.674405f, 1.451523f, 3.234802f, 0.783948f, -0.473659f, 1.095788f, 0.277361f, -0.692595f, -0.116763f, -0.142768f, 0.102056f, -0.371416f, -0.055951f, 1.108406f, -0.196543f, 0.028383f, -0.393799f, 0.003103f, -2.210814f, -0.175598f, 0.594349f, -0.504631f, 0.473605f, -0.112791f, -1.044160f, 1.715168f, 1.026136f, 0.176973f, -0.787189f, -1.368911f, -0.692769f, 0.544220f, 0.236879f, 1.155153f, 0.739763f, 2.236560f, -0.546359f, -1.953517f, 0.815026f, 2.622025f, -0.547642f, -1.029739f, -1.276629f, 1.058886f, 0.080173f, 1.022617f, -0.363502f, 0.709277f, 0.012538f, 0.720751f, 0.524263f, 0.049592f, -0.840246f, 0.162126f, 0.263986f, -0.504536f, -0.180875f, 0.134371f, 1.026270f, -0.797166f, -1.047218f, 0.147120f, -0.718600f, 0.084677f, -0.281131f, 0.209785f, -0.250441f, -0.035750f, 0.095309f, -1.128238f, 0.526474f, 0.875277f, 0.167995f, -0.861884f, -0.128552f, 0.239395f, -0.037589f, -0.099513f, 0.915315f, 0.367716f, -0.680736f, -0.448031f, -0.163307f, -0.168331f, 0.986801f, -0.290719f, -1.117057f, -0.343539f, -1.030221f, 0.366496f, -0.482182f, -0.251637f, 0.671396f, -0.054188f, -0.268212f, -0.282897f, -1.172206f, -0.166292f, -0.308706f, 0.486003f, -0.005882f, 0.908405f, 0.523896f, -0.210875f, 4.275400f, 0.615500f, 0.318681f, 0.415482f, -1.031435f, 0.492051f, 0.724171f, -0.041459f, 0.320539f, -0.083708f, -0.249782f, 0.863446f, 0.197186f, 1.817135f, 0.083930f, 0.614932f, -1.369074f, -0.170951f, 0.148669f, 0.246379f, -1.085344f, -0.615025f, -0.240066f, -0.378077f, 1.561699f, 1.323808f, -0.364727f, 2.160364f, -0.887570f, -1.166229f, 1.740283f, 1.775717f, -0.238746f, -0.052029f, 2.464552f, -0.032781f, -1.474466f, -1.173400f, 1.514098f, -0.357283f, 0.030756f, 0.176607f, 0.553513f, -1.041787f, 0.011131f, -0.294547f, 1.394393f, -1.330294f, -0.317074f, -1.425339f, 1.156447f, -0.352220f, -0.202317f, -0.028755f, 0.015359f, -0.045939f, 0.901625f, -0.137382f, 0.193906f, -0.302286f, -0.103793f, -1.164578f, -0.275280f, 1.423466f, 0.193737f, 0.451325f, 0.706563f, 0.092970f, 0.285156f, 0.250357f, -0.033146f, -1.195460f, 0.328425f, -1.931478f, 0.060633f, 0.288459f, 0.758944f, -0.683049f, 0.575185f, -0.307932f, -0.545314f, -1.678334f, 1.330922f, 0.638241f, -1.187113f, 0.611673f, -0.569927f, 0.100272f, -0.003494f, -0.477027f, 0.619426f, -1.021385f, -0.756232f, 0.644847f, 0.661624f, -0.338508f, 0.273567f, 0.951409f, 0.213230f, -0.011390f, -0.488581f, -0.451907f, -1.361649f, 1.357143f, 0.283718f, -0.549371f, -0.318299f, -0.369114f, 1.776018f, -0.379482f, 1.559533f, -0.035614f, -1.538705f, 0.480426f, -0.410076f, 0.250027f, -0.146586f, -0.332855f, -1.128726f, -0.696192f, -0.087491f, 0.043011f, -0.307299f, -0.439076f, -0.476342f, 0.243935f, -0.823498f, -0.360472f, 0.131643f, -1.094755f, 0.120004f, 0.339019f, 0.907132f, -0.002978f, 1.235500f, -2.176398f, 1.199686f, -3.579718f, 2.253010f, -1.673677f, -2.007105f, -1.682959f, 0.586888f, 0.727945f, 0.682804f, 0.428493f, 1.512255f, -1.530843f, -1.333451f, 2.246672f, -1.565374f, -2.034671f, -0.694224f, -1.686403f, 0.649642f, 0.120745f, 0.045727f, 0.831364f, -1.185660f, -0.703844f, 1.361199f, -1.744664f, 0.877268f, -0.954807f, -0.937992f, 2.880514f, -1.718229f, -2.164377f, 0.289319f, -1.887497f, -0.756456f, 0.345171f, -0.880037f, 2.128240f, 0.685810f, 1.341797f, 1.682930f, 0.764409f, -0.528899f, -0.373662f, 0.087712f, -0.630280f, -0.360431f, -0.943122f, 1.122536f, -0.157519f, -0.657268f, 0.005813f, 0.294882f, 0.762864f, 0.424228f, -0.312962f, 0.539669f, -0.304919f, -0.482564f, 0.741785f, -0.790658f, -0.699973f, -0.480981f, -1.008877f, -0.872381f, -0.013016f, -0.171634f, -0.251891f, -1.127815f, -0.945360f, 0.563546f, 0.369246f, -1.152125f, -0.504981f, -0.433838f, 1.723159f, -0.260676f, -0.646762f, 0.765251f, -1.650841f, 0.077972f, 1.028965f, 0.306806f, 0.456658f, -0.406251f, 1.361322f, 1.300852f, -0.188711f, 0.302858f, 0.314603f, -0.453302f, 0.024058f, -0.095518f, 0.530998f, 0.722579f, 0.129521f, 0.105088f, 0.344384f, 0.447769f, 0.610263f, -0.123589f, 0.197304f, -0.087399f, 0.222923f, -0.175417f, 0.287126f, 0.207967f, 0.290125f, -0.548657f, 0.040270f, 0.012533f, -0.111325f, -0.380286f, 0.020391f, 0.074038f, -0.296070f, 0.246024f, -0.228420f, -0.091372f, -0.280942f, -0.244292f, 0.205454f, 0.472412f, -0.120289f, 0.255264f, 0.312222f, -0.019869f, -0.099635f, -0.147833f, 0.153629f, -0.796511f, 0.158560f, -0.152581f, 0.039416f, 0.214731f, -0.132194f, -0.800791f, -0.243061f, -0.272660f, 0.019555f, 0.781482f, 0.347246f, 0.546913f, 0.050524f, 0.224900f, 0.800972f, -0.215452f, 0.270783f, -0.271179f, 0.083434f, -0.401656f, -0.176531f, 0.070628f, 0.078698f, -0.206332f, 0.010809f, -0.054796f, 0.232006f, -0.469098f, 0.226152f, 0.139189f, -0.124018f, 0.171975f, 0.174388f, -0.266268f, -0.160677f, -0.335621f, 0.363577f, 0.599303f, 0.337620f, 0.233294f, 0.195743f, 0.283203f, -0.143379f, -0.218780f, 0.388701f, -0.726671f, 0.501005f, -0.262764f, 0.353346f, 0.604547f, -0.159549f, -0.374206f, 0.076474f, 0.544838f, -0.188447f, 1.555998f, 1.678141f, -1.195187f, -0.294702f, 0.502918f, -0.361473f, 0.443847f, 0.199451f, -0.767081f, -0.073125f, -0.563303f, 0.830484f, 0.344594f, 2.089954f, 0.141150f, -0.911929f, -1.466408f, -0.892554f, 0.243428f, -0.149519f, 1.918779f, 0.525094f, 0.841316f, 1.010470f, -0.466649f, -1.883115f, -0.374839f, 1.363918f, 0.930121f, -0.078316f, -0.306828f, -1.286708f, -0.039401f, -1.224414f, -0.053658f, 0.141765f, -1.764000f, 0.156034f, 0.382948f, 0.722740f, 0.036717f, 0.855903f, -0.500835f, -0.690399f, -0.616838f, 0.147073f, -0.748072f, -0.149060f, 0.218906f, -0.229797f, 0.399369f, -0.227700f, 0.073435f, 0.572314f, 0.075905f, -0.624411f, 0.157862f, -1.231876f, 0.303958f, 0.047560f, 0.307163f, 0.293065f, 0.421477f, -0.882324f, 0.164155f, 0.218530f, -0.204603f, 0.835235f, 0.165014f, -1.217957f, -1.605509f, -0.127105f, 0.410540f, -0.025652f, 0.302667f, -1.210525f, 0.468810f, 1.232327f, -0.382414f, 1.021021f, -0.626542f, 0.625294f, 1.310882f, 0.316529f, 0.635123f, 0.411715f, -0.123492f, 0.896551f, 1.003392f, 0.200072f, -1.311229f, -1.848207f, 2.743823f, 0.526523f, 0.145543f, 0.173536f, -1.012227f, 0.251121f, -0.016100f, 0.754544f, 0.307478f, 0.386877f, -0.730970f, 0.829409f, -0.202611f, 0.223094f, 0.514814f, -1.640896f, -0.544529f, 0.463696f, 0.164224f, -1.054955f, 1.058636f, -1.079769f, -0.689949f, 0.592396f, 1.918970f, -2.235467f, 0.134047f, 2.034023f, -0.092149f, 0.768480f, -1.813017f, -2.443854f, -0.845018f, 0.235289f, 0.565599f, -0.945108f, -0.823691f, -2.612605f, -0.213690f, -0.341472f, -0.856476f, 0.030853f, 2.003690f, 0.398222f, -1.020516f, 0.267187f, -1.906219f, -2.240207f, -0.043639f, -1.082688f, -1.241297f, -1.762816f, 0.006735f, -0.735044f, -1.539270f, 0.246940f, -0.492485f, -0.082677f, -0.611034f, 0.892801f, -0.414311f, -0.113855f, 1.143913f, -0.770342f, 1.761761f, 0.062453f, -0.318105f, 0.846309f, 0.476097f, -0.064893f, -0.318809f, -0.301668f, -0.536392f, -1.351393f, -3.883083f, -2.986681f, 1.794608f, 0.312413f, 1.264282f, -8.848039f, -0.849880f, 0.734782f, 0.067264f, 0.379664f, 0.429192f, 1.133769f, -1.074488f, 0.235996f, 0.929714f, 0.770229f, -0.066707f, -0.567185f, -0.742518f, 0.689345f, 0.147465f, 0.082423f, -0.451828f, 0.097964f, -0.779703f, -0.019113f, 0.150724f, 0.273707f, 1.212770f, -0.111799f, 0.909351f, -1.067094f, -0.482831f, 1.976316f, -0.433858f, 0.010089f, -0.202111f, 0.230140f, -2.364131f, 0.922744f, 0.292360f, 0.986534f, -2.649461f, 1.694800f, 0.541478f, 0.446694f, -0.812377f, -2.732420f, -0.576768f, -0.165649f, -0.343799f, 0.003790f, 1.735949f, -0.435732f, -1.049649f, 0.851416f, 0.000412f, -0.408977f, 0.819885f, 0.676132f, -0.375574f, 0.191005f, 0.221848f, -0.357658f, 0.798011f, -0.175822f, -0.241249f, 0.450051f, 0.227114f, 0.244685f, 0.219537f, -0.168194f, 0.182497f, -0.700637f, -0.350839f, 0.611460f, -0.191109f, -0.350803f, 0.203784f, -0.756040f, 0.082887f, 0.318594f, -0.327109f, -0.035915f, -0.553466f, -0.294289f, 0.623929f, -0.108029f, 1.338464f, 0.446484f, 0.340634f, 0.064458f, -0.246348f, 0.127606f, -0.024625f, 0.196440f, 0.001534f, 0.175704f, -0.238108f, 0.217735f, 0.196055f, 0.281089f, -0.313528f, 0.141268f, -0.123809f, -0.368397f, 0.337500f, 0.069183f, -0.531719f, -0.625422f, 1.332993f, -0.220915f, -0.218571f, -0.234490f, -0.304079f, 0.131800f, 0.188439f, 0.412253f, 0.115113f, -0.224792f, -0.084173f, 0.322281f, 0.042269f, -0.173297f, 0.076026f, 0.280139f, -0.062792f, 0.032641f, -0.291157f, 0.394578f, -0.459797f, -0.218827f, -0.069187f, -0.070065f, -0.241192f, 0.506111f, -0.177692f, -0.137942f, 0.126540f, -0.136854f, -0.200324f, -0.086043f, -0.259850f, 0.339234f, -0.091365f, 0.381623f, -0.058387f, 0.193280f, 0.529149f, -0.325679f, -0.177257f, 0.528409f, 0.325115f, 0.472529f, 0.152996f, -1.168125f, 1.936638f, 0.028865f, -0.446404f, 0.244300f, -0.530517f, 0.089737f, 0.040568f, 0.552775f, 0.748240f, -0.313867f, -0.545867f, 0.813161f, 0.503138f, -0.385453f, -0.139312f, -0.199439f, 0.332965f, 0.701572f, -0.947509f, 0.326022f, -0.847359f, -0.066947f, 0.504152f, 0.032772f, 0.797199f, 0.989504f, 0.324407f, -0.369341f, -0.937491f, -0.251410f, -0.596404f, -0.049546f, -0.331395f, -0.744438f, -0.223858f, 0.179374f, -0.860042f, -0.577751f, 0.348470f, -0.686547f, -0.202713f, 0.060999f, -0.125142f, -0.180968f, -0.626981f, 0.444159f, -0.155736f, 0.160049f, 0.205351f, 0.169104f, 0.100511f, 0.081192f, 0.305646f, -0.113680f, -0.162592f, -0.624370f, 0.341257f, -0.144839f, -0.214349f, 0.108877f, 0.034610f, -0.137225f, -0.126314f, 0.030264f, 0.706689f, 0.003049f, 0.052129f, 0.081773f, 0.396801f, -0.601809f, -0.049080f, -0.775328f, -0.201115f, 0.326452f, 0.507581f, -0.096351f, 0.157574f, 0.406192f, 0.262292f, 0.671259f, -0.331047f, 0.613746f, 0.820751f, 1.031963f, -0.125672f, 0.565650f, -0.055666f, -0.483928f, 0.349183f, -0.432632f, -1.160528f, 1.583443f, -1.387631f, 0.061247f, 0.595655f, 0.144764f, -0.326735f, 0.325831f, -0.059515f, 0.049018f, 0.339806f, 0.193092f, 1.547124f, -0.526330f, -0.286978f, 1.309963f, -0.598712f, 0.932201f, -0.207795f, -1.169093f, 0.455251f, 1.098222f, -1.235059f, -0.853312f, 0.810291f, -0.957030f, -1.988918f, 0.486361f, 0.134356f, -0.667695f, 0.895959f, -1.538613f, 0.330115f, 0.974112f, 0.431665f, 1.574696f, -0.579082f, 0.821718f, 1.598074f, 1.455178f, 1.218682f, -0.053079f, 0.268362f, 0.749218f, 0.188022f, 0.471111f, 0.532509f, -1.537070f, 2.652722f, 0.438407f, -0.751534f, 0.031744f, 0.405997f, 0.552409f, 0.147144f, -0.023315f, 0.207031f, -0.802001f, -0.502778f, 0.993204f, -0.279590f, -1.506754f, 0.536754f, -2.159023f, -0.446760f, 0.916834f, -0.289642f, -0.584522f, -0.690340f, 1.913877f, 0.247651f, 0.375752f, 3.230082f, -0.593564f, 0.169237f, 0.567781f, -1.722422f, 1.586105f, -0.616954f, 0.445198f, -0.469745f, -1.218714f, 0.465925f, 0.294530f, -1.515301f, -0.428359f, -0.265195f, 0.247535f, -0.799265f, -0.063237f, -0.215372f, 0.128947f, 0.921456f, -0.392515f, 0.809309f, 0.057720f, -0.226910f, 0.443439f, -0.285947f, -0.232842f, -0.109423f, 0.140355f, -0.061678f, -0.025983f, -0.725379f, 0.336265f, 0.479323f, 0.160534f, 0.139697f, 1.088848f, 0.954759f, 0.394636f, -0.317441f, -0.550265f, 0.851592f, -1.359318f, -0.600589f, 0.372816f, -0.848718f, 0.703352f, 0.436374f, -0.526516f, 0.209264f, -0.405268f, -0.585362f, -1.056872f, -0.425672f, -0.011862f, 0.180871f, -0.432879f, -0.029558f, -1.080267f, -0.653659f, -0.082733f, -0.259116f, -0.731283f, 0.063477f, -0.330501f, -0.082075f, 0.068656f, -0.089007f, 0.083654f, 0.274389f, -0.439169f, 0.099982f, -0.042428f, 0.695697f, 0.155957f, 0.161437f, -0.061828f, -0.149921f, 0.164898f, -0.113822f, -0.272481f, -0.140620f, 0.392779f, 0.371384f, -0.084011f, -0.081088f, -0.060542f, -0.278669f, -0.294633f, 0.079242f, -0.365354f, -0.944865f, 0.461957f, -0.073280f, -0.441450f, -0.090774f, -0.318284f, 0.145351f, 0.145249f, 0.372926f, 0.055632f, -0.264199f, 0.085561f, 0.172325f, 0.225457f, 0.249745f, -0.109414f, 0.120642f, 0.816149f, 0.262591f, 0.572664f, -0.261899f, -0.236199f, 0.172380f, 0.092496f, 0.124241f, 0.202789f, 0.164912f, 0.810939f, -0.373307f, -0.239441f, 1.445354f, -0.940940f, 0.610912f, 0.253968f, -0.496520f, 0.224509f, -0.133570f, 0.246974f, -0.646829f, -0.206164f, -0.488072f, 0.337850f, -0.628461f, 1.282609f, 1.041971f, -0.357336f, 0.549290f, 0.933098f, 0.338189f, 0.420085f, -0.691653f, 0.353942f, 0.697893f, 1.022786f, 0.209308f, -0.345398f, 0.495248f, 1.368147f, -0.361856f, 1.229812f, 0.462903f, -0.367244f, 0.262807f, 0.414429f, 0.053940f, 0.070123f, -0.060067f, -0.873872f, 1.405564f, -0.233564f, -0.542938f, -0.102069f, -0.158792f, -0.288102f, 0.041548f, 0.189869f, -0.897159f, 0.444335f, -0.874548f, 0.820909f, 0.464028f, 0.009831f, -0.051958f, -0.452370f, 1.094720f, 0.968705f, 0.205258f, -0.474342f, 0.260227f, -1.717590f, -0.578830f, 0.212729f, 0.998580f, -0.478439f, -0.253678f, -0.147770f, 0.151677f, 0.049625f, -0.557959f, -1.463793f, -0.577961f, -0.139132f, -0.276161f, -0.996386f, 0.234308f, -1.119747f, -0.460150f, 0.174870f, -0.282207f, -0.265812f, 0.075631f, -0.151472f, -0.130077f, 0.168730f, 0.256020f, -0.100618f, 0.184186f, -0.222808f, 0.075169f, 0.141040f, -0.193746f, -0.042104f, 0.220136f, -0.222712f, -0.270854f, 0.050599f, -0.036979f, 0.168367f, 0.237032f, -0.112989f, -0.062499f, -0.006799f, 0.049833f, 0.271950f, 0.114144f, -0.063096f, -0.132732f, 0.250583f, -0.204199f, 0.123495f, 0.238488f, 0.093339f, -0.042897f, -0.169041f, -0.075147f, 0.115834f, 0.083936f, 0.241311f, 0.205958f, 0.177580f, 0.231515f, -0.125511f, -0.074646f, -0.067346f, 0.034660f, 0.537292f, -0.194769f, -0.100204f, 0.207449f, -0.478373f, 1.146744f, 0.216326f, 0.247792f, 0.501501f, -0.058500f, 0.340383f, 0.571165f, -0.156478f, 0.583748f, -0.797970f, 0.077466f, 0.913741f, -0.202353f, -0.033497f, 0.003790f, -0.747667f, -0.144671f, 0.313111f, -0.263081f, 0.439750f, -0.115693f, 0.019991f, 0.396257f, 0.201879f, 0.994490f, 0.320948f, 0.219795f, 0.151374f, -0.411825f, 0.012005f, -0.461531f, -0.123491f, -0.351526f, -0.241305f, -0.204500f, 0.317716f, 0.224926f, 0.128856f, -0.406265f, 0.021788f, -0.410277f, 0.045128f, 0.091720f, 0.457401f, -0.280602f, -0.332286f, 1.050813f, 0.322923f, -0.130796f, -0.111791f, -0.032269f, -0.138457f, 0.302222f, 0.203855f, -0.102354f, -0.162907f, 0.020527f, 0.191650f, 0.267300f, -0.179435f, 0.010201f, 0.325519f, 0.255197f, 0.435516f, 0.078830f, 0.386706f, -0.513620f, 0.030416f, 0.098293f, -0.302348f, -0.709909f, 0.342482f, -0.081826f, -0.227831f, 0.082276f, -0.071197f, -0.166828f, 0.239571f, -0.045543f, 0.079621f, 0.123049f, 0.130701f, -0.293124f, -0.084442f, 0.588472f, -0.328245f, -0.232869f, -0.161535f, 0.027150f, 0.559951f, 0.436840f, -0.798610f, 2.043854f, -0.224721f, -0.089260f, 0.291604f, -0.474476f, 0.406415f, 0.118114f, 0.477384f, 0.436302f, -0.380347f, -0.253418f, 1.150604f, 0.636504f, -0.177897f, -0.438493f, -0.007316f, 0.370387f, 0.581427f, -1.095598f, 0.052638f, -1.445896f, -0.101324f, 0.547775f, 0.260266f, 1.007030f, 1.035608f, 0.493491f, -0.099577f, -0.950096f, -0.412908f, -0.512732f, 0.122223f, -0.065000f, -0.598496f, -0.207576f, 0.012380f, -0.283885f, -0.342229f, 0.303503f, -0.126494f, -0.476343f, 0.228989f, 0.035128f, -0.054626f, -0.235091f, 0.103073f, -0.295968f, -0.122339f, 0.284477f, 0.054728f, 0.497256f, 0.214544f, 0.255550f, -0.239441f, -0.096330f, -0.361136f, 0.286131f, -0.341874f, -0.417690f, 0.015817f, 0.254376f, 0.052856f, -0.191054f, -0.360017f, 0.280861f, 0.390693f, 0.543910f, -0.045222f, 0.346050f, -0.472014f, -0.028708f, -0.321737f, -0.088959f, 0.350080f, 0.059037f, 0.257145f, 0.219682f, 0.267164f, 0.080700f, 1.238640f, -0.434796f, 0.158667f, 0.870678f, 0.392749f, -0.105319f, 0.260856f, -0.068554f };
static const float X60_MLP_L46_layer_1_biases[5] = { 1.832617f, 0.552427f, -1.174655f, 0.600101f, -1.196267f };
static const float X60_MLP_L46_layer_1_weights[230] = { 2.043049f, 1.158399f, -0.142987f, -1.337154f, -0.950697f, 1.220342f, -0.032389f, -0.227973f, -2.162266f, 0.833246f, -0.189892f, 0.093305f, 0.788693f, -0.122504f, 0.097622f, -0.919590f, 0.281892f, -0.443865f, 0.801078f, -0.321833f, 0.772268f, -0.048168f, -1.552338f, 0.677003f, 1.084441f, -0.361588f, -0.255855f, 2.605881f, -2.172395f, 0.636826f, 1.381094f, 1.127151f, -1.336605f, -0.479057f, -0.150088f, 1.193654f, -1.901380f, 1.024320f, -0.463830f, 0.919150f, -0.859626f, 0.579631f, 0.837678f, -0.043387f, -0.825025f, 0.293617f, -0.657783f, -0.625157f, 1.255466f, -0.074462f, 0.088500f, -0.387583f, 0.727071f, -0.245432f, -0.349606f, 0.106195f, -1.287806f, -1.343227f, 1.180320f, 1.630816f, -0.494438f, -0.090910f, -0.251524f, 0.009886f, 0.785870f, -0.210725f, -1.749816f, 0.471026f, 1.402370f, 0.383072f, -1.362911f, 1.145572f, 0.124805f, -1.241002f, 0.320167f, 0.765747f, 0.530298f, -0.473747f, -1.547708f, 1.171027f, -0.786577f, -0.075554f, 2.017488f, 0.043595f, -0.880848f, -1.545842f, 0.906848f, 0.621116f, -0.052001f, -0.006231f, 1.387981f, 1.349819f, -0.642641f, -1.716688f, 0.270558f, 0.463292f, -1.098393f, 0.159418f, 1.261467f, 0.145336f, -0.028734f, -1.563201f, -0.153592f, 0.782304f, 0.733598f, 0.420704f, 1.060437f, -1.145310f, -0.668187f, 0.771652f, 0.116853f, 1.230509f, 0.124762f, -0.447650f, -0.507320f, 1.823823f, -0.693659f, -1.449901f, -0.941769f, 0.790573f, 0.550873f, -0.282662f, -0.268392f, 0.122476f, 0.530232f, 2.680571f, 1.046978f, -1.610436f, -1.095471f, -0.522060f, -0.800884f, -0.190136f, 0.021329f, 1.506977f, -0.241556f, 0.260970f, 0.271447f, -0.480565f, -0.270001f, -0.033918f, 0.178488f, 2.350401f, -0.118258f, -1.587113f, -1.384966f, 0.671166f, 2.285466f, 0.956595f, -2.919256f, -1.728297f, -0.897660f, 1.027570f, -1.636908f, 1.926105f, 0.037140f, -1.491949f, 0.945798f, 1.335592f, 1.211214f, -0.943238f, -0.579610f, 0.091760f, 1.581654f, -1.357166f, 0.258474f, 1.071266f, 1.103980f, -0.885679f, -1.875790f, 0.406690f, 1.176654f, 0.301215f, 1.007270f, -2.392916f, 0.351981f, 0.379064f, -1.704792f, 0.823302f, 0.439404f, 0.302776f, 0.362672f, -1.574387f, -0.304092f, 1.189354f, 0.618727f, -0.428423f, -0.113632f, 0.745414f, 0.056356f, -0.146663f, 4.689201f, -1.834245f, -1.516804f, -2.281424f, 0.236546f, -1.072176f, -0.441809f, 1.014320f, 0.715138f, 0.199454f, 0.704663f, -1.393329f, 0.063310f, 0.805931f, 0.562273f, 0.954831f, -3.036910f, -0.101387f, 0.829119f, 0.774444f, 1.260114f, -1.737212f, -0.152743f, 0.209623f, 0.351805f, -1.337015f, -0.294160f, 0.192974f, 0.835731f, 1.046494f, 1.286552f, -1.336529f, -0.550643f, 0.149670f, 0.097285f, 0.598333f, 0.107403f, 0.360427f, -1.303890f, -0.090904f };
static float X60_MLP_L46_buf1[46];
static float X60_MLP_L46_buf2[46];
static const EmlNetLayer X60_MLP_L46_layers[2] = { 
{ 46, 30, X60_MLP_L46_layer_0_weights, X60_MLP_L46_layer_0_biases, EmlNetActivationTanh }, 
{ 5, 46, X60_MLP_L46_layer_1_weights, X60_MLP_L46_layer_1_biases, EmlNetActivationSoftmax } };
static EmlNet X60_MLP_L46 = { 2, X60_MLP_L46_layers, X60_MLP_L46_buf1, X60_MLP_L46_buf2, 46 };

    int32_t
    X60_MLP_L46_predict(const float *features, int32_t n_features)
    {
        return eml_net_predict(&X60_MLP_L46, features, n_features);
    }
    

    int32_t
    X60_MLP_L46_regress(const float *features, int32_t n_features, float *out, int32_t out_length)
    {
        return eml_net_regress(&X60_MLP_L46, features, n_features, out, out_length);
    }
    

    float
    X60_MLP_L46_regress1(const float *features, int32_t n_features)
    {
        return eml_net_regress1(&X60_MLP_L46, features, n_features);
    }
    