#pragma once
namespace Eloquent {
    namespace ML {
        namespace Port {
            class DecisionTree {
                public:
                    /**
                    * Predict class for features vector
                    */
                    int predict(float *x) {
                        if (x[3] <= -0.827590674161911) {
                            if (x[7] <= 0.5) {
                                if (x[1] <= -1.7040356546640396) {
                                    return 0;
                                }

                                else {
                                    if (x[1] <= 0.2726935148239136) {
                                        if (x[1] <= 0.2716863602399826) {
                                            return 1;
                                        }

                                        else {
                                            if (x[1] <= 0.27169325947761536) {
                                                return 2;
                                            }

                                            else {
                                                if (x[1] <= 0.27170200645923615) {
                                                    if (x[1] <= 0.2716946452856064) {
                                                        return 1;
                                                    }

                                                    else {
                                                        return 2;
                                                    }
                                                }

                                                else {
                                                    if (x[1] <= 0.27196334302425385) {
                                                        return 1;
                                                    }

                                                    else {
                                                        if (x[1] <= 0.2719660997390747) {
                                                            return 2;
                                                        }

                                                        else {
                                                            if (x[1] <= 0.2721252888441086) {
                                                                if (x[1] <= 0.27211977541446686) {
                                                                    if (x[1] <= 0.27208296954631805) {
                                                                        if (x[1] <= 0.27201028168201447) {
                                                                            if (x[1] <= 0.2720075100660324) {
                                                                                return 1;
                                                                            }

                                                                            else {
                                                                                return 2;
                                                                            }
                                                                        }

                                                                        else {
                                                                            return 1;
                                                                        }
                                                                    }

                                                                    else {
                                                                        if (x[1] <= 0.2720898687839508) {
                                                                            return 2;
                                                                        }

                                                                        else {
                                                                            return 1;
                                                                        }
                                                                    }
                                                                }

                                                                else {
                                                                    return 2;
                                                                }
                                                            }

                                                            else {
                                                                if (x[1] <= 0.2723130136728287) {
                                                                    return 1;
                                                                }

                                                                else {
                                                                    if (x[1] <= 0.2723190039396286) {
                                                                        return 2;
                                                                    }

                                                                    else {
                                                                        return 1;
                                                                    }
                                                                }
                                                            }
                                                        }
                                                    }
                                                }
                                            }
                                        }
                                    }

                                    else {
                                        return 2;
                                    }
                                }
                            }

                            else {
                                if (x[1] <= 0.27210505306720734) {
                                    if (x[1] <= 0.27156397700309753) {
                                        if (x[1] <= 0.2715612202882767) {
                                            if (x[1] <= 0.27133484184741974) {
                                                if (x[1] <= 0.27127687633037567) {
                                                    if (x[1] <= 0.27127595245838165) {
                                                        if (x[1] <= -1.704085797071457) {
                                                            return 1;
                                                        }

                                                        else {
                                                            return 1;
                                                        }
                                                    }

                                                    else {
                                                        return 3;
                                                    }
                                                }

                                                else {
                                                    return 1;
                                                }
                                            }

                                            else {
                                                if (x[1] <= 0.27133576571941376) {
                                                    return 1;
                                                }

                                                else {
                                                    if (x[1] <= 0.2713799327611923) {
                                                        if (x[1] <= 0.2713780999183655) {
                                                            if (x[1] <= 0.2713661342859268) {
                                                                if (x[1] <= 0.2713652104139328) {
                                                                    if (x[1] <= 0.2713514119386673) {
                                                                        if (x[1] <= 0.2713412791490555) {
                                                                            if (x[1] <= 0.27134037017822266) {
                                                                                return 1;
                                                                            }

                                                                            else {
                                                                                return 1;
                                                                            }
                                                                        }

                                                                        else {
                                                                            return 1;
                                                                        }
                                                                    }

                                                                    else {
                                                                        if (x[1] <= 0.2713527977466583) {
                                                                            return 2;
                                                                        }

                                                                        else {
                                                                            if (x[1] <= 0.27136336266994476) {
                                                                                if (x[1] <= 0.27136245369911194) {
                                                                                    return 1;
                                                                                }

                                                                                else {
                                                                                    return 1;
                                                                                }
                                                                            }

                                                                            else {
                                                                                return 1;
                                                                            }
                                                                        }
                                                                    }
                                                                }

                                                                else {
                                                                    return 2;
                                                                }
                                                            }

                                                            else {
                                                                return 1;
                                                            }
                                                        }

                                                        else {
                                                            if (x[1] <= 0.2713790088891983) {
                                                                return 1;
                                                            }

                                                            else {
                                                                return 1;
                                                            }
                                                        }
                                                    }

                                                    else {
                                                        if (x[1] <= 0.2715354412794113) {
                                                            if (x[1] <= 0.27153269946575165) {
                                                                if (x[1] <= 0.27152256667613983) {
                                                                    if (x[1] <= 0.2715179771184921) {
                                                                        if (x[1] <= 0.2715078443288803) {
                                                                            if (x[1] <= 0.2715041786432266) {
                                                                                if (x[1] <= 0.27147747576236725) {
                                                                                    if (x[1] <= 0.2714747190475464) {
                                                                                        if (x[1] <= 0.2714627534151077) {
                                                                                            if (x[1] <= 0.2714618295431137) {
                                                                                                if (x[1] <= 0.2713937312364578) {
                                                                                                    return 1;
                                                                                                }

                                                                                                else {
                                                                                                    if (x[1] <= 0.27139465510845184) {
                                                                                                        return 1;
                                                                                                    }

                                                                                                    else {
                                                                                                        return 1;
                                                                                                    }
                                                                                                }
                                                                                            }

                                                                                            else {
                                                                                                return 1;
                                                                                            }
                                                                                        }

                                                                                        else {
                                                                                            if (x[1] <= 0.27146460115909576) {
                                                                                                if (x[1] <= 0.27146367728710175) {
                                                                                                    return 1;
                                                                                                }

                                                                                                else {
                                                                                                    return 1;
                                                                                                }
                                                                                            }

                                                                                            else {
                                                                                                return 1;
                                                                                            }
                                                                                        }
                                                                                    }

                                                                                    else {
                                                                                        if (x[1] <= 0.2714756280183792) {
                                                                                            return 1;
                                                                                        }

                                                                                        else {
                                                                                            if (x[1] <= 0.27147655189037323) {
                                                                                                return 1;
                                                                                            }

                                                                                            else {
                                                                                                return 1;
                                                                                            }
                                                                                        }
                                                                                    }
                                                                                }

                                                                                else {
                                                                                    if (x[1] <= 0.27149127423763275) {
                                                                                        if (x[1] <= 0.2714793235063553) {
                                                                                            if (x[1] <= 0.27147839963436127) {
                                                                                                return 1;
                                                                                            }

                                                                                            else {
                                                                                                return 1;
                                                                                            }
                                                                                        }

                                                                                        else {
                                                                                            return 1;
                                                                                        }
                                                                                    }

                                                                                    else {
                                                                                        if (x[1] <= 0.27149219810962677) {
                                                                                            return 1;
                                                                                        }

                                                                                        else {
                                                                                            if (x[1] <= 0.2714931219816208) {
                                                                                                return 1;
                                                                                            }

                                                                                            else {
                                                                                                if (x[1] <= 0.2714940458536148) {
                                                                                                    return 1;
                                                                                                }

                                                                                                else {
                                                                                                    return 1;
                                                                                                }
                                                                                            }
                                                                                        }
                                                                                    }
                                                                                }
                                                                            }

                                                                            else {
                                                                                if (x[1] <= 0.2715059965848923) {
                                                                                    if (x[1] <= 0.27150508761405945) {
                                                                                        return 1;
                                                                                    }

                                                                                    else {
                                                                                        return 1;
                                                                                    }
                                                                                }

                                                                                else {
                                                                                    if (x[1] <= 0.2715069204568863) {
                                                                                        return 1;
                                                                                    }

                                                                                    else {
                                                                                        return 1;
                                                                                    }
                                                                                }
                                                                            }
                                                                        }

                                                                        else {
                                                                            return 1;
                                                                        }
                                                                    }

                                                                    else {
                                                                        if (x[1] <= 0.2715207189321518) {
                                                                            if (x[1] <= 0.27151980996131897) {
                                                                                if (x[1] <= 0.27151890099048615) {
                                                                                    return 1;
                                                                                }

                                                                                else {
                                                                                    return 1;
                                                                                }
                                                                            }

                                                                            else {
                                                                                return 1;
                                                                            }
                                                                        }

                                                                        else {
                                                                            if (x[1] <= 0.2715216428041458) {
                                                                                return 1;
                                                                            }

                                                                            else {
                                                                                return 1;
                                                                            }
                                                                        }
                                                                    }
                                                                }

                                                                else {
                                                                    if (x[1] <= 0.27153177559375763) {
                                                                        if (x[1] <= 0.27152441442012787) {
                                                                            if (x[1] <= 0.27152349054813385) {
                                                                                return 1;
                                                                            }

                                                                            else {
                                                                                return 1;
                                                                            }
                                                                        }

                                                                        else {
                                                                            return 1;
                                                                        }
                                                                    }

                                                                    else {
                                                                        return 1;
                                                                    }
                                                                }
                                                            }

                                                            else {
                                                                if (x[1] <= 0.27153362333774567) {
                                                                    return 1;
                                                                }

                                                                else {
                                                                    if (x[1] <= 0.2715345323085785) {
                                                                        return 1;
                                                                    }

                                                                    else {
                                                                        return 1;
                                                                    }
                                                                }
                                                            }
                                                        }

                                                        else {
                                                            if (x[1] <= 0.27154742181301117) {
                                                                if (x[1] <= 0.2715446501970291) {
                                                                    return 1;
                                                                }

                                                                else {
                                                                    if (x[1] <= 0.27154649794101715) {
                                                                        if (x[1] <= 0.27154557406902313) {
                                                                            return 1;
                                                                        }

                                                                        else {
                                                                            return 1;
                                                                        }
                                                                    }

                                                                    else {
                                                                        return 1;
                                                                    }
                                                                }
                                                            }

                                                            else {
                                                                if (x[1] <= 0.271549254655838) {
                                                                    if (x[1] <= 0.2715483456850052) {
                                                                        return 1;
                                                                    }

                                                                    else {
                                                                        return 1;
                                                                    }
                                                                }

                                                                else {
                                                                    if (x[1] <= 0.27155108749866486) {
                                                                        if (x[1] <= 0.27155016362667084) {
                                                                            return 1;
                                                                        }

                                                                        else {
                                                                            return 1;
                                                                        }
                                                                    }

                                                                    else {
                                                                        if (x[1] <= 0.27155937254428864) {
                                                                            return 1;
                                                                        }

                                                                        else {
                                                                            if (x[1] <= 0.27156029641628265) {
                                                                                return 1;
                                                                            }

                                                                            else {
                                                                                return 1;
                                                                            }
                                                                        }
                                                                    }
                                                                }
                                                            }
                                                        }
                                                    }
                                                }
                                            }
                                        }

                                        else {
                                            if (x[1] <= 0.2715630680322647) {
                                                if (x[1] <= 0.2715621441602707) {
                                                    return 1;
                                                }

                                                else {
                                                    return 1;
                                                }
                                            }

                                            else {
                                                return 1;
                                            }
                                        }
                                    }

                                    else {
                                        if (x[1] <= 0.2721041291952133) {
                                            if (x[1] <= 0.27182163298130035) {
                                                if (x[1] <= 0.27167899906635284) {
                                                    if (x[1] <= 0.27167533338069916) {
                                                        if (x[1] <= 0.27166152000427246) {
                                                            if (x[1] <= 0.2715759426355362) {
                                                                if (x[1] <= 0.27156488597393036) {
                                                                    return 1;
                                                                }

                                                                else {
                                                                    return 1;
                                                                }
                                                            }

                                                            else {
                                                                if (x[1] <= 0.2715768665075302) {
                                                                    return 1;
                                                                }

                                                                else {
                                                                    if (x[1] <= 0.27159251272678375) {
                                                                        if (x[1] <= 0.2715906649827957) {
                                                                            if (x[1] <= 0.2715796232223511) {
                                                                                if (x[1] <= 0.27157871425151825) {
                                                                                    if (x[1] <= 0.27157779037952423) {
                                                                                        return 1;
                                                                                    }

                                                                                    else {
                                                                                        return 1;
                                                                                    }
                                                                                }

                                                                                else {
                                                                                    return 1;
                                                                                }
                                                                            }

                                                                            else {
                                                                                if (x[1] <= 0.2715805321931839) {
                                                                                    return 1;
                                                                                }

                                                                                else {
                                                                                    return 1;
                                                                                }
                                                                            }
                                                                        }

                                                                        else {
                                                                            if (x[1] <= 0.27159158885478973) {
                                                                                return 1;
                                                                            }

                                                                            else {
                                                                                return 1;
                                                                            }
                                                                        }
                                                                    }

                                                                    else {
                                                                        if (x[1] <= 0.27160538733005524) {
                                                                            if (x[1] <= 0.2716044634580612) {
                                                                                if (x[1] <= 0.2715943455696106) {
                                                                                    if (x[1] <= 0.27159343659877777) {
                                                                                        return 1;
                                                                                    }

                                                                                    else {
                                                                                        return 1;
                                                                                    }
                                                                                }

                                                                                else {
                                                                                    return 1;
                                                                                }
                                                                            }

                                                                            else {
                                                                                return 1;
                                                                            }
                                                                        }

                                                                        else {
                                                                            if (x[1] <= 0.27160631120204926) {
                                                                                return 1;
                                                                            }

                                                                            else {
                                                                                if (x[1] <= 0.2716081589460373) {
                                                                                    if (x[1] <= 0.2716072350740433) {
                                                                                        return 1;
                                                                                    }

                                                                                    else {
                                                                                        return 1;
                                                                                    }
                                                                                }

                                                                                else {
                                                                                    if (x[1] <= 0.27161918580532074) {
                                                                                        if (x[1] <= 0.2716090679168701) {
                                                                                            return 1;
                                                                                        }

                                                                                        else {
                                                                                            return 1;
                                                                                        }
                                                                                    }

                                                                                    else {
                                                                                        if (x[1] <= 0.27162010967731476) {
                                                                                            return 1;
                                                                                        }

                                                                                        else {
                                                                                            if (x[1] <= 0.2716320604085922) {
                                                                                                if (x[1] <= 0.27162931859493256) {
                                                                                                    if (x[1] <= 0.2716219574213028) {
                                                                                                        return 1;
                                                                                                    }

                                                                                                    else {
                                                                                                        return 1;
                                                                                                    }
                                                                                                }

                                                                                                else {
                                                                                                    if (x[1] <= 0.2716302424669266) {
                                                                                                        return 1;
                                                                                                    }

                                                                                                    else {
                                                                                                        return 1;
                                                                                                    }
                                                                                                }
                                                                                            }

                                                                                            else {
                                                                                                if (x[1] <= 0.27163298428058624) {
                                                                                                    return 1;
                                                                                                }

                                                                                                else {
                                                                                                    if (x[1] <= 0.2716495543718338) {
                                                                                                        return 1;
                                                                                                    }

                                                                                                    else {
                                                                                                        return 1;
                                                                                                    }
                                                                                                }
                                                                                            }
                                                                                        }
                                                                                    }
                                                                                }
                                                                            }
                                                                        }
                                                                    }
                                                                }
                                                            }
                                                        }

                                                        else {
                                                            if (x[1] <= 0.2716642767190933) {
                                                                if (x[1] <= 0.2716633528470993) {
                                                                    if (x[1] <= 0.2716624289751053) {
                                                                        return 1;
                                                                    }

                                                                    else {
                                                                        return 1;
                                                                    }
                                                                }

                                                                else {
                                                                    return 1;
                                                                }
                                                            }

                                                            else {
                                                                return 1;
                                                            }
                                                        }
                                                    }

                                                    else {
                                                        if (x[1] <= 0.271676242351532) {
                                                            return 1;
                                                        }

                                                        else {
                                                            if (x[1] <= 0.2716771513223648) {
                                                                return 1;
                                                            }

                                                            else {
                                                                if (x[1] <= 0.2716780751943588) {
                                                                    return 1;
                                                                }

                                                                else {
                                                                    return 1;
                                                                }
                                                            }
                                                        }
                                                    }
                                                }

                                                else {
                                                    if (x[1] <= 0.27180875837802887) {
                                                        if (x[1] <= 0.27173881232738495) {
                                                            if (x[1] <= 0.27173788845539093) {
                                                                if (x[1] <= 0.2717093676328659) {
                                                                    if (x[1] <= 0.27169372141361237) {
                                                                        if (x[1] <= 0.27169187366962433) {
                                                                            return 1;
                                                                        }

                                                                        else {
                                                                            if (x[1] <= 0.27169279754161835) {
                                                                                return 1;
                                                                            }

                                                                            else {
                                                                                return 1;
                                                                            }
                                                                        }
                                                                    }

                                                                    else {
                                                                        if (x[1] <= 0.2716946452856064) {
                                                                            return 1;
                                                                        }

                                                                        else {
                                                                            if (x[1] <= 0.2717084437608719) {
                                                                                if (x[1] <= 0.27170751988887787) {
                                                                                    return 1;
                                                                                }

                                                                                else {
                                                                                    return 1;
                                                                                }
                                                                            }

                                                                            else {
                                                                                return 1;
                                                                            }
                                                                        }
                                                                    }
                                                                }

                                                                else {
                                                                    if (x[1] <= 0.27171213924884796) {
                                                                        if (x[1] <= 0.2717102915048599) {
                                                                            return 1;
                                                                        }

                                                                        else {
                                                                            if (x[1] <= 0.27171121537685394) {
                                                                                return 1;
                                                                            }

                                                                            else {
                                                                                return 1;
                                                                            }
                                                                        }
                                                                    }

                                                                    else {
                                                                        if (x[1] <= 0.2717231661081314) {
                                                                            if (x[1] <= 0.2717222422361374) {
                                                                                return 1;
                                                                            }

                                                                            else {
                                                                                return 1;
                                                                            }
                                                                        }

                                                                        else {
                                                                            if (x[1] <= 0.27173514664173126) {
                                                                                if (x[1] <= 0.27173422276973724) {
                                                                                    return 1;
                                                                                }

                                                                                else {
                                                                                    return 1;
                                                                                }
                                                                            }

                                                                            else {
                                                                                return 1;
                                                                            }
                                                                        }
                                                                    }
                                                                }
                                                            }

                                                            else {
                                                                return 1;
                                                            }
                                                        }

                                                        else {
                                                            if (x[1] <= 0.27178023755550385) {
                                                                if (x[1] <= 0.27177102863788605) {
                                                                    if (x[1] <= 0.27176733314991) {
                                                                        if (x[1] <= 0.27174341678619385) {
                                                                            if (x[1] <= 0.271742507815361) {
                                                                                return 1;
                                                                            }

                                                                            else {
                                                                                return 1;
                                                                            }
                                                                        }

                                                                        else {
                                                                            if (x[1] <= 0.27176550030708313) {
                                                                                return 1;
                                                                            }

                                                                            else {
                                                                                if (x[1] <= 0.27176640927791595) {
                                                                                    return 1;
                                                                                }

                                                                                else {
                                                                                    return 1;
                                                                                }
                                                                            }
                                                                        }
                                                                    }

                                                                    else {
                                                                        if (x[1] <= 0.271768257021904) {
                                                                            return 1;
                                                                        }

                                                                        else {
                                                                            return 1;
                                                                        }
                                                                    }
                                                                }

                                                                else {
                                                                    if (x[1] <= 0.27177561819553375) {
                                                                        if (x[1] <= 0.27177469432353973) {
                                                                            if (x[1] <= 0.2717728763818741) {
                                                                                if (x[1] <= 0.27177195250988007) {
                                                                                    return 1;
                                                                                }

                                                                                else {
                                                                                    return 1;
                                                                                }
                                                                            }

                                                                            else {
                                                                                return 1;
                                                                            }
                                                                        }

                                                                        else {
                                                                            return 1;
                                                                        }
                                                                    }

                                                                    else {
                                                                        if (x[1] <= 0.2717793136835098) {
                                                                            return 1;
                                                                        }

                                                                        else {
                                                                            return 1;
                                                                        }
                                                                    }
                                                                }
                                                            }

                                                            else {
                                                                if (x[1] <= 0.27178114652633667) {
                                                                    return 1;
                                                                }

                                                                else {
                                                                    if (x[1] <= 0.27179495990276337) {
                                                                        if (x[1] <= 0.27179403603076935) {
                                                                            if (x[1] <= 0.27179311215877533) {
                                                                                return 1;
                                                                            }

                                                                            else {
                                                                                return 1;
                                                                            }
                                                                        }

                                                                        else {
                                                                            return 1;
                                                                        }
                                                                    }

                                                                    else {
                                                                        if (x[1] <= 0.2717958688735962) {
                                                                            return 1;
                                                                        }

                                                                        else {
                                                                            if (x[1] <= 0.27180783450603485) {
                                                                                return 1;
                                                                            }

                                                                            else {
                                                                                return 1;
                                                                            }
                                                                        }
                                                                    }
                                                                }
                                                            }
                                                        }
                                                    }

                                                    else {
                                                        if (x[1] <= 0.2718105912208557) {
                                                            if (x[1] <= 0.2718096822500229) {
                                                                return 1;
                                                            }

                                                            else {
                                                                return 1;
                                                            }
                                                        }

                                                        else {
                                                            return 1;
                                                        }
                                                    }
                                                }
                                            }

                                            else {
                                                if (x[1] <= 0.2718225568532944) {
                                                    return 1;
                                                }

                                                else {
                                                    if (x[1] <= 0.2718289941549301) {
                                                        return 1;
                                                    }

                                                    else {
                                                        if (x[1] <= 0.27182991802692413) {
                                                            return 1;
                                                        }

                                                        else {
                                                            if (x[1] <= 0.2718363553285599) {
                                                                if (x[1] <= 0.27183543145656586) {
                                                                    return 1;
                                                                }

                                                                else {
                                                                    return 1;
                                                                }
                                                            }

                                                            else {
                                                                if (x[1] <= 0.27184371650218964) {
                                                                    if (x[1] <= 0.2718382030725479) {
                                                                        if (x[1] <= 0.2718372792005539) {
                                                                            return 1;
                                                                        }

                                                                        else {
                                                                            return 1;
                                                                        }
                                                                    }

                                                                    else {
                                                                        if (x[1] <= 0.27183912694454193) {
                                                                            return 1;
                                                                        }

                                                                        else {
                                                                            return 1;
                                                                        }
                                                                    }
                                                                }

                                                                else {
                                                                    if (x[1] <= 0.2718510776758194) {
                                                                        if (x[1] <= 0.2718501538038254) {
                                                                            if (x[1] <= 0.27184464037418365) {
                                                                                return 1;
                                                                            }

                                                                            else {
                                                                                return 1;
                                                                            }
                                                                        }

                                                                        else {
                                                                            return 1;
                                                                        }
                                                                    }

                                                                    else {
                                                                        if (x[1] <= 0.2718602865934372) {
                                                                            if (x[1] <= 0.27185292541980743) {
                                                                                return 1;
                                                                            }

                                                                            else {
                                                                                if (x[1] <= 0.27185384929180145) {
                                                                                    return 1;
                                                                                }

                                                                                else {
                                                                                    return 1;
                                                                                }
                                                                            }
                                                                        }

                                                                        else {
                                                                            if (x[1] <= 0.2718648761510849) {
                                                                                if (x[1] <= 0.2718639522790909) {
                                                                                    if (x[1] <= 0.2718612104654312) {
                                                                                        return 1;
                                                                                    }

                                                                                    else {
                                                                                        return 1;
                                                                                    }
                                                                                }

                                                                                else {
                                                                                    return 1;
                                                                                }
                                                                            }

                                                                            else {
                                                                                if (x[1] <= 0.27187223732471466) {
                                                                                    if (x[1] <= 0.27186672389507294) {
                                                                                        return 1;
                                                                                    }

                                                                                    else {
                                                                                        if (x[1] <= 0.27186764776706696) {
                                                                                            return 1;
                                                                                        }

                                                                                        else {
                                                                                            return 1;
                                                                                        }
                                                                                    }
                                                                                }

                                                                                else {
                                                                                    if (x[1] <= 0.2718731611967087) {
                                                                                        return 1;
                                                                                    }

                                                                                    else {
                                                                                        if (x[1] <= 0.2718795984983444) {
                                                                                            if (x[1] <= 0.2718786746263504) {
                                                                                                if (x[1] <= 0.2718777656555176) {
                                                                                                    return 1;
                                                                                                }

                                                                                                else {
                                                                                                    return 1;
                                                                                                }
                                                                                            }

                                                                                            else {
                                                                                                return 1;
                                                                                            }
                                                                                        }

                                                                                        else {
                                                                                            if (x[1] <= 0.2720765322446823) {
                                                                                                if (x[1] <= 0.2720654755830765) {
                                                                                                    if (x[1] <= 0.27206456661224365) {
                                                                                                        return 1;
                                                                                                    }

                                                                                                    else {
                                                                                                        return 1;
                                                                                                    }
                                                                                                }

                                                                                                else {
                                                                                                    if (x[1] <= 0.27206917107105255) {
                                                                                                        return 1;
                                                                                                    }

                                                                                                    else {
                                                                                                        return 1;
                                                                                                    }
                                                                                                }
                                                                                            }

                                                                                            else {
                                                                                                if (x[1] <= 0.272080197930336) {
                                                                                                    if (x[1] <= 0.2720792889595032) {
                                                                                                        return 1;
                                                                                                    }

                                                                                                    else {
                                                                                                        return 1;
                                                                                                    }
                                                                                                }

                                                                                                else {
                                                                                                    if (x[1] <= 0.2720940113067627) {
                                                                                                        return 1;
                                                                                                    }

                                                                                                    else {
                                                                                                        return 1;
                                                                                                    }
                                                                                                }
                                                                                            }
                                                                                        }
                                                                                    }
                                                                                }
                                                                            }
                                                                        }
                                                                    }
                                                                }
                                                            }
                                                        }
                                                    }
                                                }
                                            }
                                        }

                                        else {
                                            return 1;
                                        }
                                    }
                                }

                                else {
                                    if (x[1] <= 0.2723875492811203) {
                                        if (x[1] <= 0.2723866254091263) {
                                            if (x[1] <= 0.27226977050304413) {
                                                if (x[1] <= 0.2722688466310501) {
                                                    if (x[1] <= 0.27221088111400604) {
                                                        if (x[1] <= 0.27215199172496796) {
                                                            if (x[1] <= 0.27214737236499786) {
                                                                if (x[1] <= 0.2721124142408371) {
                                                                    return 1;
                                                                }

                                                                else {
                                                                    if (x[1] <= 0.2721252888441086) {
                                                                        if (x[1] <= 0.27212347090244293) {
                                                                            if (x[1] <= 0.2721206992864609) {
                                                                                if (x[1] <= 0.27211977541446686) {
                                                                                    if (x[1] <= 0.2721133381128311) {
                                                                                        return 1;
                                                                                    }

                                                                                    else {
                                                                                        if (x[1] <= 0.27211610972881317) {
                                                                                            return 1;
                                                                                        }

                                                                                        else {
                                                                                            if (x[1] <= 0.272117018699646) {
                                                                                                return 1;
                                                                                            }

                                                                                            else {
                                                                                                if (x[1] <= 0.2721179276704788) {
                                                                                                    return 1;
                                                                                                }

                                                                                                else {
                                                                                                    if (x[1] <= 0.27211885154247284) {
                                                                                                        return 1;
                                                                                                    }

                                                                                                    else {
                                                                                                        return 1;
                                                                                                    }
                                                                                                }
                                                                                            }
                                                                                        }
                                                                                    }
                                                                                }

                                                                                else {
                                                                                    return 1;
                                                                                }
                                                                            }

                                                                            else {
                                                                                return 1;
                                                                            }
                                                                        }

                                                                        else {
                                                                            if (x[1] <= 0.27212437987327576) {
                                                                                return 1;
                                                                            }

                                                                            else {
                                                                                return 1;
                                                                            }
                                                                        }
                                                                    }

                                                                    else {
                                                                        if (x[1] <= 0.27213819324970245) {
                                                                            if (x[1] <= 0.27213726937770844) {
                                                                                if (x[1] <= 0.27212806046009064) {
                                                                                    if (x[1] <= 0.2721262127161026) {
                                                                                        return 1;
                                                                                    }

                                                                                    else {
                                                                                        return 1;
                                                                                    }
                                                                                }

                                                                                else {
                                                                                    if (x[1] <= 0.27212898433208466) {
                                                                                        return 1;
                                                                                    }

                                                                                    else {
                                                                                        if (x[1] <= 0.27213357388973236) {
                                                                                            if (x[1] <= 0.27213265001773834) {
                                                                                                return 1;
                                                                                            }

                                                                                            else {
                                                                                                return 1;
                                                                                            }
                                                                                        }

                                                                                        else {
                                                                                            return 1;
                                                                                        }
                                                                                    }
                                                                                }
                                                                            }

                                                                            else {
                                                                                return 1;
                                                                            }
                                                                        }

                                                                        else {
                                                                            return 1;
                                                                        }
                                                                    }
                                                                }
                                                            }

                                                            else {
                                                                if (x[1] <= 0.2721482962369919) {
                                                                    return 1;
                                                                }

                                                                else {
                                                                    if (x[1] <= 0.27215106785297394) {
                                                                        return 1;
                                                                    }

                                                                    else {
                                                                        return 1;
                                                                    }
                                                                }
                                                            }
                                                        }

                                                        else {
                                                            if (x[1] <= 0.27217499911785126) {
                                                                if (x[1] <= 0.2721713036298752) {
                                                                    if (x[1] <= 0.27216947078704834) {
                                                                        if (x[1] <= 0.27216579020023346) {
                                                                            return 1;
                                                                        }

                                                                        else {
                                                                            if (x[1] <= 0.2721667140722275) {
                                                                                return 1;
                                                                            }

                                                                            else {
                                                                                return 1;
                                                                            }
                                                                        }
                                                                    }

                                                                    else {
                                                                        if (x[1] <= 0.27217037975788116) {
                                                                            return 1;
                                                                        }

                                                                        else {
                                                                            return 1;
                                                                        }
                                                                    }
                                                                }

                                                                else {
                                                                    if (x[1] <= 0.27217407524585724) {
                                                                        if (x[1] <= 0.2721722275018692) {
                                                                            return 1;
                                                                        }

                                                                        else {
                                                                            if (x[1] <= 0.2721731513738632) {
                                                                                return 1;
                                                                            }

                                                                            else {
                                                                                return 1;
                                                                            }
                                                                        }
                                                                    }

                                                                    else {
                                                                        return 1;
                                                                    }
                                                                }
                                                            }

                                                            else {
                                                                if (x[1] <= 0.27219708263874054) {
                                                                    return 1;
                                                                }

                                                                else {
                                                                    if (x[1] <= 0.27219800651073456) {
                                                                        return 1;
                                                                    }

                                                                    else {
                                                                        return 1;
                                                                    }
                                                                }
                                                            }
                                                        }
                                                    }

                                                    else {
                                                        if (x[1] <= 0.27221180498600006) {
                                                            return 1;
                                                        }

                                                        else {
                                                            if (x[1] <= 0.27222560346126556) {
                                                                return 1;
                                                            }

                                                            else {
                                                                if (x[1] <= 0.2722274512052536) {
                                                                    if (x[1] <= 0.2722265273332596) {
                                                                        return 1;
                                                                    }

                                                                    else {
                                                                        return 1;
                                                                    }
                                                                }

                                                                else {
                                                                    if (x[1] <= 0.2722541242837906) {
                                                                        if (x[1] <= 0.2722357362508774) {
                                                                            if (x[1] <= 0.27223481237888336) {
                                                                                return 1;
                                                                            }

                                                                            else {
                                                                                return 1;
                                                                            }
                                                                        }

                                                                        else {
                                                                            if (x[1] <= 0.2722421735525131) {
                                                                                return 1;
                                                                            }

                                                                            else {
                                                                                if (x[1] <= 0.27224309742450714) {
                                                                                    return 1;
                                                                                }

                                                                                else {
                                                                                    return 1;
                                                                                }
                                                                            }
                                                                        }
                                                                    }

                                                                    else {
                                                                        if (x[1] <= 0.2722550481557846) {
                                                                            return 1;
                                                                        }

                                                                        else {
                                                                            return 1;
                                                                        }
                                                                    }
                                                                }
                                                            }
                                                        }
                                                    }
                                                }

                                                else {
                                                    return 1;
                                                }
                                            }

                                            else {
                                                if (x[1] <= 0.27232958376407623) {
                                                    if (x[1] <= 0.2722955346107483) {
                                                        if (x[1] <= 0.27229462563991547) {
                                                            return 1;
                                                        }

                                                        else {
