
#include <eml_net.h>
static const float X40_MLP_L56_layer_0_biases[56] = { -0.553478f, 0.080473f, -0.118311f, -0.236720f, 0.189754f, 0.158431f, 0.469570f, -0.036703f, 0.615038f, -0.140311f, 0.251799f, -0.204143f, 0.100937f, 0.457586f, 0.440084f, 0.760069f, -0.145990f, 0.003367f, 0.168996f, 0.473776f, 0.230247f, -0.127717f, -0.410861f, -0.274727f, 0.570015f, 0.121563f, -0.271288f, 0.211842f, 0.357692f, 0.583184f, -0.414373f, 0.133271f, 0.761720f, 0.582931f, 0.519862f, 0.001434f, -0.378354f, 0.886069f, 0.067269f, 0.595333f, 0.161986f, -0.136243f, -0.409581f, 0.080734f, 0.133726f, -0.595458f, 0.597749f, -0.241469f, 0.282116f, 0.031246f, 0.531591f, 0.025577f, 0.382965f, 0.210694f, -0.126420f, 0.118918f };
static const float X40_MLP_L56_layer_0_weights[1176] = { -0.336170f, 0.479495f, 1.065791f, -1.555413f, -0.876554f, 0.197587f, -1.000392f, 0.701706f, -0.277470f, -0.065897f, 1.415817f, 0.435427f, -0.974707f, -0.079738f, -2.093638f, -0.896244f, -1.178862f, 0.588887f, 0.289521f, 0.460914f, 2.113373f, 0.038777f, 0.020930f, 0.104978f, -0.806074f, 0.261034f, -0.445965f, 0.619055f, 0.348755f, -0.151030f, 0.030839f, 0.143405f, -0.202346f, -0.173879f, 0.677047f, -0.494699f, 2.061086f, -0.016770f, 0.387928f, 0.711488f, -0.976892f, 2.069874f, -0.317592f, 0.424200f, -0.089176f, -1.131523f, -0.889041f, -0.268052f, -1.084889f, -0.204806f, 0.813128f, -0.081592f, -0.486493f, -1.353672f, 0.313671f, -0.106247f, 0.196078f, -1.355516f, -1.315095f, 0.402668f, 0.833299f, -0.169882f, -0.231282f, 0.065085f, 0.009605f, 0.570158f, 0.956591f, -0.695816f, -0.519550f, -0.447704f, -0.120063f, -0.804679f, 0.900696f, -0.147389f, 0.439421f, 0.710713f, -1.575116f, -0.664245f, 0.715498f, -0.539371f, 0.675684f, 0.339630f, 0.998246f, 0.907054f, 0.067598f, 0.061528f, 0.060748f, -0.512343f, 0.187762f, 1.055829f, -1.666081f, 0.553281f, -0.674528f, 0.205681f, -0.402225f, -0.126369f, -0.223810f, 0.156456f, 0.469737f, -0.398110f, 1.349283f, -0.753114f, -0.600265f, -0.032304f, 0.175477f, 0.379243f, -0.180405f, -0.017946f, 1.422547f, -0.382914f, -0.860555f, 0.322291f, 0.041959f, -0.028032f, 1.223122f, -0.061898f, 0.278573f, 0.732692f, -0.692554f, 1.031175f, 0.271329f, 0.315684f, 1.429286f, 0.057426f, 0.408142f, -0.012156f, 2.928634f, 0.469540f, -0.027290f, -0.018273f, 0.284266f, -0.012956f, -1.411625f, 0.184557f, -0.213064f, -0.187221f, 1.382892f, -0.356513f, 0.151366f, 0.629701f, 1.345551f, 0.741594f, 0.474104f, -0.611217f, 1.679187f, 0.587117f, 1.023748f, 1.541540f, -0.206635f, 3.393242f, -1.022019f, 0.138979f, -2.355998f, -0.702248f, -0.699908f, -0.315206f, -0.250967f, -4.009599f, -0.693494f, -0.460094f, -0.670365f, 0.603533f, -0.699961f, 0.271148f, 2.368759f, 0.341087f, 0.123581f, 0.079485f, 0.502786f, -0.657402f, 1.006856f, -0.387395f, 0.002749f, -0.245210f, 0.650948f, -0.441609f, -0.498935f, 0.608772f, -0.312576f, -1.340818f, -0.201214f, 0.168438f, -0.195234f, -0.781323f, 0.505656f, 0.517746f, -1.039141f, -0.784995f, 0.541492f, 0.810236f, 0.158543f, -1.018337f, -1.281242f, 0.807452f, 1.628300f, 0.568382f, -0.412902f, -0.321101f, -0.029827f, 0.399514f, -0.343990f, 0.872717f, 1.004198f, -1.034086f, -0.362589f, -1.737245f, 0.517205f, 0.239830f, 0.220901f, 0.654786f, 1.232073f, -0.308083f, 0.595994f, -0.869110f, -0.866483f, -0.421840f, -0.209239f, -0.062409f, 0.258134f, 2.167283f, 0.297891f, -0.644335f, -1.260536f, 0.150330f, -0.025034f, 0.888867f, 0.180484f, -0.165688f, 0.311232f, -0.038435f, -0.226688f, -0.026199f, 0.612338f, -0.047209f, -0.196318f, 0.057338f, 0.872480f, 0.150659f, -0.955313f, -0.217960f, -0.979029f, 0.075630f, -0.623194f, 0.053858f, 0.717012f, 0.210411f, -0.803991f, -0.336368f, -0.758227f, 0.323490f, 0.263477f, -0.051658f, 0.733070f, 0.955123f, 1.144983f, -0.574007f, -1.056214f, -0.082431f, 1.996158f, -0.109264f, -0.631520f, -0.104953f, -0.437315f, 0.307084f, 0.233882f, 1.444105f, 0.248538f, 0.545219f, -0.921850f, 0.933931f, -0.170322f, 0.662622f, -0.050342f, -0.145829f, -1.859378f, 0.827588f, 0.837795f, -0.004050f, -0.598014f, 0.423189f, 0.027514f, 0.773026f, 0.463627f, -1.077306f, -1.573157f, -0.336080f, 2.028762f, -0.940213f, 1.102082f, -1.036039f, 1.967818f, -1.646181f, 0.805444f, -1.739848f, -0.462509f, -0.437882f, -1.188874f, -0.557255f, 2.168731f, 1.939119f, 1.123260f, 0.878088f, -1.317583f, -0.925665f, 0.174557f, 0.160298f, -1.865806f, -0.252619f, 0.513160f, -1.384852f, 0.213164f, -1.682896f, -1.175296f, -0.506768f, 2.267699f, -2.433136f, -1.463257f, 0.758303f, 0.305460f, 0.969581f, -0.190432f, -0.521563f, -0.872183f, 1.614279f, -2.028693f, -2.435025f, 1.009373f, -1.389709f, -0.204209f, -0.725195f, -1.210419f, -0.719352f, -2.013214f, 1.468253f, 0.536656f, 1.189082f, -1.731794f, 0.434484f, 0.101311f, -0.389234f, -0.763455f, -0.148833f, 1.415490f, -0.434926f, 0.797878f, -0.436937f, 1.811182f, -1.246701f, 0.556956f, -0.246238f, -0.757611f, -2.015959f, -0.995849f, 0.159590f, 0.939740f, 0.548769f, 0.888371f, -0.062449f, -1.068739f, 0.643483f, -0.318406f, 0.771112f, -1.452419f, 0.488964f, 0.264392f, -0.716918f, -0.501874f, -0.328909f, -0.128835f, 0.546896f, 0.895378f, -1.149577f, -0.123214f, 0.703016f, 0.156762f, 0.238044f, 1.008752f, 0.378750f, -0.678718f, 1.124301f, -1.307723f, -1.010729f, 0.207060f, -1.377036f, -0.264089f, -0.359231f, 0.438816f, 0.066689f, -0.564438f, 0.163077f, -0.134758f, -0.379427f, -0.821971f, 0.329324f, -2.579270f, 0.212520f, -0.729402f, 0.220214f, -0.588180f, 0.016520f, -0.668793f, 0.735600f, -0.533526f, -0.535024f, -0.361847f, 0.458002f, -0.548725f, -0.329348f, -1.102961f, -0.240183f, -0.352852f, -0.365903f, -0.322874f, -0.074481f, -0.765309f, -0.470820f, -2.119898f, -0.291664f, -0.786765f, -0.470107f, -0.691025f, -0.302551f, 0.091999f, -0.569961f, 1.875738f, 1.111553f, 1.105934f, -0.058566f, 0.204492f, 2.007585f, -0.907448f, 0.021594f, -2.315756f, 0.778743f, -0.083557f, -0.333901f, -0.482457f, -2.571391f, 0.092473f, 0.181350f, 0.181337f, 0.680622f, 0.056748f, -0.339303f, 0.602479f, 0.378219f, 1.218731f, 1.220542f, 7.120902f, 0.531679f, -2.232083f, 1.068166f, -0.393450f, -1.418745f, 0.631601f, -1.304902f, 0.091836f, 0.011702f, 7.614552f, 1.305943f, -1.530995f, -2.146713f, 0.198228f, 2.765592f, -1.128926f, -1.234587f, -0.041483f, -0.049654f, 0.283031f, -1.079393f, 0.794396f, 1.107675f, -0.072915f, 4.465523f, 0.858831f, 1.343398f, 0.362987f, 1.572238f, 1.434801f, 0.027027f, -0.783100f, -0.824200f, -0.046186f, -0.296449f, -1.726128f, 0.050193f, 0.426531f, 0.191175f, 2.498292f, 0.323264f, -0.299509f, 0.088564f, 0.736210f, -0.519896f, -0.448345f, -1.848964f, 0.173153f, 0.077710f, -2.466362f, -2.021344f, 0.524415f, -0.779896f, -0.361935f, 0.194809f, 1.578280f, -0.102809f, 0.119724f, -0.168308f, -0.491937f, -0.038211f, 0.387627f, 0.468072f, 1.566193f, 0.885287f, 1.587725f, 0.872066f, -0.187665f, 0.177785f, 1.502041f, 1.100998f, -0.169979f, -0.547963f, -0.146981f, -0.361513f, -1.199348f, -0.329257f, -0.543969f, -0.189124f, -0.734366f, -0.192314f, -0.592566f, 0.838463f, 0.854785f, 0.600759f, -0.036881f, 0.191369f, 0.914440f, 0.744820f, 0.837209f, 2.012738f, -1.052511f, -0.212719f, 0.321247f, -0.399396f, 1.392040f, -1.360858f, 0.922184f, 1.173297f, -0.601033f, 0.423978f, -0.645119f, -1.080444f, -0.143687f, 0.710901f, 0.140807f, -1.161190f, 0.726186f, -0.408839f, 0.563202f, 0.582352f, -0.251115f, -0.142603f, -0.086507f, -0.101365f, 0.047768f, -0.001587f, 0.370232f, 0.278884f, 0.624350f, 0.073633f, -0.118615f, -0.288585f, -0.507191f, -0.051894f, 0.111249f, 0.014822f, -0.020515f, 0.392257f, 0.067941f, 0.518904f, -0.135051f, -0.075620f, 0.074570f, -0.241008f, 0.165578f, -0.439240f, -0.794372f, -0.382490f, -0.021065f, 0.678225f, -0.281094f, 0.396730f, 0.501493f, 0.001007f, 0.801874f, -0.416376f, -0.171159f, 0.361128f, -0.083536f, 1.019577f, 0.140675f, -0.276082f, -0.437745f, -0.253532f, -0.034397f, -0.280633f, 0.168809f, -0.212766f, -0.391609f, -0.020528f, 0.732420f, -0.373541f, 0.405611f, -0.136246f, -0.306322f, 0.241671f, -0.123540f, 0.239194f, -0.069092f, 0.554421f, -0.062154f, 0.281926f, 0.107320f, 0.138473f, 0.608789f, 0.339102f, 0.636982f, -0.147389f, 0.095781f, 0.046076f, 0.160582f, 0.259802f, -0.227970f, -0.088095f, 0.290642f, 0.404947f, -0.131953f, -0.062477f, -0.200426f, -0.076896f, 0.815385f, 0.416231f, 0.319183f, 0.091556f, -0.018514f, 0.022899f, 0.076620f, -0.129693f, 0.782805f, 0.205146f, -0.136274f, 0.564430f, -0.600129f, 0.574443f, 0.212588f, -0.404364f, 0.007611f, 0.025636f, -0.047681f, 0.320575f, -0.084249f, -0.397159f, -0.180351f, -0.089529f, 0.383441f, 0.064711f, -0.106093f, 0.077984f, 0.524835f, 0.182979f, 0.073909f, -0.027612f, -0.987107f, 1.717365f, 0.048090f, -0.159845f, -1.136454f, -0.407650f, -0.275221f, -0.062313f, 0.660912f, -0.804196f, 0.816099f, 1.328986f, 0.384347f, 0.465596f, -0.391701f, 0.034080f, 0.324524f, -0.358555f, -0.150574f, -0.584901f, 0.639049f, 0.149367f, 0.121941f, -0.135765f, -1.904369f, -1.526553f, -0.045316f, 0.343409f, 0.764394f, 0.351653f, 0.037702f, 0.180876f, -0.967798f, -0.939057f, -0.426308f, -1.368031f, -0.366039f, -0.944019f, -0.104761f, 0.079915f, 0.683156f, 0.062293f, -0.921878f, 0.645044f, 0.124763f, 1.387662f, -0.518193f, -0.134304f, -0.042138f, -0.127595f, -0.733667f, 0.852215f, -0.450400f, 0.128696f, 0.044903f, -0.830451f, 1.554273f, -1.656422f, 0.558094f, 0.303774f, 0.364459f, 0.026390f, 0.002897f, 0.120507f, -0.783802f, 0.475942f, -1.152614f, -1.300373f, -1.068028f, -0.096643f, 0.753395f, 0.122274f, 0.052338f, -0.352720f, 0.417451f, 0.037489f, -0.347006f, 0.301007f, -0.493958f, 0.260047f, 3.073844f, 1.045125f, -0.433223f, 0.457633f, -0.398177f, -0.153635f, -0.562569f, -0.853625f, 1.414394f, 1.352626f, 0.479589f, -0.217619f, 0.025490f, 2.551074f, 0.348546f, 0.500513f, 0.178490f, 0.027120f, -0.370378f, -0.846845f, -0.664920f, -2.444693f, 0.613305f, -0.712579f, -0.330264f, 0.292553f, 0.530537f, -0.311298f, 0.122896f, 0.288243f, 0.355319f, 1.347269f, -1.072254f, -0.356087f, -0.901450f, -0.397610f, 0.847663f, -0.029737f, 0.468331f, -0.144988f, 0.782678f, -0.037900f, 0.262464f, -0.132193f, 0.014406f, 0.062035f, -0.401001f, 0.260539f, -0.335454f, 0.410290f, 0.336175f, 0.778760f, 0.296880f, -0.391510f, 0.385154f, -0.473086f, -0.202851f, 0.249965f, -0.208946f, -0.320366f, -0.354271f, 0.248026f, -0.508207f, 0.136492f, 0.407017f, -0.299341f, 0.697534f, 1.091734f, -0.246384f, -0.301798f, -0.203174f, -0.265622f, -0.265290f, 0.350669f, 0.475791f, 0.134661f, 0.377618f, -0.168635f, 0.438569f, 0.645948f, 0.651026f, 0.320772f, 0.824521f, -0.257462f, 0.846068f, -0.324426f, -0.168939f, 0.392471f, 0.178700f, -0.084268f, -0.440076f, 0.412698f, 0.063767f, 0.189340f, 0.082842f, -0.280002f, 0.142092f, -0.320655f, 0.613891f, 0.580052f, -0.037183f, 0.270890f, 0.549935f, 0.368511f, 0.154668f, -0.543312f, -0.046926f, -0.024811f, -0.136291f, 0.475333f, -0.260922f, -0.103089f, -0.370880f, 0.658484f, -0.035040f, -0.301302f, 0.277267f, -0.088399f, 0.284163f, -0.301992f, -0.037338f, -0.541444f, -0.326381f, -0.004674f, -0.085753f, -0.245265f, 0.328674f, -0.084389f, 0.401396f, -0.504426f, -0.097503f, 0.519324f, 0.102839f, 0.186930f, 0.329202f, 0.265056f, -0.009561f, 0.244209f, -0.148413f, -0.088371f, -0.054217f, 0.333560f, 0.092272f, -0.175693f, 0.543702f, 0.353427f, 0.939750f, -0.249306f, -0.746227f, -0.366404f, -0.194435f, 0.090377f, 1.704927f, 0.349557f, 0.522483f, -0.114310f, -0.911905f, 0.207092f, 0.679399f, -0.053097f, -0.120729f, -0.318432f, 0.696432f, 0.472563f, -0.215214f, -0.370412f, 0.044191f, 0.102977f, 0.564962f, -0.663014f, 0.121815f, 0.574289f, 0.494081f, 1.074062f, -0.475650f, -0.578261f, 0.568284f, -0.315501f, 0.374346f, -1.436406f, -0.579293f, 0.860077f, -0.060262f, 0.882727f, 0.922780f, -0.536135f, -1.253957f, 0.290144f, -0.459491f, -0.955812f, -0.269486f, -0.934010f, -0.329944f, -0.339381f, 1.258857f, -0.087181f, 0.223749f, 0.155791f, -0.222222f, -0.225620f, -1.242285f, -0.284990f, -1.319143f, -0.151545f, 0.896734f, 0.238752f, 0.655643f, 0.116925f, -1.080067f, 0.215482f, -1.211789f, -0.736190f, 0.253865f, -0.433423f, -0.517109f, 0.214218f, -0.207094f, 0.914660f, -0.279508f, -0.229726f, 0.902480f, 0.038398f, 0.375634f, -0.579746f, 0.645737f, 0.031357f, -0.888943f, -0.123201f, -0.024571f, 0.033081f, 0.223457f, 0.437358f, 0.861409f, 1.012369f, 1.059524f, 1.167682f, -0.175872f, 0.370227f, -0.326423f, 0.004191f, -1.113833f, 0.791580f, 0.869848f, -0.659119f, 0.193030f, -0.089978f, 0.022602f, 0.985285f, 0.170556f, 0.094085f, -0.478722f, 0.074105f, 0.222642f, 0.110125f, 0.100136f, 0.742317f, -0.155234f, 0.253427f, 0.045797f, -0.219838f, -0.118692f, -0.023871f, -0.267294f, -0.049355f, -0.006698f, -0.142798f, 0.049432f, 0.141355f, -0.146950f, 0.066996f, 0.077030f, 0.249559f, 0.154798f, 0.194962f, -0.006089f, -0.175865f, 0.277643f, -0.207056f, -0.015937f, -0.241807f, 0.248157f, 0.258600f, 0.122247f, -0.083755f, -0.137126f, -0.131275f, -0.207997f, 0.014434f, -0.200036f, -0.102224f, 0.070626f, 0.126832f, -0.265059f, -0.039002f, 0.084913f, 0.197781f, -0.014408f, 0.262661f, -0.130515f, -0.272525f, -0.008791f, -0.136238f, 0.180134f, -0.148627f, -0.106113f, 0.162699f, 0.119111f, 0.033122f, 0.114419f, -0.045493f, -0.276149f, -0.272736f, -0.219758f, -0.383341f, -1.249559f, 0.391972f, 0.711752f, -0.396567f, 0.156814f, 0.520060f, 0.514639f, -0.175825f, 0.419213f, -0.760942f, -0.880761f, 0.951190f, 0.346914f, 0.911982f, 0.027061f, 0.123151f, 0.198777f, 0.905628f, 0.155594f, -0.017497f, -0.621015f, 0.076160f, 1.570659f, 0.761974f, -0.633631f, -0.242467f, 0.293085f, 0.839657f, -0.911721f, 0.068036f, 1.329206f, 0.783175f, 1.389230f, 0.921780f, -0.627690f, 1.781501f, -0.184691f, 0.250583f, 0.604481f, 0.224029f, -0.215224f, 0.023913f, -0.368667f, -1.050656f, 0.639354f, -0.208829f, 0.234977f, 0.015365f, 1.393341f, -0.779402f, 0.597245f, -0.266321f, 0.676706f, 0.622932f, -0.236435f, 0.559466f, 0.890538f, -0.382770f, -0.371501f, 0.401259f, 0.214434f, -0.209541f, -0.062982f, -0.019413f, -0.453985f, 0.086875f, 0.866019f, -0.527842f, 0.071788f, -0.492422f, 0.144842f, 0.233914f, -0.258280f, -0.041803f, -0.036408f, 0.014424f, 0.067602f, -0.079916f, -0.884966f, -0.931047f, -0.060501f, 0.044697f, 0.037696f, 0.160649f, -0.018524f, 0.108639f, -0.763434f, -0.236707f, -0.381348f, -0.813385f, -0.138711f, -0.222642f, -0.170813f, 0.601382f, 0.152822f, -0.197812f, -0.377625f, -0.003983f, -0.003981f, -0.117549f, -0.432009f, 0.101631f, -0.110193f, 0.207135f, -0.983282f, 0.466542f, -0.044162f, 0.229693f, -0.130795f, 0.003449f };
static const float X40_MLP_L56_layer_1_biases[5] = { 1.434738f, 0.291830f, -0.964883f, 0.377943f, -0.888022f };
static const float X40_MLP_L56_layer_1_weights[280] = { -4.024179f, -1.259112f, 1.589018f, 2.889206f, 0.220410f, 0.213098f, -0.741157f, 0.291284f, -1.243343f, 0.537738f, 1.070649f, -2.339983f, 0.831420f, 0.974803f, -0.174851f, -1.206247f, 0.174541f, 0.408642f, 0.860609f, 0.195821f, -1.184277f, 0.793938f, -0.447706f, 0.721115f, 0.108069f, 0.650626f, -0.266584f, -0.737017f, 0.748113f, 0.175183f, -0.125927f, 0.459920f, 0.853982f, -0.509101f, 0.154996f, -0.923530f, 0.424320f, 0.804740f, 0.437448f, -0.836347f, -0.201529f, -0.621235f, -0.217788f, 1.506517f, 0.224017f, 1.289968f, 0.747019f, -0.058165f, -0.975389f, -0.816043f, -4.157089f, 0.286289f, -0.273213f, 3.674924f, -0.133956f, -0.239406f, -0.328623f, -0.910932f, 0.710658f, 0.442166f, 0.943389f, -0.518347f, -0.971229f, -0.317242f, 1.016638f, -2.154287f, 0.456333f, 1.132809f, 1.363685f, -0.854961f, -0.196148f, -0.412538f, -0.644751f, 2.043312f, -0.183123f, -0.674063f, -0.139421f, -0.431348f, 1.142987f, 0.112464f, -1.372619f, -0.631737f, 0.927489f, 0.626385f, 0.744768f, 0.578420f, 0.683845f, -0.224383f, 0.541293f, -1.022519f, -0.684446f, -0.300115f, 0.313791f, 1.033868f, -0.045224f, -0.173101f, -0.127681f, 0.153698f, 1.009673f, -1.247714f, 1.465527f, 0.977981f, -0.257918f, -1.178506f, -0.556820f, -0.601434f, -0.190176f, -0.653493f, 0.862537f, 0.160378f, 0.798708f, 0.146988f, -0.553610f, 0.446718f, -0.339090f, -0.541852f, -0.078893f, -0.011361f, 0.849067f, -0.484542f, -0.110933f, 1.614687f, 0.844474f, -1.451214f, -1.275055f, -2.309208f, 0.514576f, 0.947067f, 1.577935f, -0.227469f, 0.084149f, -0.769145f, -0.196389f, 0.299479f, 0.942739f, 1.864874f, 0.596767f, -0.473437f, -1.850249f, 0.229839f, -0.308727f, 0.506970f, -0.896341f, -0.275630f, 0.640157f, 0.385602f, 0.365143f, 0.000745f, -0.555185f, -0.671565f, 1.341748f, -0.191783f, -0.786199f, -0.929605f, 0.883091f, 0.457787f, -0.530247f, 0.634510f, -0.930913f, -0.265526f, -0.137089f, 0.847480f, 0.653817f, -0.783487f, 0.033642f, 0.544562f, 1.272773f, -0.208828f, -0.276677f, -0.819454f, -1.940949f, 0.070844f, 2.207525f, 0.661086f, -0.867232f, -2.018328f, 1.668481f, 0.581579f, -0.543816f, 0.208489f, -0.187460f, 0.772193f, 0.248599f, -1.100691f, -0.487944f, -0.030842f, -0.662218f, 1.619352f, -1.076412f, -0.688913f, -0.108144f, 0.737651f, -0.985499f, 0.192435f, -0.303703f, 1.825310f, -0.885419f, -0.559862f, 0.663749f, -0.743014f, -0.391337f, -1.669607f, 0.259501f, 1.569303f, 0.116978f, 0.037955f, 0.646213f, 0.828025f, -0.324417f, -0.784282f, -0.708998f, 1.659695f, 0.105434f, -0.864059f, -0.255934f, -1.350268f, -0.337006f, 0.199275f, 1.307619f, 0.767443f, 0.668383f, 0.243554f, -0.770076f, -0.479521f, 0.778798f, -0.534843f, -0.269562f, -2.163904f, 3.015858f, 0.684052f, -1.070651f, -0.215531f, 0.480587f, 0.673987f, 0.472174f, 0.928815f, -0.329150f, -0.605638f, -0.335854f, 0.260290f, -0.867080f, 0.018572f, 0.333869f, 0.523392f, 0.086204f, 0.591242f, -0.477603f, -0.487069f, -0.251437f, 0.332007f, -2.273030f, 0.536468f, 1.508066f, 1.686155f, -1.045271f, 0.705951f, 0.192885f, -0.507549f, -0.775984f, 0.426367f, -1.868871f, 0.360070f, 1.710052f, -0.162657f, -0.059202f, 0.126711f, -1.117848f, -0.795839f, 0.191407f, 1.072529f, 0.425904f, 1.062020f, -0.124145f, -0.825197f, -0.155532f, 1.331048f, 0.398549f, -0.348311f, -0.137969f, -1.328864f };
static float X40_MLP_L56_buf1[56];
static float X40_MLP_L56_buf2[56];
static const EmlNetLayer X40_MLP_L56_layers[2] = { 
{ 56, 21, X40_MLP_L56_layer_0_weights, X40_MLP_L56_layer_0_biases, EmlNetActivationTanh }, 
{ 5, 56, X40_MLP_L56_layer_1_weights, X40_MLP_L56_layer_1_biases, EmlNetActivationSoftmax } };
static EmlNet X40_MLP_L56 = { 2, X40_MLP_L56_layers, X40_MLP_L56_buf1, X40_MLP_L56_buf2, 56 };

    int32_t
    X40_MLP_L56_predict(const float *features, int32_t n_features)
    {
        return eml_net_predict(&X40_MLP_L56, features, n_features);
    }
    

    int32_t
    X40_MLP_L56_regress(const float *features, int32_t n_features, float *out, int32_t out_length)
    {
        return eml_net_regress(&X40_MLP_L56, features, n_features, out, out_length);
    }
    

    float
    X40_MLP_L56_regress1(const float *features, int32_t n_features)
    {
        return eml_net_regress1(&X40_MLP_L56, features, n_features);
    }
    