
#include "eml_net.h"
static const float X60_MLP_L26_layer_0_biases[26] = { 1.108012f, -0.136690f, 1.489407f, 1.307057f, 0.216025f, -1.648154f, -2.744046f, 2.169523f, 1.555506f, -0.887554f, -0.765617f, 0.695943f, 1.632715f, 0.523633f, -0.216242f, -1.951186f, 0.146484f, 2.211813f, 0.401832f, -1.178119f, 1.201304f, -0.059502f, -1.013612f, -0.934001f, 1.286309f, 0.784224f };
static const float X60_MLP_L26_layer_0_weights[1170] = { -3.852846f, 0.690021f, -0.165693f, 2.642253f, 1.089269f, -4.310534f, 0.234100f, 1.072829f, -0.738913f, -0.400232f, 0.017650f, -1.976555f, 0.083395f, 1.676157f, -1.560896f, -2.116920f, 0.249165f, -0.626991f, 2.641938f, -0.001155f, 0.537543f, -1.813560f, -0.502501f, 2.125834f, 0.635531f, 1.830827f, -0.758864f, 4.007226f, -0.218432f, -1.772092f, -0.755467f, -2.453947f, 0.124742f, -0.744234f, -1.631310f, 0.041212f, 0.263719f, 0.037116f, -0.253269f, 0.238347f, -1.319489f, 0.408588f, 0.343810f, 0.513665f, -0.537994f, -0.724620f, -0.483262f, 0.669815f, -0.013872f, -1.041547f, -0.003738f, 0.188757f, -0.257967f, 1.119399f, -0.629516f, 0.217196f, -0.928640f, 0.305746f, -1.283879f, -0.299189f, 0.805386f, -2.483255f, 0.171509f, 0.843627f, -0.076232f, 0.983374f, 0.094537f, -0.150319f, -0.624595f, 0.944995f, 0.289250f, -0.505930f, -1.284734f, -0.172202f, -0.210792f, 0.457199f, -0.350546f, -0.157842f, 0.101106f, 1.886380f, -0.579732f, 0.121708f, -1.209381f, 0.110402f, -0.903554f, -1.714839f, 0.593916f, -3.796868f, -0.018337f, 0.477611f, -0.175860f, 0.971428f, 1.045241f, 0.200736f, -0.633844f, 0.766894f, -0.189250f, -0.286021f, -1.143104f, -0.529699f, -0.437437f, 0.889432f, 0.099448f, 0.370805f, 0.325930f, 1.968503f, -1.959079f, 0.264103f, -0.674370f, -1.826445f, -2.470781f, 1.470770f, 0.678323f, 0.401650f, 2.421371f, -0.793012f, 2.021610f, 4.931136f, 1.501732f, 2.556599f, -0.300803f, 0.939785f, -0.575494f, 0.707562f, -2.322706f, 0.414126f, 0.807647f, -0.980598f, 0.489263f, 0.162218f, -3.406965f, -4.070838f, -0.592728f, -1.648152f, 0.074188f, 1.042201f, -10.348372f, -0.304074f, 0.402106f, -2.728428f, -0.564765f, 0.732073f, 1.938785f, -2.149949f, 2.088807f, 1.772529f, -0.366459f, 0.616277f, 1.703033f, -3.583583f, -0.276619f, -0.125810f, -0.080348f, -0.533061f, 1.616155f, 1.142543f, 0.239903f, -0.413288f, -1.276464f, -0.142775f, -3.355134f, -2.137038f, 1.951128f, 0.486338f, 0.520404f, -0.734855f, -0.802003f, 1.541188f, 0.763062f, 5.335914f, -0.310336f, 0.079445f, 2.097327f, 0.714691f, 3.747503f, -4.856796f, 0.295606f, 5.093063f, 2.529907f, -0.363685f, -0.850475f, -0.246312f, 2.868024f, -3.300975f, 1.777222f, 2.468727f, -2.469407f, 4.240902f, -0.238638f, 0.647368f, 0.499770f, 0.357894f, -1.404913f, 3.753748f, -0.557668f, 3.758038f, 0.380948f, -0.036760f, 0.315529f, 1.786837f, -0.550021f, 1.090092f, -2.347071f, 1.892077f, 0.558990f, -2.774458f, 0.582100f, -1.052438f, -0.013339f, 0.224638f, 0.292365f, -0.183051f, 0.222824f, -0.251422f, -0.518242f, 0.110983f, -0.090925f, -0.066100f, -0.051273f, 0.134077f, 0.056501f, 0.244335f, -0.106840f, 0.348713f, -0.187342f, 0.277714f, 0.025360f, -0.247712f, 0.280859f, 0.138378f, -0.144653f, -0.170051f, 0.002361f, -0.291396f, -0.196418f, -0.102604f, -0.048514f, 0.142610f, -0.067393f, 0.003074f, -0.008009f, -0.275882f, 0.068522f, -0.171199f, 0.098580f, -0.190134f, 0.085662f, -0.236538f, -0.206842f, 0.269260f, -0.112954f, 0.281227f, 0.091135f, 0.068654f, 0.234212f, -0.241930f, -0.015391f, 0.054864f, 0.273480f, -0.117940f, -2.244147f, 0.630715f, 0.194744f, -0.020974f, -5.225594f, 2.293357f, -0.275396f, -0.395865f, 0.591331f, 1.649013f, 1.951376f, -1.109007f, 0.161380f, 1.603432f, -0.244116f, 1.680541f, 0.589524f, 0.251722f, -0.315335f, 0.035051f, -1.201208f, 1.063240f, -0.749390f, -7.702935f, 0.497042f, -1.812917f, 1.555563f, 0.565440f, -0.032759f, -1.876166f, 3.026780f, -3.004404f, -2.947812f, -0.040275f, -0.490295f, 0.285318f, -2.183280f, -0.146731f, 0.813914f, -0.137173f, 0.784502f, 0.106906f, -1.702336f, 0.681597f, 0.790429f, -0.029614f, -0.734167f, 0.465855f, 0.599321f, 0.813086f, 0.611906f, 0.413062f, 0.433211f, 0.409981f, 0.546169f, 0.755279f, 0.711256f, 0.448796f, -0.208792f, 0.094453f, 0.629058f, -1.252667f, -0.337231f, 0.395974f, 1.263231f, 0.155661f, 0.017002f, 0.130717f, 0.081630f, 0.810881f, -0.186389f, 0.135886f, -0.508717f, 0.288046f, 0.615047f, 0.835954f, 0.140279f, -0.156509f, -0.589940f, 3.048624f, -0.767871f, 0.722705f, 1.978946f, -9.671897f, 1.781111f, 0.729127f, 0.549221f, -1.047572f, -1.081142f, 4.244370f, 0.037001f, 3.896235f, -2.748951f, -2.202284f, 2.453144f, 0.903617f, 4.004789f, -6.100556f, -1.141010f, -0.280788f, -0.605277f, 3.445475f, 0.664967f, 3.512372f, 0.072828f, 0.930090f, 0.995678f, -2.356198f, 2.671083f, -0.995430f, -2.004726f, -2.426331f, -0.110989f, 1.791207f, 2.640142f, -1.547854f, 0.048739f, 1.506987f, 0.674692f, -0.410846f, 1.145880f, 0.330595f, 0.347175f, -1.636642f, -1.338102f, 1.580090f, -0.392632f, -0.971471f, -0.273739f, 1.060087f, -0.221696f, -0.040284f, -0.260099f, 0.099561f, -0.225710f, 0.468841f, -0.610686f, 0.017055f, -0.238254f, -0.329780f, -0.069315f, 0.305677f, 0.073692f, 0.236310f, 0.350019f, -0.658355f, 0.096087f, -0.127413f, 0.080815f, -0.271464f, -0.288127f, -0.091389f, -0.110224f, -0.126197f, -0.023336f, -0.230229f, -0.196052f, -0.287741f, -0.221279f, 0.061028f, 0.286620f, 0.301007f, -0.082658f, -0.168080f, 0.097614f, -0.023883f, 0.260542f, -0.242975f, 0.175501f, -0.113301f, -0.135304f, 0.000069f, -0.143138f, 0.103952f, 0.007821f, -0.047099f, 0.027210f, -0.127395f, 0.126524f, -0.057406f, -0.077766f, 0.196438f, 0.582038f, 1.477139f, 0.004570f, 0.740593f, 0.581753f, -2.869609f, -0.465887f, 1.874666f, 0.187407f, -0.157220f, -0.647052f, -0.822622f, 2.362265f, 1.643907f, 0.843382f, 1.189706f, 0.172862f, 1.141180f, 0.928563f, -1.843234f, 0.986497f, -1.944818f, -1.295547f, 0.567615f, 1.359839f, 0.754269f, 1.032248f, -1.965909f, 1.463223f, 0.819751f, -0.443555f, 1.363904f, -1.091977f, 0.684448f, 1.043694f, 0.233549f, -0.064731f, 0.941413f, -1.130235f, -1.338908f, -1.131726f, -2.607893f, -0.535860f, 1.228302f, -0.992511f, 0.589778f, 0.241111f, 1.877032f, -0.127002f, -1.573348f, 0.044836f, -0.049615f, 0.030286f, -0.132749f, -0.025927f, -0.057108f, -0.146259f, 0.003413f, -0.110247f, -0.073816f, 0.014520f, 0.145657f, -0.096813f, 0.246580f, 0.210658f, -0.262389f, -0.143212f, -0.031362f, -0.229872f, -0.088092f, 0.139589f, 0.104980f, 0.071158f, 0.122401f, -0.171536f, -0.092030f, 0.102475f, 0.220477f, 0.029171f, -0.125666f, -0.280048f, 0.098190f, -0.285103f, -0.053303f, -0.019231f, 0.246157f, -0.234913f, -0.083485f, -0.280782f, -0.084636f, 0.071390f, -0.127679f, -0.163686f, -0.257963f, 0.152480f, 0.115894f, 0.104471f, 0.285501f, -0.289270f, 0.080128f, 0.166645f, 0.051895f, 0.279614f, -0.322985f, 0.576080f, 1.880138f, 0.075570f, 0.829701f, 0.778312f, -3.563768f, -1.500859f, 1.838502f, 0.515947f, -0.890374f, -0.676225f, -0.726252f, 2.579952f, 1.931005f, 1.261959f, 0.382702f, 0.467408f, 1.257103f, 0.959385f, -1.636306f, 1.161335f, -1.665666f, -0.710431f, 1.004465f, 1.681591f, 0.907683f, 1.231549f, 0.111567f, 1.221945f, -0.182680f, -0.517300f, 0.547791f, -0.267785f, -0.191302f, 0.273602f, 1.044065f, -0.724937f, 0.056321f, -0.322654f, 0.293879f, -0.136542f, -1.669119f, -0.015715f, 0.938012f, -0.387199f, 0.436704f, -0.487943f, 0.827502f, -0.050189f, -0.895316f, -0.433530f, -0.523186f, -0.002351f, 0.297943f, -0.213036f, -0.076293f, 0.136949f, -0.258275f, 0.007453f, 0.002799f, -0.118168f, -0.269999f, -0.049888f, -0.125007f, 0.081449f, -0.065595f, 0.359936f, -0.418020f, -0.231787f, -0.081930f, 0.051442f, 0.150598f, -0.050305f, 0.280987f, -0.042395f, 0.139072f, 0.097848f, 0.166245f, 0.410178f, 0.476364f, 0.230986f, 0.345810f, -0.123503f, 0.045038f, -0.660925f, -0.212571f, -0.007712f, -0.159838f, -0.027370f, -0.849250f, -0.614009f, -0.106144f, -0.391721f, -0.465032f, -0.069569f, 0.321088f, 0.204561f, 0.431662f, 0.069056f, -0.193329f, 0.660699f, 0.001296f, -0.434252f, -0.468152f, -0.860728f, -2.167338f, 0.264905f, -0.050706f, -0.149782f, 0.741310f, -0.531591f, 0.731770f, 0.358634f, -0.403950f, 0.514581f, 2.191983f, -0.472115f, -1.862632f, -1.063689f, -0.302316f, -0.032270f, 0.215875f, -0.075860f, -0.181869f, 0.261813f, 0.760563f, -0.575153f, -0.575991f, 1.086363f, 0.416726f, 0.516139f, 1.522650f, 1.209677f, 2.605284f, 0.411569f, 4.858200f, -0.185931f, 2.291160f, 0.937617f, 3.821458f, -3.146690f, 0.054692f, 0.476944f, -0.736478f, -0.503263f, -1.562469f, -1.921331f, 1.599092f, -2.250440f, -0.503085f, 0.117742f, -0.022056f, -0.797986f, -3.127257f, 0.395850f, 0.077573f, 0.658119f, -3.066196f, 0.898858f, -1.319985f, 0.996412f, -0.698237f, -0.118626f, -0.984396f, -0.193852f, -3.210994f, 0.915946f, -0.838740f, -1.107220f, -0.024912f, 0.452255f, 0.199768f, 1.086299f, 0.152495f, 0.827042f, -0.013621f, 0.656759f, 1.255629f, -0.269194f, 0.529098f, -0.021487f, 1.603623f, 0.275474f, -0.003204f, -0.052276f, 0.089521f, 0.034967f, -0.176475f, 0.015482f, 0.172254f, -0.115227f, -0.309104f, -0.292795f, -0.317675f, 0.168041f, 0.436535f, -0.253962f, -0.761002f, 0.006395f, -0.181063f, 0.142809f, 0.737202f, 0.489606f, -0.013814f, 0.573996f, 0.046600f, 0.310497f, -0.156720f, -1.002645f, -2.344715f, -0.093986f, -2.640445f, -1.892280f, -2.057614f, -1.638856f, -0.127722f, -0.283072f, -1.338563f, 2.580909f, 2.615962f, 1.210224f, 0.049246f, -2.666749f, 2.454392f, 1.344635f, 0.531273f, -0.446328f, -2.267132f, -0.801356f, 0.582611f, -1.476785f, -3.227340f, 0.655304f, 2.720586f, 0.115343f, 2.204237f, -0.954472f, 2.076162f, -2.565319f, -2.261460f, 0.294117f, 0.508225f, 0.204599f, 0.594713f, -0.667975f, 1.215402f, 1.011808f, 0.243007f, 0.474454f, 1.593944f, 0.031565f, -0.573396f, 1.254361f, 0.148243f, -0.496087f, -0.682072f, 0.755932f, 2.524443f, 0.550077f, -1.444091f, 0.361116f, 0.125507f, 0.107327f, 0.372319f, 0.395099f, -0.885913f, 0.145674f, 0.228696f, -0.284597f, 0.009847f, -0.262265f, -0.249648f, 0.127052f, -0.022754f, 1.246161f, -2.568378f, 0.891478f, -0.224393f, 1.026393f, -0.137253f, -0.328048f, -0.695713f, 0.220965f, 0.122703f, 0.058474f, -0.636147f, 0.141115f, 0.045297f, 0.690332f, -0.173008f, -0.126309f, -1.813485f, -0.193531f, 0.073627f, -0.085301f, 0.020982f, -0.007765f, 0.248771f, -0.193572f, 0.090764f, 0.011937f, 0.756247f, -0.221763f, -0.011817f, 0.229905f, -0.521138f, -0.749070f, -0.125395f, 0.218471f, 0.144282f, -0.181460f, 0.570202f, 0.040922f, 1.235007f, 0.095600f, 0.172418f, 2.064605f, 0.186835f, -1.616670f, 0.936768f, 0.010329f, -0.975407f, 0.107162f, -2.190097f, 0.346600f, 0.162378f, 1.779145f, -2.453511f, -1.377022f, 0.123507f, -0.540997f, 1.565604f, 1.711768f, -0.225540f, 0.194790f, 2.304640f, 0.137020f, -1.600709f, 1.372133f, -0.204093f, 1.205925f, 0.851532f, 0.094535f, -1.788629f, -1.858233f, 1.433679f, 1.026713f, -0.095696f, -0.449436f, 0.106424f, 1.419956f, 0.633338f, -0.123013f, -0.915151f, 0.050103f, 1.899180f, -0.111006f, -1.667435f, 1.329467f, -0.032018f, -1.196040f, -1.135784f, 1.070551f, 0.582920f, 0.256991f, -0.215738f, 0.728305f, 0.306799f, -0.156930f, 0.277175f, -0.932504f, 0.773626f, 0.389900f, -0.648327f, -0.282330f, 0.351209f, 0.321532f, 0.242533f, 0.056239f, -0.817382f, 0.287977f, -0.130851f, 0.255038f, -0.144765f, 0.141041f, -0.289104f, -0.005449f, -0.051311f, 0.082656f, 0.128902f, -1.928145f, -3.032284f, 5.166442f, -0.564380f, -3.299748f, -0.636181f, -0.761039f, -0.335065f, 0.026672f, 0.524867f, 0.983535f, 0.484895f, 0.490981f, -0.375380f, -3.082593f, 3.700016f, -0.937020f, 0.724297f, 0.515262f, -0.659120f, -0.013655f, 1.313116f, -0.704457f, -0.470701f, 0.778756f, -0.700338f, 2.075540f, 1.659648f, -1.823119f, 1.329889f, 1.542941f, -0.533360f, -1.048140f, 1.962059f, 1.122779f, -0.465308f, -0.894601f, 0.183099f, 0.925643f, 1.007315f, 1.466044f, -2.284716f, 0.031922f, 1.165206f, -0.195197f, -0.558879f, 0.409616f, -0.279425f, 0.057689f, -0.327358f, 0.113018f, 0.580944f, 0.568013f, 1.231347f, -2.331267f, 0.463053f, 1.315430f, -0.610749f, -1.231877f, 0.786477f, 0.231551f, -0.778859f, -0.757884f, -0.208631f, 0.596852f, -0.341263f, 1.417597f, -3.014646f, 0.353017f, 0.387451f, -0.096491f, -0.357540f, 0.579810f, -1.021773f, 0.262205f, -0.065887f, 0.395420f, 1.107818f, -0.278733f, -0.051018f, -0.006400f, -0.148987f, 0.051186f, 0.143743f, -0.155801f, 0.069596f, 0.081460f, 0.261252f, 0.161735f, 0.203080f, -0.005051f, -0.182848f, 0.288076f, -0.215375f, -0.013598f, -0.251198f, 0.258184f, 0.269218f, 0.127657f, -0.086787f, -0.142840f, -0.136880f, -0.216655f, 0.016115f, -0.147789f, -0.090880f, 0.061534f, 0.142675f, -0.259275f, -0.047889f, -0.060100f, 0.221887f, -0.008937f, 0.119140f, -0.188273f, -0.315955f, 0.310297f, -0.103185f, 0.218195f, -0.340069f, -0.106729f, 0.179271f, 0.124633f, 0.121665f, 0.135630f, -0.057192f, -0.126422f, -0.278035f, 0.046853f, -0.249400f, -0.260784f, 0.270601f, 0.208605f, -0.202366f, -0.290343f, 0.257183f, -0.129124f, -0.182415f, 0.111399f, -0.227690f, -0.136841f, 0.276462f, 0.081095f, 0.012067f, -0.059043f, 0.159457f, -0.208232f, 0.271710f, 0.210630f, 0.068717f, -0.265807f, 0.116764f, 0.240304f, 0.014107f, -0.084757f, -0.220894f, 0.148224f, 0.223915f, -0.232529f, 0.150442f, -0.280740f, 0.272460f, 0.066334f, 0.030508f, -0.118612f, 0.249179f, -0.136097f, 0.191215f, 0.282055f, 0.164763f, 0.011075f, -0.252618f, -0.015682f, -0.035873f, -0.172784f, -0.044343f, -0.082717f, -0.195546f, -0.033524f, -0.137904f, 0.013163f, -0.270411f, 1.538312f, 0.233298f, 1.823798f, 0.064024f, -0.590614f, -2.098010f, -0.770467f, 0.596745f, 1.247244f, 0.687851f, -2.318772f, 0.584794f, -1.324367f, -0.108377f, 0.937912f, -1.568214f, 1.807653f, 1.388406f, 0.743015f, -1.520260f, 1.237775f, 1.766570f, -1.764464f, 2.621643f, 0.390872f, 0.767236f, -0.369188f, -0.196725f, -0.413327f, 1.389818f, 0.689564f, 0.234641f, -1.960359f, 2.060825f, 0.171280f, -1.283539f, 1.435405f, 0.209497f, 2.145419f, 0.653047f, -0.974523f, -0.141433f, -1.559277f, 0.399069f, -0.372899f, 0.401745f, -0.566207f, -2.165927f, 0.543970f, -3.585759f, 0.936180f, 0.342258f };
static const float X60_MLP_L26_layer_1_biases[10] = { 5.510396f, -0.059699f, 0.896411f, -1.091861f, 0.724170f, 0.451569f, -0.094109f, -1.413091f, -1.366868f, -1.992458f };
static const float X60_MLP_L26_layer_1_weights[260] = { 0.733400f, -0.802849f, -2.260442f, -0.313817f, 0.995374f, 0.938114f, 1.047151f, 1.367549f, -0.103702f, -1.298515f, 1.295352f, 0.164460f, -1.887277f, 0.981524f, -2.762184f, 2.354034f, -0.695929f, 1.094477f, -0.318452f, -0.136561f, -2.655014f, -0.584749f, -0.038326f, 1.708328f, 1.361864f, -2.724746f, 1.622657f, -0.142087f, 1.256171f, 0.945858f, -1.160910f, 0.863175f, -0.603890f, 1.707855f, -2.972911f, 1.401752f, -1.230555f, 0.263630f, -0.154280f, 0.399956f, 1.020120f, 1.513274f, -0.627433f, -1.951528f, 1.249823f, 0.037109f, 0.305674f, -0.893447f, -0.474135f, -0.857398f, 3.194864f, -4.328667f, 1.745221f, -0.805742f, -0.247406f, 1.615770f, -0.443059f, 0.187689f, 0.491752f, -0.733941f, -4.168515f, -2.715173f, 0.420213f, 2.279168f, -0.288895f, 6.035675f, -0.597970f, 0.185591f, -0.162689f, 0.477876f, 1.000470f, 0.860616f, -0.575172f, 1.214957f, -2.807220f, 0.938491f, 0.564767f, -0.387431f, 0.138214f, -0.115532f, 0.891768f, 0.049851f, -0.598620f, 0.371720f, 1.121859f, -0.391571f, -0.502384f, -0.593862f, -0.189992f, -0.165988f, -2.188605f, 0.030220f, 0.461947f, 1.514973f, -2.789343f, 0.373198f, -1.376992f, 1.455507f, 1.172687f, 0.696082f, -1.089797f, -0.855342f, 2.776712f, -1.928804f, 1.341913f, -0.297932f, -0.021339f, 0.305978f, -0.008703f, 0.525852f, -1.123724f, -1.705399f, 2.860731f, 0.209037f, -1.635301f, -0.155207f, 1.581722f, -0.434974f, 0.633979f, -0.047837f, 5.041312f, -0.104582f, -1.894305f, 1.334195f, -0.809436f, -0.699076f, 0.047120f, -0.916502f, -0.086466f, -0.837347f, -0.446612f, -0.920465f, -3.937900f, 1.732673f, 1.230107f, 2.100713f, -1.716150f, 0.265071f, 1.257152f, 0.677475f, 0.925596f, 1.285392f, -1.414696f, -0.934851f, -2.291171f, 0.117791f, 0.066197f, 1.569657f, 0.983380f, 0.282925f, -4.342424f, -2.735660f, 4.080561f, 0.842755f, -1.402064f, 0.252287f, -0.431724f, 0.761747f, 1.443156f, 0.764997f, 1.657016f, 0.103329f, 0.545975f, 0.211398f, 0.550298f, -1.321755f, -0.757432f, 0.069433f, -0.915850f, 0.264525f, 0.894024f, 1.729030f, -0.222187f, -2.309055f, 1.384214f, 0.139939f, -0.165106f, -0.455097f, -0.158905f, -0.079442f, -0.135461f, -3.151200f, -0.533257f, 0.585617f, 1.473821f, -0.804878f, 1.621194f, 0.601684f, -0.894051f, 0.572185f, -0.070666f, -1.244653f, -3.408647f, 0.138723f, 1.487198f, 3.743435f, -0.469370f, 0.138427f, -0.209057f, -0.108559f, 1.157800f, 0.966447f, 0.537778f, -1.249838f, 1.740424f, 1.186887f, -0.972763f, -1.466735f, -0.896123f, 0.241519f, -1.122356f, 1.296508f, 0.043010f, 1.636132f, 2.986005f, -1.880631f, 0.297526f, -1.559470f, -0.914628f, -1.974851f, 3.819854f, 0.790583f, -1.829814f, -0.707332f, -1.532206f, -2.006874f, -1.551718f, 0.218394f, 0.384022f, 0.273219f, -0.397525f, 2.178812f, -0.991410f, 1.008151f, 2.212607f, -1.748729f, 0.087634f, -0.601968f, -0.919599f, -0.350009f, 0.830465f, -0.985401f, -0.081080f, -0.027962f, 0.858098f, -0.220332f, 0.804513f, -0.016792f, -0.745185f, -0.339072f, -1.195076f, 0.747282f, 0.414531f, 0.043267f, 1.390661f, -2.271624f, 1.397826f, 1.503383f, -0.630579f, 0.250086f };
static float X60_MLP_L26_buf1[45];
static float X60_MLP_L26_buf2[45];
static const EmlNetLayer X60_MLP_L26_layers[2] = { 
{ 26, 45, X60_MLP_L26_layer_0_weights, X60_MLP_L26_layer_0_biases, EmlNetActivationTanh }, 
{ 10, 26, X60_MLP_L26_layer_1_weights, X60_MLP_L26_layer_1_biases, EmlNetActivationSoftmax } };
static EmlNet X60_MLP_L26 = { 2, X60_MLP_L26_layers, X60_MLP_L26_buf1, X60_MLP_L26_buf2, 45 };

    int32_t
    X60_MLP_L26_predict(const float *features, int32_t n_features)
    {
        return eml_net_predict(&X60_MLP_L26, features, n_features);
    }
    

    int32_t
    X60_MLP_L26_regress(const float *features, int32_t n_features, float *out, int32_t out_length)
    {
        return eml_net_regress(&X60_MLP_L26, features, n_features, out, out_length);
    }
    

    float
    X60_MLP_L26_regress1(const float *features, int32_t n_features)
    {
        return eml_net_regress1(&X60_MLP_L26, features, n_features);
    }
    