
#include <eml_net.h>
static const float X20_MLP_L56_layer_0_biases[56] = { 0.556288f, -1.444691f, 1.881195f, -1.515401f, -1.365974f, 1.529779f, -0.225761f, 0.780445f, 0.169069f, -0.128583f, -1.737908f, -0.043772f, -0.716393f, 1.601294f, -0.363828f, 0.949149f, 0.924948f, 0.077393f, 0.410212f, -1.403375f, -1.046212f, -1.205259f, 0.977466f, -1.316408f, 0.328395f, -1.994560f, -0.363026f, 3.330527f, 2.041460f, -0.375701f, -1.854058f, 0.568445f, -0.513278f, -0.490225f, -0.988575f, 3.074622f, -4.038345f, 0.693275f, -1.270100f, 1.786999f, 7.356147f, 0.658485f, 1.096023f, -0.454037f, -0.031599f, -0.488518f, 1.062699f, 0.052437f, -0.336098f, 1.021606f, 0.046070f, 2.055416f, -0.359510f, -1.422301f, -2.020330f, 1.659277f };
static const float X20_MLP_L56_layer_0_weights[672] = { 0.011181f, 0.319403f, 2.293791f, -1.266605f, -4.675401f, 0.567734f, 0.431800f, -1.183628f, 0.319728f, -1.419267f, -0.494123f, 4.161509f, -0.723866f, 2.846593f, -4.351524f, 0.203163f, 1.937789f, 4.624460f, -0.939536f, -0.396099f, 0.865034f, -1.608970f, 1.027469f, 2.655312f, 0.259668f, 4.937239f, -0.640553f, 2.052560f, -0.059265f, -1.822065f, -1.744466f, 6.620386f, -0.885944f, -1.641338f, -2.669624f, -3.583001f, 3.078766f, -3.865482f, -0.940304f, 0.091371f, 0.520894f, 2.193497f, 0.452697f, -1.512148f, 1.243470f, -1.086977f, 0.777408f, -1.905518f, -0.260484f, -0.365213f, -0.647278f, -1.090971f, 5.473770f, -3.665728f, -4.707941f, 3.321314f, 1.629169f, 0.194331f, -1.664800f, -0.164075f, 0.088334f, -1.705802f, 0.140741f, 0.496829f, -2.641047f, 1.554488f, 4.592268f, -4.058461f, 1.119999f, 5.340613f, 1.550757f, -2.361877f, -1.376127f, 2.639467f, 0.878492f, 2.268656f, 2.440165f, -1.655561f, 0.639979f, 2.045710f, 1.941458f, 2.639657f, -0.450184f, -1.151575f, 0.817802f, 3.120099f, 1.978851f, -2.161980f, 2.042449f, 1.156847f, 2.026743f, -3.278391f, -1.214134f, -2.648753f, 1.892301f, 0.097351f, 4.099617f, 2.184694f, 0.413252f, -1.932646f, -5.065490f, -0.920534f, 1.378861f, 1.803462f, -0.147451f, 1.945829f, 2.985549f, 0.936122f, -1.453279f, 1.278886f, 1.588130f, 1.970649f, -1.909923f, 1.051601f, 0.201912f, -6.139315f, 1.909197f, 1.568838f, 1.947654f, -2.917814f, 2.191543f, -2.964956f, 2.567688f, 3.189534f, -2.144003f, -0.348600f, -1.145171f, 2.955885f, 2.319097f, -9.130063f, 1.849545f, -2.730602f, -7.589636f, -5.275395f, -2.268150f, 0.992547f, 2.890412f, -0.089512f, 3.040655f, -5.739896f, 12.436844f, -2.878412f, -2.732022f, 4.587507f, -2.720551f, 0.010142f, -2.493787f, 6.020784f, -1.364874f, 4.725753f, -3.630409f, -0.218096f, -1.096377f, 12.903555f, 1.324370f, 1.564544f, 0.924226f, 1.183425f, -1.722686f, -0.850231f, -9.717365f, -1.276540f, 10.603190f, 6.817561f, 0.509126f, 4.961011f, -2.886018f, 4.564937f, 0.412171f, -2.145071f, 3.314744f, -1.010015f, 3.988497f, 0.983856f, 0.426884f, -0.583280f, 0.098777f, -0.874121f, 1.667156f, 0.946793f, -0.564624f, -2.422403f, -1.221303f, -0.200061f, 0.186346f, -1.787199f, -0.815563f, -1.391692f, -2.371021f, -2.199956f, 0.001536f, -1.925635f, 2.603197f, -0.346437f, 2.958440f, -0.549041f, 3.417588f, 1.716917f, -0.455018f, 0.464052f, 1.610875f, 0.483034f, -0.454847f, 2.080882f, -0.383075f, 2.809787f, -0.795169f, 1.009365f, 1.140498f, 3.659257f, -1.363087f, 1.132664f, 1.483964f, 0.157406f, -2.999749f, -0.451569f, -0.609321f, 0.126882f, 4.977918f, -0.974357f, 3.550878f, 0.673420f, -1.573231f, 1.232139f, -1.116403f, 0.314019f, -0.322163f, -0.465490f, -0.358765f, 0.898254f, -0.494594f, 0.027382f, 2.821028f, -0.549973f, -4.382760f, -5.035107f, -0.151513f, -0.407440f, -0.552418f, 1.821639f, 0.134602f, 1.783151f, -2.002446f, 1.082029f, -1.008653f, -2.840942f, -1.224615f, 2.281736f, -0.645256f, -3.788032f, 3.184922f, -1.894712f, 1.109860f, 2.385352f, -1.911901f, -0.488243f, -1.933675f, 1.723170f, 2.898982f, -11.612105f, -10.785900f, -3.152517f, 0.410143f, -0.100435f, 0.652024f, 0.741725f, 1.238912f, -2.312450f, -3.944630f, -0.892453f, 5.163324f, 0.225192f, -12.064672f, -1.461893f, 2.082078f, 3.809864f, 1.426262f, -4.747257f, -0.413411f, -1.768694f, -0.846013f, 0.340551f, 0.808432f, 0.949816f, 2.948696f, -0.065392f, 0.099779f, -0.476349f, -1.191143f, -2.520436f, -1.841711f, 0.424795f, -0.178033f, -2.749222f, -1.518262f, 0.026216f, -0.375199f, 2.647558f, -2.670080f, -0.431422f, 2.466373f, 1.106385f, -1.740128f, -1.682084f, -0.164660f, -3.357161f, 1.155514f, -1.603717f, -1.537832f, 0.976251f, 0.448992f, 2.173834f, -2.237061f, 0.765354f, -3.005456f, -2.531847f, -1.982099f, -3.037801f, 2.039164f, 0.372873f, -2.925281f, -1.533929f, -2.483284f, 1.232173f, 1.263032f, 2.275013f, -0.410447f, 0.953727f, -4.715356f, -1.656297f, -0.651674f, 3.459066f, 1.003311f, -0.265547f, -2.770197f, -1.929971f, 1.905587f, -2.112346f, 1.662222f, -2.784319f, -5.500583f, 0.113193f, 0.297699f, 0.536306f, 0.938257f, 0.704540f, 2.007364f, 0.727253f, 0.607316f, 2.769889f, 0.180267f, -0.897020f, 0.649218f, 0.429228f, 2.909791f, -0.305241f, -1.897222f, -3.111323f, 2.271789f, 1.631318f, -0.062685f, 3.170952f, -0.734155f, 4.159054f, 4.418345f, -1.084997f, -2.568034f, -0.411839f, 1.108095f, -1.145549f, 2.153513f, 4.294581f, 0.480909f, 2.755392f, -1.144527f, 0.971958f, 9.924599f, 1.719469f, 1.960395f, -0.872890f, -0.571040f, -1.977364f, 0.898101f, -0.832744f, 5.875915f, 1.282531f, 2.033740f, -3.366299f, -3.085545f, 0.306032f, -1.335124f, 3.309866f, -0.980576f, 0.922234f, -0.936185f, 0.076488f, 0.798040f, 0.985901f, -0.416772f, 0.306515f, 0.596066f, 1.880200f, -1.929056f, -1.402706f, -0.456912f, 1.578924f, 0.843689f, 1.141289f, 0.165897f, -2.819988f, -0.032952f, -0.047771f, -1.783306f, 0.651517f, 0.102897f, -1.309843f, 0.279406f, -1.731636f, -1.215913f, 0.351035f, -0.120994f, -0.125852f, 0.754079f, -1.417155f, 0.853878f, -0.009083f, 0.514512f, 1.057763f, -2.005478f, 0.753229f, -2.057878f, 0.436467f, 0.083147f, 0.651230f, 1.546108f, -0.743765f, -0.580092f, -0.980921f, 1.164552f, -0.125131f, -1.666679f, 1.508377f, -0.805660f, 1.426945f, 1.441011f, -1.720871f, 2.064550f, 0.397951f, 0.404443f, 0.571851f, -0.726982f, 0.368470f, 0.434124f, -0.853815f, 0.502236f, -0.640979f, -0.401110f, -0.439925f, 0.511937f, 0.163442f, 0.438373f, -0.774369f, 0.081987f, -0.104440f, -0.630377f, 0.237199f, -0.298108f, -0.108238f, 0.588296f, -0.534947f, -0.184594f, -0.300475f, -0.088388f, 0.432950f, 0.237326f, 0.389050f, 0.279577f, 0.311126f, 0.565589f, 0.139843f, -0.304126f, -0.095266f, -0.596929f, -0.036771f, 0.125578f, -0.249051f, 0.072634f, -0.293227f, 0.187844f, 0.016980f, -0.266898f, 0.149675f, -0.473962f, 0.204006f, -0.292290f, 0.253372f, 0.074196f, -0.577682f, -0.118629f, 0.106394f, -0.676234f, 0.035254f, 0.307524f, -0.652014f, -1.807656f, 0.674587f, 6.271086f, -0.389949f, -2.752000f, 0.124626f, 0.257579f, 1.790625f, -1.476549f, -0.198400f, -1.765455f, -0.039461f, -1.667552f, 1.121574f, -0.842631f, 3.056970f, 1.006923f, 0.236479f, -2.126370f, -0.850223f, -0.280014f, 0.299544f, -0.307663f, 0.374596f, -0.893504f, -4.345038f, 1.539211f, 1.510382f, -0.551577f, -1.067668f, -4.476731f, 0.171792f, -2.975406f, 0.063154f, -0.325319f, -1.026872f, -5.807130f, -1.244742f, -0.268185f, 2.198346f, 3.524988f, -1.162801f, -1.164563f, 0.807444f, -0.034623f, 1.112118f, 0.688537f, 0.355295f, -2.358700f, 0.129148f, -0.592526f, 4.141349f, -0.942421f, 0.403761f, -3.490384f, 2.394928f, 2.140606f, -2.159429f, -3.472958f, -1.340059f, 0.522922f, 2.221589f, -0.696243f, -0.309800f, 2.553792f, 0.739508f, 0.253864f, -0.232734f, 0.240658f, 0.959638f, 0.575274f, -1.827784f, -0.055521f, -0.256576f, 2.274551f, 0.086099f, -1.667995f, -1.048338f, 1.439064f, -1.047821f, 1.445941f, 2.214579f, -2.444281f, 1.021878f, 2.318636f, 0.934170f, 2.568372f, 0.482177f, 2.824943f, -0.210388f, -0.146637f, 4.908461f, 1.303518f, 2.106986f, -0.956460f, 0.418999f, 3.839967f, 1.468892f, 2.823293f, -1.251037f, 0.821637f, -1.988564f, 0.830977f, -1.253440f, 1.746228f, 1.091446f, 0.976848f, -2.761781f, 1.326633f, -2.432099f, 0.897778f, -0.086804f, 0.055226f, 0.093106f, -0.062637f, 0.296660f, -0.087084f, 0.131763f, 0.081418f, 0.186088f, 0.283438f, 0.231192f, 0.157327f, 0.118019f, -0.097487f, -0.209772f, -0.260382f, -0.154706f, -0.040608f, 0.014489f, 0.163192f, 0.272333f, -0.227294f, -0.233831f, 0.053651f, 0.145324f, 0.207455f, 0.259813f, 0.286548f, -0.059909f, -0.070524f, -0.208929f, 0.111576f, 0.093682f, 0.215340f, -0.239260f, -0.001974f, 0.049196f, -0.152135f, -0.196339f, 0.213951f, -0.262351f, -0.017008f, -0.228275f, -0.025293f, 0.285141f, -0.044910f, 0.211983f, -0.227028f, -0.136248f, -0.056390f, -0.059628f, 0.101969f, -0.093990f, 0.128462f, 0.082199f, -0.059949f, -0.041177f };
static const float X20_MLP_L56_layer_1_biases[5] = { -0.534531f, 1.839311f, 1.369727f, 0.684588f, -3.575229f };
static const float X20_MLP_L56_layer_1_weights[280] = { -0.420501f, 0.758818f, -0.387580f, -0.304582f, 0.269913f, -1.179858f, -1.730450f, -0.724530f, 2.170341f, 1.301624f, 0.426693f, -2.307328f, 0.000184f, 1.829503f, -0.702615f, 2.429987f, 1.832947f, -1.385932f, -3.035188f, 0.142087f, 5.055975f, -1.452821f, -3.297767f, -1.426638f, 1.594666f, 1.106010f, 0.179023f, 1.303530f, -2.120611f, -0.757322f, -0.859542f, -1.147136f, 0.057895f, 0.343535f, 1.497226f, 1.956170f, -0.059840f, 1.251147f, -2.607136f, 0.106001f, 3.020963f, 0.041673f, -1.303011f, -0.312039f, -1.199782f, -0.774300f, 1.493316f, 0.579131f, -0.147835f, -1.256987f, 3.185003f, 1.111322f, -3.378585f, -1.955654f, 1.371133f, 2.228787f, 0.762686f, -3.311807f, -0.630498f, 0.296227f, -0.247257f, -0.546569f, -0.102093f, -0.289491f, 0.836339f, -2.074120f, 1.638238f, 2.226877f, 0.785539f, -2.476208f, 0.019853f, 0.250604f, -2.555203f, 2.288350f, -0.429008f, -0.214121f, -0.477807f, -0.261942f, 0.837849f, 0.556399f, -1.183309f, 0.351066f, 1.148227f, 0.886423f, -0.929447f, 3.646070f, -0.998450f, -3.488413f, -1.540585f, 1.933097f, 4.105252f, -1.111771f, -1.453575f, -1.765134f, 0.028123f, 1.858720f, 0.033355f, -2.055120f, 0.920607f, -0.896851f, 3.477165f, -3.870044f, -2.192976f, 0.722994f, 1.807225f, 0.986265f, -1.905660f, -0.581147f, 0.963091f, 0.783960f, 0.815390f, -0.006814f, 0.538625f, -0.909425f, -0.935679f, -0.699368f, -0.670607f, -2.036501f, 3.845404f, 0.072770f, 1.739222f, -0.245700f, -1.462285f, -0.780447f, 0.762157f, 1.336277f, 1.115114f, 1.708754f, -3.441250f, -0.414901f, -1.718623f, 0.466703f, 0.340668f, 0.379968f, 0.620711f, -3.496077f, 1.944631f, 1.784432f, 1.694462f, -2.048031f, -2.768867f, 1.027629f, 8.140068f, -4.517017f, -1.579105f, -0.143355f, 0.975792f, 2.713338f, -3.684041f, -0.250557f, 1.567616f, 0.680136f, -0.539179f, -2.485991f, 1.242764f, 3.651363f, 0.642496f, -3.201554f, -2.833762f, 2.322332f, 0.533395f, 1.841016f, 2.465665f, -2.947071f, -1.966047f, 0.856707f, 2.001366f, -1.781108f, -0.933768f, 0.284410f, -2.260714f, 0.777406f, 0.582614f, 2.259548f, -1.554176f, -5.800974f, 1.275803f, 5.478569f, 0.497484f, -1.570969f, -4.843388f, 1.281714f, 5.788153f, -2.865009f, 0.468232f, -0.114186f, 0.977919f, 1.193096f, 0.313296f, -2.535288f, 1.112320f, -2.061015f, 0.497551f, -0.480253f, 1.076636f, 0.214819f, 0.376084f, 1.055321f, -0.791726f, -0.511518f, -1.645276f, 0.689759f, 4.293905f, -1.366821f, -2.116382f, -2.086606f, 1.324360f, 6.995389f, -4.891991f, -1.752335f, 0.593102f, 0.929836f, -2.030065f, 0.944854f, -1.014330f, 1.539247f, -0.758136f, -2.857940f, 0.552007f, 1.503738f, 3.118222f, 1.168765f, -2.448891f, -1.424400f, -0.164797f, -0.282251f, -1.535765f, 1.390796f, -0.707608f, 0.707281f, 2.813186f, 0.519717f, -3.538388f, -0.093919f, 0.423315f, -3.562797f, -0.741711f, 3.620779f, -0.149254f, 0.713940f, -1.374650f, 1.132501f, 7.378005f, -5.079739f, -1.868675f, 0.001656f, 1.713758f, 0.458973f, -0.739763f, -1.416725f, -0.493781f, 2.463907f, 5.918032f, -5.751637f, -1.605766f, -1.138512f, -2.382908f, -3.083439f, 4.062786f, 3.283261f, 3.973749f, 0.248114f, 2.648273f, -7.796370f, 0.330114f, -2.018353f, -0.801456f, -1.760660f, 3.810242f, 0.955094f, -3.057172f, 1.534059f, 2.059440f, -0.789663f, -0.069976f, -2.105675f, -0.718667f, 0.886644f, 2.834232f, -1.095366f };
static float X20_MLP_L56_buf1[56];
static float X20_MLP_L56_buf2[56];
static const EmlNetLayer X20_MLP_L56_layers[2] = { 
{ 56, 12, X20_MLP_L56_layer_0_weights, X20_MLP_L56_layer_0_biases, EmlNetActivationTanh }, 
{ 5, 56, X20_MLP_L56_layer_1_weights, X20_MLP_L56_layer_1_biases, EmlNetActivationSoftmax } };
static EmlNet X20_MLP_L56 = { 2, X20_MLP_L56_layers, X20_MLP_L56_buf1, X20_MLP_L56_buf2, 56 };

    int32_t
    X20_MLP_L56_predict(const float *features, int32_t n_features)
    {
        return eml_net_predict(&X20_MLP_L56, features, n_features);
    }
    

    int32_t
    X20_MLP_L56_regress(const float *features, int32_t n_features, float *out, int32_t out_length)
    {
        return eml_net_regress(&X20_MLP_L56, features, n_features, out, out_length);
    }
    

    float
    X20_MLP_L56_regress1(const float *features, int32_t n_features)
    {
        return eml_net_regress1(&X20_MLP_L56, features, n_features);
    }
    