
#include "eml_net.h"
static const float X40_MLP_L26_layer_0_biases[26] = { 0.964395f, 1.936280f, -1.384624f, 0.599739f, -0.016949f, 0.006442f, -0.330464f, 1.647816f, 0.931441f, -0.992734f, -0.591503f, -0.354426f, -1.744673f, 3.081969f, 0.621525f, -1.756592f, -0.061510f, 0.343591f, 2.507825f, 2.763899f, 1.167100f, 0.620602f, 0.855302f, 1.209245f, 2.637160f, -1.288916f };
static const float X40_MLP_L26_layer_0_weights[728] = { 2.646504f, 0.292780f, 0.708961f, 0.232468f, -2.308234f, -0.931609f, -0.447932f, 3.403033f, -1.063458f, -2.546513f, -3.045385f, 0.955436f, -0.234795f, -5.675932f, -1.454159f, 1.919199f, 2.714685f, 3.020947f, 0.085260f, 0.874799f, -1.703970f, -0.388232f, 0.413331f, -0.172996f, -0.116951f, 0.643691f, -2.264306f, -0.004335f, -0.920740f, -0.680688f, -0.501944f, 0.481288f, -1.509168f, 1.473147f, -3.831624f, -1.799454f, 0.140077f, 0.171037f, -0.177680f, 0.275336f, 0.036295f, 0.139724f, -0.195427f, -1.374086f, -0.255678f, 0.456461f, -0.483748f, 0.827081f, 0.214274f, -2.995948f, -0.190277f, 0.178932f, 0.030704f, 0.221276f, -0.803599f, 0.107481f, -0.167413f, 2.163491f, -0.228672f, -1.150725f, -0.422581f, -0.627158f, -0.182645f, 0.486912f, 0.978208f, -1.911830f, -0.856526f, 0.856848f, 3.208134f, 0.992038f, 0.182988f, 0.715355f, 0.095975f, -1.322941f, -0.110849f, 0.271481f, 1.135523f, -0.008666f, -2.709866f, 0.212093f, 0.117707f, 0.440458f, 0.300727f, 1.871863f, 0.276197f, -2.372028f, -3.564973f, -0.671268f, 0.705331f, 0.894135f, 1.253164f, 1.360238f, -1.307385f, -0.817913f, 1.720208f, -0.939014f, -0.165442f, 0.092171f, -0.350793f, -0.419397f, 0.258327f, -0.971204f, 0.345580f, 0.461360f, -2.601331f, -0.003976f, 0.492492f, 0.868858f, -1.661854f, 3.351531f, 0.681994f, 1.675521f, 2.934128f, -1.884722f, 2.257569f, -0.463189f, -1.120842f, 0.319057f, -0.158174f, -1.135497f, 2.003599f, -4.392981f, 1.492232f, 0.485481f, 3.062582f, -1.438624f, 0.973247f, 1.565432f, 0.824432f, -1.519046f, 1.649822f, 1.295485f, -2.780381f, 1.770816f, -1.347909f, 8.360748f, -0.290149f, 0.635219f, 4.706292f, -0.311051f, 0.173097f, 2.308549f, 0.219909f, -0.430565f, 2.690999f, -4.335441f, -2.606406f, 1.490444f, 6.821211f, 5.002280f, -1.224410f, -0.707872f, -0.408362f, -2.528733f, -3.147389f, -0.920755f, -0.678480f, 0.415039f, -1.857017f, -0.949705f, -0.918767f, 3.737923f, 3.195080f, 3.517576f, 0.167536f, -0.381792f, -6.825508f, 1.014524f, -2.600257f, -2.812462f, -0.400590f, -4.212837f, -0.107365f, -0.940832f, -0.325011f, -6.560237f, -2.153982f, 1.445498f, 0.185616f, 1.279410f, 0.320588f, -2.273989f, -1.769390f, 0.498351f, 0.128903f, 0.597779f, -1.000953f, 0.674398f, 0.964158f, -2.965328f, 1.096715f, -0.498197f, 0.504720f, 1.736088f, -2.293424f, 2.048927f, -0.338949f, 0.086728f, -3.832354f, -0.240033f, -0.314094f, -0.989140f, 0.986491f, -0.128471f, -0.271722f, 1.924380f, 0.295666f, 0.470684f, 1.133172f, 0.363751f, -4.737946f, 2.555295f, -4.382327f, -1.390727f, -5.517247f, 9.258834f, -3.117804f, -1.457501f, 0.652428f, 1.333626f, -1.670295f, -2.021614f, 0.071398f, 0.504977f, -2.263233f, -4.114304f, 0.523735f, -1.288319f, 3.759267f, -0.148323f, -4.819249f, -1.000389f, -0.627973f, -0.097106f, 1.056387f, 0.842015f, -2.712966f, 0.654931f, -1.057703f, -1.613115f, -1.097509f, 2.068316f, 0.037205f, 0.933415f, 0.013813f, 2.658916f, 2.336131f, -0.486206f, -1.044660f, 0.206136f, -0.117598f, 3.518864f, -1.206962f, -1.710554f, 0.265094f, -0.260453f, 0.252565f, -2.738310f, -1.940654f, 0.242778f, 1.347391f, 0.958319f, -2.367457f, 0.590898f, -1.027554f, 0.340612f, -1.142730f, 1.631379f, -1.267524f, -0.956060f, 0.113555f, 1.165233f, -0.137689f, 2.314517f, -0.462123f, -0.273217f, 1.228502f, 0.338796f, 2.450958f, 1.342550f, 0.713446f, -0.007483f, 1.037754f, -0.015195f, 1.960655f, -2.047196f, -0.515889f, 0.332206f, 0.502521f, 0.436304f, 0.984102f, -0.419348f, 0.809815f, -1.994403f, 0.932754f, 0.020941f, -0.327150f, 0.427817f, -0.205546f, 0.758647f, 0.981335f, -0.060055f, -0.697979f, -1.490307f, 0.112640f, -0.181325f, 1.059542f, 0.101027f, 1.061630f, 0.445342f, 0.291170f, 1.286887f, -0.279450f, -0.266717f, 0.078744f, -0.138925f, -0.033674f, 0.039135f, 0.229711f, 0.148677f, -0.157261f, -0.243144f, -0.281857f, -0.106880f, -0.225158f, -0.039263f, 0.122163f, 0.154439f, -0.100795f, -0.088153f, -0.150318f, 0.188282f, -0.325296f, 0.104998f, 0.243831f, 0.201118f, -0.149356f, -0.121267f, 0.143230f, -0.152748f, -0.855462f, 0.263819f, 0.127925f, -0.285119f, 0.390797f, 1.833758f, 0.591269f, 0.035402f, -0.106103f, 0.081855f, -0.002793f, -0.274450f, 0.471604f, -0.171995f, 0.234858f, 0.047791f, -0.315198f, -0.222147f, -0.367433f, 0.277834f, -0.161872f, 0.369363f, 0.068818f, -0.250243f, 0.277473f, 0.421986f, 1.110248f, -0.529650f, 0.237605f, 0.299932f, 0.027173f, -0.487435f, 0.728121f, -0.343260f, -0.102683f, -1.255502f, -0.527919f, 0.590746f, -0.020641f, -0.511489f, -0.500046f, 1.747116f, 0.120687f, 1.556578f, -0.760220f, 0.782212f, -0.776429f, -0.247402f, 0.211955f, -0.821441f, -0.284802f, -0.047154f, -0.820620f, 0.497741f, -0.300729f, 0.338725f, -0.110586f, -0.097415f, -0.333141f, -0.169480f, -0.022805f, 0.325526f, -0.277644f, 0.297134f, 0.246658f, -0.011932f, -0.088683f, -0.206886f, 0.977768f, -0.478333f, -0.841658f, -0.066588f, -0.117743f, -0.153644f, -0.178594f, -0.222051f, -0.245966f, -0.325315f, -0.257253f, 0.079348f, 0.316171f, 0.327311f, -0.060455f, -0.224807f, 0.092653f, -0.006704f, 0.326135f, -0.289464f, 0.188607f, -0.141430f, -0.172298f, 0.108352f, -0.169297f, 0.110538f, 0.011578f, -0.050354f, 0.035305f, -0.141760f, 0.138201f, -0.057167f, -0.092661f, 0.219068f, 0.283489f, -0.302686f, -0.179607f, -0.100947f, 0.210016f, 0.323770f, 0.312623f, 0.269909f, -0.135663f, 0.328336f, -0.166851f, -0.262708f, 0.300470f, -0.178070f, 0.126047f, -0.294422f, 0.153818f, 0.254544f, -0.151568f, -0.080578f, -0.084034f, 0.166208f, -0.174717f, -0.218729f, -0.033708f, -0.130433f, -0.152592f, 1.474063f, 0.024572f, 0.433232f, 0.918714f, -0.201061f, -0.762989f, 1.110446f, -1.604838f, -0.504063f, 3.678515f, 1.192620f, -2.355472f, 1.458422f, -0.708294f, 0.881938f, 0.376890f, 0.659298f, -0.598643f, 2.392600f, 1.738663f, -0.479319f, 0.092071f, 1.692791f, 2.348499f, -1.064137f, 1.198080f, 0.221990f, -0.776006f, 0.212996f, -0.934437f, 0.582410f, 0.616287f, 0.500795f, 2.844999f, -0.066337f, -3.839420f, -1.109308f, 0.879489f, 0.871161f, 1.264621f, -2.533817f, -1.049888f, -0.039539f, 2.032170f, 0.775563f, 0.031076f, 1.285003f, 0.378690f, -0.571953f, 0.375746f, 0.009652f, -0.043411f, 1.709026f, -0.933924f, 0.239943f, -0.420236f, -0.104749f, -0.384025f, 2.196708f, 0.387832f, -0.974131f, 0.376776f, -0.346419f, -0.827697f, 1.783922f, 1.177297f, -0.598733f, -1.322886f, 0.615459f, 1.996602f, 2.705278f, 0.860005f, 0.789919f, 1.040039f, 1.230085f, 1.633832f, -1.546758f, 0.995058f, 0.381809f, -0.758047f, 0.471738f, 0.359161f, -0.082798f, 0.037962f, -0.375343f, 0.547683f, -0.370304f, -1.211818f, 0.054038f, -0.451163f, 1.094912f, -0.339295f, -1.444136f, 1.557945f, 0.385256f, 0.373077f, 0.493013f, -0.307776f, 0.205928f, 0.235187f, 0.317511f, 1.304485f, -0.387395f, -0.192632f, -0.064239f, -0.043627f, -0.050886f, -0.165830f, 0.342846f, -0.020820f, 0.066450f, -0.232604f, 0.117360f, -0.018310f, -0.266213f, -0.179829f, -0.195700f, -0.412645f, -0.268008f, -0.277458f, 0.235606f, 0.517460f, 0.290748f, 0.000435f, 0.107512f, -0.089992f, 0.263391f, -0.038109f, -0.040377f, -0.083275f, 0.319042f, -0.234268f, -0.109583f, 0.121588f, -0.276686f, 0.056140f, -0.025908f, -0.143921f, -0.176380f, 0.024081f, -0.087671f, -0.039728f, -0.103964f, 0.317561f, -0.240591f, -0.269968f, -0.110826f, 0.063887f, 0.111232f, -0.088785f, 0.333497f, -0.091893f, 0.145213f, 0.100108f, 0.198017f, 1.749863f, 1.475228f, -0.987084f, 0.134012f, -1.390781f, -0.354798f, -1.120037f, 1.778545f, -1.064129f, -1.052825f, -0.318342f, 1.165588f, 0.303549f, 1.885321f, -0.022229f, -0.540430f, 0.777702f, 0.500480f, 2.188994f, 1.002872f, 1.072761f, -0.621463f, 0.772167f, 0.392366f, 1.997500f, -1.675006f, -0.665078f, 0.849288f, 0.090922f, 0.307291f, 1.531383f, -0.112252f, 0.487487f, -0.450739f, 2.071556f, 0.368930f, 0.069903f, -0.766590f, -1.818701f, 0.544967f, 1.140321f, -0.952364f, -0.592218f, 0.353184f, 0.167091f, 1.588078f, -0.216302f, 0.868759f, 0.362943f, 0.674656f, 0.745210f, 0.239079f, 0.150968f, 0.024615f, -0.259682f, -0.063249f, -0.062853f, -0.119305f, -0.313376f, 0.158165f, -0.260144f, 0.070895f, 0.135508f, 0.089868f, 0.306065f, -0.264475f, 0.244778f, -0.313859f, 0.023315f, -0.063917f, 0.016123f, -0.089934f, -0.206292f, -0.320576f, 0.012133f, 0.228533f, -0.084506f, -0.184778f, -0.279044f, -0.269502f, -0.308399f, -0.201878f, -0.156192f, -0.285349f, -0.295536f, 0.224668f, -0.220560f, 0.041352f, 0.189563f, -0.028320f, -0.347146f, -0.253983f, -0.113002f, 0.036952f, -0.090278f, 0.186417f, 0.168545f, 0.306849f, -0.326407f, 0.262850f, -0.065978f, 0.250300f, 0.128572f, 0.323371f };
static const float X40_MLP_L26_layer_1_biases[10] = { 3.417461f, -0.952365f, 0.904841f, -0.154024f, 0.738236f, 0.591810f, -0.038535f, -1.977102f, -1.083641f, -1.485808f };
static const float X40_MLP_L26_layer_1_weights[260] = { 1.332526f, 0.805807f, 0.310988f, -0.914086f, 0.810825f, 0.074502f, -0.877076f, -1.427856f, -0.627085f, -0.156604f, 0.112447f, 0.326410f, -1.989560f, 0.950039f, 0.802361f, 0.469075f, 0.598723f, -0.215979f, -0.045121f, 0.016672f, -2.968982f, -0.280478f, 0.477510f, 0.994929f, 0.048520f, 1.239937f, -0.815263f, 1.260298f, 0.523375f, 0.347394f, 1.756805f, -0.489059f, -1.913447f, -0.472193f, -1.071934f, 0.409680f, -0.203336f, 0.285439f, 0.098743f, -0.279154f, 1.837607f, 2.675105f, 0.469377f, 0.893987f, -1.521895f, -1.320880f, -1.294970f, -1.322907f, 0.367396f, -0.993785f, 1.310228f, 0.145321f, 1.729545f, -0.512737f, 1.562023f, -4.166990f, -0.216779f, 0.551885f, 0.561776f, 0.370080f, -0.398679f, -2.559212f, -0.246819f, 0.403939f, 0.608343f, 2.985632f, 1.353936f, -2.733462f, 0.189003f, -1.104839f, -2.561271f, 2.968522f, -0.347350f, 1.291724f, 0.850763f, -1.538127f, -0.322327f, 0.143416f, -0.678393f, 0.407901f, -0.619538f, -0.685557f, 0.905689f, -2.334079f, -0.219433f, 1.216791f, -0.298688f, 1.034428f, 0.432059f, 0.387953f, 1.764149f, 2.630413f, -0.945067f, 0.544450f, -0.114366f, -0.361626f, 0.124441f, -0.508170f, -1.580384f, -0.971483f, 0.220910f, 3.551832f, -3.037776f, 0.409344f, 0.209178f, -0.373801f, -1.760472f, 0.535814f, 0.182430f, 0.285191f, 0.237796f, 1.280669f, 0.713460f, 2.393547f, -1.043948f, -2.237350f, 1.158646f, -0.987192f, -1.152416f, -0.137046f, -2.246008f, -0.696326f, 1.972177f, -2.989382f, 1.695518f, 1.496713f, -0.436291f, 0.255464f, 0.561029f, 0.856515f, -2.944069f, -2.957227f, 2.874666f, 1.143608f, 2.553986f, 0.230442f, 0.675066f, -0.425188f, -0.180727f, -0.482059f, -0.658899f, -0.158475f, -2.177426f, 0.570981f, -1.192846f, 2.459190f, -0.666192f, 0.029261f, 0.903757f, 0.777857f, 1.689273f, 0.990343f, -2.545601f, -1.088181f, -0.161328f, 0.949903f, -1.120592f, 1.414872f, -0.232097f, -0.244322f, 0.393939f, 0.687453f, -1.834131f, -0.249519f, 0.514359f, 1.372337f, -1.077129f, 0.726553f, -0.434154f, 0.531401f, -0.814935f, 1.360355f, 1.297908f, 0.273273f, 2.378978f, -3.473428f, 1.348562f, -1.229389f, -1.007689f, -0.530048f, 6.252415f, -1.245822f, -1.989216f, 0.729316f, 0.522733f, -3.364725f, 0.404795f, -0.996775f, -0.485813f, -0.617939f, -0.469505f, -0.869321f, 5.273477f, -1.238972f, -0.325436f, -2.521111f, 2.164408f, -0.637053f, -0.392962f, -1.025715f, -1.834801f, 2.434282f, 0.011182f, -1.865845f, 0.981532f, -1.102592f, -0.317394f, 0.490416f, 0.060155f, 0.885096f, 1.320248f, 0.779239f, -0.345167f, -1.084474f, 1.720833f, -1.472628f, -0.525916f, -0.624987f, 0.718584f, -0.358041f, 3.424643f, 2.091964f, -0.989227f, -1.074715f, -2.787578f, 0.247025f, -0.755482f, 0.153994f, 0.707771f, -0.261044f, 0.048902f, 1.077300f, -1.803195f, 0.048859f, -0.474432f, 1.310381f, -1.137158f, 0.421560f, 0.178561f, 0.475347f, 0.187615f, -0.798843f, 1.700273f, 0.917591f, 0.133518f, 1.124516f, 0.547917f, -2.040568f, -1.001087f, -0.786289f, -0.371570f, -1.538230f, 0.158661f, -0.189303f, -0.521342f, 0.155532f, 0.026846f, 0.588928f, 0.394490f, 0.550011f };
static float X40_MLP_L26_buf1[28];
static float X40_MLP_L26_buf2[28];
static const EmlNetLayer X40_MLP_L26_layers[2] = { 
{ 26, 28, X40_MLP_L26_layer_0_weights, X40_MLP_L26_layer_0_biases, EmlNetActivationTanh }, 
{ 10, 26, X40_MLP_L26_layer_1_weights, X40_MLP_L26_layer_1_biases, EmlNetActivationSoftmax } };
static EmlNet X40_MLP_L26 = { 2, X40_MLP_L26_layers, X40_MLP_L26_buf1, X40_MLP_L26_buf2, 28 };

    int32_t
    X40_MLP_L26_predict(const float *features, int32_t n_features)
    {
        return eml_net_predict(&X40_MLP_L26, features, n_features);
    }
    

    int32_t
    X40_MLP_L26_regress(const float *features, int32_t n_features, float *out, int32_t out_length)
    {
        return eml_net_regress(&X40_MLP_L26, features, n_features, out, out_length);
    }
    

    float
    X40_MLP_L26_regress1(const float *features, int32_t n_features)
    {
        return eml_net_regress1(&X40_MLP_L26, features, n_features);
    }
    