
#include <eml_net.h>
static const float X60_MLP_L26_layer_0_biases[26] = { -0.132694f, -0.460963f, 0.922896f, -0.581802f, -0.919739f, 0.229650f, -0.082447f, 0.555284f, 0.063293f, -0.770007f, -0.363738f, -0.386030f, 0.391933f, -0.419361f, 0.991630f, 0.132137f, -1.698135f, -0.018808f, -0.342786f, -0.741741f, -0.631450f, 0.658433f, -0.582898f, -0.132028f, 0.180079f, 0.919296f };
static const float X60_MLP_L26_layer_0_weights[780] = { 0.360250f, 2.711353f, 0.922858f, -0.984891f, -1.216173f, 0.356478f, 1.562280f, 1.030389f, 1.056861f, 0.071488f, -2.667996f, 2.247307f, 0.737684f, 0.232104f, -0.366660f, -0.272802f, -0.625132f, 0.336669f, 2.192747f, 0.570412f, 0.277928f, -0.225615f, -0.255865f, 1.139219f, -0.196021f, -0.011738f, 0.253303f, -0.702528f, -0.275999f, -0.540222f, -1.534496f, 0.104073f, 1.574180f, 0.197885f, 0.493019f, 0.820582f, -0.240626f, -0.660625f, -1.334993f, -1.396499f, -0.593043f, 0.154999f, -0.159125f, -0.923735f, -0.972443f, 1.202777f, -0.428952f, -1.546986f, -0.843583f, 0.587112f, 1.351241f, -0.922279f, -0.804315f, 0.045487f, -0.375213f, 0.661885f, 0.105914f, -1.485459f, -0.476947f, -0.667252f, -0.036533f, -0.759809f, -0.974624f, 0.970527f, -0.037556f, 1.133333f, -0.489635f, -1.002657f, -0.613250f, 0.213907f, 0.482587f, -0.408793f, 0.077216f, 0.615502f, -1.122344f, -0.678613f, 0.958982f, -0.782605f, 0.233893f, -0.220620f, 0.538646f, 0.031231f, 0.112434f, 3.283032f, 0.096412f, 3.280932f, -0.364416f, -1.746491f, -0.059888f, -1.554192f, -0.423014f, 0.061399f, -0.104938f, -1.114194f, -4.065091f, 0.210868f, -2.058293f, -0.095008f, -0.361152f, -0.300897f, 0.527415f, 0.131441f, 0.569200f, 0.167271f, -0.525580f, 0.097479f, 0.583164f, -0.312668f, -0.226984f, -1.128456f, 1.211480f, -0.417325f, -0.049252f, -0.885345f, 0.154677f, 0.446337f, 1.580735f, 0.432391f, 0.309183f, -0.407822f, -1.095752f, 0.273156f, 1.239852f, -0.079190f, -0.195059f, -0.095913f, -0.607259f, -0.776746f, 0.462745f, -0.176182f, 1.120711f, -1.037149f, -0.336806f, -0.237896f, -0.126532f, -1.205147f, -0.995460f, 0.132988f, 0.938094f, 0.543748f, 0.413029f, 0.727551f, -0.116205f, -0.737791f, -0.340878f, 0.291775f, -0.090432f, 1.095920f, 0.084673f, 0.863495f, -0.402811f, 0.127855f, -2.192231f, 0.826698f, -0.862522f, 0.855171f, 1.189755f, -0.021904f, 0.785400f, -0.557474f, -1.672365f, -2.327461f, 1.269460f, 2.631169f, 0.183504f, 0.552659f, -2.047819f, 3.941124f, 1.337717f, -0.940687f, 2.500176f, -0.054766f, -2.821099f, -2.459255f, 0.315682f, -2.392086f, -0.121732f, -0.515452f, 0.424265f, -1.051532f, 0.650682f, -0.420549f, -0.176975f, -0.082483f, 0.756807f, 0.180103f, -0.401937f, -0.044411f, 1.011271f, 2.325107f, -0.224647f, 0.178908f, -0.842572f, 0.522450f, 1.724846f, 0.173236f, 1.022630f, -0.566320f, -0.484701f, 0.156285f, 0.019472f, -0.189729f, 0.158793f, -2.125564f, 0.091142f, 0.307687f, 0.872241f, -0.321563f, 0.250976f, 0.770300f, 0.313108f, -0.171838f, -0.010350f, -0.218627f, -0.158558f, 0.000128f, -0.554527f, -0.093485f, 0.056203f, 0.024453f, 0.078948f, -0.209574f, -0.199928f, 0.212838f, -0.184334f, 0.175122f, 0.145120f, -0.289963f, 0.298517f, -0.090934f, -0.330976f, -0.513131f, 0.016124f, -0.397380f, 0.029723f, 0.584199f, -0.079161f, -0.008454f, -0.174692f, -0.007032f, 0.402161f, -0.380096f, -0.519258f, -0.266047f, 0.052576f, -0.239921f, 0.036569f, -0.608307f, -0.269088f, 0.102586f, -0.065279f, 0.138593f, 0.187864f, 0.077588f, 0.270735f, -0.411531f, -0.229497f, -0.356008f, 0.303843f, -0.267383f, -0.234526f, -1.246866f, -0.205999f, -0.246374f, -0.120846f, -1.118320f, 2.140443f, 2.349859f, 0.425462f, 0.572435f, 2.772190f, -0.900677f, 0.746109f, -0.721198f, -0.218766f, 0.452644f, -0.800619f, -0.248115f, -0.309002f, -0.180757f, -0.051456f, 0.041207f, 0.099050f, -0.549871f, -0.265226f, 0.932826f, 0.457484f, -0.047299f, 0.935673f, -0.002349f, -0.523825f, -0.790115f, 0.582860f, -2.720247f, 0.192975f, 1.531156f, -0.366736f, 0.892705f, 0.449523f, 0.361470f, 0.173382f, 0.292125f, 0.687848f, -0.162516f, -0.609314f, -0.175070f, -0.562982f, -0.557627f, 1.126147f, -0.472162f, -0.331685f, 1.135975f, -1.300421f, 0.150342f, -0.120219f, 0.024857f, 0.429444f, 1.228230f, -2.588618f, 2.092508f, -0.197974f, -1.459665f, -0.324798f, -1.744429f, -1.311171f, -1.066322f, 0.874901f, -0.438742f, -2.152622f, -0.085532f, 1.610324f, -0.908479f, -0.277159f, -0.196936f, 1.652575f, 1.502016f, 0.934098f, -2.704937f, 0.322054f, -1.892089f, 0.326885f, -0.133339f, -0.584870f, -1.120923f, 0.700726f, -1.012263f, 2.779171f, 0.725865f, 0.637459f, 2.148302f, 6.284118f, -0.648970f, -0.382670f, -0.041579f, 0.760092f, 0.912272f, -0.942406f, 0.311034f, 0.323566f, 6.274652f, -0.157369f, 1.555716f, 0.757765f, -0.060832f, 1.871559f, -4.061955f, 1.647540f, 0.095942f, -0.122203f, 0.681287f, 0.600998f, -0.224562f, -1.356535f, -1.174294f, -0.093841f, -0.836055f, -1.117538f, 1.303167f, 0.159406f, 1.590780f, 0.839805f, -0.616359f, 0.327775f, 1.385080f, -0.191716f, 1.181397f, 0.771262f, -1.989817f, 0.230965f, 1.279168f, -0.208104f, -0.208537f, 0.192666f, -0.597422f, -0.842707f, 0.442921f, 0.029929f, 0.173261f, -0.415507f, -0.415774f, -0.658970f, -0.182241f, -0.303346f, 0.044389f, 0.984330f, -0.249411f, -0.859815f, 0.169208f, 0.042079f, -0.817456f, -0.989807f, 0.297105f, -0.317705f, -0.264182f, -0.390499f, 0.397818f, -0.216110f, -0.573754f, 0.096076f, 0.113481f, 0.188200f, 0.633159f, -0.138415f, 0.345560f, 0.302324f, -0.309769f, 0.506326f, -0.041409f, 0.555456f, -0.060369f, -0.231633f, 0.174747f, -1.047175f, -0.085612f, -0.135196f, -0.268783f, 0.378194f, 0.083848f, -0.352690f, -0.005722f, 0.094214f, 0.438214f, 0.354830f, -0.970352f, 0.551886f, -0.759745f, 0.028410f, 0.911873f, -0.167798f, 1.118795f, -0.501651f, -0.444749f, -0.356304f, -1.064279f, 0.503071f, -0.090767f, 1.068272f, -0.461619f, -1.470992f, 0.426707f, -0.509882f, -0.655006f, -0.483319f, 1.157507f, -0.696193f, -0.160485f, -0.118371f, 0.487296f, 0.249016f, 0.088345f, -0.026913f, 0.160313f, -0.393951f, 0.101002f, 0.808732f, 0.143746f, 0.611731f, 0.560069f, 0.107526f, 0.554632f, -0.159981f, -0.388371f, -0.491536f, -0.032563f, -0.246650f, 0.041324f, 0.104803f, 0.103801f, 0.376965f, -0.396969f, -0.145734f, -0.045730f, 0.322469f, 0.106091f, -0.273249f, 0.103688f, 0.452434f, -0.134654f, -1.783026f, 0.631534f, 2.124474f, -0.605403f, 1.021452f, 1.988232f, 0.361305f, 2.323446f, 0.028851f, -0.662295f, -1.307081f, 0.854410f, 1.011927f, 0.524735f, 0.572892f, 2.103502f, 1.264614f, 0.062942f, 0.100671f, -0.471368f, -0.762135f, 2.653274f, 0.371269f, -0.775340f, 0.136900f, -0.447202f, -0.216920f, -0.399175f, -0.831963f, 2.062717f, -0.484723f, -1.143017f, -1.161098f, -2.207382f, 1.337640f, -0.695962f, 0.871904f, -1.206980f, -2.104737f, -1.037841f, -0.609004f, -2.716701f, -1.439900f, 0.131656f, 0.057753f, 0.107658f, 1.919170f, -2.856774f, 0.196884f, 0.172148f, -0.221170f, -0.243489f, 1.044020f, -0.120936f, -1.388866f, -0.417757f, -0.549534f, -1.523698f, -0.207231f, -0.220256f, -0.639761f, 1.002524f, 0.841765f, -0.325270f, -0.428207f, 0.935111f, 0.128262f, 0.570844f, -0.373366f, 0.883681f, -0.592775f, 0.572963f, -0.486339f, 0.614199f, -0.296860f, -0.611896f, 0.330420f, -0.019444f, -0.264907f, 0.371560f, -0.159785f, 0.203013f, 0.671253f, 0.458383f, 0.393044f, 0.189241f, 0.427904f, -0.222877f, -0.484356f, -0.063910f, -0.285675f, 0.177171f, 0.316609f, 0.610149f, 0.892336f, 0.442526f, -0.310480f, 0.032905f, -0.291244f, 0.512131f, 0.092676f, -0.179071f, 1.354565f, -0.669562f, -1.427971f, 0.952411f, 1.269261f, 0.785039f, -0.643577f, 0.487544f, -1.548950f, -0.891667f, 1.012823f, -0.653616f, 0.633829f, 0.420630f, -0.804157f, -1.272510f, -0.234700f, 0.660713f, -1.231621f, 0.338088f, -1.059736f, 0.544902f, 0.656575f, 1.591805f, 0.327137f, 0.872964f, -0.730167f, -0.214712f, 0.822148f, -1.132299f, -1.315063f, -0.071383f, -0.324339f, -1.510297f, 0.895635f, 0.418662f, -1.261430f, 0.178520f, 0.596093f, -0.874805f, -0.860827f, 1.694142f, 0.271294f, -1.701407f, -0.023612f, -0.095740f, 0.743218f, -0.056678f, -0.151085f, -1.399303f, -0.001676f, 0.054498f, -0.169357f, -0.216695f, 0.234772f, -0.289776f, -0.019115f, -0.251469f, -0.027004f, 0.314073f, -0.048901f, 0.234044f, -0.251391f, -0.149789f, -0.063121f, -0.065947f, 0.112181f, -0.100764f, 0.140466f, 0.089998f, -0.066041f, -0.047336f, 0.075195f, -0.280813f, 0.211248f, 0.100325f, 0.229890f, -0.189137f, 0.095543f, -0.883762f, -0.599413f, 0.019339f, -0.199861f, 0.425333f, -0.324806f, -0.122372f, -0.435276f, -0.356157f, 0.274619f, -0.500118f, 0.974918f, -0.513083f, -0.731182f, 0.247121f, -0.016159f, -0.597177f, -0.834750f, 0.061676f, -0.041862f, 0.101059f, -0.300575f, 0.414646f, -0.252731f, -0.471279f, 0.165511f, -0.230263f, -0.275809f, 0.034084f, -0.346502f, 0.796500f, -0.039232f, -0.282094f, 0.338935f, 0.195746f, 0.127840f, -0.125217f, -0.098332f, 0.072309f, -0.971823f, 0.024439f, 0.016940f, 0.057671f, -0.006499f, 0.449531f, -0.539455f, 0.319271f, 0.320026f, 0.505420f, 0.278291f, -0.684822f, 0.654226f, -0.830211f, -0.211702f, 0.429028f, -0.437762f, 1.114305f, -0.403123f, -0.720144f, -0.716401f, -1.004495f, 0.195523f, 0.307192f, 0.522407f, -0.284880f, -1.629661f, -0.039436f, -0.089382f, -0.575453f, 0.145810f, 0.977445f, -0.690608f, -0.007988f, 0.307830f, 0.822590f, -0.157361f, 0.430100f, -0.038934f, -0.367135f, -0.701370f, -0.249947f, 0.715734f, -0.189218f, 0.333695f, 0.115676f, 0.306734f, 0.853037f, 0.158613f, -0.248690f, 0.138050f, 0.114501f, 0.191267f, -0.251655f, -0.025614f, -0.230264f, 0.105968f, -0.540281f, 0.006366f, -0.015334f, 0.133865f, 0.198806f };
static const float X60_MLP_L26_layer_1_biases[5] = { 0.362804f, 0.357211f, -0.617973f, 0.710651f, -1.486988f };
static const float X60_MLP_L26_layer_1_weights[130] = { -0.317639f, -0.364537f, -0.201009f, 1.723663f, -0.109116f, 3.292918f, -2.419463f, 0.730742f, -0.989450f, -0.958344f, 0.646355f, -0.684142f, 0.137071f, -0.316909f, 0.082014f, -0.916265f, -0.000770f, 0.943714f, -0.998881f, 0.206836f, -2.484240f, 1.504255f, 0.855993f, 0.112919f, 0.135566f, -1.124475f, -1.401809f, 1.605765f, 1.519254f, -0.359112f, 1.358603f, -0.980770f, 0.965573f, -1.342244f, -0.097718f, -2.019662f, 0.418313f, 1.472958f, -0.296853f, 0.383826f, 2.298658f, -0.723987f, -1.515066f, -1.003844f, 1.314867f, -0.469374f, -2.578566f, 0.923775f, 1.736786f, 0.885879f, 0.236711f, 2.852894f, -2.054752f, -1.514145f, 0.124657f, 1.994495f, -1.680859f, -1.289409f, 0.815953f, 0.695829f, -2.584224f, -0.525120f, 0.877538f, 2.207277f, 0.173342f, -1.839024f, 0.552632f, 1.535900f, -0.572874f, -0.285622f, -0.422559f, 0.848635f, 1.308813f, 0.369512f, -1.519557f, -1.651615f, -0.225298f, 0.750099f, 0.783139f, 0.596132f, 0.703253f, 1.074639f, -2.220955f, 1.548619f, -0.704734f, 0.049635f, 1.182838f, 0.368022f, -1.781110f, 0.287938f, 0.275242f, -1.292524f, 1.468140f, -0.218025f, 0.315757f, -0.554503f, -1.201633f, -1.103307f, 1.964597f, 0.818827f, -1.843409f, -0.923607f, -0.647854f, 1.298052f, 1.365162f, -2.435819f, 1.440752f, 0.563446f, 0.406582f, 0.081168f, 1.043343f, 0.485266f, -0.671139f, -1.623992f, 0.713304f, 1.280844f, -0.430650f, 1.827489f, -1.027534f, -0.959477f, -0.943831f, 0.291650f, 1.357193f, -0.370658f, -0.195984f, -0.567150f, -2.488080f, -0.848293f, 1.474943f, 1.787446f };
static float X60_MLP_L26_buf1[30];
static float X60_MLP_L26_buf2[30];
static const EmlNetLayer X60_MLP_L26_layers[2] = { 
{ 26, 30, X60_MLP_L26_layer_0_weights, X60_MLP_L26_layer_0_biases, EmlNetActivationTanh }, 
{ 5, 26, X60_MLP_L26_layer_1_weights, X60_MLP_L26_layer_1_biases, EmlNetActivationSoftmax } };
static EmlNet X60_MLP_L26 = { 2, X60_MLP_L26_layers, X60_MLP_L26_buf1, X60_MLP_L26_buf2, 30 };

    int32_t
    X60_MLP_L26_predict(const float *features, int32_t n_features)
    {
        return eml_net_predict(&X60_MLP_L26, features, n_features);
    }
    

    int32_t
    X60_MLP_L26_regress(const float *features, int32_t n_features, float *out, int32_t out_length)
    {
        return eml_net_regress(&X60_MLP_L26, features, n_features, out, out_length);
    }
    

    float
    X60_MLP_L26_regress1(const float *features, int32_t n_features)
    {
        return eml_net_regress1(&X60_MLP_L26, features, n_features);
    }
    