
#include <eml_net.h>
static const float X60_MLP_L56_layer_0_biases[56] = { -0.843927f, 0.110172f, -0.628207f, -0.355945f, -0.746034f, -1.460811f, -0.808170f, 0.557456f, -0.166798f, 0.740166f, -0.344531f, -0.478699f, 1.551347f, 0.231095f, -0.219803f, 0.508956f, -0.050435f, 0.068919f, 0.033371f, 0.059614f, 0.568333f, -2.075141f, 0.571159f, -0.119872f, -0.501346f, 0.459961f, -0.170230f, -0.135189f, 0.293705f, -0.426608f, -0.632359f, -1.042384f, -0.460244f, -0.041647f, -0.075356f, -0.398693f, -0.383587f, 0.223999f, -0.324939f, 0.402029f, 0.436057f, 0.153011f, -0.432852f, -0.862822f, 0.159903f, -0.546628f, -0.068382f, -0.730209f, 0.950948f, -0.395813f, -0.084165f, -0.160101f, 0.051851f, -0.346812f, -0.358895f, -0.356930f };
static const float X60_MLP_L56_layer_0_weights[1680] = { -0.912557f, 2.153333f, -1.485123f, 0.126821f, -0.901211f, 0.252186f, 0.813146f, -0.538124f, 0.607602f, -0.193411f, 0.566329f, 0.366488f, 0.314959f, -0.022061f, -0.592102f, -0.723551f, -0.648295f, 0.190750f, 1.388602f, 0.658557f, -0.101894f, 0.417005f, -0.769895f, 1.363401f, -0.613440f, -0.107745f, -0.956476f, 0.979352f, -0.013246f, 0.257897f, -1.056922f, -1.148655f, 0.683887f, 1.461515f, 0.207861f, -0.952898f, 0.416505f, 1.160888f, -0.595523f, -0.859125f, -3.053371f, 1.213715f, 0.526912f, -0.230381f, 0.137340f, -0.834837f, -0.124162f, -1.852849f, -1.249760f, -0.364109f, 1.495827f, 1.605333f, 0.725036f, -1.272348f, 0.177298f, 0.223653f, -0.213148f, 1.470498f, -0.105862f, 0.138903f, -0.106503f, -2.435655f, -0.719006f, -0.336385f, 0.300593f, -1.764430f, -1.421600f, -0.081830f, 1.304578f, -0.841992f, 1.207161f, 0.552664f, 0.895028f, -0.112905f, -0.278197f, -0.556489f, 0.854721f, 0.440570f, -0.120259f, 0.479302f, -0.985901f, -0.448310f, -1.498532f, 1.005459f, -0.269809f, -2.623899f, 0.178583f, -0.145736f, -0.089405f, -0.383214f, 0.655786f, -0.009235f, -0.016275f, 0.118138f, 0.239725f, 0.324456f, 0.420084f, 0.419644f, -1.323951f, -1.077512f, 0.148733f, 0.349867f, 1.724876f, -0.371666f, -1.042839f, 1.047338f, -0.292385f, -0.529398f, -0.701758f, 0.791288f, -0.245513f, 0.196520f, -0.190718f, 0.467032f, 1.104252f, -0.571090f, 0.408646f, -0.889568f, 0.424436f, 0.104506f, -0.929602f, 0.998288f, 0.979925f, -0.402311f, -0.036861f, 1.669841f, -0.554011f, 0.288506f, 0.044579f, -1.185227f, -1.324239f, -0.381788f, -1.094855f, -0.347992f, 0.790206f, -1.801086f, 0.035112f, 0.014967f, 0.124927f, -1.341578f, -0.628056f, -0.134296f, 0.477255f, 0.477850f, 0.167854f, 0.348512f, -0.072574f, 1.143658f, 0.881064f, -1.128346f, 1.166285f, -0.355819f, 0.532744f, -0.086957f, -0.377925f, -0.430243f, 0.141565f, 1.764989f, -0.565037f, -0.404480f, -0.473749f, 1.176054f, 0.269047f, 0.112055f, 0.153799f, 1.313528f, -0.235860f, -0.519309f, 0.008511f, 0.323825f, -0.589499f, -0.798399f, -0.874223f, -3.814435f, -0.330897f, 0.180842f, -0.244509f, -0.096117f, -0.278352f, -0.338676f, 0.886549f, 0.560761f, 1.633110f, -0.264516f, -0.134204f, 0.194604f, -0.909547f, 2.940399f, -0.165572f, -5.589144f, 1.138656f, 0.256564f, -0.238386f, 1.112413f, -0.004164f, -0.563584f, 1.128909f, 0.386809f, -0.010180f, -0.921040f, -1.314991f, -0.503990f, 0.350211f, -0.791116f, -0.481629f, 0.282140f, 1.470329f, 0.216784f, -0.480055f, 0.146832f, 1.224950f, -1.343719f, 0.422989f, -0.784795f, 0.647895f, 0.288419f, 2.608311f, 0.030395f, 0.538252f, -0.164071f, 0.070755f, 0.031239f, 0.166461f, -0.667194f, 0.552452f, 2.053052f, -0.262458f, 0.975021f, 2.442555f, 1.191354f, -0.224196f, -0.793122f, 1.385199f, 0.378243f, -1.464958f, -0.119708f, -0.766266f, -0.501178f, 0.677001f, -0.258956f, -0.371044f, 0.110540f, 0.477734f, -1.729308f, -0.339220f, 0.466556f, 0.817446f, 0.587246f, -0.480042f, 0.982478f, -0.308460f, 0.335232f, 0.157847f, 0.064197f, 0.176328f, -0.364943f, 0.387851f, 0.118746f, 0.908541f, -0.418381f, -0.183198f, -2.091405f, -1.783358f, 0.503916f, -0.447292f, 0.055058f, -1.138020f, -0.544317f, -0.403885f, -0.083948f, -0.220311f, 0.875124f, 1.199493f, 0.223330f, -0.100450f, 0.451931f, 1.779667f, -0.089334f, -1.575355f, 1.115396f, -1.924072f, 0.270368f, 1.009869f, -1.597165f, -1.142267f, -1.244537f, -0.265876f, -1.438807f, -0.757812f, 0.659453f, 0.631707f, -0.549465f, 2.004088f, -0.710452f, -0.752676f, -0.952411f, -2.030133f, 0.449779f, 0.206466f, 0.343289f, -1.516787f, 0.292444f, 0.204274f, 0.205683f, -0.093390f, -0.023564f, 0.140986f, 0.256180f, -0.260330f, -1.521413f, 0.709122f, -0.556701f, -0.925499f, 1.609248f, 0.915345f, -0.309547f, 0.616267f, -0.096472f, -0.245879f, 0.004598f, 0.309080f, -0.536920f, -0.269219f, -1.103879f, 0.846030f, -0.720290f, 0.873518f, -0.150504f, 0.438225f, -0.245534f, -0.165123f, 0.484021f, -0.137060f, -0.268765f, 2.217381f, 0.682905f, -1.582551f, -1.546728f, -1.887630f, -1.136762f, -1.660340f, -2.817173f, -0.161327f, -1.193260f, -0.511131f, -0.497888f, -2.183151f, 0.956898f, 2.315556f, -0.432806f, -0.664198f, -0.368540f, -0.831064f, -1.537932f, 1.713199f, 1.031091f, -0.836946f, -4.451335f, -1.230471f, 1.950825f, 0.087665f, 0.594827f, -1.904950f, 1.562482f, 1.965616f, 0.783538f, 0.079496f, -1.033169f, 1.170057f, 3.360092f, 1.513204f, -2.576108f, 1.184510f, 2.419150f, -2.201658f, -0.526318f, 1.688748f, 2.904243f, -0.048571f, -0.354970f, -0.521161f, -2.383772f, 3.527911f, -1.504413f, 2.977417f, 0.859058f, -0.346864f, -0.080607f, 0.521623f, -0.074294f, -3.112229f, 1.312137f, -1.877324f, -0.448325f, -0.264312f, -0.975061f, -1.670479f, -2.760041f, -0.076265f, -0.899287f, -0.356233f, 0.061578f, -1.102088f, 1.032079f, 0.749354f, -0.994757f, 0.525998f, 0.156647f, 0.764408f, -1.554613f, 0.197925f, -0.166206f, -0.711058f, -0.781814f, -0.512286f, 0.503013f, -0.539338f, -0.647910f, -0.443714f, 0.470181f, 0.890995f, 0.679551f, -0.600614f, -0.543018f, -0.067041f, 0.535601f, 0.150380f, -0.765738f, -0.266878f, -0.395125f, -0.116978f, 0.824978f, -0.179674f, 1.247067f, 1.008742f, -0.475490f, -1.010312f, -1.882878f, 2.781037f, -0.393741f, -0.058238f, 2.096525f, 0.451155f, 0.069927f, 0.421872f, -0.544955f, -0.269446f, -0.372739f, -0.257612f, 1.090393f, -0.149857f, 0.986093f, -0.318350f, -0.729603f, 0.775115f, -0.157321f, 0.426783f, -0.209731f, -1.520308f, 0.213428f, -0.162402f, -0.067625f, -0.514222f, 0.257013f, -0.735586f, 0.358978f, -0.032296f, -0.057034f, -0.285259f, -0.496939f, 0.050564f, 0.231636f, 0.106447f, 0.182279f, 0.261402f, 0.140878f, 0.297134f, -0.627289f, 0.443657f, -0.009528f, -0.075754f, 0.088177f, 0.214481f, 0.378722f, -0.202655f, -0.551493f, -0.354025f, 0.204506f, 0.242452f, -0.353913f, -0.273299f, -0.004251f, 0.584979f, -0.042886f, 0.037916f, -0.113297f, -0.607118f, 0.081225f, -0.447497f, -0.370164f, -0.493187f, 0.489567f, 0.918301f, 0.134817f, -0.742626f, 1.197058f, 0.368128f, 0.586656f, -0.291713f, -0.618581f, 0.416948f, -0.098049f, 0.554035f, 0.039880f, -1.837304f, 0.151305f, -0.202708f, -0.087935f, -0.355448f, 0.395966f, -0.671500f, 0.603094f, -0.277237f, 0.236954f, -0.788942f, -0.464263f, 0.079115f, 0.220517f, -0.206371f, -0.072837f, -0.243785f, -0.023224f, 0.273361f, -1.145531f, -0.184866f, -0.184354f, 0.226656f, 0.293561f, 0.538415f, 0.689387f, -0.276283f, -0.652343f, -0.235677f, 0.041829f, 0.239142f, -0.845197f, -0.071833f, 0.128132f, 0.454913f, -0.080436f, 0.155706f, -0.210262f, -0.558663f, 0.165103f, -0.214114f, -0.646101f, -0.500950f, 0.644235f, 1.065973f, 0.207197f, 0.250804f, -0.827562f, 2.114630f, 0.207284f, -0.814960f, -0.056924f, -2.695727f, 0.503176f, -1.099478f, -0.793231f, 0.497947f, 0.124061f, 0.430192f, -1.176504f, 0.960082f, -0.268889f, 0.186741f, 0.908679f, -0.227135f, 0.051390f, -0.160753f, -1.923909f, -0.360532f, 0.108124f, 0.040812f, -0.945264f, 0.149165f, -0.290539f, 0.021904f, 0.071665f, -0.155743f, 1.283824f, -0.822959f, -0.757815f, 0.253061f, 0.342677f, 0.145693f, 0.131298f, -0.126297f, 0.810270f, 1.502989f, 0.936524f, 0.868346f, -0.223851f, -0.322149f, -0.642607f, 2.097311f, 1.295939f, 2.096105f, 0.716383f, -1.324337f, -0.550606f, -0.078639f, 0.064384f, -0.784943f, -0.000860f, -1.939418f, 0.149593f, -1.118874f, 0.202258f, 0.400913f, -0.500194f, -0.503705f, -0.370130f, 1.241895f, 0.410845f, -0.029577f, 0.190229f, -1.384187f, -0.380319f, -0.611068f, -0.412433f, 0.080930f, 0.095174f, 0.545820f, 0.266997f, -0.414944f, 0.210079f, -0.087249f, 0.576959f, 0.073483f, 0.855573f, -0.571988f, 0.324918f, -0.860975f, 0.328575f, 0.290089f, -1.306273f, 0.816595f, 1.010421f, 0.573034f, -0.156182f, -0.044098f, 1.299919f, -0.638592f, -0.419610f, 0.403905f, 0.076158f, 1.396149f, -0.476417f, 0.122658f, 1.052504f, -1.207231f, -0.529828f, -2.662254f, 0.135871f, 0.668343f, -0.451122f, 0.036819f, -0.120196f, 0.487864f, 0.405491f, 1.818861f, -0.800093f, 1.040239f, 0.220187f, -0.825105f, -0.107800f, -0.229862f, 0.689942f, -1.140926f, -0.243178f, -0.715565f, 0.004342f, 0.669547f, 1.825174f, 0.434684f, 0.052326f, -0.333793f, -1.641464f, -0.217879f, -0.046871f, 0.429018f, -2.841559f, -0.479345f, -0.018630f, 0.268891f, 0.549670f, -0.132419f, 0.151973f, 0.742041f, -1.144943f, 0.036901f, -0.279536f, -1.264513f, -0.977076f, 0.538387f, -0.355629f, 1.427157f, -1.560747f, -0.692820f, 1.058862f, 1.093480f, 0.673308f, -3.398004f, -0.004155f, 0.367257f, -1.091264f, 1.159007f, 1.114219f, 2.682403f, 0.755732f, -2.680157f, 0.288726f, -0.025862f, 1.393450f, -0.831608f, -0.903671f, -0.458304f, -7.540445f, 1.588101f, 0.343924f, -0.678274f, 0.361112f, -0.841207f, -0.603424f, -2.057181f, -0.668262f, -0.983290f, -0.522057f, -2.330554f, 0.000362f, 1.123690f, -1.714633f, 0.641571f, 2.668668f, -0.037096f, -1.022718f, 0.329104f, 1.432145f, -0.230660f, 0.867356f, 0.364554f, 0.122335f, -0.624432f, 0.170959f, -1.790476f, -0.184462f, 0.429568f, -0.491896f, -0.223865f, 1.563310f, -1.232362f, -1.339221f, 1.757634f, -0.013573f, 2.239920f, -0.067951f, 2.344983f, 2.253853f, 2.022637f, -1.726145f, -1.685686f, -0.407857f, 1.154208f, -0.953893f, -0.599870f, 0.432471f, 1.703443f, 1.355046f, -0.284423f, 2.763500f, -0.353065f, 0.605733f, -2.691632f, -1.176229f, 0.282558f, -0.387204f, -0.552384f, -3.479041f, -0.515844f, -1.264420f, 1.024167f, 0.061065f, -0.307167f, 0.336808f, -0.533223f, -1.032132f, 1.466630f, 0.557118f, 0.016760f, 1.891116f, -0.847678f, 0.888714f, 0.145130f, 0.691280f, 0.350555f, 0.181757f, -0.968401f, 1.254184f, 0.000019f, 0.675249f, -1.343123f, 2.026507f, 1.114597f, -0.493766f, -1.252547f, -0.814217f, 0.131418f, -1.283658f, -0.454591f, -1.517478f, 0.040919f, 1.119312f, -0.664102f, -0.534085f, 0.535072f, -1.465269f, 0.647985f, -1.813056f, 1.551455f, -0.167248f, 0.940054f, 1.076417f, 1.451404f, -0.204029f, -0.155657f, 1.644383f, 1.817288f, -0.507564f, -0.241404f, -0.046501f, -0.589001f, -0.005783f, -0.098960f, -0.565325f, -0.577080f, 0.455886f, -0.565952f, 0.330894f, -0.219501f, -0.118160f, 0.606011f, 0.405756f, 0.064113f, 0.390057f, 0.054605f, 0.442708f, -0.253052f, 0.027007f, 0.548012f, -1.006751f, 0.038571f, -0.082789f, -0.855670f, 0.525796f, -0.256740f, -0.055718f, 0.304167f, -0.334285f, -0.153593f, -0.980327f, -0.121494f, -0.227767f, 0.327664f, 0.063222f, -0.255180f, 0.007943f, 0.095785f, 0.233578f, 0.501895f, -0.211061f, -0.139294f, -0.347344f, 0.107771f, -0.273992f, 0.108635f, -0.123529f, 0.232368f, -0.058280f, 0.083978f, 0.042890f, -0.146652f, -0.098285f, -0.371898f, 0.031846f, -0.543214f, -0.122145f, -0.485093f, 0.020290f, -0.361901f, -0.688731f, -0.095847f, -0.338937f, 0.389683f, 0.629747f, -0.375296f, -0.134601f, 0.301308f, -0.072391f, 0.326866f, -0.107670f, 0.184410f, -0.630463f, 0.330562f, -0.127445f, -0.030203f, -1.070622f, 0.369094f, 0.026975f, 0.590639f, 0.179858f, -0.063089f, 0.146008f, 0.317239f, -0.159243f, -0.040114f, -0.394776f, 0.084959f, -0.237519f, -0.104625f, -0.575146f, -0.122657f, -0.273937f, -0.059330f, 0.302758f, -0.214977f, -0.156894f, -0.139083f, -0.052829f, -0.110008f, -0.338198f, -0.148810f, -0.197343f, 0.646758f, -0.234398f, 0.122546f, -0.202626f, 0.330331f, 0.204992f, -0.013147f, 0.074980f, -0.951401f, -0.773474f, -0.851550f, -0.251812f, -0.599110f, -1.775711f, -0.326912f, 0.600507f, -0.662915f, 1.201293f, -0.690436f, -0.587609f, 1.473740f, 0.330118f, -0.052998f, 0.835543f, -0.110106f, 0.570353f, -0.146295f, -0.150990f, 0.622792f, -2.607039f, 0.954400f, -0.196108f, -0.136843f, 0.514855f, 0.284295f, -0.173869f, 0.887622f, -0.549291f, -0.128082f, -0.590920f, -0.373160f, -0.892349f, -0.138788f, -0.188753f, -0.528215f, -0.254043f, 0.177663f, 0.208132f, -0.134975f, -0.457731f, -0.032084f, -1.172633f, -0.018706f, -0.410875f, 0.056400f, -0.182486f, 2.004727f, -0.974040f, 0.084939f, -0.006049f, -0.407081f, 0.547547f, -0.615875f, -0.607466f, -0.307670f, 0.839290f, -0.088640f, -0.146288f, -0.134537f, 0.388744f, -0.383093f, -0.044061f, 0.201393f, -0.540506f, -0.067620f, 0.409047f, -0.366924f, 0.070308f, 0.075684f, -0.071883f, 0.185341f, -0.151891f, 0.340788f, -0.247209f, 0.227797f, 0.196867f, -0.319016f, -0.065125f, -0.011320f, 0.071754f, -0.397678f, 0.149514f, -0.399393f, -0.075346f, -0.474136f, -0.329392f, 0.208962f, 0.567557f, 0.510190f, 0.242989f, -0.128569f, 0.381220f, -0.524872f, 0.129738f, 0.252402f, 0.636652f, -0.196367f, -0.010370f, 0.049592f, 0.127604f, 0.015756f, -0.419262f, -0.931847f, 0.482999f, 0.137972f, 0.081094f, 0.365074f, -0.485684f, 0.065249f, -0.041125f, -2.449835f, 1.210462f, -0.668177f, 0.295316f, 0.558173f, -2.717605f, -0.324377f, -1.289442f, 1.547646f, -0.545662f, -0.871472f, 0.905403f, -1.565277f, -1.166734f, 1.074203f, -0.311583f, 0.230225f, 0.081958f, 1.147066f, -0.311486f, -0.621595f, 1.946774f, -0.633896f, 1.017916f, 0.457502f, -0.790407f, -0.567246f, 0.528506f, -1.478421f, -0.337237f, -0.604533f, -2.287170f, 1.511547f, 1.227856f, -0.158389f, 0.158105f, -0.958836f, 1.667623f, -1.922677f, -0.700318f, -0.075796f, -1.044751f, 1.113110f, -0.904245f, -1.142320f, 0.927544f, -1.068736f, -0.882871f, -1.932648f, 0.057537f, 1.050328f, 0.207486f, 0.228747f, -0.026611f, 1.978100f, 0.421729f, 1.729921f, -0.677440f, 0.275095f, -0.640112f, -1.319381f, 2.513115f, -0.583491f, 1.901763f, -1.996581f, 0.199303f, -0.070617f, -1.009801f, 2.415874f, 0.541919f, -0.155135f, 0.468565f, 1.307146f, 0.025051f, -1.029068f, 0.696828f, 1.070344f, -2.166727f, -0.235803f, -0.459889f, -0.733295f, 0.182084f, -0.199212f, -0.452983f, 1.584834f, 0.730645f, -1.152363f, 1.238484f, -2.025700f, -0.854049f, 0.782907f, -0.434736f, 0.206436f, -0.469506f, 1.186375f, 1.637726f, 0.950718f, 1.698754f, -0.867683f, 0.426286f, -0.129321f, -1.594815f, 1.710887f, -0.106532f, 1.681094f, 0.813638f, -1.346981f, -0.518577f, -0.064366f, 0.278816f, -0.285091f, -0.281975f, -0.239849f, -0.755456f, -0.179442f, 0.083312f, 0.525453f, -0.867344f, 0.345073f, 0.032336f, -0.331780f, 0.885641f, 0.289850f, -0.472934f, 0.832340f, 1.413729f, -0.647146f, 0.360832f, -1.317063f, 0.123951f, -0.385599f, -0.013481f, -0.019441f, -2.105155f, 0.613532f, -0.281242f, -0.218124f, 1.252310f, 0.650738f, -0.075646f, 0.424974f, -0.825145f, 0.796744f, 0.457600f, -0.293412f, -0.314153f, -0.540520f, 0.469751f, 0.455871f, -1.015069f, 0.300747f, -0.447129f, -0.387142f, -0.944352f, -0.359896f, -0.221524f, 1.334392f, 0.248802f, -0.446546f, 0.159347f, 1.689570f, -1.346147f, 0.259534f, 0.196904f, -0.225917f, -0.511813f, -1.688682f, -0.219706f, -0.632600f, 0.061271f, -0.434231f, 0.010200f, -0.120729f, -0.288180f, -0.175036f, -0.525766f, 0.391411f, -0.180084f, 0.260076f, -0.165492f, 0.135529f, -0.018635f, 0.170645f, -0.290983f, 0.343193f, -0.022492f, 0.355959f, 0.250948f, -0.152076f, 0.351744f, -0.274488f, -0.064170f, 0.576062f, 0.020058f, 0.346025f, 0.109791f, -0.166447f, -0.207231f, -0.060425f, -0.080759f, 0.660453f, 0.478041f, -0.091088f, -0.395744f, 0.056657f, 0.226294f, -0.290831f, -0.322365f, 0.050497f, 0.095917f, 0.528134f, 0.198839f, -0.380677f, -0.077384f, 0.066559f, -0.144518f, 0.081566f, -0.336794f, -0.233598f, -0.136726f, 0.267464f, 0.128343f, 0.050656f, -0.001044f, -2.542989f, -0.271625f, -2.137594f, -0.300209f, -0.000550f, -2.798622f, -1.247937f, 0.438773f, 0.403832f, -0.242102f, -0.330086f, 0.103669f, 0.348282f, -1.624849f, 1.233860f, 0.837104f, 1.538848f, 0.796273f, -0.061074f, -0.137664f, 0.683884f, 0.400506f, 0.356427f, 0.302428f, -0.529351f, -0.362415f, -1.221035f, 0.166372f, 0.014227f, 1.086944f, -0.337435f, -1.660839f, -0.650761f, -0.658294f, 0.033817f, -0.435904f, -0.953725f, 0.967621f, 0.129597f, -0.367562f, -0.668892f, 0.760048f, 0.978209f, -1.290209f, -0.208367f, -0.451093f, 0.360647f, -1.055948f, -0.979322f, -0.277551f, 0.645197f, -0.465883f, -0.348141f, -0.551641f, 0.137913f, -0.218242f, 1.901727f, 0.128911f, 1.225280f, 0.310688f, -0.266044f, 1.695356f, 0.201694f, 0.324301f, -1.211822f, 0.959282f, 0.019120f, -0.848998f, 0.988877f, 1.945777f, -1.303012f, 0.121591f, -1.272782f, -0.437677f, -0.115925f, -0.331914f, -0.004322f, -2.460563f, 0.709793f, -0.666044f, -0.390398f, 0.851619f, 1.064663f, 0.201582f, 0.857198f, -1.402864f, -0.187965f, 1.211829f, -0.126419f, -0.026705f, -0.049643f, 0.310806f, 1.124960f, -1.154674f, 0.395305f, 0.430168f, 0.794859f, -0.687540f, -1.610453f, 0.457553f, 0.819763f, -0.111619f, -0.311589f, 0.648897f, 2.053131f, 0.577226f, -0.434434f, 0.269206f, -0.004400f, 0.856390f, -0.367852f, 0.364575f, -0.096928f, -0.068738f, -0.157278f, -0.006785f, 0.259018f, 0.217956f, -0.201759f, -0.250793f, 0.210538f, 0.019398f, -0.158394f, 0.092093f, 0.076225f, -0.199418f, -0.127077f, -0.232672f, -0.153852f, -0.195668f, -0.161854f, 0.097763f, -0.237990f, -0.210334f, -0.193347f, -0.096615f, -0.107158f, -0.129271f, 0.131658f, 0.263211f, 0.017995f, 0.234015f, -0.054747f, -0.207852f, -0.048387f, -0.107493f, -0.003165f, 0.084322f, -0.020450f, 0.229912f, 0.202989f, 0.106995f, -0.005214f, -0.194970f, -0.054974f, 0.108027f, -0.113550f, -0.208984f, 0.215575f, 0.110941f, 0.060833f, 0.154707f, 0.176698f, -0.008681f, 0.201550f, 0.219880f, -0.119687f, 0.056886f, -0.200628f, 0.168637f, -0.175756f, -0.272572f, 0.159622f, -0.556176f, -0.728975f, 0.654988f, -0.327319f, 0.410927f, -0.526421f, -0.414545f, 0.956211f, 0.491362f, -0.409014f, 0.296446f, 0.184821f, 0.643089f, -0.153783f, 0.103773f, 0.315199f, -1.418278f, 0.232215f, 0.194900f, -1.116182f, 0.185077f, -0.297309f, 0.313142f, 0.191209f, -0.089875f, -0.354984f, -0.658108f, -0.167075f, -0.200768f, 0.356709f, 0.174816f, -0.295948f, 0.311169f, 0.122659f, -0.123188f, 0.235381f, -0.288384f, -0.403990f, -0.633352f, -0.090217f, -0.006977f, -0.185000f, -0.264177f, 0.651572f, -0.205976f, 0.272633f, 0.077696f, 0.176503f, -0.104234f, -0.643409f, -0.112379f, -0.770754f, -0.158445f, -0.263909f, 0.014620f, -0.404150f, -0.454070f, -0.033103f, 0.163300f, 0.240416f, 0.615593f, -0.138852f, 0.091155f, 0.617545f, 0.339193f, -0.073117f, 0.215081f, -0.097018f, -0.175114f, -0.073635f, 0.076437f, 0.247610f, -1.214507f, 0.261905f, 0.221471f, 0.607369f, 0.371267f, 0.085851f, -0.165062f, 0.291474f, -0.220220f, -0.343012f, -0.309180f, -0.107352f, -0.206977f, -0.122506f, -0.288246f, -0.112544f, 0.105425f, 0.123833f, 0.383247f, 0.059566f, -0.034215f, -0.264310f, -0.043992f, -0.138871f, -0.280132f, 0.304277f, -0.049771f, 0.773491f, 0.007899f, -0.234846f, -0.109017f, 0.192701f, -0.029044f, -0.124486f, -0.332894f, -1.019664f, -1.019398f, -0.537970f, -0.036220f, -0.767531f, -1.543038f, -0.716711f, 0.153014f, -0.728972f, 1.173603f, -0.450606f, -0.397375f, 1.789220f, 0.564351f, 0.057239f, 1.056525f, 0.586693f, 0.600578f, -0.138375f, -0.296059f, 0.670404f, -2.739664f, 0.743781f, 0.081918f, -0.226394f, 0.260160f, 0.220962f, 0.004912f, 0.544881f, -0.605503f, -0.099336f, -0.748416f, -0.318897f, -0.846461f, -0.424600f, -0.269629f, -0.011510f, -0.591701f, 0.511332f, -0.002622f, 0.130231f, 0.141681f, -0.088818f, -0.819674f, -0.212350f, -0.652936f, 0.199517f, -0.155291f, 2.154953f, -0.922535f, -0.086624f, -0.343170f, -0.380178f, 0.453725f, -0.495552f, -0.246853f, 0.132155f, 1.127865f, 0.029853f, 0.130611f, 0.242758f, 0.223750f, -0.282433f, 0.200313f, 0.051400f, -0.579356f, -0.200787f, 0.229209f, -0.233843f, -0.152653f, 0.108673f, -0.238738f, -0.386428f, -0.565469f, 0.271013f, -0.036515f, 0.108013f, 0.570611f, -0.072457f, -0.008409f, -0.080657f, -0.197450f, -0.698235f, -0.050057f, -0.334485f, 0.071446f, -0.114148f, -0.419168f, 0.585108f, 0.438639f, 0.567719f, 0.456841f, 0.049194f, 0.430323f, -0.547533f, 0.001993f, 0.251974f, -0.085224f, -0.096060f, 0.165731f, -0.032920f, 0.034286f, 0.077897f, -0.054094f, -0.919889f, 0.235774f, 0.265520f, 0.240442f, 0.369211f, -0.777531f, -0.041660f, 0.136413f };
static const float X60_MLP_L56_layer_1_biases[5] = { 1.599309f, 0.224379f, -0.214159f, 0.197366f, -1.742764f };
static const float X60_MLP_L56_layer_1_weights[280] = { 2.232753f, 1.465080f, 0.491519f, -3.220257f, -0.768742f, 4.693745f, -1.196953f, 0.604573f, -3.239177f, -0.215259f, -0.483961f, 2.754151f, -0.344792f, -1.985902f, -0.758217f, 0.709349f, -0.598139f, -0.673177f, 0.057636f, 0.132918f, 0.157321f, 0.148668f, -0.800668f, 1.010339f, -0.131667f, 1.859272f, 0.495517f, 3.237036f, -4.883706f, -0.534532f, -2.516169f, -0.532448f, 3.277199f, 0.020136f, 0.195250f, 1.796365f, 0.148140f, -0.980088f, -0.352559f, -0.858400f, -0.297686f, -1.055589f, -1.135086f, 1.336822f, 1.115653f, -1.634652f, 0.875123f, 0.590723f, -0.124799f, 0.374448f, -0.743356f, 0.472997f, -0.885271f, 1.779434f, -0.710883f, 0.177823f, -0.308724f, 0.689523f, -0.680581f, 0.475930f, -1.401857f, 0.349353f, 1.291486f, 0.232268f, -0.175570f, 1.014440f, 0.464043f, -0.606216f, -1.249423f, -0.043346f, -0.330070f, 0.281150f, 0.497815f, -0.833566f, 0.490761f, -2.487614f, 0.805650f, 2.963939f, 0.909232f, -1.269641f, -1.811200f, 0.404702f, 1.183787f, 0.747434f, -0.264709f, -0.909797f, -0.040388f, 0.314063f, 1.232180f, -0.290150f, 0.160007f, 0.208954f, -0.982327f, -0.453346f, 0.959444f, 0.278860f, -1.981945f, -0.505268f, 1.081064f, 1.337874f, -0.074950f, -0.187525f, 0.045453f, 1.149548f, -0.729333f, 0.551668f, -0.961134f, -3.246436f, 2.755443f, 1.101489f, -0.325318f, 1.626954f, 0.287693f, -0.853041f, -1.111632f, 2.496251f, -0.741448f, -1.012833f, -1.374785f, 0.420942f, -1.524129f, -0.744843f, -0.323853f, 1.122366f, 1.793221f, 1.610890f, 0.133044f, -1.458470f, -0.723015f, -0.143629f, -2.305181f, 1.514716f, -0.270537f, 0.625172f, 1.165614f, 0.956969f, -0.360577f, 0.643266f, -0.775433f, -0.723020f, -0.157352f, -0.476680f, 1.031311f, -0.116046f, -0.687191f, 0.988822f, -0.771695f, -1.448261f, 1.638195f, -0.990121f, -1.163433f, 1.000126f, -0.076942f, 1.090761f, -0.699632f, -0.795868f, 1.655117f, -1.141794f, 0.841805f, -0.280314f, -0.605173f, -0.723077f, -0.972217f, 0.809194f, 1.861993f, 1.974260f, -0.890604f, -1.598971f, -0.042920f, 0.853837f, 1.048321f, 0.110176f, -0.450367f, -0.124613f, -0.146089f, 0.959403f, 1.047518f, 0.328533f, -2.123291f, -0.686896f, 0.590279f, -1.165261f, 0.037974f, -0.152605f, 0.200064f, 2.000891f, -0.912059f, -1.324549f, -0.309581f, 0.379721f, -0.687124f, 0.424121f, -0.222376f, 0.684986f, -0.256272f, 1.178137f, 0.848010f, -1.435495f, -0.460265f, -0.220239f, 2.737116f, 1.282200f, -2.553475f, -1.915753f, 0.005759f, -0.863993f, -1.349590f, -1.404869f, 4.004295f, -0.305250f, -0.122605f, -1.757105f, 0.914554f, -0.166916f, 0.902911f, 0.315445f, 0.604244f, 0.046858f, -1.117408f, 0.334797f, 1.273163f, 0.856018f, -0.760449f, -0.501587f, -0.924292f, 1.514632f, -0.398695f, -1.065786f, -0.415734f, 0.602604f, -0.860438f, 0.531867f, 2.903107f, -2.155980f, -0.403858f, 0.373774f, 1.740967f, -1.331224f, -0.554787f, -1.028733f, -1.729432f, 1.599200f, 1.775549f, -0.983525f, -0.566380f, 1.817693f, 0.829457f, 1.615330f, -2.840090f, -1.232707f, 0.133641f, -1.745515f, 0.492159f, 0.705317f, 0.367302f, 0.450587f, -1.066983f, 0.563965f, -0.341157f, 0.562263f, 1.328968f, -1.089959f, -1.207681f, 0.661127f, 0.720564f, -3.277078f, 2.131031f, 1.191716f, -0.065766f, -0.194606f, 1.829843f, -0.632234f, -0.804020f, -1.417652f, 0.553802f, 0.035341f, -0.052084f, -0.958078f, 0.133639f, -0.265475f };
static float X60_MLP_L56_buf1[56];
static float X60_MLP_L56_buf2[56];
static const EmlNetLayer X60_MLP_L56_layers[2] = { 
{ 56, 30, X60_MLP_L56_layer_0_weights, X60_MLP_L56_layer_0_biases, EmlNetActivationTanh }, 
{ 5, 56, X60_MLP_L56_layer_1_weights, X60_MLP_L56_layer_1_biases, EmlNetActivationSoftmax } };
static EmlNet X60_MLP_L56 = { 2, X60_MLP_L56_layers, X60_MLP_L56_buf1, X60_MLP_L56_buf2, 56 };

    int32_t
    X60_MLP_L56_predict(const float *features, int32_t n_features)
    {
        return eml_net_predict(&X60_MLP_L56, features, n_features);
    }
    

    int32_t
    X60_MLP_L56_regress(const float *features, int32_t n_features, float *out, int32_t out_length)
    {
        return eml_net_regress(&X60_MLP_L56, features, n_features, out, out_length);
    }
    

    float
    X60_MLP_L56_regress1(const float *features, int32_t n_features)
    {
        return eml_net_regress1(&X60_MLP_L56, features, n_features);
    }
    