
#include <eml_net.h>
static const float X40_MLP_L46_layer_0_biases[46] = { -1.267558f, 1.147753f, -0.203530f, 0.899460f, -1.106279f, 0.474802f, 0.294785f, 0.331772f, 0.275301f, 0.326807f, 0.872127f, -0.296378f, -0.100757f, 0.371563f, 0.090689f, 0.730193f, 1.777474f, 0.678408f, 0.615693f, 0.449887f, 0.489387f, 0.052264f, -0.203938f, 0.470501f, -1.069977f, -0.398251f, -0.096269f, -0.142838f, 1.135200f, -0.314679f, -0.745276f, 0.481573f, 1.829023f, -0.529369f, 0.331764f, -0.037856f, -0.123502f, -0.630904f, -0.584024f, 0.630834f, 0.286730f, -0.402157f, -0.004016f, 1.497096f, 0.329139f, -0.485907f };
static const float X40_MLP_L46_layer_0_weights[966] = { -0.572544f, -1.184685f, 1.085002f, -0.567497f, 0.486797f, 0.225164f, -0.157680f, 2.173538f, -0.190793f, 1.648875f, -0.390299f, -0.515163f, 0.431513f, 1.374353f, -1.072849f, 0.820522f, 0.488791f, -1.082978f, 0.922581f, -0.749704f, 0.576797f, 0.064148f, -1.005596f, 0.943265f, 0.340259f, -0.064236f, -1.502529f, 0.595393f, -0.610611f, -0.351047f, -1.833352f, 0.263252f, 1.292663f, -0.107012f, -0.395856f, -0.551924f, 0.356550f, -1.229499f, 0.132091f, 0.554531f, 1.522213f, 0.627233f, 2.815139f, -0.100644f, -0.735647f, -0.878791f, 0.359075f, -0.715817f, 0.271643f, -0.158065f, 1.186220f, 0.766653f, 1.187211f, -0.205936f, -0.085913f, -0.981272f, -2.576425f, 0.132812f, 0.106820f, -0.132063f, -0.883660f, 1.457372f, -0.097928f, 0.393055f, 0.391617f, -0.001907f, -0.186957f, -0.576193f, -0.925124f, 2.014265f, 0.824426f, 0.711233f, -0.023706f, 0.928132f, 0.436588f, -0.785480f, 0.045959f, 1.095831f, 1.107235f, 0.826740f, -0.611470f, -0.263790f, 1.158243f, 0.064553f, 1.087853f, -1.755725f, -0.539016f, -0.964285f, 0.829657f, 0.678125f, 1.451126f, 0.293662f, -1.969020f, -0.411501f, -1.802444f, 0.782314f, -0.069877f, 0.044453f, 0.400883f, -0.469231f, 1.537480f, -1.662718f, 0.540362f, -0.208183f, -0.138794f, -0.539854f, 0.741185f, -0.621178f, 2.070633f, 0.368332f, 0.148743f, -0.587822f, -0.672339f, -0.254086f, 3.455182f, -3.216618f, -0.396537f, -0.339971f, 1.823723f, 0.614185f, -0.871692f, 0.263700f, 0.517939f, 0.035262f, -0.397975f, -0.388580f, -0.230334f, 0.130260f, -0.085499f, -0.264991f, 0.550814f, -0.119711f, -0.212885f, 0.299727f, 2.899425f, 2.835887f, 0.909365f, -0.039520f, 0.478145f, -0.926744f, 0.951879f, 0.485431f, 0.621594f, -0.017847f, 0.867128f, 0.389424f, -1.192942f, 1.102521f, 0.250439f, 1.282081f, -0.295289f, 0.931329f, -1.132882f, 1.384930f, 0.322568f, 1.065957f, 0.408049f, -0.102082f, -1.350836f, -1.054018f, 0.236153f, 0.528067f, -0.325714f, 1.056588f, 0.818208f, 0.324618f, 0.438446f, -1.260309f, -0.766727f, -1.669892f, -0.054021f, -2.148460f, -0.590587f, -0.205285f, 0.088770f, -1.055674f, -0.468735f, 1.593069f, 0.113869f, -1.407392f, 0.307745f, 1.988011f, 0.437141f, -0.421859f, -0.019475f, 0.680190f, 0.633596f, 1.326429f, -1.534483f, 0.200659f, -0.089410f, -0.911953f, 0.045132f, 0.302733f, 2.712559f, -0.004010f, 0.298483f, -0.389323f, 0.458073f, 0.060644f, -0.698833f, 0.200190f, -0.602678f, -1.905913f, -0.200970f, -1.331892f, 0.128113f, 1.649525f, -0.574502f, 0.837221f, 1.420328f, -0.179354f, 0.638515f, 0.146394f, -0.164240f, -0.399564f, -1.860740f, -0.244945f, -0.261153f, 1.500133f, 0.104686f, 0.422746f, -0.770090f, 2.234726f, -0.426191f, 0.625282f, -1.344385f, -0.577316f, -0.776017f, 0.307940f, -2.775265f, -1.165183f, 3.687213f, -1.096209f, 0.154235f, 2.375305f, -0.100581f, -0.647701f, -0.607016f, 2.105222f, 3.308005f, 0.807024f, 0.480935f, -2.509637f, 0.112361f, 2.198040f, 1.065562f, -1.464601f, -0.963642f, -1.015839f, 0.377279f, 0.227665f, 0.940901f, 1.296117f, 0.434372f, -0.468640f, -2.401762f, 0.094649f, 3.177661f, -0.999086f, -2.118178f, -2.088459f, -1.124243f, 1.109026f, 1.789395f, 1.816598f, -1.310064f, -0.035428f, -0.043300f, -0.242409f, 2.269778f, 0.853753f, -0.178962f, 3.498435f, -2.329992f, 0.326881f, -0.381980f, 0.744962f, 0.890069f, -0.272515f, -0.026854f, 0.658130f, -1.191462f, -1.364235f, -0.732481f, 0.901369f, 0.556319f, 0.151992f, 0.254691f, -0.413589f, 0.373857f, -0.364729f, -0.030413f, -3.247261f, -0.640495f, 0.933599f, 0.084597f, -0.299005f, 0.220061f, 2.617048f, -0.565576f, -0.668195f, -0.513808f, -0.338112f, 1.507238f, 1.067565f, -1.287776f, -0.744586f, 1.024321f, -0.836651f, 0.435913f, -0.146922f, 0.956085f, -0.127068f, -0.437432f, -0.349035f, 0.943853f, 0.750657f, 2.354322f, 0.343985f, -0.001659f, 0.762145f, -2.076271f, -1.697277f, -1.557112f, 2.095487f, 2.128000f, -2.115596f, 0.618286f, -0.706702f, -1.602320f, -0.666982f, -0.654995f, 0.394680f, 0.414535f, 1.912574f, -1.757883f, 0.864859f, 0.096660f, -3.155693f, 0.009700f, 0.207559f, -0.696403f, 0.329200f, 0.443309f, -0.844032f, 1.031002f, -0.955084f, 0.503724f, -0.367774f, 0.819409f, -3.246854f, -0.408900f, 2.843548f, -1.699159f, 0.016887f, -0.233208f, -0.077264f, 0.564790f, 0.615495f, -1.137140f, 0.108658f, 0.371301f, -0.075186f, 2.851551f, 3.104525f, -0.511870f, -1.093357f, 2.554231f, -3.675590f, 1.763156f, -0.618675f, 0.096158f, 0.372299f, -0.080388f, 0.735781f, 0.923259f, 0.147293f, 0.299064f, 2.216350f, -0.113858f, -0.172197f, 1.272703f, 0.295219f, 0.599201f, 0.247854f, 1.392831f, -2.336367f, -0.412546f, -1.092094f, -1.502765f, -2.598102f, -1.152487f, 0.429046f, 0.803007f, 1.178858f, -0.433824f, 0.935571f, -0.559819f, -0.254895f, -1.479251f, 6.976463f, -4.244162f, 0.661890f, 1.605796f, 1.552589f, -0.516933f, -5.696954f, 0.420758f, 1.612012f, -4.373917f, 2.669475f, -1.115560f, -1.590154f, -1.219070f, -0.072486f, 0.262791f, -0.701093f, -3.164263f, 1.373067f, 1.310097f, 1.737492f, -0.639555f, -1.086181f, 2.042399f, -0.457905f, 1.340000f, -0.860180f, 0.967209f, -1.356092f, 1.908077f, 2.732087f, 0.560110f, 0.667351f, 0.372361f, -0.573145f, 1.282593f, -2.338574f, -0.158052f, -0.248936f, -0.103075f, -0.212152f, -0.037424f, 0.002230f, -0.475209f, 0.682739f, -0.213033f, 0.488970f, -1.107206f, -0.766795f, -1.067393f, -0.809397f, -0.572125f, -0.750715f, 0.287096f, -1.113119f, -0.597397f, -0.471845f, 1.945961f, -1.319298f, -0.477587f, 0.508689f, -0.182007f, 0.174903f, -0.792237f, 0.411830f, 0.110458f, 0.248134f, 0.235529f, 0.121586f, 0.816886f, -0.007060f, 0.390007f, 0.326299f, 0.030883f, 0.460290f, 0.898308f, 0.488531f, 0.503815f, 0.256111f, -0.181940f, 0.217302f, -0.145443f, 0.106352f, -0.961763f, -0.436316f, -0.204615f, 0.020253f, 1.437571f, -0.352816f, -1.236829f, 0.004955f, 1.471324f, -0.408170f, -0.080018f, 0.056396f, 0.133976f, -1.148859f, -0.276621f, 0.231960f, 0.562603f, -0.065636f, -0.264893f, 0.342217f, 0.198289f, 0.136021f, -0.698895f, 0.159014f, 0.013643f, 0.614283f, -0.848135f, -0.030496f, 0.034836f, 0.070872f, 0.016888f, 0.355452f, -0.140826f, 0.006364f, -0.187880f, 0.437559f, 0.097014f, 0.107230f, 0.583425f, 0.560429f, -0.139503f, 0.093311f, 0.209026f, -0.236306f, -0.340980f, 0.096140f, -0.321621f, 0.112219f, 0.273217f, -0.062787f, -0.337868f, 0.076987f, 0.394022f, 0.386297f, 0.860485f, -0.014393f, 0.089727f, 0.150408f, -0.209591f, 0.387291f, 0.091926f, -0.113916f, -0.283784f, 0.056130f, 0.446632f, 0.933960f, 0.156004f, -0.374189f, 1.129171f, -0.799965f, 1.228193f, -0.931906f, -3.062689f, 0.679520f, -0.490509f, 0.054397f, -0.078101f, 1.433279f, -0.156798f, 0.493830f, -0.966771f, 0.921837f, -1.226385f, -0.260542f, 0.794896f, 0.605100f, -0.696894f, -1.672848f, 0.295444f, -0.726543f, 0.417385f, 0.074387f, 0.128093f, 0.124517f, -1.532455f, -0.225693f, -1.039185f, 1.636917f, -0.957662f, -1.408371f, 0.653661f, 1.021552f, 1.440972f, 0.499545f, -0.042815f, 0.645616f, 0.057310f, 0.751146f, 0.733616f, 0.562810f, -1.080700f, -1.968154f, 0.153351f, 0.665192f, -1.311874f, 1.836780f, -0.955015f, 0.096828f, 3.679520f, 0.437699f, 0.097346f, -0.125579f, -0.342709f, -0.944855f, -0.000903f, -0.207024f, 0.437819f, -1.082941f, 0.601123f, 0.725650f, 0.733384f, 0.189730f, 1.146005f, 1.076927f, 0.357874f, 0.398912f, 0.293229f, 0.106521f, -0.730590f, -0.493080f, 0.173334f, 0.910530f, 1.420731f, 0.026151f, -0.842609f, 0.629022f, 0.119692f, -1.301521f, -1.473545f, -0.318720f, 0.380616f, -0.315295f, -0.279033f, -1.742355f, 0.677217f, 0.512918f, 1.556577f, 3.007917f, -0.227393f, -0.905857f, -1.253614f, 0.061537f, -0.186812f, 1.253617f, -1.701949f, -1.004951f, 0.561759f, 0.665923f, 0.184134f, -0.554452f, 1.520462f, -0.578396f, 0.503421f, 0.403745f, 0.744209f, 0.403605f, 0.025632f, 0.248444f, -0.009483f, 0.731054f, -0.701396f, 0.352510f, -0.458740f, 0.047156f, -0.168438f, 0.578223f, 1.617295f, -0.395216f, 0.635429f, -1.779205f, 1.104818f, 0.626016f, 1.209362f, -0.638977f, -0.240457f, -0.232498f, -0.602725f, -0.674692f, -0.456158f, 1.539928f, -1.212695f, -0.969164f, -0.101997f, 0.825355f, 0.835564f, -0.325276f, 0.397622f, -0.625607f, 0.172302f, -0.165922f, -0.839523f, 0.115404f, -0.610808f, -0.929896f, -0.164310f, 0.380307f, -0.440830f, -0.075705f, -0.484186f, -0.718661f, -0.608514f, -0.332765f, -0.176562f, -0.074470f, -0.617404f, -0.012018f, -0.015799f, 0.122462f, 0.665625f, 0.087844f, 0.109225f, 0.023415f, -0.208222f, 0.086889f, -0.385073f, 0.357080f, 0.348209f, -0.097351f, 0.158425f, 1.042094f, 0.149504f, 0.702234f, -0.124523f, 1.187340f, 0.181795f, 0.231965f, -0.247623f, 0.476539f, -0.569062f, -0.594778f, 0.057535f, 0.050908f, -0.614365f, 0.482627f, 0.259718f, -0.625669f, -2.942093f, 2.179276f, -0.534199f, 0.008489f, -0.084038f, -0.387896f, 0.566090f, -0.342307f, 0.709637f, 0.526841f, -0.063506f, -0.056616f, 2.276517f, 0.864237f, 1.025543f, 1.345902f, 0.782099f, -0.299370f, -0.177340f, -0.853751f, -0.617342f, -0.916374f, -0.228911f, 0.040745f, 0.687556f, 1.245870f, -1.441635f, -0.320950f, 3.786613f, 0.393612f, -0.226595f, -0.695381f, -0.073662f, -0.951485f, -0.058096f, -0.199146f, 1.635423f, 0.324089f, 1.358218f, -0.411063f, -0.217674f, -0.191162f, -0.748730f, 1.075953f, -0.823508f, 0.997511f, 2.160048f, -1.679090f, 0.649551f, 0.534348f, 0.343777f, 0.317725f, 0.936784f, -0.016359f, 0.104029f, 0.524082f, 0.159737f, 0.572816f, -0.488498f, -0.403646f, -0.718774f, -0.355906f, -0.834169f, -0.306695f, -0.323076f, 1.063307f, 0.009340f, 0.307456f, 0.667714f, -0.193926f, 0.743398f, -1.169494f, 0.657463f, 1.043286f, -2.187505f, -1.830705f, 0.203687f, 0.264187f, 0.180351f, -0.883571f, -0.034088f, -0.133246f, -1.185184f, -1.260258f, -0.717369f, 2.553008f, 0.051349f, 0.168691f, 0.181311f, -0.203624f, 0.063015f, -0.229978f, 0.137193f, 0.081948f, 0.186867f, -0.012307f, 0.248274f, -0.268941f, -0.124365f, 0.128904f, -0.049143f, -0.195676f, -0.235481f, 0.189910f, -0.016254f, 0.228495f, 0.138572f, -0.054826f, -0.075951f, 0.009260f, 0.232788f, 0.143015f, -0.296209f, 0.116248f, 0.250740f, 0.125686f, -0.193358f, -0.009572f, -0.215422f, -0.084199f, 0.260615f, 0.252366f, -0.129249f, -0.095915f, 0.060035f, 0.277002f, -0.210666f, -0.144615f, 0.223586f, -0.005291f, 0.238941f, -0.188103f, 0.019447f, -0.103901f, -1.895061f, 1.034884f, -0.269123f, 1.108144f, -1.205906f, 0.271786f, 0.101419f, 0.015681f, 0.050931f, 0.275165f, 1.541500f, -0.359819f, 0.346663f, 0.384792f, 0.395077f, 0.768281f, 1.113854f, 0.186507f, 1.057765f, 1.394363f, 0.322535f, -0.013872f, 0.191083f, 0.104544f, -1.056926f, -0.383415f, 0.765645f, -0.143306f, 1.250049f, -1.179241f, 0.294431f, 1.014590f, 2.067693f, -0.364675f, -0.356949f, -0.276849f, 0.413691f, -0.900647f, -0.749584f, -0.832890f, -0.349555f, 0.078455f, -0.050494f, 1.278453f, 0.583612f, -1.162440f, 0.622284f, -0.046109f, 0.274388f, -0.280902f, 0.240157f, 0.730962f, 0.201720f, -0.089601f, 0.135199f, 0.230470f, -0.272067f, -0.177633f, -0.268005f, -0.166110f, -0.785960f, 0.189765f, 0.373684f, 0.239434f, -0.827308f, -0.711439f, -0.199601f, -0.298018f, -0.262269f, 0.403195f, 0.157219f, -0.071872f, -0.383171f, -0.192666f, -0.292981f, 1.030292f, -0.992565f, -0.261324f, -0.505705f, -0.494965f, 0.247188f, 0.209871f, -0.295336f, -0.107146f, 0.937702f, 1.228139f, 0.674286f, -0.086353f, -0.100156f, -0.171801f, -0.256042f, 0.690659f };
static const float X40_MLP_L46_layer_1_biases[5] = { 1.821965f, 0.310945f, -1.219527f, 0.365763f, -0.883202f };
static const float X40_MLP_L46_layer_1_weights[230] = { 2.446971f, -1.048747f, -1.835686f, -0.210806f, 0.076336f, 1.828352f, 0.033002f, 0.005971f, -1.854989f, -0.052198f, -1.208133f, -1.183397f, 0.684685f, 1.958054f, 0.575552f, -1.489972f, 0.925030f, 0.354577f, -0.493508f, 0.258025f, 2.225036f, 1.036225f, 1.558917f, -2.892328f, -1.425332f, -0.584745f, -1.006681f, 0.403449f, 0.505526f, -0.087951f, 1.394003f, 0.451473f, -0.417561f, -1.006589f, -0.448241f, 0.649814f, 0.631446f, 0.900966f, -1.639854f, -0.489607f, 0.055898f, -0.822713f, 1.265947f, -0.062494f, -0.706242f, 1.165197f, 0.909650f, -0.412499f, -1.838168f, 0.647788f, -4.182610f, -0.346592f, 1.925744f, 2.089538f, -0.746764f, 0.946018f, -0.169436f, -0.089738f, -0.800404f, 0.400908f, 0.402776f, -0.061357f, 0.308776f, 0.367903f, -1.684004f, 1.265034f, 0.325534f, 0.853669f, -1.949654f, 0.059464f, 0.148264f, 1.331390f, -0.400142f, -0.383043f, -0.607303f, 0.349396f, -0.442626f, -1.056740f, 0.936292f, 0.291346f, 0.932842f, -1.663868f, -0.739263f, 1.142111f, 0.339305f, 0.971241f, -0.511779f, -0.918211f, 1.423778f, -0.375216f, -1.153617f, 1.272003f, 1.581023f, -0.544355f, -0.550318f, -3.745241f, 0.141503f, 1.511671f, 2.464167f, -0.987348f, -0.262557f, -0.488004f, 0.179987f, -0.197074f, 0.251561f, -0.625366f, 0.043301f, -0.037920f, 1.250598f, -0.176385f, -0.056050f, -1.419109f, 0.404730f, 0.745085f, 1.141426f, -0.338990f, -0.119205f, 0.845503f, -0.888697f, -0.173963f, 0.264122f, -0.610309f, -1.188174f, 1.582318f, 0.400433f, -1.094465f, 0.292125f, -0.732553f, 1.439784f, -0.007478f, -1.845514f, 0.519736f, 0.468471f, 1.151912f, -0.856387f, -0.311173f, 0.940168f, -0.752935f, 0.363059f, -0.430363f, -0.837217f, -0.580193f, 2.150695f, 0.050156f, -0.734285f, -0.438721f, -2.033368f, 0.888882f, 0.904678f, 0.659176f, -2.904314f, 1.144702f, 0.699385f, 0.296381f, 0.442094f, 0.655517f, 1.512944f, -0.923109f, -0.767087f, -0.241437f, -2.528963f, -0.355364f, 0.228883f, 3.251299f, -0.153282f, -3.880015f, 0.119594f, 1.735463f, 1.491097f, 0.869726f, 1.667519f, -0.611402f, -0.614766f, -0.724821f, 0.188156f, 1.525030f, -0.658237f, -0.837870f, -0.304220f, 1.422260f, -0.919314f, 1.014881f, 1.004439f, -0.814666f, -0.453804f, -1.378029f, -0.868008f, -0.608635f, 1.091981f, 1.389588f, 0.739324f, -0.231661f, -0.042352f, -0.901030f, 0.980888f, 2.569915f, -0.542292f, -1.164035f, -1.456861f, 0.643016f, 1.756431f, -1.343010f, -1.038220f, 0.820708f, -0.430514f, -1.555999f, -0.166016f, 0.644177f, 1.241025f, 0.491647f, -0.254189f, 0.974115f, 1.936507f, -1.628754f, -0.854589f, 1.057666f, 0.711323f, 1.978353f, -3.406071f, -0.809193f, -2.441447f, -0.061416f, 1.681575f, 0.031034f, 0.150842f, 1.785709f, -1.179373f, -0.919147f, -0.453613f, -0.264212f };
static float X40_MLP_L46_buf1[46];
static float X40_MLP_L46_buf2[46];
static const EmlNetLayer X40_MLP_L46_layers[2] = { 
{ 46, 21, X40_MLP_L46_layer_0_weights, X40_MLP_L46_layer_0_biases, EmlNetActivationTanh }, 
{ 5, 46, X40_MLP_L46_layer_1_weights, X40_MLP_L46_layer_1_biases, EmlNetActivationSoftmax } };
static EmlNet X40_MLP_L46 = { 2, X40_MLP_L46_layers, X40_MLP_L46_buf1, X40_MLP_L46_buf2, 46 };

    int32_t
    X40_MLP_L46_predict(const float *features, int32_t n_features)
    {
        return eml_net_predict(&X40_MLP_L46, features, n_features);
    }
    

    int32_t
    X40_MLP_L46_regress(const float *features, int32_t n_features, float *out, int32_t out_length)
    {
        return eml_net_regress(&X40_MLP_L46, features, n_features, out, out_length);
    }
    

    float
    X40_MLP_L46_regress1(const float *features, int32_t n_features)
    {
        return eml_net_regress1(&X40_MLP_L46, features, n_features);
    }
    