
#include "eml_net.h"
static const float X40_MLP_L56_layer_0_biases[56] = { 0.996869f, 1.091095f, 1.739121f, 0.821067f, 1.112874f, -0.692923f, 0.906912f, -0.442337f, -1.654125f, 1.599703f, -0.505374f, 0.559976f, -0.222272f, 0.908677f, -1.655596f, -0.540509f, 2.522149f, 0.208919f, -1.534458f, 1.037771f, 0.924451f, -0.490410f, -1.087016f, 1.159538f, 0.383749f, 0.656906f, -2.213750f, -0.034904f, 1.189881f, -0.864348f, -0.077302f, -1.507316f, 0.864679f, -0.163312f, 0.268714f, -0.055260f, -0.916845f, 0.898154f, 1.116707f, -0.933883f, 0.667351f, 1.125763f, 0.277485f, -0.151383f, -0.811387f, -1.466448f, 0.977572f, -0.757686f, 1.995093f, 1.517206f, 0.457413f, 0.481490f, 0.303128f, -1.002439f, -0.628398f, 0.792231f };
static const float X40_MLP_L56_layer_0_weights[1568] = { -0.538612f, 0.762066f, 0.248720f, -0.034957f, 0.271587f, 1.777325f, -1.600003f, -0.034721f, 0.038761f, 1.274789f, -0.175955f, 1.676394f, -3.252439f, 0.187762f, -0.297916f, -0.845904f, 1.684990f, 0.554927f, 0.070776f, 0.448560f, 1.524457f, 0.536342f, -0.745592f, 1.642452f, -1.127739f, 2.098933f, 0.584550f, -1.583970f, -0.381408f, -0.470241f, -0.035640f, 1.967711f, -0.505370f, 1.480677f, 0.853868f, 0.611764f, -1.178438f, 0.684630f, 0.258299f, 1.754567f, -1.138823f, 0.384161f, 1.042801f, -0.572461f, -0.380556f, -0.457798f, 0.987436f, -1.094445f, 0.015984f, 0.424206f, -2.027259f, 0.839819f, 1.347765f, 0.441711f, 0.500326f, -5.564840f, 0.448558f, -1.031519f, -0.576789f, -0.651219f, 0.188810f, -0.037681f, 0.091998f, -0.370125f, -0.061144f, 0.426632f, 0.003405f, 0.578417f, 0.707813f, -0.094286f, -0.312152f, -0.301808f, -1.592335f, 0.901555f, -1.058960f, -1.125770f, -1.142778f, -1.152249f, -0.095068f, 0.562730f, 0.513860f, 1.145779f, 0.077917f, 0.099481f, -0.744756f, -0.355331f, 0.343391f, 0.063918f, 1.944459f, 1.525024f, 1.553079f, 1.683337f, -1.500874f, 0.669595f, 0.830105f, -0.724262f, -0.166183f, -0.112979f, 0.390546f, 0.306850f, -0.037594f, -0.961793f, -0.225778f, -0.416400f, 1.016770f, 0.108344f, 0.098087f, -0.493987f, 0.009320f, -0.198620f, 0.129933f, 0.131366f, 0.317875f, -1.097916f, 1.853376f, 0.086812f, 1.994066f, 0.337395f, -0.268226f, -0.262180f, -0.282007f, -0.000463f, 1.102853f, 0.580756f, 0.573788f, 0.090655f, -0.977243f, -0.592556f, 0.708399f, 0.370833f, -0.373528f, 0.363503f, -0.812222f, 0.465022f, 0.652170f, 0.386040f, 0.033915f, 0.015507f, 0.233675f, -0.885472f, 0.148508f, -0.123965f, 0.342631f, -0.076360f, 0.111081f, -0.386020f, 1.119602f, -1.444185f, 0.344731f, -0.007097f, 0.582833f, 0.061426f, -0.165993f, 0.689348f, -1.568024f, 0.986836f, 1.358589f, -0.703676f, 0.211963f, 0.097183f, 0.649932f, -0.788287f, 0.263022f, -0.624981f, 2.096701f, 1.491215f, -0.432147f, -0.746034f, 0.403340f, -0.248673f, 1.496895f, -0.091531f, 0.176012f, -0.571991f, 0.037933f, -0.248058f, -0.153446f, 0.208083f, 1.981485f, 0.667499f, 0.199403f, -0.189561f, 0.273279f, -0.437478f, 0.138098f, 2.173650f, -0.237971f, -0.485417f, -0.351682f, -2.583512f, 0.053784f, -0.013493f, 0.035463f, 0.133888f, 0.205246f, 0.152731f, -0.044902f, 0.056849f, 0.721458f, -0.998678f, 0.021030f, 0.382722f, 1.042263f, -2.093703f, 0.062409f, -0.094460f, 0.419678f, -0.010663f, -0.316389f, 0.716615f, -0.619286f, -0.787789f, 1.281149f, -0.117166f, -0.222637f, 0.258573f, 0.348350f, -1.364483f, 2.110975f, -0.152054f, 0.206070f, 2.026032f, -0.360316f, 0.526881f, 0.073363f, 1.535583f, -0.416219f, -1.116272f, 1.186765f, 2.829811f, 3.353956f, 1.168373f, -1.868012f, 1.215289f, -0.655354f, 3.207378f, -1.355922f, 0.521005f, -1.076685f, -0.064645f, 0.827521f, -1.919983f, -0.221116f, 0.258264f, -1.438365f, -1.617506f, 0.660700f, 1.565573f, 0.246010f, 1.925623f, 1.748646f, -0.061716f, -1.827826f, -1.481608f, 0.990597f, -2.468539f, 3.429022f, -0.294660f, 1.617242f, -0.009559f, -2.608605f, -1.572430f, 0.096625f, 0.554744f, 1.254935f, 1.220496f, -2.075671f, 1.071610f, -0.421357f, -0.436805f, -1.648343f, -1.368276f, 0.405609f, 0.978864f, -0.334106f, 0.632941f, 1.772186f, 0.700031f, -0.025396f, 3.148284f, -0.179392f, -1.063975f, 0.505439f, 1.534530f, -2.026280f, -0.097354f, 0.128574f, -1.481705f, -3.868177f, 1.120703f, -0.278241f, 0.902267f, -0.148844f, -2.054402f, 0.861765f, -0.638139f, 4.367343f, 5.590637f, -0.180121f, 1.633423f, -0.210649f, 1.524851f, -2.802957f, 0.335067f, 0.517680f, 0.221430f, -3.786253f, -0.556834f, 2.411879f, 0.097389f, 0.623432f, -4.699943f, -1.067504f, -1.636478f, -0.304069f, -0.128540f, -0.713240f, 0.497142f, 1.870403f, -0.454981f, -2.002226f, 1.309661f, 0.902610f, -2.196982f, -0.113243f, -1.731923f, 3.103859f, -0.129267f, 0.076659f, 0.012963f, -0.559741f, 1.468520f, -0.085573f, 2.681030f, -0.327614f, -0.315354f, -0.233233f, -1.240942f, -2.162259f, 0.705382f, 0.277327f, 2.643479f, -1.180870f, -0.457031f, 0.831229f, -1.908138f, 1.502159f, 1.132086f, 0.509686f, 2.390658f, 2.405568f, 0.430165f, -2.334093f, 2.365836f, -1.011298f, -2.885335f, -1.154219f, -1.231727f, 0.763457f, -0.915777f, -1.474243f, 1.164734f, 2.997898f, 0.536975f, 2.466718f, 0.503568f, -0.431144f, -2.404093f, 2.202543f, 0.928671f, -0.253573f, -1.806141f, 0.905820f, 1.228307f, -0.109665f, 0.522331f, -0.801409f, 0.057407f, 0.294389f, -0.713600f, -0.475479f, -1.152315f, 0.725574f, -0.047102f, 0.197973f, 0.497444f, -0.148081f, 0.200469f, -0.744428f, -0.478964f, -2.546321f, -0.757612f, 0.446664f, -0.441615f, -3.024652f, 1.764958f, -0.495049f, 2.385809f, -0.218349f, -1.378541f, -1.080985f, -0.461304f, -1.035841f, 1.038709f, 1.517013f, 1.125139f, 0.263334f, 0.570232f, 0.348843f, 0.655601f, -0.282325f, -0.316952f, 0.745120f, 0.642837f, 0.093413f, -1.114228f, -0.226531f, -0.762703f, 1.933775f, 1.149581f, 1.267193f, 1.661704f, -0.530147f, -3.069347f, 1.666542f, -0.807200f, 0.690830f, -0.615620f, 2.611168f, -0.551999f, -0.167942f, -0.432258f, 0.270826f, -1.624237f, -2.225274f, -1.025022f, 0.153167f, 0.931489f, -0.140868f, 0.784393f, 0.301625f, 1.130798f, 1.868821f, -0.156198f, -1.521412f, 0.311043f, -2.185750f, 2.219755f, 0.854871f, 0.147304f, -0.593774f, -0.836243f, 2.202771f, -1.877139f, 3.887096f, -1.402500f, -1.662511f, 0.959732f, 0.856291f, 3.729241f, -2.976882f, 0.131360f, -0.757383f, -1.150806f, -1.247448f, 1.193980f, -0.330822f, -3.000343f, 0.226501f, 0.700852f, -3.647643f, 2.714153f, 2.275505f, 2.751974f, 0.389559f, 0.255874f, -0.757582f, 3.147220f, 0.397320f, 2.900913f, -8.613834f, 2.828501f, -1.085748f, 4.335927f, -4.838058f, -1.358871f, 0.621739f, 2.780566f, -0.794508f, 0.837336f, 0.906145f, 1.837303f, -0.328067f, -1.556243f, 1.163994f, -3.703685f, 1.184264f, 0.471808f, -1.098221f, 3.320778f, -2.065268f, 0.855888f, -0.251370f, 2.423427f, 0.697390f, 0.086786f, -1.029387f, -1.982838f, -1.561265f, 0.602334f, -0.501671f, -1.856069f, -0.032928f, -0.127386f, -0.475767f, 1.320985f, -0.443100f, -1.423309f, 0.612215f, -1.045456f, -0.689841f, -0.952431f, 0.104145f, 1.816036f, -0.981911f, 2.536943f, -1.501881f, 1.258810f, 0.790237f, 0.380760f, -1.019484f, -1.070062f, 0.235430f, 0.205781f, 0.264995f, -0.249894f, 1.072176f, -0.916805f, 1.678576f, 1.078863f, -0.664604f, 2.153625f, 0.268501f, 0.090779f, 2.054558f, 0.159148f, 1.045022f, -0.159324f, 1.013054f, -1.566873f, -0.172762f, -0.609279f, -0.278105f, -2.403831f, -0.186130f, 0.375023f, -1.131210f, -0.592453f, -1.088275f, 0.513523f, 0.318025f, 0.308903f, 1.242073f, 0.344537f, 1.524743f, -0.232342f, 0.943833f, -0.108219f, -0.964027f, 1.831828f, 0.744040f, -0.104878f, -1.111029f, -0.041895f, -1.179774f, -1.474828f, 2.551848f, -0.281772f, -1.522269f, -0.247949f, 0.193628f, -0.330799f, -0.696379f, 1.444780f, 0.612367f, 1.618647f, -1.119185f, -1.145420f, -0.121550f, -0.915565f, 0.808896f, 0.194066f, 0.366350f, 0.701421f, 0.429249f, 0.853911f, -1.422033f, 0.271921f, 0.402009f, -0.074513f, 0.131609f, 1.248403f, 0.471140f, 0.354039f, -0.422972f, -0.980067f, 0.253567f, -1.716470f, 1.369872f, 1.491562f, 1.042404f, 0.590520f, -0.022552f, -1.289096f, 0.295171f, -0.925105f, 0.256499f, 0.988355f, 0.403799f, 0.038349f, -0.780127f, -0.243625f, 0.289455f, 0.501849f, 0.081026f, 0.966270f, -0.196992f, -0.041828f, 0.574672f, 0.160012f, -0.318904f, 0.447878f, 0.057547f, -0.590445f, 0.159599f, 0.196895f, -0.166466f, 0.189105f, -0.763893f, -0.266652f, 0.056313f, -0.250317f, 0.021078f, 0.396572f, 0.343421f, 0.277512f, -0.227583f, -0.304596f, 0.497803f, -0.797076f, -0.494010f, -0.436808f, 0.156796f, 0.130627f, -0.009289f, -0.415513f, -0.139376f, 0.210436f, -0.190712f, -0.064249f, 0.186499f, 0.152161f, -0.238085f, 0.374140f, 0.102684f, -0.092146f, 0.069424f, -0.219469f, 0.914083f, -0.070249f, -0.659074f, 0.550721f, 0.076697f, -0.273365f, 0.236824f, 0.067468f, 0.155066f, 0.080586f, -0.218485f, -0.039528f, -0.103570f, -0.044836f, -0.217448f, 0.084775f, -0.192408f, 0.013839f, 0.108048f, 0.082783f, 0.328368f, -0.186687f, 0.166257f, -0.254714f, 0.008925f, -0.032390f, 0.020094f, -0.088327f, -0.167200f, -0.252591f, 0.025174f, 0.164470f, -0.083886f, -0.184979f, -0.200867f, -0.210808f, -0.088941f, -0.224472f, -0.134509f, -0.229091f, -0.189010f, 0.167511f, -0.177816f, 0.005366f, 0.174866f, 0.017152f, -0.183549f, -0.170932f, -0.041230f, -0.030774f, -0.086801f, 0.149331f, 0.158502f, 0.237291f, -0.226897f, 0.198504f, -0.028006f, 0.207688f, 0.067599f, 0.246707f, 0.622225f, -0.107416f, -0.040760f, 0.162384f, -0.064725f, 0.164782f, -0.100746f, 0.255510f, -0.146175f, 0.172235f, -0.726817f, -0.435285f, -0.108498f, 0.381355f, -0.638797f, 0.066713f, 0.313750f, 0.230884f, 0.218842f, 0.942659f, 0.338584f, -0.052080f, 0.219563f, -0.220692f, 0.633363f, 0.182791f, 0.226772f, 0.186699f, -0.020054f, -0.505821f, 0.067332f, -1.169095f, 0.282057f, -0.144721f, -0.104972f, -0.089263f, 0.196452f, -0.123172f, 0.477859f, -0.167243f, 0.446824f, -0.422089f, -0.197632f, -0.275045f, 0.141964f, -0.174503f, 0.111302f, 0.005631f, -0.020133f, -0.018759f, 0.219097f, 0.123930f, -0.400008f, -0.045831f, 0.549448f, 0.840150f, -0.101205f, -0.387450f, 0.118788f, 0.344013f, 0.306193f, -0.344598f, 0.171352f, -0.502022f, -0.079090f, -1.282614f, -0.012346f, 0.947162f, -0.299183f, 0.127823f, -0.026027f, -0.272582f, -1.100362f, 0.847696f, -0.135315f, 0.913256f, 0.330463f, -0.126627f, 0.170232f, -0.101159f, -0.114752f, -0.483282f, -1.331742f, 0.391095f, 0.549435f, 0.165423f, -1.086300f, -0.003937f, -0.257437f, -0.138849f, 0.547201f, -0.386452f, -0.168420f, 0.580960f, 0.509681f, -0.318571f, 0.022543f, -0.036543f, 0.109567f, -0.033329f, -0.622076f, -0.542800f, 0.771625f, -0.201421f, 0.342072f, 0.312358f, -0.344427f, 0.209895f, 0.340688f, 0.077797f, -0.979915f, 0.435817f, -0.043387f, -0.365577f, 0.014781f, 0.155429f, 0.252541f, 0.579762f, 0.069173f, -0.021598f, -0.548153f, 0.201916f, 0.284513f, 0.062487f, -0.241305f, 0.071653f, 0.282690f, 0.113255f, 0.547542f, 0.120960f, -0.210101f, -0.139882f, 0.188288f, 0.309615f, -0.108938f, -0.108540f, 0.042170f, 0.262602f, -0.143903f, -0.154978f, 0.184728f, 0.021789f, 0.271115f, -0.161021f, 0.181846f, -0.125373f, -0.187520f, -0.022902f, -0.002575f, -0.186383f, 0.207412f, 0.101462f, 0.194187f, 0.208504f, 0.058990f, 0.059695f, 0.036689f, -0.158016f, 0.107992f, 0.123084f, -0.124535f, 0.202475f, 0.007865f, -0.008378f, 0.134406f, 0.070574f, 0.046193f, -0.026558f, 0.195506f, 0.068226f, -0.052683f, -0.044814f, 0.166375f, -0.081140f, -0.155902f, -0.235718f, 0.199478f, 0.223954f, -0.201936f, -0.088474f, -0.173378f, -0.205525f, 0.213610f, -0.236905f, 0.257030f, -0.215590f, 0.194235f, 0.035472f, -0.070641f, -0.084227f, 0.137090f, -0.099354f, 0.083336f, 0.008986f, -0.008080f, 0.214451f, 0.029638f, 0.174873f, 0.120802f, -0.246718f, 0.147578f, -0.151424f, 0.215702f, -0.244901f, -0.088846f, -0.214178f, -0.013185f, 0.171893f, -0.108565f, -0.186492f, -0.090849f, 0.167753f, -0.192331f, -0.147404f, -0.229930f, 0.110653f, -0.055986f, -0.101048f, 0.116374f, -0.087048f, 0.121890f, 0.168547f, -0.150943f, 0.253327f, -0.180465f, -0.111838f, -0.171097f, -0.082622f, -0.010616f, 0.011892f, 0.188980f, 0.208142f, -0.149683f, 0.065729f, -0.207613f, -0.021938f, -0.094940f, -0.098107f, -0.009321f, 0.122824f, -0.230207f, 0.202773f, 0.125448f, -0.172908f, 0.234743f, 0.003398f, 0.267161f, -0.161813f, 0.018633f, -0.112130f, -0.104672f, 0.048634f, 0.225413f, 0.163167f, 0.119719f, 0.031635f, 0.225731f, -0.004104f, 0.199816f, 0.178515f, -0.152905f, 0.144942f, -0.260736f, -0.094717f, -0.144509f, 0.003713f, 0.126596f, -0.215037f, 0.007966f, 0.234232f, -0.145040f, 0.094681f, 0.049662f, -0.261839f, -0.012876f, 0.111594f, -0.243707f, 0.202859f, 0.010714f, -0.250950f, 0.705600f, 1.683379f, 0.208333f, -1.160650f, -1.137180f, -2.673093f, 1.089539f, 0.431945f, -0.130837f, 0.489601f, 0.081900f, 0.003864f, 0.187765f, -0.955364f, -0.937679f, -1.528874f, -0.301433f, -0.311995f, -1.364891f, -0.677955f, 0.877814f, -1.428233f, -1.379820f, 0.641392f, 1.282096f, 1.360332f, -0.588902f, -0.111976f, 0.287955f, -1.745898f, 2.516621f, 0.869690f, -0.643067f, 0.515640f, -0.047668f, 1.773778f, -0.778268f, 0.400992f, 0.040456f, -1.242785f, 0.804518f, -0.397998f, 0.002862f, -0.150681f, -0.420541f, -1.481209f, 0.012677f, -0.480406f, 1.052038f, 1.404156f, 1.638413f, 0.156928f, 1.113917f, -0.184619f, -0.335785f, -1.055971f, 0.226024f, -0.347006f, 1.061426f, 1.916379f, 2.158703f, 1.486990f, -0.391636f, -0.466462f, -1.035832f, 0.482953f, -0.583838f, 0.402563f, -0.844154f, 2.024172f, -0.744820f, 0.982439f, 1.984116f, 0.677505f, -0.395772f, 2.110864f, 0.283616f, 0.916109f, -0.101917f, 0.246104f, -0.360157f, -0.294462f, -1.415341f, -0.313899f, 0.946718f, 0.821387f, -3.286968f, -2.042884f, 0.668111f, -0.447410f, 0.638953f, -1.921111f, -0.797831f, 0.960615f, 0.963119f, 0.905051f, -0.043632f, 1.430153f, 0.043557f, -0.358957f, -0.230343f, -0.014780f, 0.967377f, -0.662604f, 0.469337f, 0.320623f, -0.965946f, 0.436565f, -0.687721f, -1.062157f, -0.324765f, 1.712516f, 1.061899f, 2.135149f, 1.586751f, 0.381617f, 0.855857f, 0.046404f, 1.496829f, 0.017979f, -1.605778f, 1.482232f, -0.802383f, 0.240930f, -0.367385f, 0.601241f, -1.270427f, -0.652476f, 2.095298f, 0.085972f, -1.585297f, 0.740858f, 0.847815f, -1.478617f, -1.085723f, 1.053074f, 0.327008f, 0.780915f, -1.772564f, 0.274773f, 0.696664f, -0.608829f, -0.582692f, -0.848169f, 0.101098f, -0.099176f, 0.186578f, 0.108193f, -1.567255f, 0.971084f, 0.622789f, -0.602654f, 0.354199f, 0.468644f, 0.369258f, -0.373095f, -0.840512f, -1.173537f, 0.752363f, -1.190436f, 1.860368f, 1.142748f, 0.663451f, 0.570806f, 0.388541f, -0.609348f, -0.673756f, 0.415053f, -0.020052f, -0.947608f, 0.588590f, -0.082415f, 0.542166f, -0.154327f, 0.015624f, -0.200804f, -0.278624f, -0.037315f, 0.072842f, 0.093829f, 0.473940f, 0.222305f, -0.259973f, -0.041281f, 0.333488f, 0.129023f, -0.151538f, 0.734123f, -0.309365f, 1.013575f, -0.535637f, -0.020787f, -0.190252f, 0.219346f, -0.138563f, -0.246578f, 0.520073f, -0.342656f, 0.055332f, -0.230124f, 0.180957f, 0.020402f, 0.101469f, 0.012366f, 0.454487f, 0.022707f, 0.266378f, -0.047964f, 0.190178f, 0.110327f, -0.083882f, 0.511994f, 0.137906f, -0.235598f, 0.489018f, -0.009525f, 0.299293f, 0.702919f, -0.165551f, 0.195899f, -0.087253f, -0.228535f, 0.132559f, 0.202178f, -0.290172f, -0.122568f, -0.248884f, -0.074365f, 0.149298f, -0.024710f, -0.253475f, -0.272401f, -0.171514f, -0.132831f, 0.299022f, -0.143473f, 0.300030f, 0.014353f, 0.011793f, -0.041036f, 0.519705f, -0.059492f, 0.116875f, -0.149650f, -0.075046f, 0.258983f, -0.001553f, -0.226172f, -0.095510f, 0.095133f, 0.043152f, 0.286001f, -0.114566f, 0.144541f, -0.007744f, 0.091418f, 0.256566f, 0.227032f, 0.187575f, -0.135474f, 0.361012f, -0.042396f, -0.017717f, -0.259592f, 0.136538f, 0.080550f, 0.128651f, 0.144569f, 0.111612f, -0.356185f, 0.194034f, 0.183501f, -0.004622f, 0.227679f, -0.279257f, -0.172775f, -0.087577f, 0.293181f, -0.220582f, -0.089179f, -0.243201f, -0.099950f, -0.095553f, 0.233135f, 0.190324f, -0.027282f, -0.333616f, 0.177894f, 0.051769f, -0.177116f, 0.282061f, -0.213691f, 0.203935f, -0.144716f, -0.042540f, 0.160281f, 0.137079f, 0.241356f, 0.058863f, -0.213057f, 0.196956f, 0.155032f, 0.108473f, -0.254724f, -0.061156f, -0.186919f, 0.176430f, 0.119868f, 0.175558f, 0.252346f, 0.161190f, 0.337575f, 0.069122f, -0.275363f, -0.259819f, -0.068900f, 0.240582f, 0.190740f, 0.247628f, -0.232577f, -0.230160f, 0.229061f, -0.114912f, 0.033622f, 0.247930f, -0.082967f, 0.094290f, 0.001301f, 0.144948f, 0.062731f, -0.136072f, -0.119292f, -0.119072f, 0.022719f, 0.108047f, 0.200608f, 0.449195f, 0.988847f, 0.719228f, 0.321353f, 1.163048f, -0.723691f, 1.070391f, -0.341909f, -0.881701f, 1.611229f, 0.342174f, 0.121475f, -1.683614f, 0.148223f, -1.168213f, -1.304796f, 2.050305f, -0.497246f, -1.430090f, -0.370458f, 0.540090f, -0.409798f, -0.128576f, 1.642241f, 0.676423f, 1.931757f, -0.909790f, -0.808486f, 0.501627f, -1.314318f, 0.348372f, -0.072145f, -0.253637f, 0.878669f, 0.443375f, 0.428947f, -1.802281f, 0.285011f, 0.576111f, -0.221281f, 0.164402f, 1.262304f, 0.611176f, 0.297575f, -0.568245f, -0.337611f, 0.193765f, -1.797245f, 1.227743f, 1.552073f, 1.303267f, 0.723855f, -0.456657f, -0.812927f, 1.005354f, -0.233905f, 0.723732f, 0.282224f, 0.595146f, 0.350912f, 0.195143f, 0.372819f, -0.103808f, -0.173467f, -0.416600f, -0.013918f, -1.165167f, 0.120051f, 1.010809f, 0.369139f, -0.556822f, 0.420216f, -0.103137f, 0.578917f, -0.384004f, 1.976480f, -0.072553f, 0.003847f, -0.945171f, -0.831362f, -0.120469f, -1.091102f, -0.857963f, 0.937539f, 0.985276f, 0.314463f, -0.920408f, -1.443955f, 0.599907f, -1.015824f, -0.218510f, -0.710828f, 0.465159f, 0.878615f, 0.839072f, -0.409339f, 0.409593f, -0.577519f, -0.372877f, -0.394668f, -0.450005f, -0.951463f, 0.734425f, 0.760177f, 0.488813f, 0.421307f, -0.185457f, -0.032008f, 1.152702f, 0.333337f, -1.450531f, 1.202920f, 0.014213f, 0.020271f, 0.233942f, -0.104138f, 0.258411f, 0.214958f, -0.022069f, 0.169689f, 0.143802f, 0.095094f, -0.096284f, -0.162256f, 0.091693f, 0.183319f, -0.258578f, 0.076333f, -0.030518f, 0.212788f, -0.095437f, -0.013798f, 0.007894f, -0.192186f, 0.113805f, 0.176646f, -0.236310f, -0.111501f, -0.246920f, 0.244029f, 0.089350f, 0.248118f, 0.016844f, 0.161464f, -0.067117f, -0.078143f, -0.065073f, 0.084381f, -0.075113f, 0.213998f, 0.258323f, -0.251006f, -0.163758f, -0.207258f, -0.244618f, -0.145527f, -0.028438f, 0.180117f, -0.148694f, -0.003236f, 0.229644f, 0.089383f, 0.159335f, 0.027254f, 0.256831f, 0.047390f, -0.242933f, -0.161457f, -0.058504f, 0.043504f, 0.168473f, -0.050817f, 0.113103f, 0.161014f, -0.102042f, 0.253387f, 0.076633f, 0.210722f, 0.092815f, 0.126237f, 0.158589f, 0.214565f, -0.187991f, 0.030028f, -0.030150f, 0.232779f, -0.213393f, 0.240853f, 0.201252f, -0.226751f, -0.039032f, 0.115288f, 0.129262f, 0.214682f, 0.161607f, -0.060905f, -0.001885f, 0.109440f, -0.192355f, -0.164591f, -0.008136f, -0.130004f, 0.194353f, 0.043869f, -0.057279f, 0.184877f, 0.164850f, 0.263310f, 0.188665f, -0.042748f, -0.200765f, 0.183683f, -0.238902f, -0.229643f, 0.227557f, 0.251788f, 0.077446f, 0.102515f, -0.287250f, 0.017284f, 0.028842f, -0.084749f, -0.303830f, -0.153525f };
static const float X40_MLP_L56_layer_1_biases[10] = { 4.220867f, -0.239233f, -0.074181f, -0.301942f, 0.321846f, 0.590413f, 0.452345f, -1.539644f, -0.802645f, -1.555989f };
static const float X40_MLP_L56_layer_1_weights[560] = { -0.131354f, 1.218326f, -0.280986f, 0.752925f, 0.047134f, -0.252049f, -0.422529f, 0.316921f, -0.616001f, 0.045384f, -1.679756f, -0.319505f, -0.684340f, 1.076172f, 0.771542f, 0.661552f, 0.004563f, 0.293775f, 0.002234f, -0.413868f, 2.061665f, -0.040315f, -1.946486f, 0.789949f, 0.263201f, 0.715953f, -1.003154f, -0.029458f, -0.773893f, -0.264359f, -2.263414f, 0.122024f, 0.770538f, -0.556426f, 1.108229f, 0.584673f, 1.192859f, -1.287753f, 0.610512f, 0.333000f, 1.573819f, -1.143724f, 0.225103f, -0.669723f, -1.834704f, -0.386909f, 0.534027f, 0.699753f, 0.303200f, 0.462976f, 1.887869f, 1.587932f, -1.713772f, -0.154256f, -0.545386f, 0.483422f, -1.187639f, 0.143801f, 0.495065f, -0.730488f, -0.930052f, 1.203383f, 0.024640f, -1.498805f, 1.340911f, -2.092569f, 0.279629f, 0.149020f, 0.774011f, 0.751254f, 0.276103f, 0.050418f, 0.275001f, -1.110452f, 0.603742f, 0.456255f, -1.638859f, 0.576034f, 0.324453f, 0.330043f, -2.923688f, -0.105233f, 0.381920f, 1.121541f, -0.674469f, 1.596058f, -0.146977f, 0.226923f, -0.209924f, 0.265309f, 2.038234f, -1.491009f, 0.690588f, 0.253004f, 0.245715f, -0.933673f, 0.328185f, -0.433243f, -0.423885f, -0.532757f, 0.632408f, -1.617329f, 0.430976f, 1.242665f, 1.479363f, -1.706965f, 0.266158f, -0.827620f, -0.636166f, -0.512504f, -0.535583f, -2.632351f, 1.331195f, -0.488777f, 2.681987f, -1.791696f, -0.133479f, 0.592098f, 0.405301f, 0.653531f, 2.684670f, 1.385890f, -0.934359f, -0.303696f, -2.198223f, -0.899412f, 0.270663f, -0.257396f, 0.389684f, -0.540405f, -0.521043f, -0.367269f, 1.412709f, 0.910998f, -1.100202f, -0.756265f, 0.195843f, 0.441472f, 0.196519f, -0.233099f, 1.146052f, 0.273427f, -0.134282f, 1.463186f, 0.602767f, -0.930515f, 0.339995f, -0.765671f, -0.782950f, -0.594825f, 0.360980f, 1.133511f, -0.638060f, -0.363767f, 0.706170f, 0.213441f, -0.977747f, -0.459482f, 0.328685f, -0.672776f, 2.726814f, 0.005852f, 0.381481f, 1.247609f, -1.054247f, -2.647813f, 0.254146f, -0.302299f, -0.404601f, -0.251688f, 2.318983f, 0.438224f, 2.731726f, -1.499890f, 0.638656f, -2.105714f, -0.496100f, -1.042014f, -0.271058f, -0.114527f, -1.978470f, 0.192956f, 0.475244f, -0.085944f, -0.490679f, -0.327996f, -0.037678f, 0.793891f, 0.685400f, 1.103694f, -1.128976f, 0.854796f, 1.921576f, -1.814515f, -0.385683f, 0.342625f, 0.636651f, -0.062188f, 0.015046f, -0.003497f, -0.485665f, -0.371587f, 0.155695f, -0.216317f, 0.419759f, 0.985596f, -1.247958f, 0.976785f, -0.226494f, 0.441892f, -0.016905f, 0.068422f, -0.131963f, -1.104066f, 1.274325f, -0.536824f, -0.656913f, 0.597349f, -0.014887f, 0.721276f, -1.111713f, -0.733252f, 0.005947f, 1.992528f, 0.353709f, 2.109096f, -1.266501f, -0.675233f, -0.570326f, -0.450808f, -1.692158f, -0.418692f, 0.793113f, -0.084964f, 1.493452f, -0.614623f, 0.487895f, -0.218089f, -0.116921f, 0.456823f, 0.388157f, 1.336478f, 0.338905f, -0.052334f, -1.353414f, -0.347144f, -0.470172f, 0.289343f, -0.252316f, 0.346810f, -0.700855f, 0.436875f, -0.455309f, 0.729623f, 0.430270f, -0.134787f, -0.754860f, -0.119578f, -0.634908f, 0.180840f, 0.075371f, -0.092086f, -2.289437f, 0.755124f, -1.417984f, 1.626186f, -0.919705f, 1.315565f, 0.922157f, 0.669584f, 1.646837f, 0.096452f, -0.619686f, 0.015670f, 0.299649f, -0.808206f, -0.347254f, 0.249024f, 0.180059f, -0.423462f, 0.535911f, -0.515698f, 1.927974f, -0.035576f, 0.253811f, -1.887003f, 0.468123f, -0.383485f, 0.114258f, -0.162375f, 2.202796f, -2.205682f, -0.404107f, 0.899970f, -1.512852f, 0.416905f, 1.003706f, 0.039368f, -0.355384f, -1.193484f, 0.818928f, 0.071673f, -0.201111f, 0.789902f, -0.761262f, -0.601463f, -0.626966f, 0.361978f, -0.231115f, 0.535786f, 3.831287f, 2.261665f, -2.422163f, -0.578450f, -0.493112f, -1.618081f, -1.745134f, 0.045956f, -0.215927f, 0.691670f, 4.013366f, -2.646989f, -0.143964f, -2.471581f, -0.501339f, 0.793115f, -0.678771f, 0.890266f, 0.567295f, 0.009106f, -0.128714f, -0.048604f, -0.071348f, 0.096164f, 0.687411f, -0.765279f, -1.027446f, 0.972984f, -0.011353f, 0.491264f, -1.527681f, 0.625456f, 0.468423f, 0.469017f, -1.968539f, 0.466610f, 0.917307f, -0.040207f, 0.466113f, -0.385499f, 0.936491f, 2.078484f, -1.777730f, 0.578674f, 0.210889f, -1.090178f, 0.192004f, -0.166544f, -0.937227f, -0.061701f, 2.646325f, -1.340528f, -0.841466f, -0.764791f, 0.195116f, 0.551644f, -0.588708f, 0.194029f, 0.129634f, -0.143707f, -1.852205f, 0.663571f, 1.321454f, 0.225994f, 0.650020f, -0.924787f, 0.655047f, -0.615209f, 0.198646f, 0.047691f, 0.141360f, 0.903089f, -0.446849f, -0.639190f, 1.115968f, -0.813256f, -0.477279f, -0.611551f, -0.089662f, -0.230094f, -0.156828f, -2.115912f, -0.388194f, 0.029701f, 1.135843f, -0.697438f, 0.316239f, 1.584916f, -0.507149f, 0.193201f, 0.267044f, 1.120806f, -1.580565f, -0.457916f, 1.482669f, -0.520065f, 0.176488f, 0.455841f, -0.384868f, -0.899578f, 2.981808f, -1.254693f, 0.086479f, 0.249071f, -0.622781f, -0.163191f, -0.123820f, -0.393248f, 0.046452f, -0.164946f, 0.239451f, 0.049434f, 0.613584f, 0.006142f, 0.967993f, -1.447306f, -0.139047f, -0.707674f, 0.031929f, 0.517831f, -0.174501f, 0.437492f, 0.442074f, -2.178469f, -1.005519f, 1.114773f, -0.080477f, 0.623873f, 0.286953f, 0.180335f, -0.289546f, 0.339102f, 0.682846f, -0.646628f, 0.783618f, -0.814597f, -0.454733f, 0.198056f, 0.181297f, 0.110647f, -2.678767f, -0.154961f, -0.352679f, -0.952523f, 0.626172f, 1.717426f, -1.068314f, 1.231209f, 0.712113f, 0.912765f, 0.648053f, -0.161220f, 0.812585f, 0.799690f, -0.465455f, -2.377530f, 1.121600f, -0.235246f, 0.092421f, 0.185661f, 0.680977f, -0.895967f, -0.726097f, -0.355369f, -0.617416f, 0.814259f, 0.087078f, 0.332575f, 0.555626f, -0.176873f, 2.218025f, 0.482338f, -0.889448f, -0.016989f, -0.272331f, 0.799348f, -0.397888f, -0.859148f, -0.412568f, -0.783659f, 0.564104f, -0.488287f, -0.833624f, 3.042631f, -1.082614f, 0.598906f, 0.259723f, -0.588182f, -0.649886f, -0.882587f, -2.883803f, 0.106439f, -0.879534f, 1.776706f, 3.710005f, -0.903743f, 0.137384f, 0.107687f, 0.001398f, -0.467399f, 0.278431f, -0.819670f, -1.158447f, -1.110947f, -0.262818f, -0.655298f, 0.247697f, 1.490058f, 0.040530f, 1.119310f, 1.156854f, 0.859567f, -0.980633f, -0.471483f, -0.428305f, -0.519963f, -0.095817f, 0.840306f, -0.019439f, 0.523099f, -0.371867f, 0.337317f, -2.697473f, 1.078945f, -0.343235f, 0.457494f, -0.011155f, -0.121061f, 0.162821f, 0.829336f, -2.029520f, -0.966704f, 1.265215f, -0.631302f, 0.478056f, 3.009147f, -0.803242f, 0.582678f, -0.349488f, 0.086279f, -1.262051f, -2.392010f, 3.320946f, 0.345226f, 0.485442f, -0.689203f, 0.094854f, 0.903671f, 0.122996f, -0.766480f };
static float X40_MLP_L56_buf1[56];
static float X40_MLP_L56_buf2[56];
static const EmlNetLayer X40_MLP_L56_layers[2] = { 
{ 56, 28, X40_MLP_L56_layer_0_weights, X40_MLP_L56_layer_0_biases, EmlNetActivationTanh }, 
{ 10, 56, X40_MLP_L56_layer_1_weights, X40_MLP_L56_layer_1_biases, EmlNetActivationSoftmax } };
static EmlNet X40_MLP_L56 = { 2, X40_MLP_L56_layers, X40_MLP_L56_buf1, X40_MLP_L56_buf2, 56 };

    int32_t
    X40_MLP_L56_predict(const float *features, int32_t n_features)
    {
        return eml_net_predict(&X40_MLP_L56, features, n_features);
    }
    

    int32_t
    X40_MLP_L56_regress(const float *features, int32_t n_features, float *out, int32_t out_length)
    {
        return eml_net_regress(&X40_MLP_L56, features, n_features, out, out_length);
    }
    

    float
    X40_MLP_L56_regress1(const float *features, int32_t n_features)
    {
        return eml_net_regress1(&X40_MLP_L56, features, n_features);
    }
    