
#include "eml_net.h"
static const float XX_MLP_L26_layer_0_biases[26] = { -0.229403f, -0.089932f, 0.278789f, 0.269981f, -0.138505f, -0.102281f, 0.063915f, 0.295424f, -0.224629f, -0.155037f, 0.238252f, -0.005171f, 0.254455f, -0.200574f, 0.020836f, -0.110804f, -0.117006f, -0.033881f, -0.042683f, -0.090983f, 0.264665f, 0.147805f, 0.145128f, -0.133992f, 0.049563f, 0.178059f };
static const float XX_MLP_L26_layer_0_weights[858] = { 0.000066f, 0.136327f, 0.007617f, 0.028626f, -0.050866f, 0.130928f, -0.039806f, 0.249870f, 0.283699f, -0.074340f, 0.186280f, 0.018429f, 0.043398f, 0.271823f, -0.273590f, -0.263329f, -0.255356f, 0.212143f, 0.177406f, 0.235991f, 0.305963f, 0.190801f, -0.023081f, 0.178919f, -0.241138f, 0.089241f, -0.125816f, 0.283644f, 0.001437f, -0.054428f, -0.146699f, 0.181569f, -0.027967f, 0.043647f, -0.244706f, 0.075027f, 0.071492f, 0.074580f, 0.283019f, 0.115929f, -0.089605f, -0.040161f, 0.119606f, -0.280485f, 0.106363f, 0.108832f, -0.180487f, -0.236668f, -0.111852f, -0.086924f, 0.044776f, -0.039160f, 0.311486f, -0.253814f, -0.185692f, -0.216014f, 0.097653f, -0.157336f, -0.021487f, -0.163004f, -0.217503f, -0.248500f, 0.099706f, -0.230764f, -0.193518f, -0.083726f, 0.204727f, -0.256966f, 0.215579f, -0.257606f, 0.303882f, -0.019994f, 0.304075f, 0.066870f, 0.152602f, -0.293903f, -0.138523f, -0.242236f, -0.129905f, -0.243173f, -0.116156f, -0.054682f, -0.277985f, 0.122749f, 0.042478f, -0.149633f, 0.014821f, -0.258982f, 0.048438f, 0.273802f, -0.115715f, 0.106773f, -0.234837f, 0.137972f, -0.134322f, -0.202058f, 0.055177f, -0.306072f, 0.209805f, -0.315902f, 0.113414f, -0.146687f, 0.150005f, 0.294781f, -0.160237f, 0.048517f, 0.058624f, 0.046082f, -0.176511f, 0.288749f, -0.033723f, 0.220937f, 0.127152f, -0.129193f, 0.200121f, -0.066008f, 0.243065f, 0.051948f, 0.243468f, 0.122795f, 0.143787f, 0.000845f, 0.290887f, 0.091836f, -0.048555f, 0.067857f, -0.306433f, -0.126554f, 0.102149f, -0.133887f, 0.075270f, -0.045431f, -0.232494f, -0.128654f, 0.044623f, 0.057959f, 0.047404f, 0.097710f, 0.097010f, -0.043741f, 0.252914f, -0.084468f, -0.040905f, 0.249966f, 0.195288f, 0.130039f, -0.254971f, 0.267543f, 0.136642f, 0.318161f, -0.223579f, 0.234788f, -0.215260f, 0.073703f, -0.239925f, 0.221957f, 0.196007f, 0.044020f, -0.059481f, -0.274782f, 0.125989f, -0.029647f, 0.141625f, 0.233676f, 0.303255f, 0.226929f, -0.311568f, -0.089305f, 0.146686f, -0.209370f, 0.013417f, -0.284240f, -0.191256f, -0.307083f, 0.187318f, -0.176079f, -0.098612f, 0.273027f, 0.129851f, -0.298590f, -0.213827f, 0.077478f, 0.049257f, -0.167170f, 0.276937f, 0.072687f, 0.022726f, 0.057344f, 0.146770f, -0.119940f, -0.064915f, -0.185060f, -0.200144f, 0.283418f, 0.152784f, -0.006085f, -0.173853f, -0.156670f, -0.281885f, -0.041829f, -0.120035f, 0.125226f, -0.077969f, -0.204346f, -0.303158f, -0.276005f, 0.114415f, -0.029532f, 0.023352f, 0.252995f, 0.312735f, -0.180561f, 0.104017f, -0.150952f, -0.305725f, 0.164792f, -0.114788f, -0.074326f, 0.056328f, 0.211140f, 0.082264f, 0.237674f, -0.144433f, 0.190092f, -0.200531f, 0.288787f, 0.119579f, -0.181447f, 0.285332f, 0.147238f, -0.156933f, -0.182848f, 0.011608f, -0.302529f, -0.345677f, -0.103556f, -0.344356f, -0.023231f, -1.162388f, -0.299206f, 0.232065f, -0.243935f, -0.313600f, -0.234664f, 0.110924f, -0.066292f, 0.041725f, -0.147312f, -0.226514f, -0.007736f, -0.395483f, 0.280904f, 0.169223f, 0.158596f, 0.269255f, -0.265690f, -0.018228f, 0.053878f, 0.284422f, -0.132567f, -0.165292f, -0.254934f, -0.308411f, 0.273951f, 0.108393f, 0.181869f, -0.139211f, 0.055112f, -0.278110f, -0.009167f, 0.304532f, 0.240132f, -0.103221f, 0.294386f, -0.171119f, 0.286572f, 0.281496f, 0.190829f, 0.083199f, 0.238718f, -0.132009f, 0.222554f, 0.075176f, -0.310454f, -0.097435f, -0.224413f, 0.307313f, -0.013799f, -0.001660f, 0.088955f, -0.083795f, -0.231610f, 0.205444f, -0.197813f, 0.007215f, -0.175829f, -0.256503f, 0.231003f, 0.301625f, 0.293917f, 0.259298f, 0.174785f, -0.106429f, -0.267171f, -0.059161f, -0.170779f, -0.234395f, -0.284821f, 0.143845f, -0.311608f, 0.172572f, -0.225175f, -0.268209f, -0.261747f, 0.109695f, -0.162403f, -0.050693f, 0.036583f, 0.229957f, 0.144807f, -0.146491f, -0.235038f, -0.283579f, -0.126539f, -0.151719f, -0.027973f, 0.116896f, 0.124768f, -0.138072f, -0.076582f, -0.203360f, 0.184032f, -0.282639f, 0.125643f, 0.177750f, 0.176929f, -0.153438f, -0.080481f, 0.055868f, -0.144902f, -0.082507f, -0.193217f, -0.025519f, -0.290417f, 0.191208f, -0.269814f, 0.011993f, -0.123215f, 0.049439f, 0.293023f, 0.092844f, -0.296317f, -0.044389f, 0.006389f, 0.023191f, 0.115691f, -0.141848f, -0.236710f, -0.068441f, 0.291092f, -0.199498f, 0.257658f, 0.027963f, -0.027482f, 0.243729f, -0.026404f, 0.142881f, -0.064401f, 0.257704f, 0.121244f, 0.127318f, -0.109879f, 0.163801f, 0.086779f, -0.165813f, -0.216506f, 0.189036f, 0.292853f, -0.026699f, 0.058029f, 0.228292f, -0.027283f, 0.288202f, 0.048314f, 0.204588f, 0.260758f, 0.201243f, -0.217223f, 0.082214f, -0.064778f, -0.278833f, -0.048453f, -0.153948f, 0.222614f, -0.297648f, 0.292783f, -0.092245f, -0.091391f, -0.308497f, -0.200757f, -0.062976f, 0.273799f, -0.255363f, 0.284008f, 0.235657f, -0.029235f, -0.110390f, -0.170454f, 0.073005f, -0.297802f, -0.308943f, -0.045414f, -0.275475f, -0.158210f, -0.177838f, -0.157413f, -0.236326f, -0.313374f, -0.222734f, 0.075566f, 0.319435f, 0.322664f, -0.058005f, -0.214965f, 0.090166f, -0.006183f, 0.287997f, -0.277246f, 0.180645f, -0.134863f, -0.164921f, 0.103617f, -0.173970f, 0.105784f, 0.011039f, -0.048415f, 0.044762f, -0.135817f, 0.139758f, -0.054304f, -0.142821f, 0.209615f, 0.358897f, -0.303407f, -0.053117f, -0.096613f, 0.214501f, 0.309728f, 0.299107f, 0.258273f, -0.129562f, 0.313801f, -0.333683f, -0.251350f, 0.287614f, -0.169967f, 0.121033f, -0.281677f, 0.089811f, 0.243458f, -0.145138f, -0.077137f, -0.014143f, 0.158675f, -0.313497f, -0.209290f, 0.005962f, -0.124709f, 0.216332f, -0.167267f, 0.001524f, 0.282277f, 0.085493f, 0.234257f, 0.280763f, 0.159936f, 0.127288f, 0.298465f, 0.315325f, -0.030728f, -0.273696f, -0.132154f, -0.221726f, -0.052627f, -0.235161f, 0.066406f, -0.074744f, 0.252174f, 0.298357f, 0.029903f, -0.143549f, 0.058824f, 0.253051f, -0.059485f, 0.033215f, -0.145638f, -0.028417f, -0.062686f, -0.160460f, 0.003742f, -0.120938f, -0.080977f, 0.015926f, 0.159828f, -0.106188f, 0.270525f, 0.231084f, -0.287842f, -0.157125f, -0.034354f, -0.252165f, -0.096641f, 0.153132f, 0.115131f, 0.078056f, 0.134274f, -0.188197f, -0.100964f, 0.112406f, 0.241873f, 0.027915f, -0.138592f, -0.299723f, 0.134151f, -0.313867f, -0.081207f, 0.019476f, 0.269220f, -0.261801f, -0.059989f, -0.303495f, -0.100382f, 0.077958f, -0.140909f, -0.185119f, -0.245102f, 0.049169f, 0.124542f, 0.109673f, 0.286280f, -0.317162f, 0.093881f, 0.063649f, 0.056597f, 0.295152f, -0.308136f, 0.399291f, 0.313055f, -0.323789f, -0.105896f, 0.499556f, 0.024252f, -0.036967f, 0.012725f, 0.046581f, -0.260930f, -0.088808f, -0.057209f, 0.078636f, 0.565098f, 0.075786f, -0.233780f, 1.390773f, 0.237122f, 0.001735f, 0.269371f, 0.075409f, 0.269982f, 0.339930f, 0.298670f, 0.332378f, -0.295914f, -0.369424f, 0.163433f, 0.392162f, -0.127540f, 0.334032f, 0.634181f, -0.034189f, 0.260140f, -0.456444f, 0.102760f, -0.006651f, -0.270114f, 0.125303f, 0.201574f, -0.293630f, -0.280665f, 0.832575f, 0.260049f, 0.152996f, 0.253881f, 0.116152f, 0.018458f, 0.142559f, 0.317597f, 0.201574f, -0.018720f, -0.077658f, 0.305839f, -0.207508f, -0.109708f, 0.115024f, -0.278582f, 0.068403f, -0.014257f, -0.137764f, -0.166838f, 0.009256f, -0.084235f, -0.027731f, -0.103656f, 0.300077f, -0.233790f, -0.257153f, -0.099884f, 0.058056f, 0.101522f, -0.065357f, 0.318436f, -0.094462f, 0.141212f, 0.088491f, 0.199664f, 0.303733f, 0.248608f, 0.168736f, 0.126441f, -0.104918f, -0.224704f, -0.278948f, -0.164613f, -0.043190f, 0.014029f, 0.174171f, 0.292582f, -0.244070f, -0.250649f, 0.057207f, 0.156513f, 0.222048f, 0.277971f, 0.308326f, -0.063906f, -0.076321f, -0.224625f, 0.117950f, 0.099982f, 0.230921f, -0.256866f, -0.001418f, 0.051714f, -0.164833f, -0.211093f, 0.229338f, -0.281563f, -0.018738f, -0.245018f, -0.027388f, 0.306117f, -0.048660f, 0.227772f, -0.244073f, -0.145894f, -0.061360f, -0.063899f, 0.109307f, -0.099038f, 0.136339f, 0.088772f, -0.064314f, -0.043523f, 0.073044f, -0.274224f, 0.205629f, 0.097851f, 0.144359f, 0.023549f, -0.248435f, -0.060568f, -0.060352f, -0.114137f, -0.299794f, 0.151319f, -0.248877f, 0.067803f, 0.129611f, 0.085966f, 0.292838f, -0.253014f, 0.234177f, -0.300279f, 0.022270f, -0.061073f, 0.015424f, -0.086038f, -0.197354f, -0.306700f, 0.011576f, 0.218621f, -0.080862f, -0.176755f, -0.269277f, -0.264178f, -0.192118f, -0.255108f, -0.154833f, -0.281212f, -0.277054f, 0.227230f, -0.224849f, 0.038065f, 0.174222f, -0.027802f, -0.221079f, -0.191468f, -0.042742f, 0.018006f, -0.097980f, 0.179526f, 0.160100f, 0.272473f, -0.299191f, 0.252369f, -0.070062f, 0.241323f, 0.121741f, 0.310828f, 0.164799f, -0.086269f, -0.002721f, -0.078838f, -0.085489f, -0.155515f, -0.002570f, 0.115912f, -0.145373f, 0.015549f, -0.244711f, -0.216948f, -0.289044f, 0.300943f, -0.316434f, -0.205000f, 0.071361f, -0.266999f, 0.243571f, 0.140072f, 0.297590f, 0.004870f, -0.127130f, 0.031571f, 0.275067f, 0.013241f, -0.148480f, 0.240700f, -0.081800f, -0.318014f, -0.159266f, -0.115875f, 0.228826f, -0.026466f, -0.035338f, -0.104533f, 0.242796f, 0.283835f, 0.313724f, -0.078614f, 0.297305f, 0.186159f, 0.112053f, -0.162708f, -0.180842f, -0.212992f, 0.269689f, -0.131336f, -0.028540f, -0.003854f, 0.177416f, 0.219551f, -0.230197f, -0.046620f, 0.218670f, 0.202839f, -0.253571f, -0.219156f, -0.124881f, -0.270833f, -0.048049f, -0.250259f, 0.043509f, -0.161644f, 0.061504f, -0.243939f, 0.303515f, 0.275884f, -0.069011f, -0.164437f, -0.159194f, -0.010591f, -0.293389f, 0.089103f, -0.058478f, -0.078189f, 0.197311f, 0.133321f, 0.289763f, -0.094434f, 0.253540f, 0.172183f, -0.090933f, 0.077565f, -0.134849f, 0.238790f, -0.247191f, -0.183407f, -0.202159f, -0.061849f, 0.156408f, 0.017161f, -0.007860f, -0.318548f, -0.047546f, -0.278362f, -0.186074f, 0.275778f, -0.181517f, 0.228545f, 0.193184f, -0.217394f, 0.067422f, -0.245128f, 0.149716f, 0.086844f, 0.198952f, -0.013148f, 0.260266f, -0.287424f, -0.132094f, 0.137159f, -0.052229f, -0.208589f, -0.250518f, 0.202397f, -0.017129f, 0.243680f, 0.148790f, -0.057576f, -0.081711f, 0.009974f, 0.248140f, 0.151335f, -0.315352f, 0.123832f, 0.264902f, 0.134227f, -0.203427f, -0.010512f };
static const float XX_MLP_L26_layer_1_biases[10] = { 0.101191f, 0.087154f, -0.169641f, 0.086243f, -0.110830f, -0.000040f, -0.262427f, -0.212862f, -0.420334f, -0.325961f };
static const float XX_MLP_L26_layer_1_weights[260] = { 0.504040f, 0.568841f, -0.167997f, 0.585898f, -0.969079f, 0.534278f, -0.755590f, 0.204517f, -0.069175f, 0.052767f, 0.159475f, -0.091186f, 0.473336f, 0.015944f, -0.281427f, 0.136135f, 0.122285f, -0.003538f, -0.278952f, -0.364863f, 0.460700f, 0.371697f, -0.209370f, -0.546181f, -0.362464f, -0.049844f, 0.311296f, -0.311518f, 0.338751f, -0.350798f, -0.055197f, -0.131514f, -0.103467f, -0.241173f, 0.182761f, 0.008331f, -0.001662f, 0.332336f, 0.186539f, 0.454155f, 0.101934f, 0.198318f, 0.285108f, -0.421006f, 0.070284f, -0.023368f, 0.055789f, -0.161175f, -0.164233f, -0.338062f, -0.348141f, -0.448300f, 0.235941f, -0.302387f, 0.168281f, 0.327874f, -0.159081f, -0.157995f, -0.244475f, 0.137251f, -0.328761f, -0.156756f, 0.087163f, 0.136748f, 0.377671f, 0.006634f, -0.115912f, 0.321686f, -0.225007f, -0.145656f, -0.065101f, -0.222596f, 0.068941f, -0.181885f, 0.282929f, 0.404112f, -0.238499f, 0.136272f, -0.372290f, -0.069851f, 0.697257f, 0.781865f, -0.702537f, -0.092211f, -0.724502f, 0.074414f, -0.137698f, -0.149881f, 0.309662f, 0.071324f, -0.131180f, -0.673734f, -0.680421f, -0.270531f, 0.693876f, -0.097289f, 0.970630f, 0.450363f, 0.357660f, 0.137976f, 0.261723f, 0.140811f, 0.268589f, 0.170294f, -0.223350f, 0.119423f, -0.299020f, -0.172158f, -0.163377f, 0.043189f, -0.232100f, -0.499948f, -0.000640f, 0.276793f, -0.233319f, 0.313126f, -0.049964f, -0.077858f, 0.181050f, 0.307503f, 0.053281f, 0.481310f, 0.029182f, -0.302060f, -0.213265f, 0.201903f, 0.192998f, -0.642674f, -0.374257f, -0.172395f, -0.308718f, -0.208881f, 0.265941f, -0.424304f, -0.038223f, 0.293005f, -0.217823f, 0.194861f, 0.061775f, 0.343241f, 0.817695f, 0.971439f, -0.307699f, -0.659591f, -0.004840f, -0.431624f, -0.422906f, -0.077408f, 0.371258f, 0.458834f, -0.160390f, -0.307909f, -0.204608f, -0.308951f, -0.333207f, 0.182135f, -0.422281f, 0.168587f, 0.302145f, 0.312863f, -0.320414f, -0.230986f, 0.338669f, 0.102035f, -0.003729f, 0.373636f, -0.127933f, -0.297225f, -0.072440f, -0.232488f, 0.689937f, -0.046758f, -0.141835f, 0.318940f, 0.187414f, -0.121123f, 0.293124f, -0.388609f, -0.604701f, -0.536020f, 0.423602f, -0.093263f, -0.326139f, 0.392296f, 0.182151f, -0.396516f, -0.268090f, 0.050864f, -0.378209f, -0.379767f, 0.543209f, -0.074517f, -0.163610f, 0.410231f, 0.054117f, -0.115660f, 0.059001f, -0.088249f, -0.490137f, 0.258360f, 0.464705f, 0.303670f, -0.200292f, 0.244599f, 0.354868f, -0.113521f, 0.015302f, -0.623766f, 0.008244f, 0.178837f, -0.241332f, 0.036266f, -0.215567f, 0.351627f, 0.038916f, 0.121089f, -0.188912f, 0.381318f, -0.246981f, 0.233137f, 0.347288f, 0.299682f, 0.373754f, -0.276777f, -0.248272f, 0.062821f, -0.425680f, -0.101452f, -0.211116f, -0.300295f, 0.320380f, 0.061924f, 0.053421f, -0.376698f, 0.230099f, 0.141137f, 0.213100f, -0.017511f, 0.181944f, -0.431146f, 0.430743f, 0.598477f, 0.397444f, 0.205975f, -0.308407f, -0.061897f, -0.337017f, -0.501821f, 0.177024f, -0.258580f, -0.236717f, -0.365602f, 0.374686f, 0.069083f, -0.163680f, 0.392537f, -0.447283f, 0.229690f, -0.028972f, 0.276258f };
static float XX_MLP_L26_buf1[33];
static float XX_MLP_L26_buf2[33];
static const EmlNetLayer XX_MLP_L26_layers[2] = { 
{ 26, 33, XX_MLP_L26_layer_0_weights, XX_MLP_L26_layer_0_biases, EmlNetActivationTanh }, 
{ 10, 26, XX_MLP_L26_layer_1_weights, XX_MLP_L26_layer_1_biases, EmlNetActivationSoftmax } };
static EmlNet XX_MLP_L26 = { 2, XX_MLP_L26_layers, XX_MLP_L26_buf1, XX_MLP_L26_buf2, 33 };

    int32_t
    XX_MLP_L26_predict(const float *features, int32_t n_features)
    {
        return eml_net_predict(&XX_MLP_L26, features, n_features);
    }
    

    int32_t
    XX_MLP_L26_regress(const float *features, int32_t n_features, float *out, int32_t out_length)
    {
        return eml_net_regress(&XX_MLP_L26, features, n_features, out, out_length);
    }
    

    float
    XX_MLP_L26_regress1(const float *features, int32_t n_features)
    {
        return eml_net_regress1(&XX_MLP_L26, features, n_features);
    }
    