
#include "eml_net.h"
static const float X40_MLP_L36_layer_0_biases[36] = { 0.344535f, 1.289316f, 0.322926f, -1.766628f, 0.922305f, -1.551779f, -1.252949f, 0.307252f, -0.607019f, 0.104978f, -0.900280f, 0.822014f, 0.522278f, -0.658824f, 0.051602f, -0.494978f, 0.832548f, -0.948767f, 0.501944f, -0.266519f, 1.024335f, -1.516531f, -0.919341f, 0.628377f, -0.436617f, -0.087921f, 1.252914f, 1.072614f, -0.662033f, 1.130665f, -0.961600f, -0.441058f, -0.178282f, 0.779077f, -1.409977f, 1.620552f };
static const float X40_MLP_L36_layer_0_weights[1008] = { -1.954960f, 0.204221f, -0.671686f, 1.845415f, -0.205359f, 0.969680f, -1.872960f, -0.613372f, 0.596147f, -0.290223f, 1.427587f, -0.004036f, -1.440658f, 0.643938f, -0.673193f, -0.473848f, 1.113813f, -0.602434f, 0.143645f, 2.579655f, -0.453503f, -2.134349f, 3.140397f, -0.872099f, -1.334152f, 4.932962f, 0.216268f, -0.248157f, 2.418887f, -2.424495f, -0.378430f, -2.056961f, 0.841728f, 1.440824f, -0.310915f, -0.220678f, 1.480367f, 0.499122f, -0.058007f, 0.060084f, -0.485116f, -0.074402f, -0.026135f, -1.664815f, 0.078912f, -0.525575f, -0.726087f, -0.045375f, -0.463248f, 0.020528f, -0.967997f, 2.516633f, 0.738499f, 0.094092f, -0.677427f, 0.385342f, 0.111743f, -1.735057f, -0.160406f, 0.032105f, 1.574744f, 0.103513f, -0.004872f, 0.162983f, -0.443550f, -0.172452f, -0.317491f, 0.283141f, 1.445582f, -0.220951f, -1.681236f, 0.450964f, 0.045684f, 0.271464f, 0.366341f, 0.623462f, 0.850676f, -1.335813f, 1.004765f, 0.655513f, -0.320527f, -0.001448f, 0.076498f, 0.302940f, -0.854405f, 1.476095f, 0.090536f, -0.128405f, -1.146737f, -1.285675f, 2.746239f, -0.433843f, -1.313196f, 0.042437f, 1.120047f, -0.053971f, 0.839999f, -0.707573f, 0.283724f, -2.154669f, 1.606313f, -0.136304f, -0.282878f, 0.428544f, 0.341451f, 0.151052f, 0.149570f, 0.940242f, -0.029820f, 0.157043f, 2.099728f, 3.364275f, 1.025866f, -1.816051f, -0.213143f, -0.432663f, -1.096419f, -0.387310f, -0.148618f, 0.225456f, 0.269181f, 0.896380f, 0.297973f, 0.254100f, -1.311975f, -0.898557f, 0.740167f, -0.448322f, -0.177743f, 0.034675f, -0.886340f, 0.086428f, 0.507348f, -0.630323f, -0.015772f, -0.729364f, 1.013561f, 1.421165f, -0.245546f, 0.137840f, 0.378729f, 0.054295f, 0.124700f, 0.434526f, 3.920519f, 1.441029f, -1.083919f, 3.298851f, 0.196575f, 0.443811f, -0.374212f, 1.248412f, -0.164833f, 0.390937f, -3.076658f, -1.830763f, 2.422596f, -1.175110f, -0.851561f, -2.225897f, 1.792919f, 0.002094f, 1.132991f, 0.338351f, 1.609146f, -0.632554f, -3.067572f, -0.152599f, -1.927646f, -1.565524f, 0.012427f, -0.316886f, -0.341465f, -0.588200f, -1.229254f, -0.719897f, 1.649020f, -1.488447f, -1.375002f, -0.407489f, -3.204641f, 1.040606f, -0.221615f, -1.970319f, 1.616320f, -7.360905f, -0.952810f, 2.131958f, -2.066292f, -1.199484f, -4.132079f, -0.208082f, -0.732796f, 1.735389f, 0.198122f, 1.029132f, 0.246853f, -1.415181f, -1.855981f, -0.415797f, 0.495347f, -1.013916f, -0.020798f, 0.224073f, -0.854646f, -0.380937f, 0.946942f, 1.407945f, -0.801920f, -0.102682f, -2.045308f, -0.114018f, 1.682460f, -5.613655f, 0.117488f, 1.777088f, -0.764273f, -0.001332f, 0.175703f, 2.950283f, -0.439898f, 2.913073f, -1.863170f, 0.004981f, -0.888279f, 1.806916f, 1.323576f, -1.952932f, 1.658931f, 2.272936f, -0.926411f, -0.726599f, 1.685147f, -2.771359f, 1.084335f, -0.096777f, -0.214772f, -3.488717f, -2.919286f, 0.148190f, -0.003272f, -1.263253f, 0.376627f, -2.505767f, 2.823260f, 0.062488f, -0.514431f, -4.264449f, 0.061831f, -3.247093f, -2.105579f, 2.926409f, 0.969029f, -1.047184f, 0.225639f, 3.098212f, -0.107079f, 0.110715f, 0.765522f, 0.144758f, -0.903691f, 2.116836f, -1.153850f, -0.556245f, 2.014109f, -0.182005f, 0.957063f, -0.274239f, 0.100133f, -2.445870f, 2.033471f, 1.011739f, -0.049063f, 1.691610f, -2.824399f, -1.093275f, 0.714670f, -0.279166f, -0.272910f, -0.136921f, 0.092879f, 1.532084f, -0.967764f, 0.272028f, 0.518556f, -4.005644f, 1.165109f, 0.121439f, 3.395117f, 0.411651f, 0.187923f, -1.646300f, 0.821784f, 1.658876f, -4.082988f, -4.050075f, -4.611368f, -0.099385f, 4.664987f, 0.801029f, 2.583478f, -0.195204f, -1.578852f, -1.473897f, 0.495970f, -1.812367f, -1.809949f, -0.833700f, -0.127928f, -8.096755f, 1.517995f, -2.320790f, -1.974343f, -2.692300f, 0.214132f, -2.923270f, -4.204874f, -0.744949f, -0.579823f, -0.399882f, 0.302911f, -2.554491f, -4.505779f, 1.427029f, -0.282829f, -0.239412f, -1.525710f, 0.220162f, -0.963662f, -0.664661f, -0.990702f, 3.101238f, 0.038536f, 0.047587f, -1.487643f, -1.258757f, -1.061090f, 0.136776f, -0.261279f, 0.175819f, -1.625347f, 0.974371f, -1.798415f, -0.087417f, -0.092508f, -1.019929f, 0.420358f, -2.420618f, -0.098835f, 1.164138f, 0.220838f, 0.829272f, -0.442958f, 0.686707f, -0.234042f, -0.677677f, 0.649379f, 0.388374f, -0.380590f, 2.305780f, 0.096871f, 1.375884f, 0.735499f, -0.107669f, 1.666051f, -0.061637f, -0.483390f, -0.933862f, -0.714252f, -0.371713f, -0.900602f, 1.385726f, -0.646368f, 0.055661f, -0.560815f, -0.090497f, 2.204631f, 0.215229f, -0.088214f, -0.438776f, 0.712923f, -1.837310f, 0.325549f, 0.695810f, -0.832283f, 0.515203f, 1.061895f, 0.832568f, -0.284883f, 0.354084f, -0.932873f, -0.255533f, -0.521670f, 0.888507f, -1.250274f, 0.808547f, 0.423651f, 0.015524f, -0.404897f, -0.463347f, 0.449857f, 0.598886f, -0.485009f, 0.917099f, -0.493604f, 0.377739f, 0.343375f, -0.015857f, 0.779242f, -0.185005f, 0.024402f, -0.127134f, -0.510347f, -0.637790f, -0.338349f, -0.582267f, -0.372437f, 0.365094f, -0.556165f, 0.167202f, 0.404490f, -0.617631f, -0.012306f, -0.092060f, 0.012609f, -0.671321f, 0.450677f, -0.286876f, -0.045574f, 0.651346f, -0.406847f, 0.918810f, -0.205081f, 0.121168f, 0.008548f, -0.018348f, 0.073381f, -0.141388f, 0.141851f, -0.061241f, -0.101083f, 0.188492f, 0.233978f, -0.295393f, -0.189766f, -0.084263f, 0.182321f, 0.299645f, 0.350786f, 0.274783f, -0.087539f, 0.277101f, -0.136575f, -0.236694f, 0.297860f, -0.157182f, 0.181320f, -0.306267f, 0.146999f, 0.229291f, -0.135668f, -0.087501f, -0.070988f, 0.170099f, -0.157976f, -0.196017f, -0.032419f, -0.103480f, -0.230620f, -0.451317f, -0.079463f, 0.590328f, -0.069756f, -0.502693f, 0.628330f, 0.809906f, 0.075938f, -0.018302f, -0.080143f, -0.246127f, 0.091089f, -0.956980f, -0.584473f, -0.206972f, 0.087815f, -0.124467f, 0.293158f, 0.513848f, 0.028817f, -0.119886f, -0.414426f, 0.131547f, 0.331910f, -0.183848f, 0.086486f, 0.128023f, 0.214136f, 0.389521f, -0.321405f, -0.133733f, -0.100807f, -0.253053f, -0.501717f, 0.182671f, 0.098566f, 0.310590f, -0.022597f, -1.798191f, -0.928957f, -1.119368f, -0.715327f, -0.151036f, 1.289972f, 0.772394f, 0.102892f, -0.609165f, 0.269972f, -0.081230f, 0.536746f, -0.417168f, -1.465599f, -0.581893f, 0.048347f, 0.733058f, 0.312770f, -0.076363f, -0.356472f, 0.326153f, -0.199214f, 0.385391f, -0.145108f, -0.350770f, -0.245697f, 0.951928f, -0.235641f, -0.342926f, 0.663317f, -0.274435f, 0.349089f, 0.363833f, -0.530610f, 0.392190f, -0.107926f, 0.128157f, 0.793963f, -0.354240f, 0.095794f, 0.182802f, -0.120390f, -0.111301f, -0.002691f, -0.500282f, -0.056938f, 0.057841f, 0.094949f, -0.148927f, -0.010196f, -0.028116f, 0.091974f, 0.483100f, 0.295349f, -0.224983f, 0.313253f, 0.229738f, 0.019408f, 0.181081f, 0.090461f, 0.245564f, 0.200218f, 0.269391f, 0.098419f, -0.176498f, -0.209279f, -0.001280f, 0.284255f, -0.091708f, -0.207937f, 0.236593f, -0.033450f, 0.249746f, -0.208004f, 0.098615f, -0.037577f, -0.259344f, 0.120134f, -0.154684f, -0.283136f, -0.269489f, -0.268668f, 0.249535f, 0.146489f, 0.244835f, 0.105678f, 0.018115f, -0.119621f, 0.305550f, -0.084442f, -0.017897f, -0.074603f, 0.293655f, -0.199208f, -0.105487f, 0.110479f, -0.267731f, 0.067434f, -0.014623f, -0.132524f, -0.160446f, 0.008726f, -0.080905f, -0.026394f, -0.097001f, 0.288006f, -0.224394f, -0.246971f, -0.095880f, 0.055789f, 0.097382f, -0.062898f, 0.305731f, -0.090698f, 0.135578f, 0.084169f, 0.191666f, 0.291592f, 0.238755f, 0.161990f, 0.121468f, -0.100696f, -0.215696f, -0.267795f, -0.158065f, -0.041428f, 0.013494f, 0.167302f, 0.280947f, -0.234329f, -0.240671f, 0.054955f, 0.150153f, 0.213258f, 0.266834f, 0.295958f, -0.061343f, -0.073275f, -0.215626f, 0.113251f, 0.096082f, 0.338338f, -0.336443f, 1.647790f, 0.706614f, -0.931574f, -0.386034f, -0.315325f, 0.424966f, -1.054598f, 0.553070f, 1.865444f, 1.775486f, -0.192139f, 1.124046f, -0.239680f, -1.221955f, -0.199021f, 0.203176f, 0.647045f, -1.167986f, 1.025537f, -1.364207f, 0.709212f, 0.908604f, -0.095310f, -0.802554f, 0.470974f, 0.732067f, -1.189354f, -0.428426f, -0.555369f, 0.564075f, -0.643817f, 1.625795f, -1.475489f, 2.088832f, 0.383926f, 0.864254f, -1.082099f, -2.174489f, 1.596200f, -1.526314f, -0.173723f, -0.612946f, 0.583997f, -0.575390f, -2.649406f, -0.643550f, 0.661338f, -1.977974f, 0.006804f, 0.419390f, 0.568056f, -1.623581f, -0.307791f, 0.498382f, -0.567104f, -0.084633f, -1.835697f, -0.325305f, -0.826764f, 0.462521f, 0.572930f, 0.576937f, 0.983778f, 1.717097f, -0.469822f, -1.370431f, 0.596166f, -0.893418f, -0.399734f, -0.323322f, 0.202954f, 1.134401f, 0.218737f, -0.642926f, 0.699654f, -1.357240f, -0.728522f, 0.735427f, -0.183995f, 0.227683f, -0.699372f, -0.209776f, 0.714812f, -0.570017f, -0.048557f, -1.337532f, 0.512369f, -1.037658f, -0.292064f, 0.078791f, 0.504858f, -1.051766f, -0.764728f, 0.631623f, -0.435990f, -0.356818f, 1.235839f, 1.836112f, -0.723399f, 1.226364f, -0.744717f, -0.502363f, 0.175561f, 1.043039f, -1.718304f, 1.122487f, 0.385628f, -0.166630f, -0.389188f, -0.752327f, 0.506671f, 0.038267f, -0.148172f, -0.175978f, -0.024674f, 0.223832f, 0.046683f, 0.725537f, 0.171965f, -0.130274f, 0.119777f, 0.522951f, -0.160214f, -0.313999f, 0.824452f, -0.487030f, -0.090393f, 0.046771f, -0.270612f, 0.275213f, -0.424335f, -0.316930f, 0.326546f, -0.342393f, 0.253908f, -0.157723f, -0.230778f, -0.184225f, 0.083186f, -0.379304f, 0.129954f, 0.434631f, 0.023809f, -0.148746f, 0.252115f, 0.262712f, 0.093059f, -0.260424f, -0.176510f, -0.027917f, -0.327908f, 0.122410f, -0.091217f, -0.129332f, 0.164871f, 0.140276f, 0.285774f, -0.064996f, 0.250050f, 0.192319f, -0.061224f, 0.102974f, -0.125953f, 0.282374f, -0.193100f, -0.164484f, -0.182436f, -0.073397f, 0.174383f, -0.025970f, 0.050121f, -0.376430f, -0.141584f, -0.243880f, -0.205815f, 0.263304f, -0.150680f, 0.468142f, 0.159319f, -0.182548f, 0.023840f, -0.230309f, 0.150206f, 0.077237f, 0.192034f, -0.013585f, 0.252219f, -0.274469f, -0.132994f, 0.129687f, -0.049962f, -0.186634f, -0.211771f, 0.195021f, 0.018204f, 0.259065f, 0.148503f, -0.054664f, -0.020862f, 0.067882f, 0.312995f, 0.147695f, -0.300223f, 0.097425f, 0.258426f, 0.125345f, -0.184152f, -0.009146f, -0.284617f, -0.086744f, 0.211656f, 0.254799f, -0.124908f, 0.010133f, 0.669569f, 1.044474f, 1.025135f, -0.344868f, 1.250823f, 0.572593f, -0.208873f, -1.076890f, -0.719500f, -0.874986f, -0.769047f, 1.688739f, -0.619429f, 0.026245f, -0.325487f, -0.144625f, 1.770567f, -0.477521f, -0.301909f, -0.326395f, 0.460735f, -2.302163f, -0.021019f, 0.728548f, -1.359996f, 0.748046f, 0.748897f, 1.272400f, -0.502518f, 0.915818f, -0.189313f, -0.422915f, -0.095416f, 0.800139f, -1.252899f, -0.249489f, 0.159794f, 0.043321f, -1.051538f, -1.603271f, 0.089326f, -1.722258f, -0.709512f, 1.161399f, 0.001990f, 0.742485f, -0.008232f, -1.263266f, 1.581379f, -1.120688f, 0.732460f, -0.471685f, -1.091850f, -0.970372f, 0.979992f, 0.265720f, 0.476644f, 0.813369f, -0.842484f, 0.541538f, 0.447215f, -0.658503f, 0.430855f, -0.304735f, 0.044444f, 0.306472f, -0.057402f, -0.340194f, 0.340708f, -0.069991f, -0.344888f, 1.459949f, -0.123586f, -0.213752f, -0.103954f, 0.192225f, -0.220216f, -0.166963f, -0.264013f, 0.125969f, -0.064157f, -0.115828f, 0.133874f, -0.100451f, 0.139470f, 0.193021f, -0.172906f, 0.290185f, -0.206748f, -0.128080f, -0.196056f, -0.094613f, -0.012204f, 0.013583f, 0.216547f, 0.238491f, -0.171379f, 0.075252f, -0.237906f, -0.025128f, -0.108795f, -0.112380f, -0.010666f, 0.140742f, -0.263824f, 0.232204f, 0.143793f, -0.198100f, 0.265992f, 0.006598f, 0.292825f, -0.185071f, 0.022685f, -0.143216f, -0.126801f, 0.057400f, 0.244453f, 0.201414f, 0.133613f, 0.030086f, 0.258355f, -0.003241f, 0.228445f, 0.207424f, -0.174629f, 0.174736f, -0.295573f, -0.093325f, -0.165047f, 0.007432f, 0.144360f, -0.247487f, 0.012937f, 0.266046f, -0.150897f, 0.060370f, 0.067644f, -0.310120f, -0.020116f, 0.130083f, -0.277918f, 0.232570f, 0.015525f, -0.228750f };
static const float X40_MLP_L36_layer_1_biases[10] = { 4.007879f, 0.118869f, -0.300135f, -0.195861f, -0.334246f, -0.273286f, 0.209355f, -0.824231f, -1.103653f, -1.216555f };
static const float X40_MLP_L36_layer_1_weights[360] = { -1.955824f, -1.531620f, 0.382612f, 1.108925f, 1.399016f, 1.972308f, -1.114567f, -0.214676f, 0.411249f, -0.873983f, 2.946960f, -0.365656f, 0.069123f, 0.053089f, -0.202872f, -1.675051f, 0.715649f, -0.393908f, -0.559166f, -0.897470f, -1.819395f, 0.270405f, 0.136170f, 0.977815f, 0.395173f, -0.885642f, -0.038080f, -0.050748f, 0.094491f, 0.218219f, 0.396756f, 1.012191f, -2.715523f, 0.786805f, 0.073822f, 0.514232f, -0.844482f, 0.670712f, 0.321316f, 0.131614f, 2.857859f, -0.207039f, -0.424866f, -0.928924f, 0.263665f, -0.970981f, -0.572030f, -0.089322f, 0.109634f, 0.521673f, -0.875080f, -0.681437f, -2.649984f, 0.954540f, -0.750734f, 4.333204f, -0.453843f, 0.823242f, -0.296711f, -0.164730f, -1.680028f, 1.831610f, 0.434543f, 1.562812f, -2.213969f, 2.000440f, 0.106020f, -0.730901f, -1.004071f, -0.731130f, -1.604871f, 0.792124f, -0.295449f, -1.363722f, 0.364911f, 0.914070f, -0.543659f, 1.159491f, 1.164997f, -0.254690f, -2.095111f, 1.159674f, 0.769927f, 0.948117f, 1.496620f, 1.535111f, -0.930928f, -1.100185f, -0.750631f, -0.730095f, 1.279999f, 0.317089f, 1.092398f, -1.945856f, 0.733565f, -1.319885f, -0.001382f, 0.118139f, 0.333592f, -0.519196f, -0.969857f, 1.111087f, -1.002133f, 1.775684f, 0.178538f, 0.285933f, -0.996867f, -0.350459f, -0.664843f, -0.452999f, -2.424027f, -0.871654f, 2.847830f, 0.825034f, 0.763297f, 0.102971f, 0.056627f, 0.089265f, -0.886411f, 0.120332f, -0.669785f, -1.078378f, -0.591634f, 0.599985f, -0.322997f, 0.625739f, 0.034471f, 0.205245f, 0.647245f, 0.284238f, 0.137548f, 0.606090f, -2.427235f, 2.507234f, 1.785556f, -1.547260f, -0.263466f, 0.237053f, -0.264893f, 0.058630f, 0.225649f, 1.689938f, -0.499905f, -0.704189f, 0.013158f, -0.848092f, 0.918401f, 0.136099f, 0.125611f, -0.268500f, 0.783724f, -0.862820f, 0.406573f, -0.471643f, -0.614414f, 0.618921f, 0.353911f, -0.038309f, -0.122520f, 0.172844f, 1.104151f, 0.529892f, -0.921257f, 0.921546f, -1.825350f, -0.119777f, -0.849581f, 0.363152f, 0.610012f, 0.170757f, 1.932763f, -0.197857f, -0.580651f, -0.337289f, -1.302917f, 1.590582f, -0.757899f, 0.391808f, -0.060455f, -0.053069f, 0.438256f, 1.379284f, -0.650871f, 0.119704f, -3.454200f, 1.817184f, -0.072340f, 0.181782f, -0.050045f, -0.479371f, 1.349311f, 1.284420f, -1.290810f, -0.475179f, -2.853995f, -1.374299f, -0.175898f, 1.231314f, 0.602251f, 0.408230f, 0.783943f, 0.294228f, -1.223194f, 1.375625f, 0.934401f, -1.358845f, 0.054890f, 0.257005f, -0.199399f, 0.166880f, 1.766511f, -4.185410f, 0.420971f, 0.224097f, -0.445749f, 3.190109f, -0.632825f, -0.114575f, 0.555079f, -0.361073f, 1.489252f, 2.861036f, -1.938403f, -0.474939f, -0.216440f, -1.111689f, -0.074499f, -0.476583f, -0.147407f, 1.114857f, 1.197077f, -0.379529f, -0.766794f, -1.090530f, 1.050672f, 0.972064f, -1.401876f, 0.506144f, 0.251331f, -0.157834f, 1.555714f, 1.580186f, -2.002549f, 0.488422f, -1.592827f, 1.241279f, -1.215743f, -0.022913f, 0.350109f, -0.654074f, -1.795762f, -0.185257f, 2.225073f, 0.552735f, 1.873220f, -0.578594f, -0.266205f, -1.391650f, -0.803001f, 0.482985f, 3.211862f, -0.232517f, -1.495743f, 0.253256f, 0.075756f, 0.132810f, 0.579265f, -0.945029f, -0.621525f, -0.729087f, -2.024214f, 0.867343f, -0.350234f, 1.669371f, -0.646415f, 0.762100f, 0.281698f, 0.077336f, -0.086672f, 0.279859f, 0.810623f, -2.877842f, 1.377405f, -0.502057f, 0.978212f, 1.829356f, 0.238220f, -0.775879f, 0.107375f, -0.521372f, -2.232945f, -1.068641f, 1.424561f, 1.448648f, 1.066087f, -0.363114f, 0.446708f, -1.018542f, 0.732895f, -0.208605f, -1.308875f, -0.145916f, 0.550866f, 0.270610f, -0.868189f, 0.845895f, -0.291418f, 0.085124f, 0.378493f, 0.399481f, 1.126282f, 1.400364f, -1.352257f, 0.588513f, 0.063829f, -1.296944f, -0.943133f, 0.325403f, -0.325592f, 0.318391f, -1.390433f, 0.354937f, -0.709041f, -0.184981f, 0.406329f, -0.113026f, 0.816455f, 0.726531f, 0.632285f, 0.404967f, 1.641784f, 1.039481f, -4.054866f, -1.129881f, 0.056060f, 1.699808f, -0.023048f, 0.485766f, -0.447483f, 0.044439f, 1.450627f, -4.080456f, -0.728167f, -0.089345f, -0.269346f, 1.651877f, 0.520049f, 0.369054f, 0.412841f, 0.367542f, 3.663661f, 0.261344f, 0.948772f, 1.046142f, -0.997322f, -2.645267f, 1.447529f, -1.471176f, -0.806243f, -0.574426f };
static float X40_MLP_L36_buf1[36];
static float X40_MLP_L36_buf2[36];
static const EmlNetLayer X40_MLP_L36_layers[2] = { 
{ 36, 28, X40_MLP_L36_layer_0_weights, X40_MLP_L36_layer_0_biases, EmlNetActivationTanh }, 
{ 10, 36, X40_MLP_L36_layer_1_weights, X40_MLP_L36_layer_1_biases, EmlNetActivationSoftmax } };
static EmlNet X40_MLP_L36 = { 2, X40_MLP_L36_layers, X40_MLP_L36_buf1, X40_MLP_L36_buf2, 36 };

    int32_t
    X40_MLP_L36_predict(const float *features, int32_t n_features)
    {
        return eml_net_predict(&X40_MLP_L36, features, n_features);
    }
    

    int32_t
    X40_MLP_L36_regress(const float *features, int32_t n_features, float *out, int32_t out_length)
    {
        return eml_net_regress(&X40_MLP_L36, features, n_features, out, out_length);
    }
    

    float
    X40_MLP_L36_regress1(const float *features, int32_t n_features)
    {
        return eml_net_regress1(&X40_MLP_L36, features, n_features);
    }
    