#pragma once
namespace Eloquent {
    namespace ML {
        namespace Port {
            class GaussianNB {
                public:
                    /**
                    * Predict class for features vector
                    */
                    int predict(float *x) {
                        float votes[5] = { 0.0f };
                        float theta[30] = { 0 };
                        float sigma[30] = { 0 };
                        theta[0] = 1.213226246077; theta[1] = 2.152750476462; theta[2] = -1.192992037488; theta[3] = -1.444882306515; theta[4] = 6.301169622215; theta[5] = -2.445701596978; theta[6] = 1.063025708674; theta[7] = -0.265961816276; theta[8] = 4.178653667034; theta[9] = 4.772932296201; theta[10] = 0.776006013195; theta[11] = 0.417603503721; theta[12] = 0.290048197237; theta[13] = 6.462256685124; theta[14] = -0.03996573478; theta[15] = 0.990824348334; theta[16] = 0.009175651666; theta[17] = 0.95463285224; theta[18] = 0.04536714776; theta[19] = 0.314625063889; theta[20] = 0.639326307591; theta[21] = 0.04604862852; theta[22] = 4.8677197e-05; theta[23] = 0.891766252099; theta[24] = 0.108160732105; theta[25] = 2.4338599e-05; theta[26] = 0.990824348334; theta[27] = 0.009175651666; theta[28] = 0.968092097257; theta[29] = 0.031907902743;
                        sigma[0] = 273.264078678582; sigma[1] = 1.241981169826; sigma[2] = 3.641501647563; sigma[3] = 1.08727294975; sigma[4] = 69.349579527768; sigma[5] = 4.351584587082; sigma[6] = 14.688258883117; sigma[7] = 2.10406074406; sigma[8] = 220.972831845716; sigma[9] = 220.509557807425; sigma[10] = 235.115416339384; sigma[11] = 79.446912760234; sigma[12] = 222.918408042071; sigma[13] = 39.626085868497; sigma[14] = 0.554427751884; sigma[15] = 0.009191459082; sigma[16] = 0.009191459082; sigma[17] = 0.043408969664; sigma[18] = 0.043408969664; sigma[19] = 0.215736133062; sigma[20] = 0.230688180013; sigma[21] = 0.044028152331; sigma[22] = 0.000148674828; sigma[23] = 0.096619203716; sigma[24] = 0.096561988136; sigma[25] = 0.000124338006; sigma[26] = 0.009191459082; sigma[27] = 0.009191459082; sigma[28] = 0.030989788486; sigma[29] = 0.030989788486;
                        votes[0] = 0.003626694206 - gauss(x, theta, sigma);
                        theta[0] = -0.003388555628; theta[1] = -0.484653451695; theta[2] = 0.203858929043; theta[3] = -0.240708775824; theta[4] = -0.06076091186; theta[5] = 0.224154644487; theta[6] = -0.645771755312; theta[7] = -0.838207028275; theta[8] = -0.014476051626; theta[9] = -0.016474026508; theta[10] = -0.140536562679; theta[11] = -0.0177823583; theta[12] = -0.372560375929; theta[13] = -0.197382677269; theta[14] = -0.1846249069; theta[15] = 0.998573760835; theta[16] = 0.001426239165; theta[17] = 1.0; theta[18] = 0.0; theta[19] = 5.3813485e-05; theta[20] = 0.005636053581; theta[21] = 0.994310132934; theta[22] = 0.0; theta[23] = 0.005640235034; theta[24] = 0.994359764966; theta[25] = 0.0; theta[26] = 0.998573760835; theta[27] = 0.001426239165; theta[28] = 1.0; theta[29] = 0.0;
                        sigma[0] = 0.000157611386; sigma[1] = 0.020040301637; sigma[2] = 0.2645864373; sigma[3] = 0.380781028983; sigma[4] = 0.065250907529; sigma[5] = 0.249218584261; sigma[6] = 0.009945847719; sigma[7] = 0.015791764639; sigma[8] = 0.110586068218; sigma[9] = 0.147660097473; sigma[10] = 0.001535326943; sigma[11] = 0.000116197337; sigma[12] = 0.00381766489; sigma[13] = 0.03378763467; sigma[14] = 0.001318051423; sigma[15] = 0.001524205007; sigma[16] = 0.001524205007; sigma[17] = 0.0001; sigma[18] = 0.0001; sigma[19] = 0.000153810589; sigma[20] = 0.00570428848; sigma[21] = 0.005757492479; sigma[22] = 0.0001; sigma[23] = 0.005708422783; sigma[24] = 0.005708422783; sigma[25] = 0.0001; sigma[26] = 0.001524205007; sigma[27] = 0.001524205007; sigma[28] = 0.0001; sigma[29] = 0.0001;
                        votes[1] = 0.485519968576 - gauss(x, theta, sigma);
                        theta[0] = -0.005302087069; theta[1] = 0.119084847791; theta[2] = 0.099354021731; theta[3] = 0.476927551842; theta[4] = -0.002312820279; theta[5] = 0.05279946995; theta[6] = 0.660007562744; theta[7] = 1.006707946325; theta[8] = -0.016039630339; theta[9] = -0.018234715175; theta[10] = 0.147043911476; theta[11] = -0.007599384257; theta[12] = 0.430305390364; theta[13] = 0.029348888889; theta[14] = -0.105930622714; theta[15] = 0.714826103015; theta[16] = 0.285173896985; theta[17] = 1.0; theta[18] = 0.0; theta[19] = 0.000105786607; theta[20] = 0.993539617884; theta[21] = 0.006354595508; theta[22] = 0.0; theta[23] = 0.993743392087; theta[24] = 0.006256607913; theta[25] = 0.0; theta[26] = 0.714826103015; theta[27] = 0.285173896985; theta[28] = 1.0; theta[29] = 0.0;
                        sigma[0] = 0.000130665156; sigma[1] = 0.828665137757; sigma[2] = 0.650789157566; sigma[3] = 1.07695897323; sigma[4] = 0.912555243222; sigma[5] = 0.827143735315; sigma[6] = 0.089297879448; sigma[7] = 0.376120987498; sigma[8] = 0.06175092229; sigma[9] = 0.088003473357; sigma[10] = 0.012308048764; sigma[11] = 0.001377063289; sigma[12] = 0.040974553139; sigma[13] = 0.088821161095; sigma[14] = 0.433914429289; sigma[15] = 0.203949745448; sigma[16] = 0.203949745448; sigma[17] = 0.0001; sigma[18] = 0.0001; sigma[19] = 0.000205775417; sigma[20] = 0.006518645579; sigma[21] = 0.006414214624; sigma[22] = 0.0001; sigma[23] = 0.006317462771; sigma[24] = 0.006317462771; sigma[25] = 0.0001; sigma[26] = 0.203949745448; sigma[27] = 0.203949745448; sigma[28] = 0.0001; sigma[29] = 0.0001;
                        votes[2] = 0.441399146442 - gauss(x, theta, sigma);
                        theta[0] = -0.006800097282; theta[1] = 2.519446226064; theta[2] = -1.993957604212; theta[3] = -1.272880889179; theta[4] = 0.110558337551; theta[5] = -1.775262380064; theta[6] = 0.256102941848; theta[7] = -0.524568550838; theta[8] = -0.016292083322; theta[9] = -0.018535313741; theta[10] = 0.004935792739; theta[11] = 0.14392309317; theta[12] = -0.146298740411; theta[13] = 0.849189803102; theta[14] = 1.967174130837; theta[15] = 0.944421618225; theta[16] = 0.055578381775; theta[17] = 0.999801560296; theta[18] = 0.000198439704; theta[19] = 0.586961748203; theta[20] = 0.39631207442; theta[21] = 0.016726177377; theta[22] = 0.000679274372; theta[23] = 0.998679612737; theta[24] = 0.000641112891; theta[25] = 0.0; theta[26] = 0.944441971015; theta[27] = 0.055558028985; theta[28] = 1.0; theta[29] = 0.0;
                        sigma[0] = 0.02999382611; sigma[1] = 0.60738704527; sigma[2] = 3.819477758631; sigma[3] = 1.257005456898; sigma[4] = 2.413382804165; sigma[5] = 3.340675461188; sigma[6] = 3.604965810774; sigma[7] = 0.157730255016; sigma[8] = 0.050038261233; sigma[9] = 0.044389674159; sigma[10] = 0.639094472767; sigma[11] = 4.674129851747; sigma[12] = 0.232281248429; sigma[13] = 8.263955338819; sigma[14] = 7.431122285099; sigma[15] = 0.052589425255; sigma[16] = 0.052589425255; sigma[17] = 0.000298400326; sigma[18] = 0.000298400326; sigma[19] = 0.24253765435; sigma[20] = 0.239348814088; sigma[21] = 0.016546412368; sigma[22] = 0.000778812958; sigma[23] = 0.00141864384; sigma[24] = 0.000740701865; sigma[25] = 0.0001; sigma[26] = 0.0525713344; sigma[27] = 0.0525713344; sigma[28] = 0.0001; sigma[29] = 0.0001;
                        votes[3] = 0.06939090215 - gauss(x, theta, sigma);
                        theta[0] = 0.907152199039; theta[1] = 1.753304682555; theta[2] = -2.263074819392; theta[3] = -1.264010777744; theta[4] = -0.04179626747; theta[5] = -1.269216901139; theta[6] = 9.193185958462; theta[7] = -0.457128660378; theta[8] = 1.329063256116; theta[9] = 0.370884656855; theta[10] = 2.708462228446; theta[11] = 7.68824226852; theta[12] = 0.773527392656; theta[13] = 8.152828949501; theta[14] = 0.596020587926; theta[15] = 0.662482566248; theta[16] = 0.337517433752; theta[17] = 1.0; theta[18] = 0.0; theta[19] = 0.827057182706; theta[20] = 0.0; theta[21] = 0.172942817294; theta[22] = 0.34170153417; theta[23] = 0.65829846583; theta[24] = 0.0; theta[25] = 0.0; theta[26] = 0.672245467225; theta[27] = 0.327754532775; theta[28] = 1.0; theta[29] = 0.0;
                        sigma[0] = 22.559837564607; sigma[1] = 2.772535815938; sigma[2] = 3.590593726861; sigma[3] = 0.838562843326; sigma[4] = 0.026384232604; sigma[5] = 4.656000881166; sigma[6] = 3850.377972318954; sigma[7] = 0.166242640983; sigma[8] = 799.616182055608; sigma[9] = 60.54904203192; sigma[10] = 1186.62198936947; sigma[11] = 6019.631963950827; sigma[12] = 73.245367564979; sigma[13] = 36.960708775929; sigma[14] = 3.310477737806; sigma[15] = 0.223699415665; sigma[16] = 0.223699415665; sigma[17] = 0.0001; sigma[18] = 0.0001; sigma[19] = 0.143133599241; sigma[20] = 0.0001; sigma[21] = 0.143133599241; sigma[22] = 0.225041595716; sigma[23] = 0.225041595716; sigma[24] = 0.0001; sigma[25] = 0.0001; sigma[26] = 0.220431499021; sigma[27] = 0.220431499021; sigma[28] = 0.0001; sigma[29] = 0.0001;
                        votes[4] = 6.3288625e-05 - gauss(x, theta, sigma);
                        // return argmax of votes
                        uint8_t classIdx = 0;
                        float maxVotes = votes[0];

                        for (uint8_t i = 1; i < 5; i++) {
                            if (votes[i] > maxVotes) {
                                classIdx = i;
                                maxVotes = votes[i];
                            }
                        }

                        return classIdx;
                    }

                protected:
                    /**
                    * Compute gaussian value
                    */
                    float gauss(float *x, float *theta, float *sigma) {
                        float gauss = 0.0f;

                        for (uint16_t i = 0; i < 30; i++) {
                            gauss += log(sigma[i]);
                            gauss += abs(x[i] - theta[i]) / sigma[i];
                        }

                        return gauss;
                    }
                };
            }
        }
    }
