
#include <eml_net.h>
static const float XX_MLP_L26_layer_0_biases[26] = { -0.153778f, 0.249301f, -0.084608f, -0.329376f, -0.166674f, -0.120071f, 0.237001f, -0.027412f, -0.036604f, -0.108267f, 0.251468f, 0.293975f, 0.324932f, -0.081422f, 0.307927f, 0.192809f, 0.116056f, -0.168510f, -0.187302f, -0.220602f, 0.279272f, -0.136028f, -0.030985f, -0.003991f, 0.183754f, 0.227394f };
static const float XX_MLP_L26_layer_0_weights[754] = { 0.032245f, 0.142149f, 0.067883f, -0.067799f, -0.050432f, 0.096374f, -0.041229f, 0.260410f, 0.304134f, -0.076996f, 0.192661f, 0.019087f, 0.044949f, 0.281140f, -0.283364f, -0.272733f, -0.316933f, 0.449101f, 0.183744f, 0.244422f, 0.293622f, 0.197618f, -0.025446f, 0.185311f, -0.252160f, 0.092429f, -0.235593f, 0.293739f, 0.014433f, -0.059775f, -0.155529f, 0.181153f, -0.028966f, 0.042996f, -0.300116f, 0.077707f, 0.074046f, 0.077244f, 0.293130f, 0.120107f, -0.092806f, -0.041595f, 0.130551f, -0.066575f, 0.110162f, 0.112720f, -0.229054f, -0.245123f, -0.121924f, -0.090030f, 0.046370f, -0.040559f, 0.322609f, -0.262881f, -0.192310f, -0.223756f, 0.101140f, -0.162970f, -0.022254f, -0.168827f, -0.225271f, -0.257378f, 0.103268f, -0.239008f, -0.200431f, -0.086717f, 0.212041f, -0.266146f, 0.223239f, -0.266651f, 0.314739f, -0.020708f, 0.315114f, 0.069259f, 0.158052f, -0.304403f, -0.143473f, -0.250890f, -0.134665f, -0.251860f, -0.120236f, -0.056954f, -0.287915f, 0.127143f, 0.043995f, -0.154981f, 0.015366f, -0.268234f, 0.050168f, 0.283584f, -0.119849f, 0.110588f, -0.243226f, 0.142901f, -0.139114f, -0.208710f, 0.057149f, -0.317007f, 0.219468f, -0.327187f, 0.117462f, -0.151928f, 0.155364f, 0.305312f, -0.165968f, 0.050308f, 0.060801f, 0.047727f, -0.182926f, 0.299076f, -0.034928f, 0.228830f, 0.131772f, -0.133809f, 0.207288f, -0.068366f, 0.251748f, 0.053687f, 0.252166f, 0.127182f, 0.148798f, 0.000886f, 0.301279f, 0.095117f, -0.050291f, 0.070281f, -0.317611f, -0.131075f, 0.105807f, -0.138670f, 0.077958f, -0.047054f, -0.240798f, -0.133222f, 0.046217f, 0.060029f, 0.049098f, 0.101204f, 0.100475f, -0.045303f, 0.261950f, -0.087486f, -0.042366f, 0.258896f, 0.202265f, 0.134684f, -0.264081f, 0.277189f, 0.141523f, 0.329527f, -0.231573f, 0.243176f, -0.222950f, 0.076336f, -0.248496f, 0.229887f, 0.203008f, 0.045646f, -0.061313f, -0.284598f, 0.130417f, -0.030689f, 0.146685f, 0.242024f, 0.314119f, 0.235036f, -0.322551f, -0.092495f, 0.151927f, -0.216914f, 0.013896f, -0.294395f, -0.198176f, -0.318052f, 0.194010f, -0.182369f, -0.102157f, 0.282781f, 0.135032f, -0.309257f, -0.221496f, 0.080246f, 0.051016f, -0.173142f, 0.286832f, 0.075298f, 0.023538f, 0.059393f, 0.152014f, -0.124225f, -0.067218f, -0.191671f, -0.207294f, 0.293543f, 0.158242f, -0.006303f, -0.180064f, -0.162267f, -0.291956f, -0.043276f, -0.124324f, 0.129700f, -0.080762f, -0.211647f, -0.313987f, -0.285865f, 0.118503f, -0.030587f, 0.024163f, 0.262032f, 0.323907f, -0.187012f, 0.107726f, -0.156344f, -0.316648f, 0.170679f, -0.119401f, -0.076981f, 0.086777f, 0.218683f, 0.085203f, 0.246165f, -0.149593f, 0.196883f, -0.207662f, 0.299104f, 0.123851f, -0.187929f, 0.295523f, 0.152498f, -0.162541f, -0.189380f, 0.012023f, -0.313337f, -0.193239f, -0.049751f, -0.083121f, -0.024061f, -0.146894f, 0.057328f, 0.240355f, -0.252650f, 0.011480f, -0.243048f, 0.143270f, -0.068661f, 0.043216f, -0.209218f, -0.234606f, -0.007890f, -0.095379f, 0.290940f, 0.175268f, 0.164262f, 0.266688f, -0.275182f, 0.034477f, 0.055803f, 0.305145f, -0.137303f, -0.171203f, -0.264037f, -0.319436f, 0.283738f, 0.112243f, 0.188366f, -0.144184f, 0.057081f, -0.288042f, -0.009494f, 0.315423f, 0.248711f, -0.106909f, 0.304903f, -0.177232f, 0.296810f, 0.291565f, 0.197647f, 0.086171f, 0.247246f, -0.136726f, 0.230505f, 0.077867f, -0.321545f, -0.100914f, -0.232430f, 0.318286f, -0.014288f, -0.001723f, 0.092132f, -0.086810f, -0.239856f, 0.212784f, -0.204870f, 0.007476f, -0.182110f, -0.265655f, 0.239256f, 0.312400f, 0.304417f, 0.268562f, 0.181030f, -0.110221f, -0.276689f, -0.061274f, -0.176880f, -0.242766f, -0.294996f, 0.149023f, -0.322740f, 0.178740f, -0.233219f, -0.277759f, -0.271099f, 0.113651f, -0.168222f, -0.052490f, 0.037897f, 0.238172f, 0.149979f, -0.151686f, -0.243434f, -0.293709f, -0.131060f, -0.157140f, -0.028973f, 0.121072f, 0.129226f, -0.143003f, -0.079329f, -0.210625f, 0.190607f, -0.292751f, 0.130132f, 0.184100f, 0.183249f, -0.158920f, -0.083356f, 0.057866f, -0.150069f, -0.085312f, -0.200141f, -0.026518f, -0.300819f, 0.198039f, -0.279452f, 0.012472f, -0.127617f, 0.051223f, 0.303492f, 0.096161f, -0.306929f, -0.045975f, 0.006617f, 0.023898f, 0.119803f, -0.146915f, -0.245167f, -0.070894f, 0.301492f, -0.206675f, 0.266863f, 0.028937f, -0.028463f, 0.252368f, -0.027345f, 0.148080f, -0.066721f, 0.266903f, 0.125526f, 0.131866f, -0.113806f, 0.169624f, 0.089879f, -0.170355f, -0.224241f, 0.195790f, 0.303315f, -0.027653f, 0.060102f, 0.236304f, -0.028248f, 0.298498f, 0.050040f, 0.211880f, 0.270073f, 0.208428f, -0.224983f, 0.085148f, -0.067092f, -0.288862f, -0.050183f, -0.159408f, 0.230596f, -0.308289f, 0.303194f, -0.095540f, -0.094654f, -0.319504f, -0.207929f, -0.065226f, 0.283581f, -0.264486f, 0.294157f, 0.244076f, -0.030279f, -0.114478f, -0.176455f, 0.075613f, -0.308441f, -0.319987f, -0.047036f, -0.285321f, -0.163862f, -0.184195f, -0.163037f, -0.243717f, -0.322338f, -0.254003f, 0.078265f, 0.313283f, 0.323911f, -0.060077f, -0.222652f, 0.091663f, -0.006404f, 0.323295f, -0.287151f, 0.187099f, -0.139779f, -0.170813f, 0.107347f, -0.167745f, 0.109563f, 0.011434f, -0.050145f, 0.036126f, -0.140669f, 0.136459f, -0.056244f, -0.092121f, 0.217104f, 0.280724f, -0.299898f, -0.176621f, -0.100065f, 0.208060f, 0.320705f, 0.309793f, 0.267500f, -0.134391f, 0.325012f, -0.165528f, -0.260330f, 0.297889f, -0.176097f, 0.125357f, -0.291740f, 0.152401f, 0.252156f, -0.150323f, -0.079892f, -0.083037f, 0.164344f, -0.173199f, -0.216767f, -0.033497f, -0.129164f, 0.224061f, -0.173242f, 0.001578f, 0.292361f, 0.088516f, 0.242623f, 0.290793f, 0.165650f, 0.131835f, 0.309128f, 0.326590f, -0.031826f, -0.283474f, -0.136876f, -0.229647f, -0.054507f, -0.243562f, 0.068778f, -0.077414f, 0.261183f, 0.309015f, 0.030971f, -0.148747f, 0.060925f, 0.262092f, -0.061610f, 0.034402f, -0.150841f, -0.029433f, -0.218840f, -0.166193f, 0.003875f, -0.125258f, -0.101365f, 0.250860f, 0.165538f, -0.102842f, 0.280190f, 0.239340f, -0.298125f, -0.162738f, -0.035582f, -0.261174f, -0.026285f, 0.158603f, 0.119244f, -0.017152f, 0.139070f, -0.194921f, -0.104571f, 0.116422f, 0.250514f, 0.028853f, -0.143544f, -0.310316f, 0.368252f, -0.325081f, -0.084105f, 0.020172f, 0.299929f, -0.278797f, -0.062132f, -0.311451f, -0.103968f, 0.080743f, -0.145943f, -0.191733f, -0.253858f, 0.050957f, 0.833028f, 0.113591f, 0.296508f, -0.379993f, 0.097235f, 0.066317f, 0.058619f, 0.305696f, -0.319144f, 0.129792f, 0.207209f, 0.006478f, -0.109680f, 0.192123f, -0.266053f, -0.038290f, 0.013180f, 0.128124f, -0.270252f, -0.179836f, -0.059253f, 0.081446f, 0.255618f, 0.078494f, -0.242127f, 0.317461f, 0.245613f, 0.001797f, 0.278994f, 0.027345f, 0.279627f, 0.217923f, 0.309340f, 0.277299f, -0.306486f, -0.214839f, -0.073235f, 0.298676f, -0.132097f, -0.224288f, 0.255184f, -0.035411f, 0.269434f, -0.224444f, 0.106431f, -0.039460f, -0.279764f, 0.129779f, -0.166863f, -0.304120f, -0.290691f, -0.289942f, 0.269334f, 0.158462f, 0.262951f, 0.114002f, 0.019117f, -0.129178f, 0.328943f, -0.091035f, -0.019389f, -0.080429f, 0.316765f, -0.214914f, -0.102262f, 0.119134f, -0.288536f, 0.070847f, -0.013827f, -0.142766f, -0.172798f, 0.009550f, -0.087244f, -0.028722f, -0.107359f, 0.310798f, -0.242142f, -0.266343f, 0.028062f, 0.060130f, 0.105149f, -0.078592f, 0.329812f, -0.097836f, 0.146256f, 0.090884f, 0.206797f, 0.314584f, 0.257489f, 0.174764f, 0.130667f, -0.108666f, -0.232731f, -0.288913f, -0.160193f, -0.044984f, 0.014530f, 0.180586f, 0.303034f, -0.252790f, -0.259605f, 0.059250f, 0.162105f, 0.229981f, 0.290334f, 0.319341f, -0.066189f, -0.079363f, -0.232650f, 0.122164f, 0.103554f, 0.239171f, -0.266043f, -0.001469f, 0.053561f, -0.170722f, -0.218635f, 0.237531f, -0.291622f, -0.019407f, -0.255451f, -0.028369f, 0.317053f, -0.050161f, 0.235909f, -0.252793f, -0.151106f, -0.063552f, -0.066182f, 0.113212f, -0.102576f, 0.141210f, 0.091944f, -0.066612f, -0.045078f, 0.075655f, -0.284021f, 0.212975f, 0.101347f, 0.149517f, 0.024391f, -0.257310f, -0.062731f, -0.062508f, -0.118215f, -0.310505f, 0.156718f, -0.257768f, 0.070225f, 0.134242f, 0.089037f, 0.303299f, -0.262053f, 0.242543f, -0.311007f, 0.023065f, -0.063255f, 0.015975f, -0.089112f, -0.204405f, -0.317657f, 0.011989f, 0.226431f, -0.083751f, -0.183070f, -0.277091f, -0.273935f, -0.184039f, -0.264222f, -0.155210f, -0.286592f, -0.286952f, 0.235348f, -0.223196f, 0.039425f, 0.180639f, -0.028795f, -0.228977f, -0.198440f, -0.044269f, 0.018651f, -0.099456f, 0.185940f, 0.165819f, 0.282207f, -0.311167f, 0.261385f, -0.070967f, 0.249945f, 0.126028f, 0.321932f, 0.171276f, -0.089479f, 0.000702f, -0.081655f, -0.089236f, -0.157941f, -0.002662f, 0.120053f, -0.147084f, 0.016105f, -0.252750f, -0.224699f, -0.299370f, 0.310955f, -0.327739f, -0.212323f, 0.074557f, -0.276538f, 0.252273f, 0.145076f, 0.308087f, 0.005044f, -0.131849f, 0.032699f, 0.284589f, 0.013715f };
static const float XX_MLP_L26_layer_1_biases[5] = { 0.284940f, -0.241964f, 0.662815f, -0.071338f, -0.285007f };
static const float XX_MLP_L26_layer_1_weights[130] = { -0.488414f, 0.142358f, 0.559688f, 0.564343f, -0.928190f, -0.302909f, 0.211390f, -0.492209f, -0.245017f, -0.431051f, -0.052477f, -0.124522f, 0.410557f, -0.369198f, 0.139703f, 0.723718f, -0.988835f, -0.926923f, 0.543091f, 0.473262f, -0.536516f, 0.238033f, 0.257360f, -0.150977f, -0.006074f, 0.038702f, 1.234687f, -0.522082f, -0.131244f, 0.420675f, -0.160617f, -0.403331f, -0.211827f, 0.497700f, 0.062053f, 0.068282f, -0.437316f, -0.846611f, 0.944043f, -0.106190f, -0.276731f, 0.422846f, -0.398142f, -0.858283f, -0.046356f, 0.291733f, -0.636679f, 0.193186f, 0.757175f, -0.193481f, -0.010525f, 0.207021f, 0.346493f, -0.384197f, 0.191984f, 0.021424f, 0.864115f, -0.366576f, -0.343140f, -0.218463f, -0.204430f, -0.099841f, -0.101421f, 0.561704f, -0.605849f, 0.275311f, 0.243388f, 0.249863f, -0.117241f, -0.286655f, 0.475184f, 0.020956f, -0.675402f, -0.116424f, 0.951336f, 0.088441f, -0.196935f, 0.315768f, -0.354145f, -0.407199f, 0.350596f, -0.138361f, -0.222982f, 0.031876f, 0.491934f, 0.586807f, -0.120642f, -1.231923f, 1.134409f, -0.163318f, 0.281691f, -0.128732f, 0.270718f, 0.131200f, -0.766084f, -0.119969f, -0.472559f, -0.242224f, 0.864856f, 0.307787f, -0.158987f, 1.400118f, -0.028096f, -0.406340f, -0.217227f, -0.246061f, 0.409619f, 0.446790f, -0.029100f, -0.265592f, -0.094990f, -0.510579f, -0.075306f, 0.223657f, 0.514513f, 0.099028f, 0.170584f, -0.134716f, -0.393821f, 0.532413f, 0.140692f, 0.054274f, -0.013961f, -0.100428f, -0.251366f, 0.109969f, 0.187638f, 0.327362f, -1.384530f, 0.024340f };
static float XX_MLP_L26_buf1[29];
static float XX_MLP_L26_buf2[29];
static const EmlNetLayer XX_MLP_L26_layers[2] = { 
{ 26, 29, XX_MLP_L26_layer_0_weights, XX_MLP_L26_layer_0_biases, EmlNetActivationTanh }, 
{ 5, 26, XX_MLP_L26_layer_1_weights, XX_MLP_L26_layer_1_biases, EmlNetActivationSoftmax } };
static EmlNet XX_MLP_L26 = { 2, XX_MLP_L26_layers, XX_MLP_L26_buf1, XX_MLP_L26_buf2, 29 };

    int32_t
    XX_MLP_L26_predict(const float *features, int32_t n_features)
    {
        return eml_net_predict(&XX_MLP_L26, features, n_features);
    }
    

    int32_t
    XX_MLP_L26_regress(const float *features, int32_t n_features, float *out, int32_t out_length)
    {
        return eml_net_regress(&XX_MLP_L26, features, n_features, out, out_length);
    }
    

    float
    XX_MLP_L26_regress1(const float *features, int32_t n_features)
    {
        return eml_net_regress1(&XX_MLP_L26, features, n_features);
    }
    