
#include "eml_net.h"
static const float X40_MLP_L46_layer_0_biases[46] = { -2.279622f, -0.323575f, -1.449225f, 1.026107f, -1.776503f, 0.046617f, 1.093373f, 0.117160f, -0.717302f, 0.728458f, 1.174082f, -0.493719f, -0.900752f, -1.136254f, -1.198328f, -0.015073f, 0.106609f, 0.294070f, 1.426964f, -0.968046f, 1.752141f, 0.424644f, -0.479890f, -1.300068f, -1.490750f, 1.430699f, 0.817630f, 1.579496f, 0.413432f, 0.904071f, -0.766364f, 1.319536f, 1.699789f, 1.086161f, -0.454567f, 1.173000f, -1.032321f, 1.661226f, 0.455761f, -0.261605f, -0.009376f, 0.422503f, 0.126066f, -0.533292f, 1.512455f, 0.453287f };
static const float X40_MLP_L46_layer_0_weights[1288] = { 0.974220f, 0.779027f, -0.049857f, -0.029074f, 0.497481f, 0.409503f, -3.169811f, 1.984510f, 0.908266f, -1.821719f, 0.131877f, -1.035429f, 1.656753f, 0.256593f, -1.015260f, -0.447562f, -2.955691f, -0.521799f, -0.395469f, -0.043090f, 1.146034f, -0.431498f, 1.516162f, 0.040192f, 0.622027f, -0.049377f, 1.336283f, -1.554962f, 1.491554f, 1.295914f, -1.252066f, 1.486211f, 0.648452f, 1.190930f, -0.313904f, 1.027467f, 0.239320f, 1.429627f, -0.445317f, -1.163886f, -2.724252f, -1.528053f, -4.783827f, 0.760408f, -1.583398f, -0.506426f, -0.824247f, -0.418093f, -0.598952f, -1.849518f, -0.833666f, 0.062294f, -0.725701f, -0.156733f, -0.331878f, 0.681181f, -0.630669f, -0.554338f, -0.091478f, 0.093705f, 0.360762f, -0.019584f, 0.603897f, -0.401779f, 0.032326f, 1.502715f, 0.859733f, -1.973764f, 1.723172f, -1.546285f, -0.431880f, -0.661568f, -0.071305f, 0.157381f, 0.765955f, -1.285147f, -0.026388f, -0.577669f, 0.596232f, -0.518058f, -0.037574f, 1.691309f, 0.232155f, -0.077459f, 2.145485f, 0.224292f, -0.610359f, -1.191410f, -2.763829f, 0.032492f, -0.438426f, 0.794905f, -0.192214f, 0.212269f, -0.503814f, -0.777407f, -1.236200f, 0.387513f, 0.804658f, 0.025488f, -0.034389f, -0.868014f, 0.247323f, -0.533364f, -2.796846f, -0.710416f, 0.289409f, 0.043248f, 1.852179f, 1.721079f, -0.807687f, 0.322480f, 0.289490f, 0.090398f, 1.295538f, -0.347507f, -0.172161f, 0.386552f, 0.620337f, 0.022135f, 1.193821f, 0.173059f, 1.313386f, 1.573356f, 0.585080f, 0.143858f, -0.689464f, -0.477869f, -1.228515f, -0.829631f, -0.688490f, -0.101590f, -0.568991f, -0.836120f, -1.510205f, -1.171254f, 0.011101f, 0.698121f, 0.525310f, -0.358114f, 0.081781f, -1.165475f, -0.792655f, 0.756055f, 2.515147f, -1.630852f, -0.660269f, 0.399837f, 0.485036f, -0.143339f, -0.037769f, -0.421248f, -0.491305f, -0.218962f, -0.077390f, 1.398712f, -1.111211f, -0.227293f, -0.244010f, -1.326116f, 1.038563f, -0.279160f, 0.053522f, 0.283105f, 0.421393f, 0.374396f, 1.314687f, -0.000444f, 0.962767f, -1.722509f, 0.111900f, -0.007856f, -0.729664f, -0.963702f, -0.271747f, -1.268332f, -0.408214f, -0.144901f, 0.410389f, -0.546558f, -1.179351f, 0.561993f, 0.379653f, -0.304024f, 0.071197f, -0.729367f, 0.448737f, -0.108080f, -2.386527f, -0.123743f, -0.665397f, -0.162245f, 1.100916f, 3.524277f, 0.238418f, -0.634634f, -0.583102f, 0.438218f, -0.747665f, 0.871528f, 0.890574f, 1.161390f, 1.098158f, 0.523994f, -0.542151f, -1.574330f, 1.042591f, 1.773620f, -1.126293f, 0.728943f, -0.226037f, -0.792478f, -3.565877f, 1.005014f, -0.030604f, -0.228024f, 1.169499f, 0.551056f, -2.590913f, 2.586638f, -0.208757f, 0.917247f, 2.177232f, 3.858749f, -1.389411f, -0.348658f, 2.359297f, -2.317546f, 2.478004f, 1.475649f, -3.592276f, -2.314424f, -1.333913f, 0.555374f, -3.850334f, 0.635508f, 0.103884f, 0.089106f, 0.335870f, 2.662175f, 3.210614f, -0.398138f, -0.218619f, -2.678609f, 1.728088f, -1.031300f, -0.848001f, -0.391933f, -0.057401f, -2.387837f, 0.696767f, 3.284885f, -0.735027f, 2.105216f, -1.289952f, 4.491502f, -1.499709f, 0.105656f, 5.557798f, 0.418855f, 0.216040f, 0.026506f, 1.419406f, -0.941435f, 0.561295f, 0.843929f, -3.046114f, -0.207875f, -2.169074f, 0.503814f, 0.223933f, -0.798930f, 0.006632f, 0.872001f, 0.206740f, -0.313767f, 5.053214f, -1.804658f, -1.969544f, 0.394769f, 0.717003f, 2.319827f, 0.466106f, -2.240811f, 1.189292f, -0.585459f, -0.197434f, -0.638940f, 0.381843f, -0.534186f, -0.531340f, -0.894204f, -1.195688f, 0.990607f, 0.846159f, -1.309052f, 2.619045f, 0.505206f, 1.144229f, -0.635114f, -0.131482f, -0.029249f, -1.789711f, 0.093020f, 2.459066f, 0.404018f, -0.486632f, -2.677308f, 0.576254f, -1.388609f, -0.906131f, -1.440809f, -2.014852f, -0.444970f, 0.028103f, -1.887260f, -0.403766f, 0.361492f, 1.850081f, 1.220282f, 0.879983f, -1.758679f, 2.029749f, -2.945667f, -0.488530f, 1.051366f, -0.863641f, -0.700743f, 1.013327f, -5.109608f, 1.551686f, 2.151109f, -1.085710f, 1.250516f, -0.733995f, 0.254852f, -1.122170f, -1.572945f, -0.503308f, -1.272845f, 0.654667f, -3.200460f, -2.635533f, 1.588025f, -1.315221f, -0.559979f, -0.301592f, 0.348855f, -1.973431f, 2.740900f, 0.954153f, 0.872516f, 1.849545f, -1.235098f, 0.283459f, 0.987977f, -1.554080f, -1.626812f, -0.020762f, 0.410547f, 0.138508f, -0.112052f, 0.688421f, -0.666586f, 3.221478f, -0.104878f, 1.718929f, 0.672505f, 0.920600f, -1.129708f, -1.129893f, 0.526032f, -1.915468f, -1.854644f, -0.721183f, -1.573060f, 0.053658f, 2.538323f, 0.435386f, -0.757982f, 3.278560f, -1.066135f, 0.789405f, 2.442847f, 1.546760f, -1.454647f, 0.310043f, -3.811405f, 6.012169f, -0.385956f, -1.412622f, -0.786295f, -0.018327f, 0.234907f, -0.243001f, -0.904809f, 0.182663f, -0.434434f, -2.596644f, -1.270453f, 0.513344f, 2.745286f, -1.919726f, 8.066119f, 1.038164f, 0.352028f, 0.317107f, -3.613887f, 0.844348f, -3.173491f, -0.299634f, 1.129423f, -2.773781f, -1.234581f, 2.055761f, 0.342608f, -1.082121f, -1.959724f, -0.236602f, -1.434112f, -0.613834f, 1.225384f, -0.136202f, -2.758191f, -0.003728f, -0.435530f, 0.693776f, -1.487451f, 1.315995f, -0.640463f, -0.042310f, 0.032849f, -0.485153f, -0.103167f, 0.961963f, -0.412640f, -0.076319f, -0.878068f, 0.676274f, 0.060495f, -2.295139f, -0.058040f, -0.004544f, -1.722763f, -0.277918f, -0.909118f, 0.375068f, 0.107186f, 0.096528f, 0.997595f, -0.170695f, -0.207680f, -1.826027f, -0.544593f, 0.824595f, -0.428433f, 1.740702f, -1.000360f, 0.602515f, -0.467833f, -1.135706f, 0.181377f, -0.813264f, 0.176504f, -0.987386f, -0.660990f, 0.856218f, 1.189394f, -0.838606f, -0.098408f, 0.981958f, -0.771091f, -0.249399f, -0.484441f, -0.934903f, 0.743452f, 0.181212f, 1.281989f, 0.891610f, 0.051937f, 1.144200f, -0.507834f, -0.022018f, -0.587966f, -1.367834f, 1.724800f, 0.422133f, 0.784154f, 0.541052f, 0.062254f, -1.230411f, 1.227118f, 1.669404f, 0.739575f, -0.005204f, 1.930094f, 0.204242f, 0.538634f, 0.097900f, -0.477216f, -0.174022f, -0.309715f, -0.825810f, 0.310450f, -0.275121f, 0.542753f, 0.622516f, -0.196076f, -0.188055f, 0.226452f, -0.080602f, -0.161947f, 0.761515f, -0.453746f, 1.431553f, 0.217951f, 1.372197f, -0.084833f, -0.411454f, 0.503525f, 0.329879f, -0.528206f, -0.035496f, 0.051949f, 0.373411f, -0.106564f, -0.004322f, 0.314112f, 0.192367f, -0.155841f, -0.242774f, -0.213929f, 0.384468f, 0.485815f, -0.717470f, 0.008094f, 0.490328f, -0.186619f, 0.472909f, 1.135367f, -0.468800f, -0.620139f, -0.456590f, 0.561026f, 0.232898f, 0.046479f, -0.046177f, 0.564813f, 0.278483f, 0.012623f, 0.868899f, -0.008861f, -0.022043f, 0.019806f, 0.119243f, -0.248230f, -0.163887f, -0.079800f, 0.127319f, 0.240147f, 0.128095f, -0.246122f, 0.276206f, 0.212451f, -0.046102f, 0.257318f, 0.025880f, 0.253024f, 0.205212f, 0.306872f, 0.294064f, -0.252380f, -0.191025f, -0.072753f, 0.269454f, -0.084192f, -0.252548f, 0.262296f, 0.018790f, 0.235169f, -0.191429f, 0.111078f, -0.037428f, -0.250339f, 0.135458f, -0.171366f, -0.201909f, -0.254960f, -0.251508f, 0.234955f, 0.153455f, 0.240047f, 0.016787f, 0.022642f, -0.161556f, 0.262015f, -0.094548f, 0.021166f, -0.398313f, 0.662387f, 0.009609f, -0.072062f, -0.794450f, -0.348156f, 0.220604f, -0.106079f, 0.080920f, 0.424119f, -0.017023f, 0.178865f, -0.007214f, 0.004408f, 0.125148f, -0.279327f, 0.057881f, -0.355430f, 0.190206f, 0.202947f, -0.003034f, -0.007529f, -0.399296f, 0.274309f, -0.322810f, 0.189710f, 0.067272f, 0.256298f, -0.880951f, 0.315188f, -0.391571f, -0.746114f, -0.809841f, -0.898782f, 0.277261f, -0.180856f, -0.215107f, 0.233746f, 0.070579f, -0.045806f, -0.418025f, 0.465396f, 0.516218f, -0.584923f, 0.786502f, -0.125882f, -1.184158f, -1.136992f, -0.655826f, 0.558324f, -0.167361f, 0.561911f, -0.363758f, -0.695812f, -1.550346f, 0.053233f, -1.401717f, 0.245555f, -0.258915f, -0.945569f, -0.164890f, -0.047565f, -0.642355f, -0.473501f, -0.317047f, -1.038734f, 0.061917f, 0.831897f, -0.802070f, -0.669014f, 0.280165f, 0.104424f, -0.072234f, 0.218617f, 1.567573f, -0.090610f, 0.217850f, 0.803299f, 0.482089f, 0.477665f, -0.555417f, 0.050403f, -0.614107f, 0.270453f, -0.590246f, 0.088754f, 0.802474f, -0.232887f, 0.652195f, 0.090227f, 0.481094f, -0.206704f, 0.416725f, -0.253402f, 0.018764f, -0.069558f, -0.537240f, -0.130883f, -0.137243f, -0.263816f, 0.185186f, 0.167433f, 0.168164f, -0.142710f, -0.267961f, -0.319077f, -0.156337f, -0.214943f, 0.106011f, -0.154641f, -0.168917f, 0.228503f, -0.199429f, 0.016423f, 0.162580f, -0.011235f, -0.396434f, 0.203358f, 0.098062f, 0.020510f, 0.055392f, 0.176833f, 0.141761f, 0.282716f, -0.039347f, -0.143948f, 0.125036f, 0.203370f, 0.108480f, 0.311000f, 0.148139f, 0.142798f, -0.300237f, -0.061931f, -0.099619f, -0.134509f, -0.017456f, 0.030948f, -0.126918f, 0.013828f, -0.218382f, -0.193744f, -0.259689f, 0.267516f, -0.282807f, -0.183087f, 0.064200f, -0.238382f, 0.217509f, 0.125066f, 0.265265f, 0.003589f, -0.113795f, 0.028187f, 0.245569f, 0.012331f, -0.132366f, 0.214687f, -0.073130f, -0.284178f, -0.143263f, -0.103786f, 0.204349f, -0.023560f, -0.031203f, -0.094622f, 0.218842f, 0.253366f, 0.280341f, -0.070175f, 0.265648f, 0.165863f, 0.100066f, -0.145540f, -0.160115f, -0.189748f, 0.240670f, -0.116855f, -0.027150f, -0.003401f, 0.158416f, 0.196082f, -0.205323f, -0.042414f, 0.195249f, 0.181078f, -0.226451f, -0.195689f, -0.111780f, -0.241848f, -0.042880f, -0.223454f, 0.038876f, -0.144472f, 0.055178f, -0.217836f, 0.270930f, 0.246203f, -0.061590f, -0.146811f, -0.142035f, -0.009376f, -0.261931f, 0.079572f, -0.052307f, -0.069818f, 0.176159f, 0.119059f, 0.258586f, -0.084083f, 0.226419f, 0.153762f, -0.080914f, 0.069295f, -0.120350f, 0.213490f, -0.220313f, -0.163823f, -0.180437f, -0.055272f, 0.139704f, 0.015319f, -0.007038f, -0.284396f, -0.042613f, -0.248521f, -0.166193f, 0.246239f, -0.162057f, 0.204113f, -1.672255f, -0.292119f, -0.367617f, -0.656812f, 0.177077f, -1.350328f, 2.982071f, 0.095595f, -0.507541f, 0.258572f, 0.134822f, -0.172160f, -1.601023f, -1.134295f, -1.190934f, 1.143350f, -0.514261f, -0.124605f, 1.802193f, -0.039393f, 1.580563f, -1.837371f, -0.375170f, -0.768595f, -0.109683f, -0.225011f, 1.449203f, -0.035109f, -1.158854f, 1.240439f, -0.636924f, -0.289659f, -0.029148f, 1.497010f, -0.972362f, -0.301122f, 0.388585f, 1.039086f, -0.432532f, -0.897969f, 2.058822f, -0.330340f, -0.966533f, -0.255392f, -1.517909f, -0.017203f, -0.491182f, -0.174357f, -0.955563f, 1.143399f, -1.231156f, 1.728610f, -1.349566f, -0.308346f, -0.195467f, 0.598099f, 0.566491f, -0.075054f, 0.628326f, 0.147106f, -0.400661f, -0.950418f, 0.230916f, 0.286259f, -0.419482f, -0.737758f, -0.043059f, 2.134388f, 0.197818f, -0.082787f, -1.460758f, 1.533485f, -0.535569f, 1.530639f, 0.862392f, -0.878860f, -0.275675f, 1.446078f, 1.466672f, 0.369266f, 0.299576f, 1.266383f, -1.321565f, 0.391172f, 0.698550f, 0.295375f, -1.087691f, 0.542200f, 1.378341f, -0.581495f, 2.935702f, 0.395942f, -1.636863f, -0.093195f, -0.991350f, 0.952256f, -1.591800f, 0.477499f, 1.309998f, -0.295820f, -0.838332f, 0.848393f, 0.868660f, -0.328094f, -0.834958f, -0.950624f, -0.942633f, -0.228966f, -0.209859f, -0.374225f, 0.764366f, -0.584059f, 1.362794f, 0.090509f, -1.101284f, -0.742947f, -1.373559f, 1.180717f, 0.416348f, 0.488347f, 0.240389f, 0.753032f, -1.562068f, 0.776441f, 1.140790f, 1.437912f, -0.307349f, 1.474622f, -0.569832f, 1.235837f, 0.593399f, 0.080979f, 0.164731f, 0.159390f, -0.169359f, -0.318565f, 0.606761f, -0.014778f, -0.307411f, 0.006464f, -0.609462f, 0.263794f, -0.216421f, -0.362203f, 0.432580f, -0.034735f, 0.469779f, -0.255608f, 0.272384f, -0.317715f, -0.481450f, -0.244554f, 0.007386f, 0.401729f, 0.227980f, 0.253842f, 0.737444f, 0.019460f, 0.178552f, 0.215788f, 0.092229f, -0.031362f, -0.395571f, 0.230752f, 0.188456f, 0.887447f, 0.219483f, -0.164291f, 0.486946f, 0.781142f, 0.146818f, -0.106382f, -0.000047f, -0.578701f, -0.671827f, 0.348400f, -0.458395f, 0.343001f, -0.062706f, -0.169548f, 0.028254f, -0.012752f, 0.576645f, 0.196714f, -0.129564f, -0.114397f, -0.395042f, -0.064839f, -0.146670f, -0.177195f, 0.046071f, 0.123474f, -0.119858f, -0.012259f, 0.226491f, 0.247473f, 0.142137f, -0.009965f, -0.022196f, -0.175200f, 0.316997f, -0.180175f, 0.015856f, -0.253810f, 0.248422f, 0.263098f, 0.117681f, -0.091769f, -0.149709f, 0.038642f, -0.193190f, 0.043980f, -0.175129f, -0.121090f, 0.116566f, 0.188443f, -0.193271f, -0.175554f, 0.121867f, 0.089066f, -0.008248f, 0.282581f, -0.142530f, -0.222514f, -0.048224f, -0.122635f, 0.139809f, -0.184102f, -0.108705f, 0.181459f, 0.122189f, 0.028213f, 0.116316f, -0.048322f, -0.294019f, -0.279461f, 0.007655f, -0.242758f, -0.256279f, 0.260839f, 0.208904f, -0.198193f, -0.286998f, 0.243375f, -0.131604f, -0.179595f, 0.115989f, -0.217112f, -0.120543f, 0.269944f, 0.065635f, 0.011631f, -0.060673f, 0.154670f, -0.204231f, 0.271982f, 0.206465f, 0.076144f, -0.256971f, 0.111551f, 0.238594f, 0.015695f, -0.077617f, -0.222654f, 0.145466f, 0.208710f, -0.230741f, 0.152884f, -0.276031f, 0.278582f, 0.061614f, 0.032879f, -0.116439f, 0.242619f, -0.128837f, 0.190355f, -0.673785f, 0.804039f, -0.264199f, -0.127117f, -0.372127f, -0.253938f, 0.694780f, 1.281719f, -1.322001f, 0.299414f, 0.709767f, -1.092964f, -0.179717f, -0.217478f, -0.822087f, 0.608223f, -0.093465f, 1.028033f, 0.778438f, -0.153952f, 1.455602f, -0.116374f, 0.525951f, -0.458070f, -1.280693f, 1.386967f, 0.089182f, 0.343771f, 0.318057f, -0.223658f, -1.113425f, 0.555991f, 1.407895f, 1.425655f, -0.342313f, 2.999270f, -0.302841f, 0.514690f, 0.125016f, -0.523269f, -0.083458f, -0.458173f, -0.485573f, 0.314791f, -0.210126f, 0.299305f, -1.306527f, -0.645825f, -0.922065f, 0.546680f, -1.289366f, 0.694654f, 0.443135f, -1.137975f, 0.154894f, 0.599947f, 0.078295f, 0.507729f, -0.939806f, -0.542952f, -0.311150f, -0.900899f, 0.135409f, -0.858671f, 0.965434f, -0.564436f, 0.082325f, 0.608854f, -0.846450f, -0.471971f, -0.073299f, 0.213280f, 0.151695f, 0.785450f, 0.348587f, 0.586704f, 0.307585f, 0.474814f, 0.488439f, 0.170751f, -0.144218f, -1.511781f, -1.049795f, 0.941829f, 0.164661f, 0.753347f, 0.330284f, 0.760377f, 0.514502f, -0.915769f, 1.290236f, 0.335449f, 0.095805f, -0.121458f, -0.273659f, -0.057393f, -0.109043f, 0.251812f, 0.221128f, 0.205199f, 0.087142f, -0.088693f, 0.027819f, 0.179517f, -0.228596f, 0.171464f, -0.261298f, 0.180205f, 0.175161f, -0.255689f, 0.072430f, 0.001402f, -0.188037f, -0.200249f, 0.155619f, 0.038553f, 0.275055f, 0.274644f, 0.280575f, -0.217196f, 0.249585f, -0.145462f, -0.023799f, 0.146594f, -0.168781f, 0.037761f, -0.178921f, -0.225107f, -0.218369f, -0.081075f, -0.282095f, -0.042788f, 0.093497f, -0.055987f, -0.235902f, -0.249054f, -0.126369f, -0.188316f, 0.235648f, -0.252042f, -0.006681f, 0.038781f, 0.036133f, -0.063762f, 0.224167f, -0.123861f, 0.185842f, 0.028505f, 0.002219f, 0.255557f, 0.055092f, -0.300268f, -0.047547f, 0.172145f, 0.113881f, 0.239559f, -0.135108f, 0.154233f, -0.049263f, 0.042675f, 0.258927f, 0.274110f, 0.201579f, -0.078783f, 0.247876f, 0.070588f, -0.030464f, -0.273646f, 0.193461f, 0.065369f, 0.166827f, 0.123110f, 0.171805f, -0.124740f, 0.199351f, 0.027085f, -0.016515f, 0.102123f, -0.272885f, -0.185139f, -0.119970f, 0.272815f, -0.205063f, -0.088365f };
static const float X40_MLP_L46_layer_1_biases[10] = { 4.361260f, -0.801529f, 0.992755f, -0.599947f, 0.077686f, 0.220943f, 0.384096f, -1.405452f, -1.011677f, -1.568623f };
static const float X40_MLP_L46_layer_1_weights[460] = { 0.842962f, 1.093668f, -4.403633f, 1.310573f, 0.095829f, 2.136152f, -1.126801f, 0.448653f, -0.186708f, -0.004913f, -1.647922f, 0.093766f, -0.149715f, 0.084272f, 0.724391f, 2.127367f, -1.492959f, 0.021697f, -0.113166f, 0.276200f, -1.845055f, 0.632788f, -0.178288f, -0.152606f, -0.690668f, 1.264598f, -0.584675f, 1.340357f, -0.028480f, 0.155796f, -0.114794f, -0.774133f, -0.007071f, -1.412480f, 0.969239f, 0.481615f, 0.732075f, 0.440608f, 0.269728f, 0.270805f, -3.072777f, 0.225114f, 1.650658f, 0.297784f, -0.313101f, 2.130393f, 0.313699f, -0.267352f, -0.862258f, -0.725660f, -1.353620f, -0.706088f, 0.855803f, 1.275864f, 0.152185f, 0.714932f, -0.541777f, -0.622825f, 0.081903f, -0.214668f, -1.438018f, -0.256117f, -0.281737f, 1.526588f, 2.072248f, 0.084180f, -0.425586f, -0.054951f, -0.060790f, -0.374581f, -1.684606f, 1.869082f, -0.067079f, -1.842073f, 1.769645f, -0.057657f, -0.646803f, 0.091091f, 0.018148f, 0.630131f, 1.648888f, 0.731410f, 0.472685f, -1.150744f, -0.909975f, -0.590948f, -0.939911f, 0.213199f, -0.767932f, -0.577268f, -2.824195f, -1.806691f, 0.071614f, 0.126152f, 0.108928f, 1.260880f, 0.509664f, 0.787531f, 0.874738f, 0.884014f, 2.044051f, -0.502979f, 1.290518f, -0.680014f, 0.802764f, -1.873633f, 0.658023f, -0.641281f, -0.287708f, -0.249233f, -1.153438f, 1.295378f, -0.737816f, 0.471782f, 0.021841f, -0.438450f, -0.161454f, 0.707492f, 0.505639f, 0.490849f, -1.879204f, -1.847442f, 2.052115f, 1.137310f, 1.755062f, -1.403137f, 0.527500f, 0.403440f, -0.214997f, 0.351969f, -2.269247f, -1.258927f, 0.328296f, -0.550449f, 1.946247f, 1.392764f, -0.467879f, 0.485704f, 0.140076f, 0.566172f, 1.138585f, 0.599597f, -0.323886f, -1.043951f, 0.832116f, -0.900203f, -0.343415f, -0.087298f, -0.395435f, 0.090588f, 0.776746f, -0.731293f, 1.372984f, -0.435693f, 0.434948f, 0.442017f, -0.264740f, 0.056257f, -1.046630f, 0.042932f, 1.503529f, -0.319822f, -0.841625f, 0.273377f, -1.054734f, -0.854524f, 0.153978f, 0.376778f, 0.347011f, -0.507533f, 0.357717f, -1.694369f, 0.858427f, 0.617628f, 1.715618f, -0.796713f, 0.500120f, 0.055292f, -0.367989f, -0.745197f, 1.546848f, 0.349914f, -0.902594f, 1.731590f, -0.824783f, 0.156052f, -0.413640f, -0.155003f, -0.255122f, -0.048554f, -0.145887f, 1.258711f, 0.716822f, -1.267218f, -0.321798f, 0.647978f, -1.204144f, 0.491184f, 0.328983f, 0.003322f, -0.169849f, 2.695295f, -0.350933f, -0.174490f, 0.085843f, -2.469271f, 0.149285f, 0.520991f, -0.309749f, 0.347989f, -0.925267f, 1.858755f, -0.858757f, -1.668881f, 2.326379f, -0.375664f, 0.399732f, -0.261382f, 0.169794f, 0.311131f, -0.418595f, -1.436337f, 0.180281f, -0.192022f, 1.890859f, 0.225150f, 0.149285f, 0.637196f, -0.308561f, -0.632448f, -0.184884f, -0.159026f, -0.718926f, 1.033441f, -2.497562f, 0.268635f, 0.032738f, 1.026767f, -0.281068f, 0.784317f, -1.622704f, -0.470709f, 0.369143f, -0.078253f, 0.109478f, 0.807865f, -0.577025f, 0.680149f, 0.825342f, 0.468360f, 2.458295f, -0.568545f, 0.128548f, 0.111981f, 0.602432f, -3.412861f, -0.103691f, 0.359317f, 0.463077f, 0.203236f, 0.574483f, -0.513026f, -1.049970f, 0.631194f, -0.013386f, 1.499383f, -0.839457f, 0.403930f, -0.673173f, 0.408725f, -2.096263f, 1.490810f, 1.129009f, 0.362576f, 1.425479f, -1.551681f, -0.147941f, -0.090476f, 0.110254f, -0.429397f, 2.156901f, -0.962903f, 3.669066f, -0.787265f, 0.216756f, -2.369596f, 0.021763f, -0.752789f, -1.112200f, -0.457039f, -0.166386f, 1.022898f, -1.273306f, 1.983339f, -0.780699f, 1.036978f, -1.221326f, 0.179155f, -0.400051f, 0.355201f, 1.103247f, 0.483766f, 0.933945f, -1.632295f, -1.215761f, 0.379556f, -0.720105f, 0.020309f, 0.270724f, 0.064357f, 2.053829f, 0.210067f, 1.798826f, -0.616129f, -1.140007f, -1.168631f, -0.115211f, -0.389175f, -0.940185f, 0.060289f, 2.371377f, 0.272396f, -1.285523f, 0.589213f, 0.410298f, -0.494964f, 0.167031f, -0.732701f, -0.361665f, -0.268629f, -2.798608f, 0.834087f, 1.100861f, 0.041279f, -0.023348f, -0.508643f, 0.676478f, 0.106912f, -0.007408f, 0.321986f, 0.867847f, -0.311258f, -0.368628f, 0.119389f, -1.230138f, -0.836033f, 0.815487f, 0.428522f, 0.467488f, 0.336695f, -4.591094f, 2.984500f, -0.662573f, -0.580801f, 1.494015f, -0.247465f, 0.478320f, 0.363109f, 0.352538f, 0.410995f, 2.274817f, 0.067128f, -0.931229f, -1.189595f, -1.567254f, 1.290175f, -0.306646f, 1.079694f, -0.097421f, -0.464710f, -0.029391f, -0.777214f, -0.992647f, 1.349074f, -0.450885f, 1.325834f, 0.001567f, -0.278577f, -0.466457f, -0.189960f, 0.139344f, 0.226161f, 0.922891f, -0.187109f, -1.320565f, 0.909847f, -0.887539f, 0.189243f, -0.080696f, -0.192580f, 2.428685f, -1.206002f, -1.031952f, -0.058312f, -0.444210f, -1.201381f, -0.538728f, 0.431395f, 0.754135f, -0.489588f, -0.632928f, -0.208809f, 0.947340f, -1.051818f, 1.322760f, -0.074724f, 0.128941f, 0.164649f, -0.316267f, -0.189878f, 0.575400f, 0.536126f, 0.624792f, -0.929202f, -0.631638f, 1.862016f, 0.527434f, -1.954415f, -0.445552f, -0.602014f, -1.481664f, -2.645380f, 1.602956f, 0.629925f, 0.378047f, 1.435444f, -0.635856f, 1.294099f, 0.151345f, -0.533870f, 0.954753f, -2.420679f, 0.539019f, 1.604830f, -0.170177f, -0.687879f, 0.253990f, -0.077268f, -0.069891f, 0.743329f, -0.205676f, -1.342983f, 1.831401f, -1.932991f, -1.584188f, 1.952553f, 0.544324f, 0.538323f, 0.647289f, -0.848695f, -1.786910f, 0.608978f, 0.991429f, -1.024247f, -0.218027f, 0.247339f, -0.009254f, 0.549449f, 0.157947f, 0.434717f };
static float X40_MLP_L46_buf1[46];
static float X40_MLP_L46_buf2[46];
static const EmlNetLayer X40_MLP_L46_layers[2] = { 
{ 46, 28, X40_MLP_L46_layer_0_weights, X40_MLP_L46_layer_0_biases, EmlNetActivationTanh }, 
{ 10, 46, X40_MLP_L46_layer_1_weights, X40_MLP_L46_layer_1_biases, EmlNetActivationSoftmax } };
static EmlNet X40_MLP_L46 = { 2, X40_MLP_L46_layers, X40_MLP_L46_buf1, X40_MLP_L46_buf2, 46 };

    int32_t
    X40_MLP_L46_predict(const float *features, int32_t n_features)
    {
        return eml_net_predict(&X40_MLP_L46, features, n_features);
    }
    

    int32_t
    X40_MLP_L46_regress(const float *features, int32_t n_features, float *out, int32_t out_length)
    {
        return eml_net_regress(&X40_MLP_L46, features, n_features, out, out_length);
    }
    

    float
    X40_MLP_L46_regress1(const float *features, int32_t n_features)
    {
        return eml_net_regress1(&X40_MLP_L46, features, n_features);
    }
    