
#include "eml_net.h"
static const float X60_MLP_L36_layer_0_biases[36] = { 0.519260f, -1.066077f, 0.310829f, 1.855340f, 0.283338f, 0.370517f, -0.108539f, 0.077259f, 0.048966f, 0.093482f, -0.361138f, 1.274520f, -0.437782f, -0.447575f, 2.256588f, -0.800180f, -1.103034f, 0.697566f, 0.016045f, -1.176842f, -0.058596f, 0.813959f, -0.095073f, 0.253398f, -1.206414f, 1.072758f, 0.774290f, -0.570304f, -0.082883f, -1.111034f, -0.090996f, -0.880100f, -1.065733f, -0.679120f, 0.622529f, 0.803043f };
static const float X60_MLP_L36_layer_0_weights[1620] = { 2.381689f, 1.271436f, 0.098221f, 3.111957f, 1.351377f, 0.119675f, 0.753787f, 0.364485f, -1.110886f, 2.088313f, 3.046387f, -0.116181f, 1.321052f, -2.505724f, -0.888539f, 0.202202f, 0.115186f, 1.170154f, -1.046237f, -0.784262f, -0.610908f, 0.974102f, 0.503918f, 0.530352f, -0.364189f, 1.012380f, -1.139914f, 0.209779f, -2.853318f, -2.145547f, 0.005886f, -0.042268f, -0.990287f, -0.221932f, 1.732313f, -0.036324f, -0.844631f, 0.120685f, 0.126900f, 1.512275f, 0.816325f, 0.177829f, 1.988939f, -0.976181f, -0.088246f, -0.758938f, 0.194707f, -0.190368f, 0.379225f, -2.267124f, 0.563636f, 1.768878f, 2.573242f, -0.549080f, -0.794278f, 0.032722f, -0.376052f, 0.997904f, -0.761185f, -0.033332f, -0.367595f, 0.490615f, 0.185530f, 0.264739f, 1.224282f, 0.198975f, 0.343147f, -0.170246f, 0.027417f, 0.386614f, 3.586264f, -0.038696f, 0.565062f, -0.709898f, -0.173677f, -0.343830f, 0.055717f, 0.853492f, 0.026653f, -0.474050f, 0.091249f, -1.485011f, -0.211714f, -0.046656f, 0.114315f, 0.218307f, 0.257118f, 0.247252f, 0.895864f, -1.327292f, -0.262653f, -0.141939f, 0.685133f, 0.293543f, 0.113491f, -1.186508f, -0.277273f, -1.554821f, -1.180750f, -1.098426f, 0.345766f, 0.204932f, 0.056180f, 0.227100f, -0.028136f, 0.285621f, 1.073272f, 0.325412f, -0.382883f, -0.235093f, -0.156992f, -0.032014f, 0.162370f, 0.747929f, 1.081893f, 0.317167f, -0.151137f, -0.982189f, 0.070582f, 0.151952f, 0.453671f, -0.052771f, 0.210446f, 0.647264f, 1.474922f, -1.997580f, -0.509131f, -0.139455f, 0.435227f, -0.025301f, 0.481286f, -0.811102f, -0.744988f, -2.426838f, -2.062180f, -0.651304f, -0.331844f, 0.385381f, -0.591868f, 0.174186f, 0.098874f, 0.162802f, 1.270213f, 0.284080f, 0.755146f, 1.326674f, -0.597682f, 1.282302f, 0.694786f, 0.906265f, -1.014005f, 0.711024f, -0.995200f, 0.373272f, -0.537847f, -0.206815f, 0.577183f, 0.429806f, -0.757747f, -0.160052f, 1.863204f, -0.875128f, -0.514616f, -0.839546f, -1.994950f, 0.462640f, -1.563659f, -2.386565f, -0.075648f, -0.793295f, -0.036610f, -1.954483f, 2.167040f, 0.001886f, -0.564359f, -0.071955f, -0.470569f, 1.578450f, -0.755466f, -0.006353f, -0.610632f, -0.043426f, -1.189482f, 0.301448f, 0.124727f, 0.150161f, -1.978206f, 0.122753f, 0.838817f, -0.256028f, -2.063646f, -0.201016f, -0.527998f, -0.632683f, 6.131915f, 2.048747f, -2.090009f, -6.023890f, -0.009000f, -2.925075f, 0.297584f, -0.056665f, 0.687643f, -0.383456f, -7.697522f, 0.742805f, -0.956358f, 0.419313f, -0.413527f, 0.534380f, 1.283198f, 0.069463f, 1.110504f, -0.246574f, -0.184404f, 0.259356f, 0.561841f, -1.436839f, -1.520286f, 1.382775f, -0.298158f, 3.127513f, -0.308061f, 1.928805f, -1.815507f, 3.204934f, 0.945003f, -0.215625f, 0.681720f, 1.448793f, -3.209761f, 0.869313f, -0.597048f, -3.932601f, -1.035302f, -0.184512f, -0.397657f, -0.735686f, 0.659407f, -3.271005f, 1.410194f, -2.357301f, -0.458230f, 1.389635f, 6.241793f, -0.497151f, 0.378860f, -0.239044f, 0.605308f, -0.392229f, 1.455392f, 0.208525f, 1.767496f, 0.145722f, -0.811936f, -2.852328f, -0.598230f, -0.723154f, -0.210409f, 0.893493f, -0.050078f, 1.105038f, -3.730771f, 0.695932f, 0.520137f, 1.790245f, -2.610499f, 2.361186f, 1.263966f, -2.377055f, 0.764921f, -0.529914f, -0.738122f, 1.113029f, -1.062132f, -1.635445f, -0.360831f, -0.066150f, -1.376832f, -0.883541f, 1.237010f, 4.734018f, -1.563655f, 0.193323f, -0.197817f, 2.252397f, 0.365077f, -0.030968f, 0.055482f, 0.125575f, 0.109191f, 0.394806f, 0.198683f, -0.150243f, 0.210282f, -0.169050f, -0.217205f, 0.208298f, 0.231612f, 0.202371f, 0.209555f, -0.075038f, -0.081685f, -0.230398f, -0.054901f, -0.164865f, -0.174346f, -0.241293f, 0.190757f, -0.265206f, 0.208171f, -0.097013f, -0.234573f, -0.259688f, 0.080322f, -0.180232f, -0.049486f, 0.179361f, 0.195304f, 0.216627f, 0.017035f, -0.201356f, -0.240020f, -0.103777f, -0.112394f, -0.031788f, 0.107780f, 0.517040f, -0.088983f, -0.043416f, 0.007800f, 0.147205f, -0.239488f, 0.113996f, 0.128535f, 0.099525f, -0.156545f, -0.102915f, 0.053709f, -0.114689f, -0.063306f, -0.182273f, 0.003042f, -0.247002f, 0.203131f, -0.270644f, 0.040101f, -0.038222f, -0.011328f, 0.307513f, 0.052718f, -0.255308f, -0.033800f, 0.165703f, -0.023852f, 0.173882f, -0.124890f, -0.191432f, -0.030917f, 0.249402f, 0.396411f, 0.402186f, -1.306254f, 0.997954f, 0.172506f, 0.430942f, -3.174771f, -1.468651f, 0.121559f, 0.141392f, 0.678740f, -0.298605f, -1.287211f, 2.086327f, -2.266094f, -0.403716f, 0.109484f, 0.627615f, 2.788122f, -0.344465f, -0.749845f, 0.429348f, 0.295591f, 0.382762f, 1.043783f, 1.932418f, 0.154671f, 2.086542f, 4.683584f, 2.243687f, 1.012516f, -0.074943f, -0.184650f, 2.744602f, -4.881129f, 0.512015f, -1.517818f, -1.285656f, 1.798398f, 0.017882f, 0.154099f, 0.039389f, -0.678843f, 0.787165f, -0.040262f, 0.473627f, -2.700956f, 0.546858f, 0.706326f, -1.729171f, 1.034012f, -0.170196f, -0.376689f, 0.134503f, -1.088461f, -1.191184f, 0.511984f, -2.249247f, -2.456654f, -0.489684f, -1.095183f, -0.741957f, 0.227581f, -0.707041f, 0.331786f, -1.420239f, 1.444886f, -0.204726f, -1.384728f, -0.451655f, 0.193195f, 0.174340f, 0.043245f, -1.224031f, -0.370632f, -0.507267f, 0.016367f, 0.609725f, -0.673969f, -0.326019f, -0.608331f, 0.941654f, 0.580095f, -0.629765f, -0.019324f, 0.339918f, 0.488791f, 0.102625f, 0.309655f, 0.114420f, -0.165000f, -0.035468f, -0.078535f, -0.266965f, 0.552518f, -0.388793f, -0.185650f, -0.164510f, 0.301927f, 0.532260f, -0.413202f, -0.082793f, 0.094891f, 0.015020f, -0.233605f, -0.160609f, 0.981265f, 0.236229f, -1.102446f, -1.495502f, -0.420880f, 9.843048f, 2.340688f, 2.775470f, 4.510636f, 1.411458f, 0.118336f, 1.973926f, 0.501944f, 0.327582f, -1.296398f, -4.732874f, 0.663661f, -0.572681f, 0.195072f, -1.253343f, -1.814418f, -0.169395f, 0.422979f, 0.576559f, -0.376794f, 0.541045f, 0.189077f, -0.701421f, 1.169325f, 1.053562f, -1.677793f, -0.009534f, -2.859473f, 0.054539f, -1.075114f, -0.255676f, 1.169599f, -0.100465f, -2.083777f, -0.005384f, -1.669704f, 1.236453f, 0.773998f, -1.248181f, -0.620671f, 0.504578f, 1.072709f, 1.513418f, -0.787590f, -1.413136f, 1.228365f, -1.004673f, 0.105173f, 0.100750f, 1.033401f, 0.142543f, -0.435763f, -0.246776f, -0.440301f, -0.030541f, 0.671497f, 0.813093f, -1.743903f, -0.797264f, 0.895916f, -0.322285f, 2.551117f, -1.083940f, -0.613731f, 0.130646f, 1.803339f, -0.947312f, 0.525825f, -0.073242f, -0.256228f, 0.022390f, 0.007708f, -0.100867f, 0.251448f, -0.252703f, -0.051545f, 0.119777f, -0.014829f, -0.106203f, 0.266893f, 0.052139f, -0.011355f, 0.073687f, 0.198564f, -0.254984f, -0.150613f, -0.062310f, 0.026804f, 0.057590f, -0.012916f, -0.196588f, 0.209167f, 0.109192f, -0.207506f, 0.262243f, 0.158960f, 0.259112f, 0.143761f, 0.193665f, 0.229493f, -0.270095f, -0.196756f, -0.061306f, 0.293018f, -0.070670f, -0.178234f, 0.207422f, -0.028134f, 0.213234f, -0.186401f, 0.088051f, -0.047064f, -0.230313f, 0.096068f, -0.137705f, -0.241519f, -0.231253f, -0.236485f, 0.223769f, 0.131192f, 0.216755f, 0.095467f, 0.016521f, -0.107083f, 0.260197f, -0.078868f, -0.015427f, -0.071454f, 0.252418f, -0.187937f, -0.091179f, 0.103117f, -0.238687f, 0.050527f, -0.014210f, -0.117586f, -0.143437f, 0.001687f, -0.070361f, -0.017144f, -0.084381f, 0.286237f, -0.636905f, 0.938557f, 2.438811f, 0.877939f, 0.343709f, 0.730433f, -0.386019f, 0.458348f, 0.736851f, 1.467373f, 0.869068f, 0.873394f, -1.105402f, 0.893270f, -0.477236f, -0.655155f, 0.813475f, -1.192306f, -0.878963f, 0.037917f, 0.745714f, 0.196162f, 1.052268f, 0.188394f, 0.250572f, 0.483113f, -0.051409f, 0.510720f, -1.237180f, 0.049129f, -0.727256f, -0.484222f, -0.811936f, -0.568504f, 0.654242f, 0.830988f, -0.693056f, -0.730802f, -0.462082f, -0.816847f, -0.289766f, -0.786780f, 0.457112f, -0.661373f, -0.853462f, -1.797499f, 0.182000f, -0.866973f, 1.228078f, 1.262285f, -0.274726f, -0.664470f, -0.092099f, 1.071090f, -0.494200f, 0.237816f, 0.203196f, -0.150206f, -0.457132f, -1.385385f, 0.087408f, 0.105549f, -0.100654f, -0.399439f, 0.685789f, 0.052806f, -0.049523f, -0.505911f, -0.172284f, 0.822328f, 0.298840f, -0.212399f, 0.057865f, 0.110614f, 0.073359f, 0.249922f, -0.215940f, 0.199855f, -0.256270f, 0.018989f, -0.052124f, 0.013174f, -0.073416f, -0.168422f, -0.261760f, 0.009879f, 0.186586f, -0.069015f, -0.150853f, -0.228340f, -0.225730f, -0.151671f, -0.217737f, -0.127900f, -0.236161f, -0.236460f, 0.193939f, -0.183906f, 0.032486f, 0.148841f, -0.023742f, -0.188680f, -0.163521f, -0.036486f, 0.015363f, -0.081942f, 0.153219f, 0.137730f, 0.221760f, -0.331672f, 0.140382f, -0.051814f, 0.206043f, 0.098288f, 0.265009f, 0.139581f, -0.087547f, 0.008178f, 0.103659f, -0.073795f, -0.086511f, 0.064103f, 0.086950f, -0.120936f, -0.027366f, -0.269009f, -0.214233f, -0.248755f, 0.251752f, -0.270604f, -0.176113f, -0.037320f, -0.226536f, 0.313701f, 0.120342f, 0.250109f, 0.001056f, -0.107728f, 0.024814f, 0.232857f, 0.011303f, -0.060103f, 0.243754f, 0.172122f, -0.748646f, 0.957019f, 2.908124f, 0.697439f, 0.124624f, 0.456881f, -0.499881f, 0.662816f, 0.706388f, 2.210631f, 1.225255f, 0.767576f, -1.297555f, 1.114459f, -0.797410f, -0.851514f, 0.813700f, -0.967684f, -1.241679f, -0.189594f, 0.580161f, 0.106375f, 0.781625f, -0.294167f, 0.557174f, 0.877456f, -0.092705f, -0.044621f, -1.713845f, -0.296630f, -0.943268f, -0.544222f, -0.966968f, -0.441683f, 0.564347f, 0.006158f, -0.364111f, 0.115043f, -0.879167f, 0.250566f, 0.399189f, -1.049483f, 0.122532f, -0.346978f, 0.087261f, -0.271370f, -0.193769f, 0.248706f, 0.373707f, -0.437825f, -0.635693f, -0.194100f, 0.393715f, 0.524620f, 0.113586f, -1.098446f, 0.644552f, -0.303234f, 0.215310f, -0.146817f, -0.413122f, 0.262640f, -0.826146f, -0.225925f, 0.443183f, 0.478777f, -0.313385f, -0.389761f, -0.059775f, 0.297120f, 0.159121f, 0.176131f, -0.187751f, -0.162184f, -0.214456f, 0.102982f, 0.071338f, -0.006166f, 0.013903f, 0.090300f, -0.243714f, -0.107788f, 0.190300f, -0.018849f, -0.184149f, -0.216066f, 0.205841f, -0.021210f, 0.246840f, 0.115343f, -0.129566f, -0.157133f, -0.008523f, 0.178046f, -0.097579f, -0.362028f, 0.112772f, 0.338078f, 0.128149f, -0.361668f, -0.066337f, -0.188494f, -0.110310f, 0.209074f, 0.221865f, 0.020606f, -0.086293f, 0.164812f, 0.201786f, -0.587986f, -0.629680f, -0.083473f, -0.558736f, -0.534288f, 0.154624f, -0.080071f, -0.618052f, -0.863726f, 0.377124f, 0.293003f, -0.017098f, 0.810817f, -0.151309f, 0.058535f, -0.278240f, 0.242886f, 0.373645f, -0.513038f, -0.624984f, 0.325843f, -0.318202f, -0.638899f, 0.415716f, 0.246221f, -0.601290f, -0.863449f, -0.219858f, 0.123692f, -0.052616f, 0.142098f, -0.416837f, 0.151285f, -0.037426f, 0.538359f, -0.379503f, -0.184158f, 0.155198f, -0.142073f, 0.257063f, 0.772447f, -0.173325f, -0.441375f, -0.220407f, -1.001219f, -0.815777f, -0.876656f, 0.746811f, 1.661231f, 0.714647f, -0.070661f, -0.288596f, 0.468595f, -0.501086f, 2.107969f, 0.402777f, -0.121494f, 0.205251f, -0.731462f, 0.539770f, -0.473524f, 1.095145f, 0.968409f, 0.096670f, -0.122192f, -0.066952f, -0.171360f, 0.631032f, 0.198808f, 0.318103f, 2.005586f, -2.266803f, 0.539290f, -3.231541f, -1.263618f, -0.396158f, 1.663837f, 2.304397f, -2.844887f, -1.528095f, -0.715276f, 0.247617f, -0.058102f, 1.196988f, 0.385846f, -0.628074f, -0.683254f, 0.708333f, 0.299357f, 0.292040f, 0.028596f, -1.250861f, -0.931718f, 0.441486f, -0.118376f, 1.289517f, 0.773563f, -1.656251f, -2.435394f, 0.226555f, 1.420282f, -0.521016f, -3.248768f, 0.209316f, 0.017837f, 0.405502f, -0.343146f, 0.867167f, 1.089120f, 0.851128f, 0.663207f, 0.017317f, -0.237312f, -0.265891f, 3.517632f, 0.606757f, -0.286920f, 1.223575f, -0.332757f, 0.621540f, 0.828745f, 0.112043f, -0.848710f, -0.036341f, -0.331910f, -0.880655f, 0.718721f, 0.200426f, 1.494290f, 0.824105f, 0.793479f, -0.653522f, -1.866177f, 0.234255f, 0.507722f, -1.582648f, -0.344795f, 0.402565f, 0.376100f, 0.353718f, 0.381541f, -0.011557f, -0.090408f, 0.229681f, -0.567796f, -0.332651f, -0.323156f, -0.117291f, -0.948393f, 0.062981f, -0.070067f, -0.270363f, 0.084586f, 0.889510f, 0.193896f, 0.045044f, 0.121230f, 0.174598f, 0.049754f, 0.240830f, -0.036239f, -0.465146f, -0.318193f, -0.129500f, -0.161277f, -0.732125f, -0.000546f, 0.613081f, 0.439304f, -0.276220f, -0.185268f, -0.209972f, -0.128313f, -0.058031f, -0.440296f, -0.148074f, 0.219101f, 0.123537f, -0.560895f, -0.970490f, 0.221525f, 1.332841f, 0.787665f, 0.716668f, 0.323407f, -3.154231f, 0.560218f, -0.395262f, -2.068871f, -0.338320f, -0.944963f, 0.837128f, 1.507488f, -0.102836f, 0.896052f, -0.891734f, 0.499664f, -0.888860f, 1.681880f, 0.661308f, 1.197873f, -0.331879f, -0.230992f, -0.605151f, -1.204709f, 0.571138f, 1.791472f, 1.540414f, -1.291670f, 0.019736f, 2.208217f, -0.751977f, -0.483473f, 0.313338f, 0.022004f, -0.126364f, -0.117178f, 2.043597f, 1.230579f, 0.545530f, -0.583399f, 0.104887f, -0.640400f, 0.618862f, 1.363452f, -2.598386f, 0.848156f, -1.786571f, -0.512739f, 0.042455f, -0.264621f, 0.292879f, -1.095704f, 1.161298f, 0.597444f, 1.128049f, -1.718246f, 0.046865f, -0.418067f, 0.431077f, 0.221290f, 0.938198f, -0.149910f, 0.464071f, -0.717221f, -0.298373f, 0.463288f, 0.376095f, -0.217619f, -0.239526f, 0.213228f, -0.502508f, 0.079021f, 0.719343f, -0.192460f, 0.332397f, -0.627098f, -0.841847f, -0.244796f, 0.274485f, 0.479431f, 0.331632f, -0.172787f, -0.051202f, -0.214604f, -0.000342f, 0.633281f, -0.063095f, 0.069768f, -0.107983f, -0.035072f, 0.084435f, 0.222699f, 0.038092f, -0.641421f, 0.122675f, 0.111009f, 0.064634f, -0.226029f, -0.424584f, -0.459998f, -0.023662f, -0.314876f, -0.045300f, 0.193145f, 0.082999f, -0.116756f, 0.011610f, 0.075611f, 1.163791f, -0.743682f, 0.240140f, 0.268428f, 0.440860f, 0.180875f, -0.340183f, -0.288831f, 0.328360f, -0.230037f, -0.993862f, 0.098806f, -0.006006f, 0.372929f, 0.254174f, -0.163013f, -0.115426f, -0.163682f, -0.040913f, 0.409208f, 0.398035f, 0.091317f, -0.129222f, 0.257423f, -0.052202f, 0.520279f, 0.202374f, 0.239510f, -0.035831f, -0.136582f, 0.106806f, -0.160221f, -0.065266f, -0.680448f, 1.767653f, -0.343818f, 0.121583f, -0.303798f, -0.848769f, -1.241902f, 1.189238f, 0.084733f, 0.747950f, 1.525792f, 0.929800f, 0.230942f, 0.580100f, 0.179909f, 0.482195f, -1.179031f, 0.896077f, 0.020844f, -0.934092f, -2.372327f, 0.364395f, -0.763802f, 0.223424f, -0.394165f, -0.154518f, 1.538121f, -0.264533f, -0.663501f, -1.806132f, 1.168680f, -0.179931f, -0.674050f, -0.103632f, 0.952476f, -0.268667f, 0.351343f, -1.239163f, 0.150127f, 2.131398f, -0.029961f, 0.086408f, 0.006508f, -0.093011f, 0.098478f, 0.166234f, -0.314370f, 0.296486f, -0.099155f, -0.526211f, 1.885167f, -1.119930f, -1.137136f, 0.869174f, 0.330035f, -1.205108f, 0.254621f, 0.783644f, -0.286673f, 0.086163f, -0.728030f, 0.744663f, 0.341324f, -0.098587f, -0.566151f, -0.453530f, -0.055569f, -0.905682f, -0.508602f, -0.412095f, 0.223920f, 0.910628f, 0.442422f, 0.258086f, 0.112559f, -0.166345f, 0.273305f, 0.368745f, -0.355467f, -0.210231f, -0.235186f, -0.226139f, -0.249737f, 0.479919f, 0.146677f, 0.298233f, 0.424901f, 0.237346f, -0.002193f, -0.243354f, 0.008736f, -0.299279f, 0.009830f, 0.218712f, -0.042103f, -0.016428f, -0.497919f, 0.266212f, 0.230860f, -0.304119f, 0.016096f, -0.265511f, 0.064006f, 0.250188f, -0.249489f, -0.192979f, 0.151933f, 0.315387f, 0.054482f, -0.088149f, 1.098605f, 0.805667f, 1.160238f, 0.061639f, 2.712166f, -0.248650f, 1.153399f, 0.425863f, -2.798098f, -1.348390f, -0.636804f, 0.234833f, 1.429444f, 0.554607f, 0.274757f, -0.042170f, 0.277675f, -0.392005f, 1.960698f, 0.900982f, 0.840863f, 2.610946f, -1.892301f, -1.158950f, -3.364511f, -0.487660f, 0.732393f, 3.170982f, -0.519997f, -0.061369f, 0.617198f, 0.466104f, -0.846305f, 0.605289f, 1.030781f, -0.255818f, 0.311030f, 0.328395f, -0.073996f, -0.087921f, -1.666557f, 0.293793f, -0.813581f, -0.284449f, 1.471674f, 1.447783f, 0.720486f, -0.220134f, 0.326160f, -0.987877f, -0.786848f, 1.190531f, -0.125985f, -0.555923f, -0.944814f, -0.045893f, -0.560991f, -0.874779f, 0.491388f, 1.140371f, 2.406478f, 0.264011f, -0.547725f, -2.003011f, 0.536863f, -0.638315f, -1.023604f, -0.518010f, 0.923113f, 0.211179f, 0.110831f, -0.795027f, -0.698265f, 0.524171f, -0.341551f, -0.164759f, -1.790817f, 0.118658f, -0.740645f, 0.065918f, 1.094048f, 0.873239f, 0.152188f, -0.145724f, 0.762500f, -0.687789f, -0.769328f, -0.291771f, -0.086320f, -0.475513f, -0.990626f, 0.329406f, -0.374280f, -1.388393f, -0.234854f, 0.767991f, 1.703659f, -0.035326f, -0.080370f, -1.434118f, 0.381618f, -0.057786f, -0.820552f, -0.360403f, 0.432423f, -0.093478f, 0.266653f, 0.224420f, -0.207849f, -0.253751f, 0.216795f, 0.020347f, -0.162746f, 0.095180f, 0.078677f, -0.206193f, -0.130798f, -0.239302f, -0.157961f, -0.200892f, -0.167009f, 0.100776f, -0.244269f, -0.216753f, -0.199287f, -0.099921f, -0.109159f, -0.133647f, 0.135978f, 0.271337f, 0.018488f, 0.241786f, -0.056125f, -0.213566f, -0.049580f, -0.110991f, -0.003564f, 0.085520f, -0.021101f, 0.236859f, 0.209242f, 0.109872f, 0.003309f, -0.204231f, -0.258207f, 0.102574f, -0.144336f, -0.215711f, 0.110747f, 0.146184f, -0.081699f, 0.194686f, 0.188750f, 0.263780f, 0.280663f, 0.220163f, -0.125564f, 0.092867f, 0.002320f, 0.093549f, 0.234918f, -0.266755f, 0.140069f, 0.212354f, -0.162657f, -0.239575f, -0.161918f, 0.121998f, -0.024617f, -0.136513f, 0.067543f, 0.172059f, -0.241503f, 0.010658f, -0.104686f, 0.201195f, -0.030784f, -0.013391f, 0.008049f, -0.195737f, 0.115896f, 0.179867f, -0.240553f, -0.113454f, -0.251721f, 0.248089f, 0.090827f, 0.252745f, 0.017143f, 0.164481f, -0.068255f, -0.079416f, -0.066204f, 0.085930f, -0.076449f, 0.217935f, 0.263141f, -0.255633f, -0.166879f, -0.210817f, -0.249180f, -0.148324f, -0.028989f, 0.183440f, -0.151412f, -0.003006f, 0.233850f, 0.091019f, 0.162157f, 0.027740f, 0.261478f, 0.048273f, -0.247093f, -0.164335f, -0.051847f, 0.054747f, 0.147199f, -0.047980f, 0.114597f, 0.157773f, -0.100497f, 0.260853f, 0.081442f, 0.207314f, 0.032010f, 0.132805f, 0.147247f, 0.222548f, -0.189461f, 0.031448f, -0.038995f, 0.229963f, -0.215038f, 0.261401f, 0.203767f, -0.231869f, -0.005120f, 0.118215f, 0.128928f, 0.221367f, 0.163687f, -0.102836f, -0.000896f, 0.109753f, -0.196807f, -0.166587f, -0.010334f, -0.110065f, 0.197733f, 0.047016f, 0.086410f, -0.611448f, 2.109174f, 1.706889f, 0.711511f, -0.192282f, 0.828417f, -0.229910f, -1.496214f, 0.455584f, 1.952493f, -0.019731f, 0.744652f, -0.883046f, 1.480908f, -0.370780f, 0.383774f, 0.379550f, -1.426112f, 0.467911f, 0.241371f, 0.636237f, 1.339275f, 1.611933f, -0.635113f, 0.702601f, 0.072850f, -1.335904f, -3.130618f, -0.233600f, -0.030710f, -0.313581f, 0.633873f, -0.434047f, 0.859817f, 0.686201f, 0.725572f, -0.129903f, -1.385001f, 0.105118f, -0.067225f, 0.103403f, -1.162542f, 0.546740f, 1.193086f, -0.795422f, -2.206403f, 1.201751f, -0.956062f, 0.932483f, 0.876197f, -0.627312f, -1.296338f, 0.327122f, 1.010473f, -1.553410f, 0.184890f, 0.030897f, -1.169894f, -1.012736f, -0.442528f, 0.179271f, 0.303770f, 0.671309f, 2.712147f, -0.554205f, 0.180389f, 0.043973f, -1.081362f, -0.293692f, -0.451194f, 0.181884f };
static const float X60_MLP_L36_layer_1_biases[10] = { 4.085394f, 0.464111f, -1.480589f, -0.362122f, -0.134810f, -0.202471f, -0.262767f, -0.705348f, -0.544585f, -0.927710f };
static const float X60_MLP_L36_layer_1_weights[360] = { -0.428532f, 0.178535f, 1.206888f, 0.566766f, -1.398637f, 0.002305f, -0.372946f, 0.159756f, 0.178624f, 0.520285f, -1.954743f, -0.361313f, -0.810497f, -1.028868f, 1.836359f, 0.595199f, -0.567018f, 1.006165f, 0.539669f, 1.019752f, -1.836625f, -0.864379f, -0.372600f, 0.149233f, 1.872186f, 0.495085f, 0.607279f, 0.180888f, -0.349718f, -0.400570f, -4.687006f, 5.079308f, -0.283997f, 1.104806f, -0.047897f, -0.161952f, 0.189893f, -0.318802f, -0.855109f, 0.181926f, 0.678346f, -2.246751f, 0.518255f, 0.779005f, 1.079510f, -1.115142f, 1.152658f, -0.340794f, -0.556554f, 0.198049f, -0.852499f, -2.366283f, -0.338215f, 1.108319f, 1.118389f, -1.410598f, 0.445251f, 0.483021f, 0.701876f, 0.212445f, -1.660811f, -0.200497f, 1.384978f, 1.065302f, -1.164886f, 1.040693f, 0.809114f, -1.205253f, -0.139351f, 0.179545f, -1.412645f, 1.228032f, -2.009260f, 0.862334f, -1.108953f, 0.365135f, 0.000061f, -0.000706f, 0.258788f, -0.008584f, 0.352051f, -0.005255f, 1.370402f, -1.761210f, 1.250885f, -0.420783f, 0.041403f, -0.576152f, 0.503427f, 0.220928f, -0.659809f, -2.534763f, -1.384810f, 2.116712f, 0.791788f, -1.485646f, 0.658331f, 0.420557f, 0.383735f, 0.323395f, 1.975621f, 1.984530f, -1.236551f, 0.569209f, -1.310527f, -1.117426f, -0.625426f, 0.268471f, -0.920656f, 1.054840f, 1.650868f, 0.272531f, -0.167395f, -1.319250f, 0.303439f, 0.437634f, -1.130517f, 0.390498f, -0.644699f, 0.434242f, 0.520967f, -0.491740f, -0.246781f, 0.832668f, -1.006203f, 1.021755f, -0.041198f, 0.167369f, 0.039208f, -0.744274f, 1.698908f, -1.186965f, 1.366610f, -0.797302f, 0.215990f, 0.535531f, -0.036351f, -1.138737f, 0.270695f, -0.621038f, -0.241994f, -0.523810f, 3.477898f, -2.125574f, 1.155056f, -3.951434f, 1.263112f, 0.142277f, 0.165103f, 0.495627f, -0.239223f, 0.474081f, -1.704176f, 2.152604f, -1.855984f, 0.258847f, 0.388297f, 0.169522f, 1.196430f, 0.343008f, 0.441649f, -0.726869f, -0.046646f, 1.804332f, -1.438145f, -0.015194f, -0.276899f, 0.967229f, 0.227835f, -0.285601f, -0.670572f, -0.200777f, -3.136376f, 1.122616f, -0.686012f, 2.367317f, -0.306024f, 1.299010f, 0.352036f, -0.022245f, -1.729602f, -0.318584f, -0.130499f, 0.616808f, 0.003404f, 1.684378f, -0.288196f, -0.183362f, 0.336933f, 0.474210f, -2.974102f, 0.367991f, 0.858036f, 1.149448f, -0.682537f, 1.482749f, -0.578444f, 0.086190f, -0.139130f, -0.246414f, -1.029534f, -1.531752f, 1.568746f, 1.977450f, 0.256829f, -0.924326f, 0.527507f, -0.136789f, -0.427202f, -0.578513f, 0.345849f, -1.433584f, 0.199661f, 0.462960f, 1.249536f, 0.954087f, -0.765552f, -0.414733f, 0.094693f, -0.150547f, 0.185539f, 0.571230f, 0.244757f, 1.037738f, 1.175527f, -1.240786f, -1.087261f, -1.174238f, -0.629802f, -0.221614f, -2.382537f, -0.611126f, 2.242647f, 0.654108f, 1.965521f, -0.396932f, 0.641605f, -0.689542f, -1.021276f, 0.092501f, -2.502634f, -2.172932f, -0.018654f, 0.014739f, 1.285195f, 4.682054f, -0.677364f, 1.068934f, -0.589642f, -0.322386f, -0.174411f, 0.914220f, 0.641168f, 0.113619f, -2.320813f, 1.337557f, -0.847168f, 0.532163f, -0.410072f, 0.170779f, 1.756975f, 0.624833f, 0.118675f, 1.032820f, -2.912628f, 0.141855f, -1.125374f, -0.270584f, -0.390871f, 0.269882f, 2.595104f, -2.792127f, 1.430743f, 0.014569f, 0.022930f, -1.767710f, -0.073269f, -0.001082f, -0.460625f, 0.862744f, -2.082958f, -1.283442f, 2.750716f, 0.355405f, -0.451672f, -0.300976f, 0.164290f, 0.303837f, 0.486536f, -0.360398f, -2.087397f, -1.241223f, 0.752077f, 2.839349f, -1.213003f, -0.431060f, 1.503669f, -0.117671f, 0.114093f, -0.170912f, -0.138720f, 0.386281f, -0.864730f, 0.896979f, -0.501448f, 0.104953f, 0.537143f, -0.155177f, 0.040356f, -0.098500f, -1.495188f, 0.598559f, 1.319995f, -0.620152f, -0.078017f, -0.486791f, -0.629212f, 0.165378f, -0.040265f, 0.361368f, -1.304403f, 0.741081f, -0.404874f, -1.726707f, 2.148826f, -0.178294f, 0.929321f, 0.128740f, 0.555267f, -0.560656f, -0.617312f, -0.446408f, -0.792556f, -1.254078f, 0.850276f, 2.267588f, -0.641744f, 0.326689f, 0.166345f, 0.281205f, 0.666210f, 0.825501f, -0.320037f, -1.076244f, 2.906784f, 0.852055f, -0.738943f, -1.327964f, -0.680537f, -0.878451f, 0.536550f, -0.056246f, -0.920848f, 0.647092f, -0.241648f, -0.629543f, 0.360276f, -0.752314f, -0.474417f, -0.284816f };
static float X60_MLP_L36_buf1[45];
static float X60_MLP_L36_buf2[45];
static const EmlNetLayer X60_MLP_L36_layers[2] = { 
{ 36, 45, X60_MLP_L36_layer_0_weights, X60_MLP_L36_layer_0_biases, EmlNetActivationTanh }, 
{ 10, 36, X60_MLP_L36_layer_1_weights, X60_MLP_L36_layer_1_biases, EmlNetActivationSoftmax } };
static EmlNet X60_MLP_L36 = { 2, X60_MLP_L36_layers, X60_MLP_L36_buf1, X60_MLP_L36_buf2, 45 };

    int32_t
    X60_MLP_L36_predict(const float *features, int32_t n_features)
    {
        return eml_net_predict(&X60_MLP_L36, features, n_features);
    }
    

    int32_t
    X60_MLP_L36_regress(const float *features, int32_t n_features, float *out, int32_t out_length)
    {
        return eml_net_regress(&X60_MLP_L36, features, n_features, out, out_length);
    }
    

    float
    X60_MLP_L36_regress1(const float *features, int32_t n_features)
    {
        return eml_net_regress1(&X60_MLP_L36, features, n_features);
    }
    