
#include "eml_net.h"
static const float X60_MLP_L56_layer_0_biases[56] = { -1.562518f, -0.404971f, -0.291806f, 0.289421f, -0.875774f, 1.785840f, 0.933697f, -0.705119f, 1.577400f, -0.305797f, 0.646767f, 2.221167f, 0.402532f, 0.285048f, -1.036703f, 0.177555f, -0.312024f, 0.536479f, -1.114893f, 0.014401f, 1.688889f, -1.340145f, -1.891117f, 0.967887f, -0.759670f, 1.238138f, 0.410060f, 1.697406f, 0.442772f, 0.331121f, -0.771563f, 0.630389f, 0.814841f, 1.364846f, 1.154405f, -1.194318f, 0.014933f, 1.709063f, 1.404101f, -1.369093f, 1.349410f, 0.368839f, -0.958410f, 0.899606f, -0.754400f, 1.217410f, -1.012472f, -0.958612f, 0.035262f, 0.273697f, 0.582748f, 1.666154f, 0.360637f, -0.352844f, -0.676595f, -0.970052f };
static const float X60_MLP_L56_layer_0_weights[2520] = { -0.228583f, -0.291552f, -0.705445f, -1.495586f, 0.360360f, -0.819028f, -2.732741f, 0.398867f, 1.238480f, 0.254610f, -1.637663f, 1.728893f, -1.456499f, 1.330809f, -0.633041f, 0.074542f, -1.466711f, 0.128122f, -0.823634f, 1.358402f, -0.716592f, -0.734841f, -0.472078f, 1.159628f, -1.844563f, -0.626782f, 0.949003f, -0.175569f, -1.816393f, -0.695288f, 0.399335f, 1.582295f, -3.135101f, 2.473907f, 1.613960f, -0.946290f, -1.283737f, 3.271762f, -1.454624f, 0.461360f, 2.918887f, -3.458878f, 0.763750f, -0.444583f, 0.324960f, 0.276215f, -0.692875f, 0.419400f, -1.526018f, 0.133104f, 0.887310f, 0.132854f, -0.567833f, -0.940223f, -0.142550f, 0.218247f, -0.282268f, 1.083371f, -0.207490f, 0.763448f, 0.214257f, -0.901822f, 0.163619f, -0.077848f, 0.950876f, -0.434761f, 0.388294f, 0.038021f, 1.543037f, 0.150157f, 0.200070f, -1.301465f, 0.476404f, 0.554786f, 1.134905f, -0.204587f, 0.327027f, 0.352138f, 0.524124f, 0.932729f, -0.176508f, -0.089059f, -1.995065f, -0.327349f, 0.737757f, 0.132088f, 0.470292f, 0.418492f, -0.738159f, -0.824222f, -0.299739f, 0.079400f, 0.172748f, 1.906589f, 1.476801f, -0.913572f, 2.825992f, 1.441257f, 0.210568f, -0.506141f, 0.631085f, 0.026732f, 0.021539f, -0.079136f, -1.715982f, -0.228415f, -0.307416f, 0.684283f, -0.680303f, 1.583612f, 0.333716f, -0.283611f, -0.361234f, -0.493668f, -0.317547f, -0.080616f, -1.140946f, -0.233816f, 1.133151f, 0.982181f, 0.748415f, 1.805085f, -1.606065f, 0.565214f, -0.804158f, -0.022736f, -0.760396f, -0.480560f, 2.091545f, 0.185658f, 0.197978f, -1.428716f, 0.419876f, 1.144501f, -0.166186f, -1.892581f, -0.141400f, 0.152052f, -0.151402f, -0.046753f, 0.908166f, -1.805321f, 0.806403f, 0.647746f, 0.234575f, -1.676314f, 0.221200f, 0.401705f, 1.419072f, 0.142426f, 0.896400f, -1.340366f, -0.394582f, 0.183782f, 0.672906f, 0.539799f, -0.407046f, 0.185020f, 0.993045f, -0.849250f, -0.430502f, 0.470918f, -0.140952f, -0.363710f, 1.089713f, 0.927095f, -0.263197f, -0.757888f, -0.261036f, -0.670385f, -0.015771f, -0.585184f, -1.876606f, -0.891701f, 1.876450f, 0.672805f, 0.516955f, 1.700179f, -2.081795f, 0.169572f, -1.209686f, -0.109364f, -0.049052f, -0.100818f, 2.629802f, 0.037206f, 0.181270f, -1.262915f, 0.225905f, 1.208073f, 0.126059f, -1.712603f, 0.263205f, 0.147301f, 0.412593f, -0.274118f, 0.766889f, -2.896168f, 0.634258f, -0.281292f, -0.477306f, -2.297894f, 0.195506f, -0.111019f, 0.370418f, -0.031726f, 0.857405f, -0.969610f, 0.349440f, 0.101141f, 0.620700f, -0.033450f, -0.581034f, -0.173758f, 1.017663f, -0.308019f, -0.099189f, -0.667963f, 0.158704f, -0.219308f, 0.961689f, 0.547821f, -0.085283f, -0.526958f, 0.141822f, 1.898554f, 0.824302f, -0.484000f, -0.741249f, -0.196360f, 1.858968f, 0.228831f, 0.635337f, -0.341486f, 0.904686f, 1.752581f, -1.934355f, -0.537649f, -1.477086f, -0.356511f, 0.787813f, 0.031491f, 0.132474f, -0.599278f, -0.359603f, -1.195683f, -1.038323f, -1.988681f, -2.380070f, -0.881075f, 1.192247f, 0.070407f, -2.228039f, -0.404031f, 2.141588f, -0.889891f, 0.123908f, -0.181098f, 1.760702f, 1.606723f, -0.902217f, 1.766270f, 1.564807f, -0.540462f, -0.329118f, 1.547819f, 1.817403f, 2.971656f, -2.537937f, 0.557061f, -0.753071f, 0.800424f, -0.085000f, 0.629150f, -2.638568f, -0.988174f, 2.066988f, -0.409883f, -1.524713f, -0.140497f, -1.049315f, 0.284655f, -0.168116f, 0.676260f, 0.294360f, 1.194947f, 0.461109f, 1.133588f, 0.922116f, 0.398767f, 0.574125f, 5.014254f, 0.490068f, -1.341628f, -3.130125f, 1.273275f, -3.443019f, -0.612558f, 2.959689f, -3.215471f, 3.754611f, -0.651697f, 0.227443f, -1.796712f, 1.657276f, 1.509624f, 1.982549f, -0.811443f, -0.418701f, -1.058218f, 0.514927f, 1.520985f, 0.164855f, 0.366852f, -2.817360f, -0.628868f, -0.034176f, 0.744596f, 8.135920f, -2.930423f, -0.478024f, 0.042265f, -0.219331f, 0.108918f, -1.484943f, 0.244679f, 1.355821f, -1.723207f, 0.587311f, 0.822411f, -0.711601f, 1.631349f, 0.713804f, 0.196820f, -1.079607f, 0.075371f, -0.220265f, 1.589835f, 2.733010f, -2.269443f, -0.795115f, -2.751370f, 0.376734f, -0.635527f, 3.795107f, -0.950327f, -0.376215f, -2.602257f, 0.022948f, 0.055193f, -2.623757f, -1.513322f, 0.051705f, 0.607948f, -1.836269f, -0.598053f, -1.417196f, -0.379406f, -0.150552f, 0.596371f, -0.996595f, -0.016003f, 1.241959f, 1.556946f, 1.375850f, -3.217648f, -1.561793f, 0.902094f, 0.356755f, -0.570662f, -0.683488f, 1.745245f, 1.511251f, 1.416236f, -4.454903f, 0.041198f, 2.169946f, 2.388902f, 0.247137f, 0.255429f, -1.152522f, -0.509751f, 6.349275f, -0.432110f, -0.731597f, 1.960202f, 1.123336f, 0.245291f, 1.608138f, 0.648019f, -0.690561f, 0.297456f, 0.080146f, 0.011542f, 0.382891f, -1.136965f, -0.587994f, -0.737725f, 0.117003f, -0.073852f, 1.924441f, 0.709857f, 0.627108f, 0.352716f, 1.852184f, -0.108185f, -0.752415f, -0.528032f, 0.816722f, 1.178224f, -0.741521f, -1.469567f, -1.364155f, -0.551257f, -0.776590f, -1.694534f, 0.809785f, 0.790176f, -0.036338f, 1.452326f, 0.232724f, -1.631701f, 0.335235f, 1.335115f, 2.737870f, 0.253175f, 0.094544f, 0.065567f, 0.057354f, -2.813599f, -1.129867f, -1.071011f, -2.859657f, 2.107015f, 1.962849f, -0.615928f, -2.169970f, 0.700432f, 4.763684f, -0.202423f, 0.850737f, 0.607275f, 0.921813f, -0.405845f, -0.376091f, 0.336838f, -1.002409f, -0.098552f, 0.222532f, 0.195408f, -0.053037f, 0.168019f, -0.232883f, -0.227446f, 0.221598f, -0.134073f, 0.211952f, -0.220367f, 0.099424f, 0.112758f, -0.135854f, -0.113681f, -0.021746f, 0.116849f, -0.113595f, -0.158511f, 0.114935f, -0.031446f, 0.085741f, -0.136329f, 0.021102f, 0.218579f, 0.054128f, 0.142760f, 0.344711f, -0.016858f, 0.057049f, 0.204297f, 0.247079f, -0.002334f, -0.152202f, -0.106257f, -0.161216f, -0.052128f, -0.181549f, 0.163850f, 0.152770f, 0.171730f, 0.235202f, 0.084364f, -0.111753f, 0.004842f, 0.182337f, -0.130360f, 0.053206f, -0.045864f, -0.044251f, 0.010783f, -0.120898f, -0.026233f, -0.071721f, -0.055730f, 0.008914f, 0.092640f, -0.075718f, 0.205763f, 0.177547f, -0.302177f, -0.126303f, 0.068949f, -0.168791f, -0.076011f, 0.123331f, 0.097959f, 0.056007f, 0.062118f, -0.152879f, -0.113849f, 0.100084f, 0.140354f, -0.102484f, -0.109522f, -0.233639f, 0.055618f, -0.238196f, -0.066720f, 0.041558f, 0.209185f, -0.195643f, -0.080748f, -0.093839f, 0.199738f, 0.047203f, -0.143755f, -0.149407f, -0.200948f, 0.093859f, 0.181660f, 0.098689f, 0.144264f, -0.257524f, 0.127338f, 0.168374f, 0.028554f, 0.273687f, -0.294357f, 0.098573f, 0.148273f, 0.016534f, -0.023359f, 0.136729f, -0.187471f, -0.024833f, -0.037376f, 0.037317f, -0.185959f, -0.158504f, -0.013632f, 0.044720f, 0.230658f, 0.411962f, 1.810482f, 0.164530f, 1.100248f, 2.768821f, 0.129618f, -0.901943f, 0.759531f, 2.122911f, 1.345649f, 3.116653f, 1.352110f, 1.446074f, 0.953461f, -0.099953f, -3.054959f, 0.752171f, -2.306551f, 1.591904f, -0.097333f, -2.514403f, 0.900105f, 0.921563f, -1.922111f, 0.001643f, -1.107830f, 2.521232f, 1.357029f, -0.054240f, 3.987984f, 1.211638f, 0.635642f, 6.526768f, 0.540046f, -0.335129f, -0.196274f, 1.125102f, -3.776799f, 1.448287f, 0.956709f, -2.306529f, 2.690180f, 0.144001f, 1.278101f, -0.764234f, 1.116840f, 0.242700f, -0.405482f, 0.008092f, 1.577307f, -1.671105f, -0.430897f, 0.070368f, 1.576105f, 0.181998f, -0.371168f, -0.217623f, -0.691409f, 1.297497f, -0.441076f, -0.347354f, 1.336896f, 2.443072f, 0.570594f, -0.529954f, -0.493897f, -0.189714f, 1.506879f, -0.555884f, -3.169201f, -0.207075f, 1.412111f, 1.207647f, 0.228641f, 0.349538f, 0.466947f, 1.082380f, -0.263616f, -1.404081f, -0.287707f, -0.529315f, 0.157887f, 0.610774f, 0.152636f, -2.861027f, -1.908144f, 1.323974f, 1.601372f, -0.592168f, 0.627699f, 0.432249f, 0.944724f, -1.092488f, 0.496081f, 0.885787f, 0.256991f, -0.771543f, -0.101742f, -0.163870f, 1.189069f, -0.292776f, -0.452986f, 0.059242f, -0.430294f, 1.626260f, -0.907643f, 0.816014f, -0.569892f, 0.231568f, -1.865787f, -1.764247f, 3.397518f, -0.670424f, -0.543643f, 0.536634f, 0.079481f, 0.127902f, 0.328340f, -0.157250f, 0.084170f, -0.298719f, -0.347682f, -0.220348f, 0.192545f, -0.164678f, 0.113670f, -0.347582f, 0.195849f, 0.300495f, -0.182357f, 0.195164f, -0.467854f, 0.680683f, -0.149220f, -0.238550f, -0.362078f, -0.382149f, -0.229318f, 0.585641f, 0.207577f, 0.097331f, -0.613163f, -0.320636f, -0.223489f, -0.278352f, 0.027020f, 0.215992f, -0.261383f, -0.224946f, 0.214623f, -0.315549f, -0.986791f, 0.053853f, -1.000966f, -0.077151f, -0.083864f, -0.008200f, 0.011547f, -0.413450f, -0.212147f, 0.611492f, 0.221789f, -0.302632f, 0.561769f, 0.336638f, 0.169513f, 0.037685f, 0.259228f, -0.178216f, -1.875208f, -0.829355f, -0.710154f, 2.807346f, -0.443361f, -0.078158f, -0.402212f, 1.975136f, -1.041798f, -2.299172f, -1.062985f, -1.398780f, -0.227587f, -4.398307f, 0.014808f, 2.116362f, 2.108118f, 1.084240f, 0.315731f, 2.345664f, -0.987029f, -0.234840f, 0.335451f, -0.691771f, 1.495421f, -2.995014f, 1.805147f, 0.800359f, -2.093472f, -1.387502f, -0.017047f, -1.140562f, 0.149308f, 1.206039f, 0.534165f, -0.744211f, 8.727876f, -0.180792f, 0.389363f, 9.373586f, 0.001257f, -0.998008f, -2.755082f, -0.599276f, 0.066387f, 6.808749f, -0.361579f, -1.230501f, -2.741492f, -0.183134f, 3.465868f, -0.776396f, -0.695106f, -1.440160f, -0.881935f, -0.038817f, -1.084222f, 0.463340f, -1.047554f, 0.399690f, 0.015759f, 0.976454f, 1.967854f, 0.633101f, -0.835430f, 0.347310f, 0.399081f, -1.290690f, -1.307512f, -0.387141f, -0.459041f, -0.733517f, 0.426572f, 0.596842f, 0.233300f, 0.538109f, 1.380691f, 0.497080f, -0.758735f, 1.896869f, 0.622627f, 0.820796f, -0.508406f, -0.705772f, 1.875889f, 0.696841f, 1.831908f, 0.845003f, -2.627629f, 0.476037f, -0.022274f, -0.317326f, 1.091036f, -3.405521f, -2.375674f, 1.581921f, 0.050433f, 0.476859f, 2.134535f, 0.585419f, -0.498717f, -1.512347f, -1.045760f, 0.724696f, -2.177828f, 0.109817f, 0.172907f, -0.627420f, -0.873630f, -0.310078f, -0.420802f, -0.046319f, -0.158966f, -0.286879f, 0.049366f, -0.008744f, 0.318284f, 0.177678f, -0.071668f, -0.063521f, -0.056956f, 0.227398f, 0.251590f, -0.149052f, 0.112413f, 0.096382f, 0.042619f, -0.152596f, -0.037425f, -0.185517f, -0.122416f, 0.302157f, 0.176128f, -0.145683f, -0.101273f, -0.003400f, 0.219161f, -0.037626f, -0.062109f, 0.201829f, -0.109759f, 0.169897f, -0.132225f, -0.027971f, -0.046679f, -0.105936f, -0.001259f, -0.036838f, -0.225257f, 0.184813f, 0.055766f, -0.055373f, -0.142133f, -0.140748f, 0.216400f, 0.230278f, -0.028479f, 0.147572f, 0.046527f, -0.261372f, 0.186621f, -0.070391f, -0.050927f, 0.160102f, 0.038233f, 0.004188f, -0.004538f, 0.177479f, 0.059288f, -0.052537f, -0.044352f, 0.153489f, -0.063462f, -0.135566f, -0.216459f, 0.178943f, 0.201643f, -0.178147f, -0.080459f, -0.158973f, -0.186001f, 0.194029f, -0.217999f, 0.237046f, -0.187631f, 0.170325f, 0.021341f, -0.058651f, -0.082150f, 0.114613f, -0.094812f, 0.064225f, 0.015515f, 0.004171f, 0.213560f, 0.027719f, 0.152120f, 0.105510f, -0.221519f, 0.131280f, -0.130648f, 0.197350f, -0.218837f, -0.080667f, -0.199916f, -0.011718f, 0.142498f, -0.105450f, -0.171076f, -0.084038f, 0.164737f, -0.174667f, -0.126844f, -0.210697f, 0.097697f, -0.049853f, -0.088708f, 0.100256f, -0.085318f, 0.118701f, 0.153916f, -0.145909f, 0.230886f, -1.339625f, -0.952019f, -1.181617f, 0.522898f, -1.833427f, 0.405435f, -0.176248f, -0.273623f, 0.281611f, -0.492973f, -0.408916f, 0.382987f, -0.678785f, -0.354356f, -0.890637f, 0.188522f, 0.011081f, 0.683684f, -0.802462f, 1.163268f, 1.367229f, -1.277640f, -1.075375f, 0.396498f, -1.454239f, 0.431386f, -0.186989f, 0.526645f, 0.219826f, 0.569118f, 0.060936f, -0.391573f, -0.431484f, 0.878052f, 1.737968f, -0.863233f, -1.282178f, 2.411857f, -0.403454f, 0.412529f, 2.173021f, -1.093155f, -0.742112f, 0.436063f, 0.268017f, 0.920388f, -0.061016f, 0.039734f, -0.722624f, -0.766693f, 0.098623f, 0.975084f, -1.084281f, -0.519604f, -1.125425f, -0.511197f, -0.400804f, 0.819549f, 0.693227f, -0.457438f, 0.849962f, 1.242264f, 0.753149f, -0.080354f, 1.135830f, 0.440360f, 1.007152f, 1.708034f, 0.693256f, 0.518147f, -0.114969f, 0.152977f, -0.538963f, 0.270089f, -0.347906f, -1.185432f, 0.534342f, -0.195386f, -0.374304f, 0.008129f, 1.080078f, 0.867288f, 0.266654f, 1.019792f, 0.452502f, -0.193056f, -0.799613f, 0.805416f, 1.157315f, 0.140818f, -0.256942f, -0.230616f, 0.664772f, -0.331193f, 1.683484f, -1.323313f, -0.859092f, 1.567602f, 0.094917f, -0.010031f, -1.123765f, 0.526593f, -0.716053f, -0.926332f, 0.922898f, 0.977255f, 0.652572f, 0.660158f, 0.866144f, 0.452819f, 0.118967f, -0.694997f, 0.005470f, -0.203141f, -0.218838f, 0.226922f, 0.174998f, -0.169612f, -0.243400f, 0.215300f, -0.108063f, -0.153119f, 0.093362f, -0.190648f, -0.114730f, 0.231591f, 0.067988f, 0.010087f, -0.049762f, 0.133827f, -0.175039f, 0.227803f, 0.176047f, 0.057340f, -0.222825f, 0.097911f, 0.201452f, 0.011985f, -0.071045f, -0.185090f, 0.124257f, 0.187679f, -0.194872f, 0.126254f, -0.235426f, 0.227684f, 0.056091f, 0.025573f, -0.099468f, 0.209270f, -0.114113f, 0.159951f, 0.236473f, 0.138136f, 0.009255f, -0.211513f, -0.013445f, -0.030098f, -0.144885f, -0.037248f, -0.069331f, -0.163945f, -0.028590f, -0.115635f, 0.010762f, -0.226594f, 0.198010f, 0.154216f, 0.003285f, 0.171416f, 0.209997f, -0.298189f, 0.070572f, 0.292825f, 0.250382f, 0.010650f, -0.182823f, 0.006465f, -0.234624f, -0.100043f, 0.224532f, -0.050592f, 0.024768f, -0.118648f, 0.223495f, 0.086067f, -0.083496f, 0.117527f, -0.132081f, -0.070619f, -0.140003f, 0.091686f, -0.202444f, -0.043051f, -0.097121f, 0.047663f, -0.050090f, 0.047729f, -0.236562f, 0.063305f, -0.152418f, -0.077514f, 0.149485f, 0.241369f, -0.062041f, 0.033534f, -0.201059f, 0.000131f, 0.089773f, -0.175334f, -0.043039f, 0.229856f, -0.179693f, -0.214427f, 0.019320f, -0.037856f, 0.135345f, 0.206761f, -0.102911f, -0.075915f, 0.040182f, 0.072446f, 0.211042f, 0.073720f, -1.262072f, -1.013103f, -0.689703f, 0.182492f, -1.818935f, 1.040762f, -0.014507f, -0.561393f, 0.155018f, -0.712223f, -0.046389f, 0.747462f, -0.325861f, -0.046552f, -0.939221f, 0.123554f, 0.015838f, 0.592861f, -1.071196f, 1.143684f, 1.507908f, -1.499284f, -1.695294f, 0.441684f, -1.780442f, 0.915280f, 0.322715f, 0.902693f, 0.155669f, 0.126593f, -0.104150f, -0.119290f, -0.945606f, 1.147239f, 1.300978f, -0.638587f, -0.858210f, 2.134622f, -0.149865f, -0.014871f, 2.161236f, -1.290808f, -0.880168f, 1.113118f, 0.587385f, 1.014834f, 0.300915f, -0.292151f, -0.457743f, -0.647472f, -0.009554f, 0.913051f, -0.645203f, -0.633767f, -1.460226f, -0.525198f, -0.035480f, 0.147153f, -0.077744f, -0.662351f, 0.395396f, -0.618784f, 0.184138f, -0.172930f, 0.195355f, 0.340941f, 0.395794f, 0.183489f, 0.731856f, 0.325257f, 0.788236f, -0.842129f, 0.555090f, -0.244920f, -0.077698f, -0.699917f, 0.752328f, 0.379003f, -0.706702f, 0.433934f, 0.255956f, -0.731021f, 0.113547f, 0.885266f, 0.353350f, 0.066257f, -0.610490f, -0.621763f, 0.163674f, 0.145298f, 0.563926f, 0.570771f, 0.966158f, -0.351897f, -0.941770f, -0.122146f, -0.924030f, 0.310812f, -0.462977f, 0.110275f, -0.374543f, 0.153372f, -0.472682f, -0.175043f, 0.441079f, 0.422233f, -0.233092f, -0.074254f, 0.637216f, 0.874304f, 0.436061f, -0.079728f, -0.218989f, -0.096332f, -0.130639f, 0.201444f, 0.207648f, 0.003285f, -0.167430f, 0.108470f, 0.065765f, -0.209775f, 0.289976f, -0.203294f, 0.173036f, -0.069520f, -0.011439f, 0.168662f, 0.095215f, 0.272040f, 0.001266f, -0.258083f, 0.232984f, 0.079202f, 0.072373f, -0.167105f, -0.128348f, -0.133827f, 0.213798f, 0.134334f, 0.213403f, 0.189036f, 0.094799f, 0.304592f, 0.033146f, -0.173240f, -0.225026f, -0.062280f, 0.149233f, 0.184423f, 0.222607f, -0.224277f, -0.222951f, 0.167544f, -0.111505f, 0.102910f, 0.248645f, -0.039683f, 0.027632f, -0.046634f, 0.173940f, 0.003150f, -0.207424f, -0.138975f, -0.048130f, 0.022011f, 0.047015f, 0.228188f, 0.113663f, 0.210534f, -0.173261f, -0.339251f, -0.113291f, 0.877856f, 0.423988f, -0.131141f, -0.025690f, 0.023658f, 0.399832f, -0.414416f, -0.364630f, -0.007538f, 0.641934f, 0.007961f, 0.045230f, 0.434954f, -0.214915f, 0.312125f, 0.219230f, -0.024944f, 0.102770f, 0.526550f, 0.117158f, 0.091384f, 0.965160f, 0.237435f, 0.224845f, -0.674502f, -0.343720f, 0.473982f, -0.046750f, 0.276171f, -0.703947f, 0.073248f, 0.623748f, -0.253017f, 1.137124f, -0.419399f, 0.010784f, 0.330745f, -0.062818f, 0.431947f, -0.471654f, -0.119247f, -0.779356f, 0.033329f, 0.563240f, 0.326859f, 0.132853f, 0.053333f, 0.854270f, 0.070795f, -0.212547f, 0.027567f, -0.524550f, 0.302202f, 0.164298f, 0.668239f, 1.024780f, 0.941489f, -0.345368f, -0.229450f, 1.108288f, 0.242889f, 0.219139f, 1.442834f, 0.510268f, -0.082526f, -1.527239f, 0.707001f, -0.984600f, -0.466952f, -0.027572f, -0.324060f, -1.092882f, -0.111071f, 0.454009f, -1.147798f, 0.715504f, 1.189337f, -0.787842f, 0.387523f, 0.060151f, 0.736446f, 0.179455f, 0.721056f, 1.258020f, -0.139671f, -0.135410f, -1.287692f, -0.527060f, -0.007611f, 1.772307f, -0.717526f, -0.028363f, 0.546866f, 0.880588f, -0.562295f, -0.430145f, 0.224529f, 0.615767f, -0.520808f, -0.269999f, 0.554971f, 0.931205f, 0.551466f, -0.774705f, 0.212550f, 0.174312f, -0.290856f, -0.447687f, 0.038358f, -0.606821f, 1.135795f, 0.227926f, 0.453679f, -0.360202f, -0.697490f, -0.092697f, 0.687779f, -0.195642f, -1.313104f, -0.465044f, 1.675621f, 0.672761f, 2.031716f, 0.831173f, 3.840353f, -0.827268f, -0.566407f, 0.741675f, -2.219621f, -1.789246f, 0.529410f, -1.978526f, 0.722909f, -0.555970f, 2.701365f, 0.484428f, 1.444791f, -1.197695f, 1.222376f, 0.989522f, 2.296861f, -1.829793f, 0.810313f, 0.950619f, -3.174021f, 2.510729f, -1.466020f, -2.784288f, -0.672953f, -0.983025f, 0.439002f, -1.312935f, 1.133588f, -1.295459f, -0.578981f, 2.419510f, 0.687136f, 0.273235f, -0.054044f, -0.618656f, 0.247727f, -0.748051f, -1.045838f, -0.146714f, 0.449770f, -0.533933f, 0.929213f, -1.169201f, 0.058535f, 1.189858f, 1.132235f, 0.613661f, -0.486957f, 0.759310f, 0.621753f, -0.025817f, -0.045355f, -1.003075f, 0.323141f, -1.743101f, -0.437252f, -0.206083f, 1.861187f, 0.108939f, 0.525851f, 0.101172f, -0.701891f, 1.863542f, 0.349565f, 0.373574f, -0.401852f, -0.243312f, -1.517197f, -0.788554f, -1.499217f, -1.120174f, -0.761920f, 1.164488f, -0.169138f, -0.890490f, 0.952680f, 0.054517f, 1.170809f, 0.020213f, -0.845649f, -0.946855f, -0.168869f, -0.212648f, -0.344557f, 1.961336f, 0.630387f, -1.347030f, -1.016557f, 0.784942f, 0.644716f, -1.123977f, -0.853585f, 0.235795f, -0.223451f, -0.098409f, -0.184408f, -0.101288f, -0.559634f, -0.058798f, 0.798402f, 0.286883f, -0.242104f, -0.191847f, -0.130762f, 0.288803f, 0.619505f, 0.106735f, 0.214094f, 0.305173f, 0.341916f, 0.334672f, 0.317644f, -0.082458f, -0.471034f, 0.493111f, -0.344842f, -0.034634f, 0.512197f, -0.632812f, 0.003440f, 0.384586f, 0.245014f, 0.020288f, -0.439538f, 0.019352f, 0.087836f, 0.169283f, 0.210847f, -0.203954f, 0.329028f, 0.207562f, -0.288126f, -0.195979f, -0.307242f, 0.031714f, 0.132416f, -0.103747f, 0.502156f, 0.028926f, 0.009669f, -0.045932f, 0.176271f, 0.533815f, -0.263990f, -0.365804f, -0.385747f, 0.548518f, 0.042585f, -0.360339f, 0.079215f, -0.750258f, 0.466251f, 1.466306f, -0.547315f, 1.481034f, 1.234489f, -0.819809f, 0.512701f, 0.626900f, -0.085330f, -0.998349f, 2.270787f, 0.698498f, -0.734395f, -0.915995f, -2.812278f, -0.276721f, -2.244771f, 0.775608f, 1.007067f, 0.241725f, 1.580619f, 0.199526f, -2.543486f, 3.237325f, -0.359168f, -1.101136f, -1.187941f, 0.588388f, -0.064667f, 2.603493f, -0.419158f, 1.235936f, -1.568019f, 1.095722f, -1.428424f, -0.035869f, 1.072917f, 1.009552f, -0.679755f, -0.093099f, 1.409522f, -0.892641f, -1.017635f, -0.189258f, -0.161971f, 1.224225f, -1.071924f, -1.731523f, 1.598733f, 1.044252f, 0.761123f, -0.227794f, 0.028066f, -0.290060f, -0.124462f, 0.167679f, 0.113718f, 1.898969f, -1.655176f, 0.179471f, -1.604055f, -1.576123f, -0.934466f, 0.208175f, -0.141632f, -0.200280f, -0.487919f, -0.079928f, -0.253023f, -0.675497f, -0.671578f, 0.882171f, -1.268194f, 0.019957f, -0.811558f, 0.115968f, -0.514526f, 1.030162f, 0.871202f, -0.443595f, -0.570289f, -0.321850f, -0.755471f, 0.619777f, 1.157291f, -0.297373f, -1.213923f, 0.079859f, 0.000777f, 0.737754f, -0.563028f, -0.490046f, 2.017820f, -1.472568f, 0.895444f, 2.342555f, 1.629209f, 0.530925f, 0.086083f, 0.349205f, 0.370045f, -0.311340f, -0.157864f, -0.342860f, 0.496889f, 0.044955f, 0.207381f, 1.218747f, 0.233499f, 0.899183f, -0.334413f, -0.010151f, 0.281675f, -0.507205f, -0.965227f, 0.161454f, 0.327839f, -0.031154f, -0.391815f, 0.119381f, 0.227600f, 0.114215f, -0.270665f, -0.175721f, 0.102100f, -0.478363f, -0.367780f, 0.244328f, -0.477531f, -0.292165f, -0.323678f, 0.153911f, 0.184867f, -0.200006f, -0.017331f, -0.405897f, 0.170412f, 0.376897f, 0.021560f, 0.167005f, 0.241768f, 0.159318f, 0.372095f, 0.036244f, 0.158835f, 0.066297f, 0.093381f, 0.011475f, 0.457683f, -0.259394f, -0.426689f, -0.597321f, -0.281172f, -1.065866f, 0.316415f, 0.333756f, 0.043083f, -0.005142f, -0.286450f, -0.407773f, -0.247997f, -0.286931f, -0.300908f, 0.376103f, -0.117562f, 0.112048f, 0.159489f, -0.190374f, -0.058736f, -0.138183f, 0.630562f, 0.099102f, 0.013326f, 0.360321f, -0.108126f, -0.267141f, 0.286697f, -0.040586f, -0.483283f, -0.451061f, -0.338965f, -0.125951f, -0.075457f, -0.134614f, 0.655513f, 0.141095f, 0.450693f, 0.476730f, 0.248317f, 0.144060f, 0.337164f, 0.174509f, -0.174660f, -0.382462f, 0.211737f, -0.033951f, 0.115237f, 0.024900f, 0.057887f, 0.202176f, 0.212284f, 0.084753f, -0.087732f, -0.195747f, 1.378999f, 0.520296f, -0.157378f, 1.539662f, 0.694108f, 0.297126f, -0.439625f, 0.050396f, -0.138712f, 0.237272f, 0.054379f, 0.589092f, -0.184178f, -0.325644f, 0.524757f, 0.120566f, -0.101189f, -0.030341f, 0.168023f, -0.259179f, -0.675378f, -1.136616f, 0.875051f, -1.419592f, 1.045283f, 1.326994f, 0.518792f, 0.693712f, -0.186850f, 1.451418f, 0.571099f, 1.142026f, -0.616584f, 0.673839f, 1.433203f, -0.804146f, 0.637532f, -1.163056f, -0.716649f, 0.673639f, -0.560178f, -0.456590f, 1.986196f, -2.790647f, 0.587005f, 0.854008f, 1.141637f, -1.425389f, -0.121510f, -1.221463f, 1.698169f, -0.533229f, 0.603817f, 0.141202f, -0.094710f, 0.232006f, -0.404912f, -0.807072f, -0.206594f, 0.813303f, -1.604990f, 1.892772f, 1.352903f, 0.224169f, 0.332506f, -2.153314f, 0.359102f, 0.992183f, -0.600923f, -1.232798f, -0.227693f, 0.372182f, -0.050816f, -1.219426f, 0.220164f, -1.288600f, -0.099700f, 0.113359f, 0.148167f, -0.319175f, 1.626707f, -0.024567f, -0.611226f, 1.385939f, -0.217384f, 0.670783f, 1.859804f, 0.386756f, 0.138172f, -1.101111f, 0.058832f, -0.461523f, 0.639321f, -1.375555f, 0.205200f, 1.647821f, -0.811325f, -1.898884f, 0.937789f, -0.478277f, 1.185525f, -0.127337f, 1.089749f, 0.418623f, 0.790664f, -0.774924f, 0.377453f, 0.206523f, 1.376331f, 1.045903f, -1.457716f, 0.061741f, 2.116540f, 1.256685f, -0.653861f, 1.590407f, 0.206517f, -0.720536f, 0.381926f, -0.789618f, 1.515511f, -0.724361f, -0.549032f, 0.342861f, 0.332756f, 0.241272f, 1.700083f, -0.244363f, -0.039037f, -0.911651f, -0.776965f, -0.341599f, 0.171473f, -0.258011f, -0.139058f, -0.323160f, 0.279915f, 0.363917f, -0.122883f, 0.287206f, -0.071039f, 0.271470f, 0.013466f, -0.044070f, 0.016344f, -0.469886f, -0.276064f, -0.382404f, 0.059331f, 0.041455f, -0.402753f, 0.375579f, -0.411903f, -0.132452f, 0.068715f, 0.145968f, -0.105617f, 0.069177f, 0.349282f, 0.210914f, -0.231802f, -0.255962f, 0.358289f, -0.045470f, -0.126391f, 0.207254f, 0.065746f, -0.120107f, -0.213373f, 0.066200f, -0.365855f, -0.133555f, -0.177577f, -0.344189f, 0.247029f, 0.101736f, 0.030258f, 0.019939f, -0.427681f, -0.360189f, -0.013782f, 0.145904f, -0.195448f, 0.335982f, -0.119952f, -0.281479f, -0.232882f, -0.397602f, 0.170572f, 1.654887f, 0.916007f, 0.239770f, -0.368396f, -1.032899f, 0.105534f, 2.041321f, 0.203729f, -0.642270f, 2.046308f, -0.311945f, -0.522183f, -1.397211f, 0.673943f, -1.224552f, -1.336147f, 0.717445f, 0.660278f, 0.935825f, 0.670704f, 0.263055f, 1.189181f, 2.726483f, 0.850596f, -2.207785f, -1.907475f, -0.348587f, 0.203876f, 0.257435f, -2.591207f, 1.292907f, -0.654249f, 0.769008f, -2.629284f, -0.353687f, 0.827926f, 1.126885f, -0.616628f, 0.378836f, 1.769610f, 1.382984f, -0.306329f, -0.315319f, 0.973499f, -1.194140f, -0.419455f, -0.554174f, -0.431481f, 2.910091f, 1.156041f, -3.232529f, -1.607315f, 0.793982f, -0.751153f, -0.551122f, -0.213740f, -1.182018f, -0.362436f, -1.084193f, 1.160620f, 0.923639f, -0.340266f, -0.161038f, -0.269027f, 0.814733f, -0.197968f, 0.371417f, 0.573572f, 0.219145f, -0.161400f, 0.627485f, 1.041592f, -1.089944f, -0.024074f, 0.666016f, -1.465727f, -1.634283f, -1.014853f, -2.056272f, -0.019056f, 1.463362f, 2.562154f, 0.228591f, 0.304151f, -0.352909f, 1.652084f, -0.193553f, 1.425252f, 0.402892f, 0.627640f, 0.227077f, 0.393585f, -0.046847f, -0.389749f, 0.730814f, -0.566635f, -0.763126f, 0.578641f, -0.525341f, 0.351065f, 0.548408f, -0.042749f, 0.413102f, 0.519915f, -2.020526f, -0.135218f, 2.322000f, 0.638389f, -1.273539f, 0.355794f, -0.390500f, -0.329490f, -1.397325f, -0.190551f, -0.091104f, 1.101781f, 0.706328f, -0.329207f, -0.053128f, -0.418309f, 0.524682f, 0.057676f, 0.691999f, 0.254527f, 0.002913f, -0.456957f, 0.102940f, 0.627951f, -0.784779f, -0.553785f, 0.222350f, -0.287748f, -0.126902f, 0.623090f, -1.296211f, 0.205271f, 0.673106f, 1.083720f, 0.535615f, -0.243643f, -0.582330f, 1.144494f, -0.197519f, 0.417940f, 0.435058f, 0.830596f, 0.235119f, 0.449511f, 0.199916f, -0.563161f, 0.100945f, -0.962777f, -1.519688f, 0.568229f, 0.045407f, 0.434675f, -0.501661f, -0.406234f, 0.669484f, 0.074519f, -0.335693f, 0.382690f, 1.605161f, 0.617196f, -0.475864f, -0.222451f, 0.170121f, 0.064715f, 0.018951f, -0.187865f, 0.019519f, 0.064317f, 0.222161f, 0.041517f, 0.227528f, 0.224107f, 0.073302f, 0.002473f, -0.016533f, 0.190328f, -0.229943f, -0.188470f, -0.193689f, 0.125741f, -0.078171f, 0.067537f, 0.050671f, -0.055472f, 0.015596f, 0.071145f, 0.215255f, 0.036895f, 0.055476f, -0.210998f, 0.220433f, 0.013755f, 0.146858f, -0.219236f, -0.038632f, -0.118522f, -0.113940f, 0.142275f, 0.060281f, -0.027966f, -0.238439f, 0.227652f, 0.226323f, -0.137788f, -0.223598f, 0.014315f, 0.220243f, 0.199979f, 0.041139f, -0.095769f, -0.082919f, 0.193990f, -0.004110f, -0.179338f, -0.122963f, -0.108996f, -0.183410f, -0.018110f, 0.190589f, 0.059835f, -0.271074f, -0.338894f, -0.073539f, 0.024061f, 0.219627f, 0.203461f, -0.079595f, 0.038633f, 0.285354f, 0.139684f, 0.062290f, -0.148489f, -0.101261f, 0.222725f, -0.121649f, 0.199262f, 0.065660f, -0.149547f, 0.155787f, -0.026726f, 0.068153f, 0.059150f, -0.287749f, 0.179534f, 0.066277f, 0.244453f, -0.065768f, -0.278792f, -0.104102f, 0.107447f, 0.183928f, -0.085624f, -0.127087f, 0.051060f, -0.034508f, -0.020456f, 0.111511f, 0.162811f, -0.009923f, 0.080535f, 0.091565f, 0.128440f, -0.084340f, 0.084204f, -0.048385f, 0.187031f, -0.157744f, 0.192114f, -0.033357f, -0.248974f, 0.018634f, 0.129782f, -0.098302f, 0.244345f, -0.037736f, -0.084348f, 0.156779f, 0.023118f, 0.089192f, 0.149028f, 0.083585f, -0.038010f, -0.182803f, 0.039123f, 0.193896f, -0.039303f, 0.200494f, 0.001743f, 0.058688f, 0.162116f, 0.031649f, -0.199591f, 0.234489f, -0.123983f, 0.102555f, 0.002387f, -0.010412f, -0.124962f, 0.108148f, -0.189016f, 0.239360f, 0.168675f, 0.016900f, -0.036888f, -0.104065f, 0.000755f, 0.184981f, -0.109660f, 0.000532f, -0.129664f, -0.079386f, -0.151176f, 0.238986f, 0.034893f, 0.113409f, -0.195817f, -0.065289f, 0.191660f, -0.202600f, -0.162934f, 0.061256f, 0.059682f, 0.164632f, 0.212528f, -0.174355f, -0.117395f, -0.035117f, -0.243192f, -0.209766f, -0.133232f, -0.009247f, -0.121158f, 0.183537f, -0.086592f, 0.206992f, 0.231905f, -0.024389f, -0.133038f, -0.101578f, 0.133760f, -0.110391f, -0.057557f, -0.009050f, 0.036655f, 0.241123f, -0.131188f, -0.071005f, -0.115757f, -0.067723f, -0.194694f, -0.067651f, 0.188818f, -0.098208f, -0.062435f, 0.216614f, 0.110948f, 0.009552f, 0.135299f, -0.183618f, -0.017747f, -0.186140f, -0.129782f, -0.174706f, -0.067013f, -0.057802f, 0.218034f, -0.114949f, -0.013847f, 0.151703f, 0.154385f, 0.121718f, -0.103468f, -0.005365f, -0.152922f, -0.151206f, -0.030941f, 0.117329f, 0.012287f, 0.187693f, 0.161286f, -0.228323f, 0.032399f, 0.053836f, 0.224996f, -0.232481f, 0.015182f, -0.939346f, -2.004138f, -0.012635f, 0.342456f, -1.538130f, -0.479041f, -0.870603f, -1.854135f, 0.203506f, 0.303298f, -0.240187f, 0.910094f, -0.179753f, 2.017192f, -0.839766f, 0.708485f, -0.233998f, 0.683292f, -1.859460f, 0.375771f, -0.115965f, -1.470799f, -1.269965f, -0.264394f, 1.672827f, 0.791637f, -1.258715f, 2.102215f, 1.029602f, 0.455856f, -0.729652f, -0.643488f, -1.205093f, 0.502330f, 1.537733f, -0.743286f, -0.770129f, 2.226092f, 0.836100f, -0.274439f, 1.618295f, -1.201109f, 0.321219f, -1.006768f, 0.095431f, 0.880440f, -0.914359f, -1.239346f, -0.388964f, -1.769143f, -0.326373f, 1.801980f, -1.281700f, -0.751194f, -0.451432f, -0.424287f, -0.479786f, 1.614988f, -0.605102f, -0.055334f, 1.012591f, 2.097550f, 1.294854f, 1.067502f, 1.477106f, -0.471408f, 0.622549f, 1.219505f, 0.285626f, -1.799080f, -0.480370f, -0.571130f, -0.622265f, -0.003843f, 0.403451f, 0.033373f, 1.295008f, 0.346979f, -0.090370f, 0.917786f, -2.091653f, 0.527681f, 1.396649f, -0.450601f, -0.391838f, -0.220226f, -0.061003f, 1.028843f, 1.710821f, 0.719668f, -0.354782f, -0.351691f, 0.560826f, -0.539529f, 0.859971f, -0.720552f, -0.102151f, 1.089901f, -1.217945f, 1.727416f, -0.805550f, 0.562298f, 0.341624f, 0.375674f, 0.526385f, 2.152649f, 0.998571f, -0.217442f, 1.360926f, 0.597218f, -0.655236f, -0.235384f };
static const float X60_MLP_L56_layer_1_biases[10] = { 3.703015f, 0.242445f, 0.886180f, -0.234185f, 0.174341f, 0.131827f, -0.084237f, -0.971187f, -1.627087f, -1.791278f };
static const float X60_MLP_L56_layer_1_weights[560] = { -1.235004f, 1.514098f, 0.219944f, 0.417248f, -0.821458f, -1.072123f, -0.145679f, 0.397789f, 0.352954f, 0.981402f, -0.707102f, -0.881689f, 0.431158f, -1.564790f, 0.798322f, 0.677210f, -0.283947f, 0.745529f, 0.290747f, -0.349349f, -2.073091f, 0.326127f, 1.263475f, 2.659561f, 1.166220f, -0.393061f, 1.057912f, -0.788478f, -1.279416f, -1.902631f, -2.551629f, -0.530983f, 0.315560f, -0.531584f, 1.667476f, 1.639220f, 0.343117f, 0.413726f, 0.164046f, -0.025030f, 2.699653f, -0.257501f, -0.374208f, -0.320465f, -1.520876f, -0.061141f, 0.751094f, 0.165767f, -0.488083f, -0.088672f, 0.675570f, 1.340072f, -0.132474f, -2.437835f, -0.098091f, -0.098919f, -0.133838f, 0.613446f, 0.266703f, 0.721199f, 1.236851f, 0.215700f, -1.343469f, -0.305292f, 1.427779f, -0.340861f, -1.034459f, 0.351998f, 0.247766f, -0.515739f, -1.149890f, 0.173700f, 0.814472f, 0.008718f, 0.912985f, -0.092564f, -0.598272f, -0.673157f, 0.046841f, 0.413959f, -0.940870f, -2.487314f, 1.745852f, -0.628845f, 0.079413f, 0.700585f, 0.378749f, -0.000858f, 0.557000f, 0.423826f, -1.408043f, 0.927552f, -0.128179f, -0.916491f, -0.376634f, 0.079240f, -0.101451f, 0.207054f, 1.397814f, 1.259975f, 0.918788f, 1.149203f, -1.396306f, -1.514523f, 1.042347f, 0.531407f, -2.133372f, 0.245153f, 1.068511f, 1.017362f, 1.719608f, -1.750048f, 1.170823f, -2.552652f, 0.701967f, -2.438708f, 1.298249f, 0.141420f, 0.644956f, 0.788625f, 1.306206f, -0.252900f, -0.026504f, -0.092971f, 0.505349f, -0.598163f, 0.169016f, -0.573944f, 0.283953f, -0.460225f, 0.405389f, 0.439298f, -1.745786f, 2.458949f, -1.650723f, 0.667475f, -0.291957f, 0.117252f, -0.713545f, -0.228174f, -1.521900f, 1.640055f, 0.879112f, -1.007316f, -1.522813f, 3.401735f, -1.068721f, -0.058771f, -0.328230f, -0.375487f, -0.259528f, -0.000231f, -0.445252f, 1.897687f, -0.835159f, 0.951515f, 0.565783f, -0.679528f, -0.532685f, -0.636694f, -0.350598f, -0.998868f, -2.113833f, 1.219698f, -1.990600f, 2.355854f, -0.436072f, 0.919993f, 0.541619f, 0.126507f, -0.164012f, 1.106093f, -1.068659f, 0.198713f, -0.292953f, 1.013695f, -0.529342f, 0.018731f, -0.186021f, -0.239757f, -0.508519f, -2.110181f, 1.578235f, 2.283600f, -0.410405f, -1.579526f, 0.390755f, -0.739037f, 0.002921f, 0.465923f, -1.259250f, -1.358977f, 1.673277f, -0.952274f, 2.140115f, -1.019153f, -1.256353f, 0.543431f, 0.072020f, 0.481950f, 2.499385f, 0.944442f, -0.131762f, 0.184585f, 0.622350f, -3.742341f, 0.556280f, -0.140844f, -0.574225f, -0.438153f, 0.174445f, 0.151333f, 0.741780f, -0.464521f, 2.153822f, -1.329563f, 0.138448f, -0.340314f, -0.803845f, -0.330726f, -2.333323f, 0.928803f, 0.128674f, 1.221036f, 0.621724f, -0.651021f, 0.005474f, -0.204910f, -0.031115f, 0.205318f, 0.342441f, 0.913276f, -0.061063f, -2.719666f, 0.025041f, 0.688411f, 0.706496f, -0.232097f, -0.460731f, 0.980674f, -1.587247f, 0.863324f, 0.949622f, -2.493949f, 3.236243f, -0.096345f, 0.428926f, -0.332723f, -0.169847f, -1.138149f, 0.126042f, 1.361456f, -1.399146f, -0.811262f, 0.517214f, 0.533585f, 0.572698f, -1.043162f, -0.073300f, 0.304806f, 1.056474f, 0.194156f, -1.271018f, -1.090477f, 0.793187f, -1.285657f, 0.236151f, 0.803939f, 0.531410f, 0.373688f, 1.691893f, -0.253235f, -1.889349f, 2.271447f, 0.367696f, 0.214763f, -0.872316f, -0.286692f, -0.618878f, -0.719488f, 0.527988f, -0.394770f, -0.067426f, 1.263018f, -0.556433f, -0.200581f, -0.331540f, 0.088649f, 0.420221f, -0.093926f, -1.537355f, -0.632292f, 1.409705f, 0.719185f, -0.718088f, 2.635703f, 0.036392f, 0.199462f, -1.319255f, -0.795488f, -1.169656f, -0.902803f, -0.171276f, 1.680968f, -0.925727f, 0.601313f, -0.146789f, 0.376005f, -0.390979f, 0.752198f, 0.041472f, 0.684200f, -1.071908f, 0.993702f, -0.356459f, 1.392872f, -0.854238f, 0.441105f, -0.746189f, 0.455330f, -1.232029f, -2.035399f, 2.444657f, 0.596883f, -1.953481f, 0.651604f, 1.188271f, -0.107193f, 0.792784f, -0.329273f, 0.632494f, 1.193411f, -1.753645f, 2.697756f, -1.468572f, 1.026831f, -2.336019f, -0.073251f, -0.447993f, -0.392728f, -2.254000f, -1.437804f, 1.177342f, -0.380784f, 1.312383f, 1.899246f, 1.613317f, -0.501401f, 0.092944f, -0.864081f, 2.033691f, 1.632005f, -0.361886f, -2.326053f, -0.176413f, 0.836937f, -0.919535f, 0.006389f, -0.662206f, -0.170972f, 0.115508f, 1.628338f, 1.234044f, -0.055900f, 0.294499f, -0.789411f, -0.453730f, -0.708293f, -0.034870f, -0.491411f, -3.217231f, 4.358517f, 1.147951f, 0.926523f, -0.299221f, -1.288120f, -0.342186f, -0.382627f, -1.303678f, -0.345925f, -0.613137f, 0.391958f, 5.117008f, -1.462099f, -0.050675f, -3.889440f, 1.645810f, -0.462673f, -0.416106f, -0.489341f, -0.235875f, -2.574567f, 0.102912f, -0.248753f, 1.122543f, 0.367219f, -0.447797f, 0.949491f, 0.013822f, 0.410688f, -1.930269f, 3.717042f, -1.073248f, 0.282057f, -1.009604f, -0.480924f, -0.253817f, 0.493528f, -0.104971f, 0.551186f, -1.509974f, -1.633596f, 1.304970f, 1.503653f, -1.840093f, -0.063371f, 0.825692f, 0.384321f, 0.822687f, 0.094429f, -0.270684f, 1.225707f, -1.183351f, 0.373334f, -0.669620f, -0.035866f, -0.597078f, 0.645382f, 0.371211f, 0.766241f, 0.273903f, -0.308130f, -1.152370f, -1.977494f, -0.361895f, -0.927399f, 0.492129f, 0.740188f, 1.377575f, 0.969663f, 2.471110f, 0.931957f, -0.303808f, 1.073117f, -1.356711f, -0.237943f, -0.334233f, -0.247551f, -0.495585f, -0.342125f, 2.547790f, 1.165042f, -2.466409f, -0.059324f, -1.268830f, 0.317371f, -0.016278f, -0.088357f, -0.562625f, -0.067599f, -2.991615f, -1.668916f, 4.054516f, -2.098236f, 3.264874f, -2.129275f, 0.909809f, -0.352700f, 0.149992f, 0.304139f, -1.608939f, -0.015465f, 0.532959f, -1.556632f, 1.597740f, 1.010521f, -0.068055f, 0.363031f, 0.134993f, -0.338444f, -0.801898f, 2.327804f, -0.579207f, 0.303813f, -1.913415f, 0.985911f, 0.673332f, -0.164650f, 0.072317f, -0.581802f, -0.909739f, -1.582885f, 0.861786f, -0.147736f, -0.567065f, 1.406188f, -0.315100f, 0.033406f, 1.211219f, -0.006345f, -1.545743f, -1.561988f, 2.260556f, 0.681052f, -0.651335f, -1.244439f, 1.694450f, -0.752163f, 0.915425f, -0.270834f, -0.250422f, 1.600063f, 0.677844f, 0.123180f, 0.545735f, -1.654603f, 0.599443f, 0.325222f, -0.399204f, -0.656478f, 2.517308f, -0.341825f, 0.829397f, -2.031047f, -1.150689f, 0.806116f, 0.553943f, 0.189045f, -0.178651f, -0.960140f, 0.905418f, 1.368005f, -0.391784f, 0.912807f, -0.278683f, 0.254900f, -0.563882f, -0.461193f, -0.708610f, -1.077675f, -1.485030f, 0.446891f, 0.009140f, 0.944922f, -0.332092f, -1.511244f, 0.024377f, 0.229304f, 0.901055f, 0.664925f, -0.181393f, -0.751198f, -0.253663f, -0.935238f, -1.404582f, -0.440161f, 1.917237f, 0.274233f, 0.541097f, 0.647129f };
static float X60_MLP_L56_buf1[56];
static float X60_MLP_L56_buf2[56];
static const EmlNetLayer X60_MLP_L56_layers[2] = { 
{ 56, 45, X60_MLP_L56_layer_0_weights, X60_MLP_L56_layer_0_biases, EmlNetActivationTanh }, 
{ 10, 56, X60_MLP_L56_layer_1_weights, X60_MLP_L56_layer_1_biases, EmlNetActivationSoftmax } };
static EmlNet X60_MLP_L56 = { 2, X60_MLP_L56_layers, X60_MLP_L56_buf1, X60_MLP_L56_buf2, 56 };

    int32_t
    X60_MLP_L56_predict(const float *features, int32_t n_features)
    {
        return eml_net_predict(&X60_MLP_L56, features, n_features);
    }
    

    int32_t
    X60_MLP_L56_regress(const float *features, int32_t n_features, float *out, int32_t out_length)
    {
        return eml_net_regress(&X60_MLP_L56, features, n_features, out, out_length);
    }
    

    float
    X60_MLP_L56_regress1(const float *features, int32_t n_features)
    {
        return eml_net_regress1(&X60_MLP_L56, features, n_features);
    }
    