
#include "eml_net.h"
static const float X60_MLP_L16_layer_0_biases[16] = { -1.702425f, 0.490889f, -0.003579f, 1.609609f, -0.158564f, -1.082845f, 0.183508f, 2.033006f, 0.561196f, -0.666418f, 1.212021f, -1.350591f, -2.294235f, 0.158809f, -1.154767f, 1.308163f };
static const float X60_MLP_L16_layer_0_weights[720] = { -0.705353f, 0.099508f, 0.297850f, 1.542399f, -3.491297f, 0.037829f, -0.463555f, -1.313492f, -0.679035f, 2.497997f, -4.811905f, -0.853615f, -0.601023f, -1.552831f, -2.580131f, 4.298131f, -1.355712f, -1.375885f, 0.221474f, 2.227675f, 1.047249f, 0.138207f, -0.470444f, -0.040079f, 0.030132f, 0.207363f, -0.048782f, 1.589962f, -0.032900f, 0.276164f, 0.310938f, 2.770880f, -0.807124f, -0.849198f, 0.316795f, 0.258707f, 0.205292f, 0.791540f, 0.369155f, 1.872858f, 1.953589f, -1.729401f, 0.652888f, -1.158548f, -0.720137f, -0.218417f, -0.002453f, -0.471904f, 0.296860f, -0.724312f, 0.996355f, -0.421277f, 0.225168f, 0.200178f, 0.833762f, 1.536707f, 2.618707f, -3.148632f, 0.424165f, -0.307186f, -0.449918f, 0.339179f, 0.011013f, 0.185770f, -0.490206f, -1.251471f, 2.993741f, -0.613559f, 2.035592f, -0.151998f, 2.018385f, 1.701014f, -2.294758f, -2.129332f, 0.573857f, -0.947551f, -0.541347f, -1.176380f, 1.656800f, 0.523302f, -5.697672f, 2.373404f, 3.376401f, -0.512868f, 0.109952f, 0.835026f, -0.723199f, -1.926897f, 2.923271f, 1.779223f, 0.905431f, 1.978124f, -8.773521f, 0.302966f, 1.425685f, -0.265710f, -3.542553f, 0.331210f, 0.642658f, 5.118497f, -0.764402f, -0.264922f, 0.531588f, 0.942206f, -3.392647f, 0.253112f, -0.174301f, -1.162658f, 0.371272f, 4.737903f, -0.971049f, 2.560956f, -1.127941f, -1.026606f, 0.410305f, 1.682708f, 1.964928f, 0.319649f, 3.261875f, 2.179807f, -2.622634f, -2.365078f, -0.302967f, -0.962834f, 0.034506f, 1.558482f, -1.996373f, -4.157486f, 0.059177f, -0.090983f, 0.147833f, 0.004955f, -0.178562f, -0.127510f, 0.048340f, 0.018893f, 0.238922f, 0.092950f, -0.073402f, 0.015485f, 0.226527f, -0.037554f, 0.097548f, 0.206429f, 0.129611f, 0.179080f, -0.237362f, 0.309363f, 0.184646f, 0.335813f, -0.259200f, 0.235494f, -0.150414f, 0.068622f, -0.234959f, 0.280124f, 0.205708f, -0.059333f, 0.066120f, -0.310497f, 0.664592f, -4.551204f, 1.123125f, -0.712953f, 6.133584f, -0.076173f, 0.014975f, 2.214472f, -0.031853f, 2.257777f, 1.493757f, 1.540291f, -0.119421f, 0.388743f, 2.617922f, -3.147165f, -0.801971f, 1.328444f, 2.035409f, -3.285926f, -0.153013f, -0.045776f, 0.948617f, -3.155930f, -0.273119f, 1.028808f, -0.180687f, -0.485357f, -2.163859f, 0.818387f, -1.196432f, -0.724542f, -0.869092f, 0.624528f, 0.335330f, 0.182044f, -0.368706f, -0.172373f, -0.628915f, 0.332358f, -0.237638f, 0.042476f, 0.603459f, 0.002082f, -0.259090f, -0.301317f, -0.591634f, -0.038678f, -2.952161f, -0.707565f, 4.311887f, 2.502119f, -0.433250f, -0.020385f, -2.578026f, 1.504555f, -0.834139f, 0.188819f, -0.128567f, -1.353991f, -0.881191f, -0.650342f, -0.790507f, 12.081434f, -0.396026f, -1.359160f, 0.548900f, 2.706865f, 0.460581f, 0.350069f, -1.583617f, -4.739754f, -2.771494f, -0.204042f, 1.550465f, 1.032496f, -0.215220f, 0.529714f, 2.036321f, 1.684116f, -0.045153f, -0.100850f, -0.050190f, -0.111986f, -0.210917f, -0.075447f, -0.014569f, -0.176033f, -0.339100f, -0.019285f, 0.180694f, 0.260098f, -0.456305f, 0.154383f, 0.201393f, -0.558501f, 0.026891f, 0.054544f, 0.291148f, -0.113955f, -0.162590f, -0.249977f, -0.292137f, 0.274982f, 0.100778f, 0.175324f, -0.107555f, 0.054366f, -0.278085f, 0.010762f, 0.294765f, 0.208912f, -1.818128f, -0.092089f, 0.270100f, 1.441061f, -0.634224f, -1.004324f, -0.667865f, 1.194838f, 0.385310f, 0.165044f, 0.626588f, -1.381384f, -0.710775f, -1.094815f, 0.380657f, 2.854541f, 0.141827f, 0.563064f, -0.167195f, -0.226983f, 1.397015f, -0.313096f, 0.865293f, 0.565586f, -0.241068f, -0.282243f, 0.646838f, 0.108377f, -0.692846f, 1.343562f, -1.270251f, -1.581461f, -0.058165f, -0.167951f, -0.230540f, -0.279863f, 0.141472f, -0.306459f, 0.169714f, -0.221447f, -0.264146f, -0.257840f, 0.107938f, -0.159749f, -0.049842f, 0.035974f, 0.226095f, 0.142419f, -0.151581f, -0.242818f, -0.280921f, -0.058503f, -0.177277f, -0.027625f, 0.114726f, 0.123253f, -0.141015f, -0.077760f, -0.192131f, 0.180705f, -0.297351f, 0.116620f, 0.166379f, 0.143217f, -2.157147f, -0.142879f, 0.219358f, 1.416240f, -1.539911f, -1.389772f, -0.916928f, 0.736779f, 0.563492f, -0.577887f, 1.300949f, -1.222354f, -1.335086f, -0.700246f, -0.068454f, 2.794045f, 0.327749f, -0.086044f, -0.148688f, -0.559950f, 0.100232f, -0.352234f, 0.645783f, 0.608614f, -0.449573f, -0.546461f, 0.035558f, 0.099679f, -0.124058f, 0.331716f, -0.840784f, -0.971330f, 0.210878f, 0.121842f, 0.118144f, -0.076321f, 0.104276f, 0.065161f, -0.176183f, -0.206202f, 0.090691f, 0.216192f, 0.117024f, 0.039451f, 0.172554f, -0.037896f, 0.230503f, 0.052566f, -0.346798f, 0.429046f, 0.222151f, -0.043327f, 0.947090f, -0.096262f, -0.038322f, 0.001903f, -0.864143f, -0.086109f, 0.092466f, 0.318410f, -0.177975f, -0.085360f, -0.397807f, -0.265663f, 0.303586f, 0.473001f, 0.030544f, 0.553671f, 0.550303f, 0.022995f, -0.089075f, 0.158646f, 1.156238f, 0.614925f, -0.918179f, -0.356143f, -0.593924f, 0.790475f, -0.038626f, -1.074966f, 2.180335f, -0.100685f, -0.120068f, -2.537562f, 1.543098f, -0.772806f, 0.286333f, 1.352776f, -1.716162f, -2.148994f, -0.621586f, -2.353148f, -0.941904f, -2.288096f, -3.720905f, -2.010256f, -0.839331f, 1.688404f, 1.984839f, 1.419839f, -2.841977f, -0.097986f, -0.671546f, -0.695255f, 1.634956f, -1.028174f, -0.375850f, -0.202325f, -0.680185f, 3.650158f, 0.538278f, 0.285468f, 0.168665f, 0.288005f, -0.147199f, 0.491402f, -0.221180f, -0.261911f, 0.279426f, -0.155537f, -0.417837f, -0.528016f, 1.805036f, 0.207426f, -0.337893f, -0.086868f, -0.266518f, 0.180547f, -1.497950f, -0.551472f, -0.667745f, 0.325267f, 1.836094f, 0.338388f, -1.654651f, -1.761430f, 3.433816f, 2.777725f, 0.269884f, 1.016295f, 0.430672f, 2.364835f, 4.124153f, 0.602510f, -1.185400f, -1.128837f, -0.031119f, -0.384250f, 2.502106f, -0.442741f, 1.817376f, 1.179530f, 0.806427f, 1.541767f, -0.543322f, -0.223422f, 0.986463f, -0.047912f, -1.062277f, 1.504579f, -0.525943f, -1.044356f, 0.630187f, 0.616945f, -0.605563f, -0.081076f, 0.625400f, 2.584657f, -1.409692f, 0.726458f, 1.072734f, -0.294696f, -0.537951f, -0.842157f, -0.221916f, 0.187215f, -0.377624f, 0.138920f, 0.112315f, -0.880870f, 0.183593f, -0.104064f, 0.202426f, 0.298787f, 0.070427f, -0.185002f, -0.081935f, 0.123837f, -0.514644f, -0.082449f, -0.023496f, 0.978007f, -0.447639f, 0.641685f, -2.456550f, 2.508564f, -2.558617f, -0.387888f, -0.593395f, -0.828616f, -1.535951f, -1.302143f, 0.579992f, 0.480523f, -1.147934f, -2.448625f, -0.386130f, 0.080543f, -1.268404f, 0.039904f, 0.365159f, 1.358369f, -0.035659f, -0.843979f, 0.450571f, 1.243621f, 0.593347f, 0.024376f, 0.431863f, -1.402706f, -1.764762f, -0.096965f, -0.422122f, 1.800928f, -0.226668f, -0.349937f, 0.351414f, 0.432999f, -0.047660f, -0.315428f, -0.178347f, 0.496584f, -0.024216f, -0.299581f, 1.164459f, -0.417990f, -0.819501f, 0.279942f, -0.369174f, -0.489472f, -1.168145f, 0.351066f, 0.677998f, -0.456857f, 1.927365f, -0.214306f, 0.743972f, -0.624346f, 3.649618f, -0.469973f, -4.337496f, -0.246273f, -0.261608f, 4.721687f, 0.620953f, 0.531959f, -0.452759f, 0.280221f, -0.223582f, 0.962088f, -0.988061f, -0.778397f, -0.285534f, 1.891511f, -1.910026f, -0.365720f, 2.174044f, -0.872175f, -1.286521f, -2.239071f, -1.340487f, 0.417410f, -0.333783f, -0.230462f, -0.346098f, 1.322658f, -1.034923f, -0.474733f, -0.761346f, 0.397171f, -1.364728f, 0.087381f, 3.135268f, -0.391417f, -0.961804f, -1.793212f, -0.331440f, 0.525792f, 0.297904f, 0.244214f, 0.165956f, 0.124119f, -0.103188f, -0.221008f, -0.274335f, -0.162010f, -0.042521f, 0.014161f, 0.170731f, 0.287724f, -0.240545f, -0.246522f, 0.056275f, 0.154898f, -0.019013f, 0.278375f, 0.307910f, -0.031552f, -0.104935f, -0.223671f, 0.114785f, 0.101862f, 0.130835f, -0.312494f, 0.330562f, 0.042459f, -0.296157f, -0.215113f, 0.148007f, -0.272521f, -0.018612f, -0.241038f, -0.026907f, 0.301222f, -0.047855f, 0.224007f, -0.240037f, -0.143356f, -0.060401f, -0.062820f, 0.107749f, -0.097400f, 0.134061f, 0.087301f, -0.063280f, -0.042810f, 0.071879f, -0.269718f, 0.201724f, 0.096458f, 0.141833f, 0.023160f, -0.244333f, -0.059556f, -0.060081f, -0.112296f, -0.294750f, 0.148814f, -0.244938f, 0.066613f, 0.127421f, 0.084531f, 0.137569f, 0.358793f, 0.415909f, 0.236904f, -1.097992f, -2.108554f, -0.472737f, -0.658231f, 1.981027f, -1.423931f, -1.110735f, -0.193759f, -0.566529f, -0.402967f, -2.757367f, 1.275752f, -1.646671f, -0.640498f, -0.045301f, 0.525371f, 0.786256f, 0.954545f, 0.341026f, 2.334697f, -1.507983f, 0.573401f, 1.783755f, -1.044317f, -1.630284f, 0.563206f, 1.325194f, -0.169509f };
static const float X60_MLP_L16_layer_1_biases[10] = { 3.384612f, 2.272421f, -1.566852f, -1.473006f, -0.226322f, 0.566575f, 0.347167f, -1.632905f, -0.724848f, -0.430827f };
static const float X60_MLP_L16_layer_1_weights[160] = { -1.316737f, 2.154289f, 0.736419f, -3.402117f, -0.909857f, 4.921682f, -1.462345f, -0.981284f, -0.979499f, -0.707875f, 0.349548f, 0.042452f, -0.180769f, 1.646160f, 0.984875f, -3.528148f, 2.872100f, -0.923004f, 0.635340f, -0.436617f, -1.423257f, -2.429019f, -2.003122f, 0.889551f, 1.924208f, -1.771129f, 1.753467f, 1.040112f, 1.002884f, 0.884579f, -0.027274f, -1.517129f, 3.420848f, -0.721460f, 1.382386f, 0.785997f, 0.459713f, -3.337167f, 0.328503f, -0.153207f, -1.888391f, -1.449585f, 2.438746f, 1.726450f, -4.124291f, 1.998346f, 1.236123f, 0.731061f, 0.165523f, -0.781023f, -0.096554f, -1.244203f, 2.246838f, -1.061182f, -0.865661f, -0.891185f, 1.128323f, -0.021180f, 0.014609f, 0.164751f, 0.050187f, -0.192053f, -0.528523f, -2.249507f, -1.632548f, 2.313481f, -1.496951f, 1.990997f, 1.148564f, -0.026633f, -0.064159f, -2.137972f, 0.636409f, 2.026924f, -1.849562f, 0.976201f, -0.703024f, 0.561710f, 0.130372f, 0.846515f, -0.853140f, -0.492196f, 2.531350f, 0.267393f, 2.262827f, -4.354631f, 1.484736f, -1.071212f, -1.411772f, 0.652842f, 0.972251f, -1.421359f, 3.702898f, -0.620951f, -2.427496f, 0.190226f, -0.913255f, -0.492002f, 0.238732f, 1.168543f, 2.980705f, 0.783381f, -0.680829f, -1.022146f, -0.180316f, -1.417799f, -1.773132f, 0.970214f, 0.707798f, -0.518532f, -0.513384f, -1.586015f, -1.019301f, 1.919905f, 0.663085f, -0.774538f, 0.221583f, 0.579600f, 0.756677f, 0.701415f, -5.440315f, 1.015009f, -0.952420f, 1.402538f, -0.579360f, 4.846543f, -0.988239f, 0.403354f, -0.098818f, 0.589756f, -1.781855f, -1.621285f, 3.373566f, 1.289470f, 3.831930f, -3.717718f, 1.314678f, -2.151772f, 0.620361f, -1.659852f, -0.626280f, -0.583960f, 1.282851f, -2.988836f, 2.732433f, 0.825195f, 1.023638f, -0.369080f, -0.602302f, 0.220618f, -1.311530f, 6.773792f, -1.273657f, 1.391077f, -1.653445f, -3.539480f, 0.019020f, 0.543370f, -0.975134f, 0.580844f };
static float X60_MLP_L16_buf1[45];
static float X60_MLP_L16_buf2[45];
static const EmlNetLayer X60_MLP_L16_layers[2] = { 
{ 16, 45, X60_MLP_L16_layer_0_weights, X60_MLP_L16_layer_0_biases, EmlNetActivationTanh }, 
{ 10, 16, X60_MLP_L16_layer_1_weights, X60_MLP_L16_layer_1_biases, EmlNetActivationSoftmax } };
static EmlNet X60_MLP_L16 = { 2, X60_MLP_L16_layers, X60_MLP_L16_buf1, X60_MLP_L16_buf2, 45 };

    int32_t
    X60_MLP_L16_predict(const float *features, int32_t n_features)
    {
        return eml_net_predict(&X60_MLP_L16, features, n_features);
    }
    

    int32_t
    X60_MLP_L16_regress(const float *features, int32_t n_features, float *out, int32_t out_length)
    {
        return eml_net_regress(&X60_MLP_L16, features, n_features, out, out_length);
    }
    

    float
    X60_MLP_L16_regress1(const float *features, int32_t n_features)
    {
        return eml_net_regress1(&X60_MLP_L16, features, n_features);
    }
    