#pragma once
namespace Eloquent {
    namespace ML {
        namespace Port {
            class XGBClassifier {
                public:
                    /**
                    * Predict class for features vector
                    */
                    int predict(float *x) {
                        float votes[11] = { 0.0f };
                        // tree #1
                        if (x[16] <= 48.0) {
                            if (x[3] <= 1.0) {
                                if (x[21] <= 352000.0) {
                                    if (x[8] <= 20.0) {
                                        if (x[15] <= 41.0) {
                                            votes[0] += 1.6255139;
                                        }

                                        else {
                                            votes[0] += -0.14582133;
                                        }
                                    }

                                    else {
                                        if (x[27] <= 74.0) {
                                            votes[0] += -0.1649306;
                                        }

                                        else {
                                            votes[0] += 1.4429659;
                                        }
                                    }
                                }

                                else {
                                    if (x[9] <= 4294545.0) {
                                        if (x[7] <= 2.0) {
                                            if (x[28] <= 8192.0) {
                                                if (x[27] <= 8212.0) {
                                                    if (x[9] <= 4294529.0) {
                                                        votes[0] += 1.6499897;
                                                    }

                                                    else {
                                                        votes[0] += 0.7444685;
                                                    }
                                                }

                                                else {
                                                    if (x[6] <= 40.0) {
                                                        votes[0] += -0.09395019;
                                                    }

                                                    else {
                                                        votes[0] += 1.2438898;
                                                    }
                                                }
                                            }

                                            else {
                                                if (x[1] <= 17988.0) {
                                                    if (x[1] <= 5550.0) {
                                                        votes[0] += 0.10488082;
                                                    }

                                                    else {
                                                        votes[0] += -0.15312316;
                                                    }
                                                }

                                                else {
                                                    if (x[1] <= 49159.0) {
                                                        votes[0] += 1.2349273;
                                                    }

                                                    else {
                                                        votes[0] += -0.09395019;
                                                    }
                                                }
                                            }
                                        }

                                        else {
                                            if (x[11] <= 453.0) {
                                                votes[0] += -0.16361365;
                                            }

                                            else {
                                                votes[0] += 0.745977;
                                            }
                                        }
                                    }

                                    else {
                                        if (x[9] <= 4294936.0) {
                                            if (x[9] <= 4294926.0) {
                                                if (x[9] <= 4294920.0) {
                                                    if (x[9] <= 4294909.0) {
                                                        votes[0] += 0.28794026;
                                                    }

                                                    else {
                                                        votes[0] += 1.568795;
                                                    }
                                                }

                                                else {
                                                    if (x[9] <= 4294921.0) {
                                                        votes[0] += -0.16320962;
                                                    }

                                                    else {
                                                        votes[0] += 0.4764764;
                                                    }
                                                }
                                            }

                                            else {
                                                votes[0] += 1.6472852;
                                            }
                                        }

                                        else {
                                            if (x[9] <= 4294961.0) {
                                                if (x[9] <= 4294951.0) {
                                                    if (x[9] <= 4294947.0) {
                                                        votes[0] += -0.08245692;
                                                    }

                                                    else {
                                                        votes[0] += 1.6400677;
                                                    }
                                                }

                                                else {
                                                    if (x[22] <= 352000.0) {
                                                        votes[0] += -0.16106118;
                                                    }

                                                    else {
                                                        votes[0] += 1.1594595;
                                                    }
                                                }
                                            }

                                            else {
                                                votes[0] += 1.6343338;
                                            }
                                        }
                                    }
                                }
                            }

                            else {
                                if (x[3] <= 91.119) {
                                    if (x[8] <= 18.0) {
                                        if (x[1] <= 445.0) {
                                            if (x[27] <= 1025.0) {
                                                if (x[2] <= 17.0) {
                                                    if (x[0] <= 32978.0) {
                                                        votes[0] += 0.54206437;
                                                    }

                                                    else {
                                                        votes[0] += -0.15664262;
                                                    }
                                                }

                                                else {
                                                    votes[0] += 1.2667947;
                                                }
                                            }

                                            else {
                                                votes[0] += 1.6393238;
                                            }
                                        }

                                        else {
                                            if (x[3] <= 20.0) {
                                                votes[0] += 1.6474683;
                                            }

                                            else {
                                                if (x[1] <= 8292.0) {
                                                    if (x[1] <= 2701.0) {
                                                        votes[0] += 0.34728616;
                                                    }

                                                    else {
                                                        votes[0] += -0.16295844;
                                                    }
                                                }

                                                else {
                                                    if (x[1] <= 8651.0) {
                                                        votes[0] += 1.63915;
                                                    }

                                                    else {
                                                        votes[0] += 0.05057471;
                                                    }
                                                }
                                            }
                                        }
                                    }

                                    else {
                                        if (x[27] <= 1025.0) {
                                            if (x[1] <= 5550.0) {
                                                if (x[1] <= 445.0) {
                                                    if (x[9] <= 4293889.0) {
                                                        votes[0] += 1.136641;
                                                    }

                                                    else {
                                                        votes[0] += 0.18009582;
                                                    }
                                                }

                                                else {
                                                    if (x[3] <= 65.0) {
                                                        votes[0] += 0.109522164;
                                                    }

                                                    else {
                                                        votes[0] += 0.73683125;
                                                    }
                                                }
                                            }

                                            else {
                                                if (x[9] <= 4293889.0) {
                                                    if (x[8] <= 22.0) {
                                                        votes[0] += 1.1559807;
                                                    }

                                                    else {
                                                        votes[0] += 1.6411281;
                                                    }
                                                }

                                                else {
                                                    if (x[9] <= 4294951.0) {
                                                        votes[0] += 0.37691483;
                                                    }

                                                    else {
                                                        votes[0] += -0.08813432;
                                                    }
                                                }
                                            }
                                        }

                                        else {
                                            if (x[11] <= 91.0) {
                                                votes[0] += 1.6363457;
                                            }

                                            else {
                                                votes[0] += 0.57570094;
                                            }
                                        }
                                    }
                                }

                                else {
                                    if (x[3] <= 164.0) {
                                        if (x[3] <= 127.0) {
                                            if (x[3] <= 100.178) {
                                                if (x[1] <= 26.0) {
                                                    if (x[8] <= 6.0) {
                                                        votes[0] += -0.16116248;
                                                    }

                                                    else {
                                                        votes[0] += 1.3853574;
                                                    }
                                                }

                                                else {
                                                    if (x[22] <= 144000.0) {
                                                        votes[0] += 1.616973;
                                                    }

                                                    else {
                                                        votes[0] += -0.01970464;
                                                    }
                                                }
                                            }

                                            else {
                                                if (x[9] <= 4294935.0) {
                                                    if (x[9] <= 4294621.0) {
                                                        votes[0] += 1.6379665;
                                                    }

                                                    else {
                                                        votes[0] += 0.8186199;
                                                    }
                                                }

                                                else {
                                                    if (x[9] <= 4294936.0) {
                                                        votes[0] += 0.14252491;
                                                    }

                                                    else {
                                                        votes[0] += -0.14232166;
                                                    }
                                                }
                                            }
                                        }

                                        else {
                                            if (x[3] <= 131.178) {
                                                if (x[0] <= 32978.0) {
                                                    if (x[1] <= 12000.0) {
                                                        votes[0] += 0.4678161;
                                                    }

                                                    else {
                                                        votes[0] += 1.6192894;
                                                    }
                                                }

                                                else {
                                                    if (x[9] <= 4294592.0) {
                                                        votes[0] += -0.16034478;
                                                    }

                                                    else {
                                                        votes[0] += 0.17363624;
                                                    }
                                                }
                                            }

                                            else {
                                                if (x[8] <= 19.0) {
                                                    if (x[1] <= 1761.0) {
                                                        votes[0] += 0.7626844;
                                                    }

                                                    else {
                                                        votes[0] += 1.6475089;
                                                    }
                                                }

                                                else {
                                                    if (x[3] <= 150.0) {
                                                        votes[0] += 0.52576405;
                                                    }

                                                    else {
                                                        votes[0] += -0.10072846;
                                                    }
                                                }
                                            }
                                        }
                                    }

                                    else {
                                        if (x[9] <= 4294701.0) {
                                            if (x[8] <= 6.0) {
                                                votes[0] += 1.6491276;
                                            }

                                            else {
                                                if (x[1] <= 1524.0) {
                                                    votes[0] += 1.6435798;
                                                }

                                                else {
                                                    if (x[3] <= 172.178) {
                                                        votes[0] += 1.560813;
                                                    }

                                                    else {
                                                        votes[0] += 0.49836883;
                                                    }
                                                }
                                            }
                                        }

                                        else {
                                            if (x[9] <= 4294951.0) {
                                                if (x[3] <= 170.178) {
                                                    if (x[0] <= 62391.0) {
                                                        votes[0] += 0.6725677;
                                                    }

                                                    else {
                                                        votes[0] += 0.09141274;
                                                    }
                                                }

                                                else {
                                                    if (x[0] <= 53444.0) {
                                                        votes[0] += 0.11716648;
                                                    }

                                                    else {
                                                        votes[0] += 0.5686739;
                                                    }
                                                }
                                            }

                                            else {
                                                if (x[9] <= 4294961.0) {
                                                    votes[0] += -0.16191947;
                                                }

                                                else {
                                                    votes[0] += 0.9963989;
                                                }
                                            }
                                        }
                                    }
                                }
                            }
                        }

                        else {
                            if (x[0] <= 1095.0) {
                                if (x[21] <= 30192000.0) {
                                    if (x[4] <= 50.0) {
                                        if (x[3] <= 1.0) {
                                            if (x[1] <= 179.0) {
                                                votes[0] += 0.32873562;
                                            }

                                            else {
                                                if (x[27] <= 5792.0) {
                                                    if (x[9] <= 4293889.0) {
                                                        votes[0] += -0.16375384;
                                                    }

                                                    else {
                                                        votes[0] += 0.054869354;
                                                    }
                                                }

                                                else {
                                                    votes[0] += 0.12336448;
                                                }
                                            }
                                        }

                                        else {
                                            votes[0] += 1.5081258;
                                        }
                                    }

                                    else {
                                        if (x[7] <= 35.0) {
                                            if (x[3] <= 172.178) {
                                                if (x[21] <= 18376000.0) {
                                                    if (x[3] <= 91.233) {
                                                        votes[0] += 1.6479354;
                                                    }

                                                    else {
                                                        votes[0] += 1.1916429;
                                                    }
                                                }

                                                else {
                                                    if (x[13] <= 44.0) {
                                                        votes[0] += -0.07634963;
                                                    }

                                                    else {
                                                        votes[0] += 1.6430775;
                                                    }
                                                }
                                            }

                                            else {
                                                if (x[10] <= 16.0) {
                                                    votes[0] += -0.1096953;
                                                }

                                                else {
                                                    if (x[16] <= 10452.0) {
                                                        votes[0] += 0.26850393;
                                                    }

                                                    else {
                                                        votes[0] += -0.09867111;
                                                    }
                                                }
                                            }
                                        }

                                        else {
                                            if (x[11] <= 17.0) {
                                                if (x[1] <= 666.0) {
                                                    votes[0] += -0.15708053;
                                                }

                                                else {
                                                    votes[0] += 0.03523131;
                                                }
                                            }

                                            else {
                                                votes[0] += 1.4505494;
                                            }
                                        }
                                    }
                                }

                                else {
                                    if (x[27] <= 2048.0) {
                                        if (x[13] <= 48.0) {
                                            if (x[10] <= 79.0) {
                                                votes[0] += -0.16482109;
                                            }

                                            else {
                                                if (x[1] <= 301.0) {
                                                    votes[0] += 0.4678161;
                                                }

                                                else {
                                                    votes[0] += -0.09867111;
                                                }
                                            }
                                        }

                                        else {
                                            votes[0] += 1.6054453;
                                        }
                                    }

                                    else {
                                        votes[0] += 1.6470013;
                                    }
                                }
                            }

                            else {
                                if (x[32] <= 3600.0) {
                                    if (x[14] <= 73.0) {
                                        if (x[27] <= 37272.0) {
                                            if (x[8] <= 29.0) {
                                                if (x[3] <= 91.12) {
                                                    if (x[23] <= 217.0) {
                                                        votes[0] += -0.12520218;
                                                    }

                                                    else {
                                                        votes[0] += 1.6067737;
                                                    }
                                                }

                                                else {
                                                    if (x[12] <= 65.0) {
                                                        votes[0] += 1.3242395;
                                                    }

                                                    else {
                                                        votes[0] += -0.13564003;
                                                    }
                                                }
                                            }

                                            else {
                                                if (x[1] <= 445.0) {
                                                    if (x[17] <= 608.0) {
                                                        votes[0] += 0.8037771;
                                                    }

                                                    else {
                                                        votes[0] += 0.05454466;
                                                    }
                                                }

                                                else {
                                                    if (x[1] <= 3372.0) {
                                                        votes[0] += 0.88398856;
                                                    }

                                                    else {
                                                        votes[0] += 1.4807682;
                                                    }
                                                }
                                            }
                                        }

                                        else {
                                            if (x[4] <= 50.0) {
                                                if (x[6] <= 40.0) {
                                                    if (x[1] <= 14293.0) {
                                                        votes[0] += 1.4378321;
                                                    }

                                                    else {
                                                        votes[0] += 0.32873562;
                                                    }
                                                }

                                                else {
                                                    votes[0] += -0.12941179;
                                                }
                                            }

                                            else {
                                                if (x[27] <= 58262.0) {
                                                    if (x[24] <= 1.0) {
                                                        votes[0] += 1.3385335;
                                                    }

                                                    else {
                                                        votes[0] += 0.07795275;
                                                    }
                                                }

                                                else {
                                                    if (x[24] <= 24.0) {
                                                        votes[0] += 1.6488614;
                                                    }

                                                    else {
                                                        votes[0] += 1.1447538;
                                                    }
                                                }
                                            }
                                        }
                                    }

                                    else {
                                        if (x[13] <= 92.0) {
                                            if (x[15] <= 76.0) {
                                                if (x[31] <= 2.0) {
                                                    if (x[21] <= 48000.0) {
                                                        votes[0] += 0.53513515;
                                                    }

                                                    else {
                                                        votes[0] += 1.3780358;
                                                    }
                                                }

                                                else {
                                                    votes[0] += 1.6288264;
                                                }
                                            }

                                            else {
                                                if (x[31] <= 2.0) {
                                                    if (x[3] <= 1.0) {
                                                        votes[0] += -0.15261088;
                                                    }

                                                    else {
                                                        votes[0] += 1.5366043;
                                                    }
                                                }

                                                else {
                                                    votes[0] += 1.6239022;
                                                }
                                            }
                                        }

                                        else {
                                            if (x[2] <= 17.0) {
                                                if (x[1] <= 993.0) {
                                                    if (x[22] <= 432000.0) {
                                                        votes[0] += -0.08407645;
                                                    }

                                                    else {
                                                        votes[0] += 0.4279302;
                                                    }
                                                }

                                                else {
                                                    votes[0] += 0.87837344;
                                                }
                                            }

                                            else {
                                                if (x[15] <= 105.0) {
                                                    if (x[4] <= 76.0) {
                                                        votes[0] += 1.5325894;
                                                    }

                                                    else {
                                                        votes[0] += 1.641327;
                                                    }
                                                }

                                                else {
                                                    if (x[15] <= 106.0) {
                                                        votes[0] += 0.027791353;
                                                    }

                                                    else {
                                                        votes[0] += 1.6188096;
                                                    }
                                                }
                                            }
                                        }
                                    }
                                }

                                else {
                                    if (x[16] <= 69.0) {
                                        if (x[32] <= 10800.0) {
                                            if (x[22] <= 664000.0) {
                                                if (x[0] <= 53178.0) {
                                                    if (x[4] <= 65.0) {
                                                        votes[0] += -0.14332248;
                                                    }

                                                    else {
                                                        votes[0] += 0.14252491;
                                                    }
                                                }

                                                else {
                                                    if (x[0] <= 57544.0) {
                                                        votes[0] += 0.32873562;
                                                    }

                                                    else {
                                                        votes[0] += 0.021926906;
                                                    }
                                                }
                                            }

                                            else {
                                                if (x[6] <= 138.0) {
                                                    votes[0] += 1.647732;
                                                }

                                                else {
                                                    if (x[6] <= 172.0) {
                                                        votes[0] += 0.3167483;
                                                    }

                                                    else {
                                                        votes[0] += 1.518941;
                                                    }
                                                }
                                            }
                                        }

                                        else {
                                            if (x[6] <= 240.0) {
                                                if (x[32] <= 172800.0) {
                                                    if (x[0] <= 32768.0) {
                                                        votes[0] += 1.4284129;
                                                    }

                                                    else {
                                                        votes[0] += 0.045164015;
                                                    }
                                                }

                                                else {
                                                    if (x[3] <= 5.124) {
                                                        votes[0] += 1.3960693;
                                                    }

                                                    else {
                                                        votes[0] += 0.18965517;
                                                    }
                                                }
                                            }

                                            else {
                                                votes[0] += 1.6468825;
                                            }
                                        }
                                    }

                                    else {
                                        votes[0] += 1.6442232;
                                    }
                                }
                            }
                        }

                        // tree #2
                        if (x[4] <= 50.0) {
                            if (x[4] <= 48.0) {
                                if (x[3] <= 1.178) {
                                    if (x[13] <= 44.0) {
                                        if (x[8] <= 19.0) {
                                            if (x[27] <= 243.0) {
                                                votes[1] += -0.16355547;
                                            }

                                            else {
                                                if (x[1] <= 8292.0) {
                                                    votes[1] += 0.31935483;
                                                }

                                                else {
                                                    votes[1] += -0.09395019;
                                                }
                                            }
                                        }

                                        else {
                                            if (x[3] <= 1.0) {
                                                if (x[27] <= 74.0) {
                                                    votes[1] += 1.6497537;
                                                }

                                                else {
                                                    if (x[1] <= 9091.0) {
                                                        votes[1] += -0.11389647;
                                                    }

                                                    else {
                                                        votes[1] += 0.07753304;
                                                    }
                                                }
                                            }

                                            else {
                                                votes[1] += -0.15512124;
                                            }
                                        }
                                    }

                                    else {
                                        if (x[9] <= 4294545.0) {
                                            if (x[3] <= 1.0) {
                                                if (x[7] <= 2.0) {
                                                    if (x[28] <= 8192.0) {
                                                        votes[1] += -0.16497605;
                                                    }

                                                    else {
                                                        votes[1] += 1.2883486;
                                                    }
                                                }

                                                else {
                                                    if (x[17] <= 81.0) {
                                                        votes[1] += 1.6361364;
                                                    }

                                                    else {
                                                        votes[1] += -0.009141281;
                                                    }
                                                }
                                            }

                                            else {
                                                if (x[8] <= 4.0) {
                                                    votes[1] += 1.6394482;
                                                }

                                                else {
                                                    if (x[21] <= 72000.0) {
                                                        votes[1] += 0.18965517;
                                                    }

                                                    else {
                                                        votes[1] += -0.16354536;
                                                    }
                                                }
                                            }
                                        }

                                        else {
                                            if (x[9] <= 4294936.0) {
                                                if (x[9] <= 4294926.0) {
                                                    if (x[9] <= 4294920.0) {
                                                        votes[1] += 1.1259587;
                                                    }

                                                    else {
                                                        votes[1] += 1.5238816;
                                                    }
                                                }

                                                else {
                                                    if (x[3] <= 1.0) {
                                                        votes[1] += -0.16423513;
                                                    }

                                                    else {
                                                        votes[1] += 0.51845384;
                                                    }
                                                }
                                            }

                                            else {
                                                if (x[9] <= 4294961.0) {
                                                    if (x[9] <= 4294951.0) {
                                                        votes[1] += 1.3102182;
                                                    }

                                                    else {
                                                        votes[1] += 1.64102;
                                                    }
                                                }

                                                else {
                                                    if (x[0] <= 33528.0) {
                                                        votes[1] += -0.06099816;
                                                    }

                                                    else {
                                                        votes[1] += -0.16363823;
                                                    }
                                                }
                                            }
                                        }
                                    }
                                }

                                else {
                                    if (x[3] <= 91.119) {
                                        if (x[8] <= 17.0) {
                                            if (x[1] <= 445.0) {
                                                if (x[27] <= 1025.0) {
                                                    if (x[27] <= 1024.0) {
                                                        votes[1] += 1.028614;
                                                    }

                                                    else {
                                                        votes[1] += 1.6418415;
                                                    }
                                                }

                                                else {
                                                    votes[1] += -0.16179496;
                                                }
                                            }

                                            else {
                                                if (x[3] <= 20.0) {
                                                    votes[1] += -0.16474038;
                                                }

                                                else {
                                                    if (x[1] <= 8292.0) {
                                                        votes[1] += 1.3029509;
                                                    }

                                                    else {
                                                        votes[1] += -0.15216242;
                                                    }
                                                }
                                            }
                                        }

                                        else {
                                            if (x[27] <= 1025.0) {
                                                if (x[1] <= 5550.0) {
                                                    if (x[1] <= 445.0) {
                                                        votes[1] += 0.5066129;
                                                    }

                                                    else {
                                                        votes[1] += 1.243557;
                                                    }
                                                }

                                                else {
                                                    if (x[9] <= 4293889.0) {
                                                        votes[1] += 0.076551795;
                                                    }

                                                    else {
                                                        votes[1] += 1.2678026;
                                                    }
                                                }
                                            }

                                            else {
                                                if (x[3] <= 3.0) {
                                                    votes[1] += 1.0969529;
                                                }

                                                else {
                                                    if (x[11] <= 91.0) {
                                                        votes[1] += -0.15639241;
                                                    }

                                                    else {
                                                        votes[1] += 0.4678161;
                                                    }
                                                }
                                            }
                                        }
                                    }

                                    else {
                                        if (x[3] <= 164.0) {
                                            if (x[3] <= 127.0) {
                                                if (x[3] <= 100.178) {
                                                    if (x[1] <= 26.0) {
                                                        votes[1] += 0.89098096;
                                                    }

                                                    else {
                                                        votes[1] += 0.34811753;
                                                    }
                                                }

                                                else {
                                                    if (x[9] <= 4294621.0) {
                                                        votes[1] += -0.15455487;
                                                    }

                                                    else {
                                                        votes[1] += 1.1899077;
                                                    }
                                                }
                                            }

                                            else {
                                                if (x[3] <= 131.178) {
                                                    if (x[1] <= 8100.0) {
                                                        votes[1] += 1.6197791;
                                                    }

                                                    else {
                                                        votes[1] += -0.16193837;
                                                    }
                                                }

                                                else {
                                                    if (x[8] <= 19.0) {
                                                        votes[1] += 0.2567681;
                                                    }

                                                    else {
                                                        votes[1] += 1.3801688;
                                                    }
                                                }
                                            }
                                        }

                                        else {
                                            if (x[9] <= 4294701.0) {
                                                if (x[8] <= 6.0) {
                                                    votes[1] += -0.16491276;
                                                }

                                                else {
                                                    if (x[1] <= 1524.0) {
                                                        votes[1] += -0.16134326;
                                                    }

                                                    else {
                                                        votes[1] += 0.51885456;
                                                    }
                                                }
                                            }

                                            else {
                                                if (x[9] <= 4294951.0) {
                                                    if (x[9] <= 4294947.0) {
                                                        votes[1] += 1.0410689;
                                                    }

                                                    else {
                                                        votes[1] += 0.15635909;
                                                    }
                                                }

                                                else {
                                                    if (x[9] <= 4294961.0) {
                                                        votes[1] += 1.6191946;
                                                    }

                                                    else {
                                                        votes[1] += -0.009141281;
                                                    }
                                                }
                                            }
                                        }
                                    }
                                }
                            }

                            else {
                                if (x[3] <= 1.0) {
                                    if (x[9] <= 4293889.0) {
                                        if (x[8] <= 2.0) {
                                            if (x[0] <= 40966.0) {
                                                if (x[15] <= 49.0) {
                                                    votes[1] += -0.1096953;
                                                }

                                                else {
                                                    if (x[0] <= 36812.0) {
                                                        votes[1] += 0.07795275;
                                                    }

                                                    else {
                                                        votes[1] += -0.009141281;
                                                    }
                                                }
                                            }

                                            else {
                                                votes[1] += -0.1405476;
                                            }
                                        }

                                        else {
                                            if (x[28] <= 64000.0) {
                                                if (x[27] <= 26847.0) {
                                                    votes[1] += 1.6499742;
                                                }

                                                else {
                                                    if (x[8] <= 4.0) {
                                                        votes[1] += -0.12349273;
                                                    }

                                                    else {
                                                        votes[1] += 0.9701476;
                                                    }
                                                }
                                            }

                                            else {
                                                if (x[1] <= 9091.0) {
                                                    if (x[0] <= 23571.0) {
                                                        votes[1] += -0.024688287;
                                                    }

                                                    else {
                                                        votes[1] += -0.13385336;
                                                    }
                                                }

                                                else {
                                                    votes[1] += 0.31935483;
                                                }
                                            }
                                        }
                                    }

                                    else {
                                        if (x[9] <= 4294962.0) {
                                            if (x[9] <= 4294702.0) {
                                                if (x[9] <= 4294654.0) {
                                                    if (x[9] <= 4294514.0) {
                                                        votes[1] += 0.006099808;
                                                    }

                                                    else {
                                                        votes[1] += -0.16260067;
                                                    }
                                                }

                                                else {
                                                    if (x[9] <= 4294670.0) {
                                                        votes[1] += 1.0280374;
                                                    }

                                                    else {
                                                        votes[1] += -0.13285026;
                                                    }
                                                }
                                            }

                                            else {
                                                if (x[9] <= 4294950.0) {
                                                    if (x[9] <= 4294949.0) {
                                                        votes[1] += 1.3399913;
                                                    }

                                                    else {
                                                        votes[1] += -0.16323337;
                                                    }
                                                }

                                                else {
                                                    votes[1] += 1.6429368;
                                                }
                                            }
                                        }

                                        else {
                                            votes[1] += -0.16324885;
                                        }
                                    }
                                }

                                else {
                                    if (x[8] <= 19.0) {
                                        if (x[1] <= 179.0) {
                                            if (x[3] <= 127.178) {
                                                if (x[22] <= 8000.0) {
                                                    if (x[1] <= 80.0) {
                                                        votes[1] += -0.16124426;
                                                    }

                                                    else {
                                                        votes[1] += 0.13101162;
                                                    }
                                                }

                                                else {
                                                    if (x[28] <= 8192.0) {
                                                        votes[1] += 0.65619594;
                                                    }

                                                    else {
                                                        votes[1] += 1.393089;
                                                    }
                                                }
                                            }

                                            else {
                                                votes[1] += 1.4837636;
                                            }
                                        }

                                        else {
                                            if (x[3] <= 231.0) {
                                                if (x[3] <= 89.178) {
                                                    if (x[3] <= 41.0) {
                                                        votes[1] += 0.99244255;
                                                    }

                                                    else {
                                                        votes[1] += 0.42414728;
                                                    }
                                                }

                                                else {
                                                    if (x[3] <= 127.0) {
                                                        votes[1] += 1.5508198;
                                                    }

                                                    else {
                                                        votes[1] += 1.0712154;
                                                    }
                                                }
                                            }

                                            else {
                                                if (x[3] <= 237.178) {
                                                    votes[1] += -0.15851997;
                                                }

                                                else {
                                                    if (x[3] <= 245.0) {
                                                        votes[1] += 1.3063684;
                                                    }

                                                    else {
                                                        votes[1] += -0.14618285;
                                                    }
                                                }
                                            }
                                        }
                                    }

                                    else {
                                        if (x[9] <= 4293889.0) {
                                            if (x[6] <= 44.0) {
                                                if (x[1] <= 5200.0) {
                                                    if (x[1] <= 4126.0) {
                                                        votes[1] += -0.15206465;
                                                    }

                                                    else {
                                                        votes[1] += -0.047109216;
                                                    }
                                                }

                                                else {
                                                    if (x[0] <= 3916.0) {
                                                        votes[1] += -0.0546304;
                                                    }

                                                    else {
                                                        votes[1] += 0.35510927;
                                                    }
                                                }
                                            }

                                            else {
                                                votes[1] += 1.4126041;
                                            }
                                        }

                                        else {
                                            if (x[9] <= 4294952.0) {
                                                if (x[0] <= 2952.0) {
                                                    votes[1] += 0.1644128;
                                                }

                                                else {
                                                    if (x[9] <= 4294933.0) {
                                                        votes[1] += 1.0022063;
                                                    }

                                                    else {
                                                        votes[1] += 0.61192054;
                                                    }
                                                }
                                            }

                                            else {
                                                if (x[3] <= 150.0) {
                                                    if (x[3] <= 44.178) {
                                                        votes[1] += 0.05057471;
                                                    }

                                                    else {
                                                        votes[1] += -0.102803744;
                                                    }
                                                }

                                                else {
                                                    votes[1] += 0.4678161;
                                                }
                                            }
                                        }
                                    }
                                }
                            }
                        }

                        else {
                            if (x[8] <= 28.0) {
                                if (x[13] <= 50.0) {
                                    if (x[16] <= 216.0) {
                                        if (x[1] <= 100.0) {
                                            if (x[6] <= 48.0) {
                                                if (x[3] <= 5.119) {
                                                    if (x[8] <= 6.0) {
                                                        votes[1] += -0.13684289;
                                                    }

                                                    else {
                                                        votes[1] += 1.3951925;
                                                    }
                                                }

                                                else {
                                                    if (x[21] <= 64000.0) {
                                                        votes[1] += 0.7554441;
                                                    }

                                                    else {
                                                        votes[1] += -0.13966163;
                                                    }
                                                }
                                            }

                                            else {
                                                if (x[3] <= 5.119) {
                                                    if (x[21] <= 16000.0) {
                                                        votes[1] += 0.86333466;
                                                    }

                                                    else {
                                                        votes[1] += 1.5943044;
                                                    }
                                                }

                                                else {
                                                    if (x[28] <= 8192.0) {
                                                        votes[1] += 1.0964824;
                                                    }

                                                    else {
                                                        votes[1] += 0.3095542;
                                                    }
                                                }
                                            }
                                        }

                                        else {
                                            if (x[1] <= 1098.0) {
                                                if (x[21] <= 672000.0) {
                                                    if (x[9] <= 4294358.0) {
                                                        votes[1] += 0.20758213;
                                                    }

                                                    else {
                                                        votes[1] += 0.93262315;
                                                    }
                                                }

                                                else {
                                                    if (x[3] <= 1.0) {
                                                        votes[1] += 1.094647;
                                                    }

                                                    else {
                                                        votes[1] += 1.6086679;
                                                    }
                                                }
                                            }

                                            else {
                                                if (x[8] <= 19.0) {
                                                    if (x[13] <= 48.0) {
                                                        votes[1] += 0.070956625;
                                                    }

                                                    else {
                                                        votes[1] += 0.7078355;
                                                    }
                                                }

                                                else {
                                                    if (x[23] <= 3.0) {
                                                        votes[1] += 1.557919;
                                                    }

                                                    else {
                                                        votes[1] += 0.68186146;
                                                    }
                                                }
                                            }
                                        }
                                    }

                                    else {
                                        if (x[28] <= 5792.0) {
                                            if (x[5] <= 4.0) {
                                                if (x[8] <= 4.0) {
                                                    if (x[3] <= 4.178) {
                                                        votes[1] += -0.10629079;
                                                    }

                                                    else {
                                                        votes[1] += 0.096237056;
                                                    }
                                                }

                                                else {
                                                    if (x[6] <= 40.0) {
                                                        votes[1] += 0.89432245;
                                                    }

                                                    else {
                                                        votes[1] += 0.108307116;
                                                    }
                                                }
                                            }

                                            else {
                                                if (x[11] <= 157.0) {
                                                    votes[1] += -0.16494697;
                                                }

                                                else {
                                                    votes[1] += 0.18965517;
                                                }
                                            }
                                        }

                                        else {
                                            if (x[21] <= 400000.0) {
                                                if (x[9] <= 4294780.0) {
                                                    if (x[12] <= 54.0) {
                                                        votes[1] += 0.3820359;
                                                    }

                                                    else {
                                                        votes[1] += 1.3032452;
                                                    }
                                                }

                                                else {
                                                    if (x[1] <= 8100.0) {
                                                        votes[1] += 0.7369036;
                                                    }

                                                    else {
                                                        votes[1] += -8.311071e-09;
                                                    }
                                                }
                                            }

                                            else {
                                                if (x[1] <= 100.0) {
                                                    if (x[9] <= 4294193.0) {
                                                        votes[1] += 0.08245517;
                                                    }

                                                    else {
                                                        votes[1] += 0.39163026;
                                                    }
                                                }

                                                else {
                                                    if (x[22] <= 400000.0) {
                                                        votes[1] += 1.0048991;
                                                    }

                                                    else {
                                                        votes[1] += -0.10645162;
                                                    }
                                                }
                                            }
                                        }
                                    }
                                }

                                else {
                                    if (x[3] <= 91.221) {
                                        if (x[6] <= 60.0) {
                                            if (x[28] <= 5792.0) {
                                                if (x[3] <= 1.0) {
                                                    if (x[21] <= 168000.0) {
                                                        votes[1] += 0.12295575;
                                                    }

                                                    else {
                                                        votes[1] += -0.14407687;
                                                    }
                                                }

                                                else {
                                                    if (x[12] <= 238.0) {
                                                        votes[1] += -0.16221634;
                                                    }

                                                    else {
                                                        votes[1] += 0.8569288;
                                                    }
                                                }
                                            }

                                            else {
                                                if (x[1] <= 135.0) {
                                                    if (x[21] <= 5032000.0) {
                                                        votes[1] += -0.1487841;
                                                    }

                                                    else {
                                                        votes[1] += 0.05789473;
                                                    }
                                                }

                                                else {
                                                    if (x[28] <= 64000.0) {
                                                        votes[1] += 0.16366781;
                                                    }

                                                    else {
                                                        votes[1] += 1.0403101;
                                                    }
                                                }
                                            }
                                        }

                                        else {
                                            if (x[15] <= 150.0) {
                                                if (x[1] <= 26.0) {
                                                    if (x[1] <= 22.0) {
                                                        votes[1] += -0.15322118;
                                                    }

                                                    else {
                                                        votes[1] += 0.3923567;
                                                    }
                                                }

                                                else {
                                                    if (x[14] <= 52.0) {
                                                        votes[1] += -0.15926817;
                                                    }

                                                    else {
                                                        votes[1] += -0.16426659;
                                                    }
                                                }
                                            }

                                            else {
                                                if (x[16] <= 346.0) {
                                                    votes[1] += 0.03523131;
                                                }

                                                else {
                                                    votes[1] += 0.5322581;
                                                }
                                            }
                                        }
                                    }

                                    else {
                                        if (x[3] <= 91.51) {
                                            if (x[5] <= 10.0) {
                                                if (x[0] <= 37890.0) {
                                                    if (x[22] <= 1760000.0) {
                                                        votes[1] += 0.5039648;
                                                    }

                                                    else {
                                                        votes[1] += -0.024688287;
                                                    }
                                                }

                                                else {
                                                    if (x[0] <= 55292.0) {
                                                        votes[1] += 1.1895494;
                                                    }

                                                    else {
                                                        votes[1] += -0.009141281;
                                                    }
                                                }
                                            }

                                            else {
                                                votes[1] += -0.14582133;
                                            }
                                        }

                                        else {
                                            if (x[21] <= 96000.0) {
                                                if (x[11] <= 18.0) {
                                                    if (x[4] <= 138.0) {
                                                        votes[1] += 0.21290323;
                                                    }

                                                    else {
                                                        votes[1] += 0.8752044;
                                                    }
                                                }

                                                else {
                                                    votes[1] += -0.09395019;
                                                }
                                            }

                                            else {
                                                if (x[3] <= 95.0) {
                                                    if (x[23] <= 8.0) {
                                                        votes[1] += 0.082479574;
                                                    }

                                                    else {
                                                        votes[1] += 0.62580943;
                                                    }
                                                }

                                                else {
                                                    if (x[0] <= 2006.0) {
                                                        votes[1] += 0.6210884;
                                                    }

                                                    else {
                                                        votes[1] += -0.08550909;
                                                    }
                                                }
                                            }
                                        }
                                    }
                                }
                            }

                            else {
                                if (x[16] <= 558.0) {
                                    if (x[1] <= 3527.0) {
                                        if (x[13] <= 104.0) {
                                            if (x[13] <= 92.0) {
                                                if (x[28] <= 64000.0) {
                                                    if (x[27] <= 37272.0) {
                                                        votes[1] += 0.31385252;
                                                    }

                                                    else {
                                                        votes[1] += -0.16228774;
                                                    }
                                                }

                                                else {
                                                    if (x[22] <= 936000.0) {
                                                        votes[1] += 0.48798016;
                                                    }

                                                    else {
                                                        votes[1] += 1.4685371;
                                                    }
                                                }
                                            }

                                            else {
                                                if (x[28] <= 29200.0) {
                                                    if (x[13] <= 100.0) {
                                                        votes[1] += 0.3601836;
                                                    }

                                                    else {
                                                        votes[1] += 1.4353862;
                                                    }
                                                }

                                                else {
                                                    if (x[9] <= 4294961.0) {
                                                        votes[1] += 1.6198981;
                                                    }

                                                    else {
                                                        votes[1] += 0.5519573;
                                                    }
                                                }
                                            }
                                        }

                                        else {
                                            if (x[13] <= 117.0) {
                                                if (x[3] <= 91.51) {
                                                    if (x[15] <= 41.0) {
                                                        votes[1] += 0.06984452;
                                                    }

                                                    else {
                                                        votes[1] += -0.12737001;
                                                    }
                                                }

                                                else {
                                                    if (x[14] <= 44.0) {
                                                        votes[1] += 0.28677264;
                                                    }

                                                    else {
                                                        votes[1] += 1.5908991;
                                                    }
                                                }
                                            }

                                            else {
                                                if (x[5] <= 7.0) {
                                                    if (x[1] <= 100.0) {
                                                        votes[1] += 0.11369045;
                                                    }

                                                    else {
                                                        votes[1] += 0.5560841;
                                                    }
                                                }

                                                else {
                                                    if (x[17] <= 2163.0) {
                                                        votes[1] += 1.3376908;
                                                    }

                                                    else {
                                                        votes[1] += -0.15464714;
                                                    }
                                                }
                                            }
                                        }
                                    }

                                    else {
                                        if (x[3] <= 28.0) {
                                            if (x[1] <= 5550.0) {
                                                if (x[22] <= 760000.0) {
                                                    if (x[21] <= 72000.0) {
                                                        votes[1] += -0.102803744;
                                                    }

                                                    else {
                                                        votes[1] += 0.5700576;
                                                    }
                                                }

                                                else {
                                                    if (x[4] <= 216.0) {
                                                        votes[1] += 0.38372096;
                                                    }

                                                    else {
                                                        votes[1] += -0.022332128;
                                                    }
                                                }
                                            }

                                            else {
                                                if (x[21] <= 48000.0) {
                                                    if (x[22] <= 936000.0) {
                                                        votes[1] += 0.29938838;
                                                    }

                                                    else {
                                                        votes[1] += -0.112598434;
                                                    }
                                                }

                                                else {
                                                    if (x[7] <= 9.0) {
                                                        votes[1] += -0.15275657;
                                                    }

                                                    else {
                                                        votes[1] += 0.32873562;
                                                    }
                                                }
                                            }
                                        }

                                        else {
                                            if (x[23] <= 6.0) {
                                                if (x[0] <= 1095.0) {
                                                    if (x[7] <= 3.0) {
                                                        votes[1] += -0.13098127;
                                                    }

                                                    else {
                                                        votes[1] += 0.20592824;
                                                    }
                                                }

                                                else {
                                                    if (x[0] <= 34080.0) {
                                                        votes[1] += 1.0708189;
                                                    }

                                                    else {
                                                        votes[1] += 0.46443257;
                                                    }
                                                }
                                            }

                                            else {
                                                if (x[21] <= 4240000.0) {
                                                    if (x[16] <= 505.0) {
                                                        votes[1] += 0.30976915;
                                                    }

                                                    else {
                                                        votes[1] += -0.041552536;
                                                    }
                                                }

                                                else {
                                                    if (x[16] <= 535.0) {
                                                        votes[1] += 0.6498722;
                                                    }

                                                    else {
                                                        votes[1] += 0.24462698;
                                                    }
                                                }
                                            }
                                        }
                                    }
                                }

                                else {
                                    if (x[28] <= 64000.0) {
                                        if (x[25] <= 1.0) {
                                            if (x[3] <= 1.0) {
                                                if (x[16] <= 673.0) {
                                                    if (x[21] <= 4656000.0) {
                                                        votes[1] += 0.21662778;
                                                    }

                                                    else {
                                                        votes[1] += 1.2025329;
                                                    }
                                                }

                                                else {
                                                    if (x[9] <= 4294058.0) {
                                                        votes[1] += 0.13928795;
                                                    }

                                                    else {
                                                        votes[1] += 0.49824944;
                                                    }
                                                }
                                            }

                                            else {
                                                if (x[3] <= 91.219) {
                                                    if (x[14] <= 44.0) {
                                                        votes[1] += -0.1476456;
                                                    }

                                                    else {
                                                        votes[1] += -0.01831597;
                                                    }
                                                }

                                                else {
                                                    if (x[11] <= 515.0) {
                                                        votes[1] += 0.15669957;
                                                    }

                                                    else {
                                                        votes[1] += 1.0537452;
                                                    }
                                                }
                                            }
                                        }

                                        else {
                                            if (x[27] <= 286.0) {
                                                if (x[14] <= 44.0) {
                                                    if (x[0] <= 35304.0) {
                                                        votes[1] += -0.061836366;
                                                    }

                                                    else {
                                                        votes[1] += 0.6279315;
                                                    }
                                                }

                                                else {
                                                    if (x[3] <= 91.233) {
                                                        votes[1] += -0.15568617;
                                                    }

                                                    else {
                                                        votes[1] += 0.2935943;
                                                    }
                                                }
                                            }

                                            else {
                                                if (x[21] <= 504000.0) {
                                                    if (x[8] <= 31.0) {
                                                        votes[1] += 0.21037108;
                                                    }

                                                    else {
                                                        votes[1] += -0.106878944;
                                                    }
                                                }

                                                else {
                                                    if (x[21] <= 9888000.0) {
                                                        votes[1] += -0.13413174;
                                                    }

                                                    else {
                                                        votes[1] += -0.048759412;
                                                    }
                                                }
                                            }
                                        }
                                    }

                                    else {
                                        if (x[3] <= 1.0) {
                                            if (x[4] <= 1095.0) {
                                                if (x[16] <= 1006.0) {
                                                    if (x[6] <= 1604.0) {
                                                        votes[1] += 0.45607457;
                                                    }

                                                    else {
                                                        votes[1] += 1.1036468;
                                                    }
                                                }

                                                else {
                                                    if (x[22] <= 17136000.0) {
                                                        votes[1] += 0.661212;
                                                    }

                                                    else {
                                                        votes[1] += -0.04805369;
                                                    }
                                                }
                                            }

                                            else {
                                                if (x[0] <= 51356.0) {
                                                    if (x[4] <= 1186.0) {
                                                        votes[1] += 1.1850016;
                                                    }

                                                    else {
                                                        votes[1] += 0.61050135;
                                                    }
                                                }

                                                else {
                                                    if (x[23] <= 9.0) {
                                                        votes[1] += 1.3002803;
                                                    }

                                                    else {
                                                        votes[1] += 0.64072275;
                                                    }
                                                }
