
#include "eml_net.h"
static const float X20_MLP_L36_layer_0_biases[36] = { 0.468441f, 1.374952f, -3.634382f, 4.279593f, -3.118857f, -1.551576f, 1.094768f, -2.630398f, -0.525318f, -1.907380f, -0.537853f, 3.275543f, -1.865587f, 0.925620f, -1.230133f, 2.586397f, 3.405655f, -2.575455f, 3.168532f, 2.512640f, -1.585792f, 0.075940f, 0.952170f, -0.726596f, -0.676503f, -2.430612f, 1.483367f, -2.168335f, -2.598801f, -2.794661f, 1.899502f, 0.355487f, 1.560755f, -3.417964f, -2.753956f, -2.324150f };
static const float X20_MLP_L36_layer_0_weights[576] = { 6.435005f, -4.857277f, -2.126115f, 1.094902f, -1.894818f, 1.984892f, 5.122173f, -1.976144f, 2.298128f, -0.956855f, 2.708873f, 4.989229f, -4.000213f, 1.024903f, -2.380760f, -0.553995f, -5.462607f, 1.887981f, 2.081114f, 2.702378f, -0.445412f, 3.408504f, -3.327391f, 1.118982f, -0.246246f, -0.677909f, -0.944349f, -1.285946f, -3.320363f, -0.389225f, 0.383721f, 0.020947f, 1.535653f, -2.160659f, -1.618529f, -0.422469f, 0.981410f, -3.261385f, 5.871168f, 10.803825f, 3.898409f, -0.001591f, 1.746678f, -1.255454f, 3.491609f, -1.149349f, -2.485939f, -2.365058f, 3.394315f, 0.298698f, -0.082533f, 2.082325f, 8.884696f, -1.188502f, -5.051331f, -0.073505f, -2.122228f, -2.704171f, 2.972821f, 0.640684f, 0.585364f, 0.230664f, 0.048783f, -2.424229f, -2.987583f, 1.156645f, 2.712860f, 1.446471f, 0.172928f, 1.236971f, -1.943604f, -10.661062f, 1.841879f, -1.151812f, -2.481081f, -3.701008f, -1.502254f, -2.332828f, 1.330886f, 1.232210f, -1.601993f, -2.992741f, -7.314991f, 0.165904f, 1.443204f, 0.707874f, -0.873097f, 3.260980f, 4.620951f, -0.922920f, 0.089673f, 0.396376f, 1.118858f, 3.770982f, 1.778747f, -0.675868f, 6.252040f, 0.861765f, -1.107148f, 0.045198f, -0.277675f, 2.591732f, 2.569142f, -2.329907f, -0.716999f, -1.237846f, 0.277775f, -2.222471f, -14.890570f, -0.665170f, 2.706228f, -2.501505f, -1.439939f, -0.945549f, -0.260694f, -1.996394f, 4.099567f, 1.019653f, -2.713773f, 12.319608f, 3.946973f, 6.158825f, 4.125849f, 9.482706f, -3.081863f, -4.239458f, 0.679004f, 6.405377f, 1.846656f, -1.899695f, -0.974193f, 3.999003f, 5.651087f, 0.150936f, -2.069632f, 0.142928f, -0.997686f, 3.790854f, 1.040969f, 3.580273f, 3.882786f, -1.036996f, -4.964700f, -1.238286f, -2.325963f, 0.144007f, -2.274462f, -3.821429f, 2.110939f, 6.284547f, -0.357219f, 0.030035f, 0.941912f, 0.583126f, -3.664951f, -0.921290f, 1.144981f, -3.249398f, 2.483408f, 2.904993f, 0.623010f, -0.121254f, 1.240988f, 0.143759f, 0.680491f, -5.166904f, 4.059654f, 0.395349f, 2.134398f, 0.914063f, 0.305865f, -1.855892f, 1.409806f, -2.625063f, -1.075379f, 0.331139f, 0.385899f, 0.056914f, 0.853137f, -2.118158f, -0.200731f, 0.045060f, -0.060072f, 0.313546f, 0.208256f, 0.046373f, -0.095088f, -0.296535f, 0.099445f, -0.161729f, -0.007038f, -0.407711f, -0.200329f, 0.510720f, 0.239426f, 0.045255f, -0.260369f, -0.048766f, -0.285687f, 0.015847f, -0.089143f, 0.113636f, 0.126506f, -0.216121f, -0.952789f, -0.360498f, 0.133517f, -0.296842f, -0.434113f, 0.302934f, 0.331723f, -0.199099f, 0.047288f, -0.217502f, -0.725586f, -0.796394f, -0.120392f, -0.079118f, 0.061072f, 0.224997f, 0.087443f, 0.254395f, -0.154506f, 0.202145f, -0.213463f, 0.307593f, 0.127360f, -0.193488f, 0.303737f, 0.158023f, -0.167036f, -0.195798f, 0.012188f, -0.322888f, -0.198382f, -0.050416f, -0.084664f, -0.024429f, -0.151525f, 0.060748f, 0.247114f, -0.259896f, 0.011579f, -0.251223f, 0.146829f, -0.070573f, 0.044628f, -0.215362f, -0.241413f, -0.008477f, -0.099113f, 0.298923f, 0.180325f, 0.171026f, 0.274345f, -0.282697f, 0.035280f, 0.058025f, 0.312638f, -0.141749f, -0.176682f, -0.270689f, -0.328396f, 0.290205f, 0.115359f, 0.194929f, -0.147805f, 0.058823f, -0.296193f, -0.009683f, 0.324524f, 0.257773f, -0.108993f, 0.312991f, -0.181533f, 0.305011f, 0.299584f, 0.201265f, 0.089679f, 0.253390f, -0.142775f, 0.237017f, 0.080690f, -0.331377f, -0.104914f, -0.239568f, 0.326313f, -0.015335f, -0.377520f, 1.120780f, -5.230772f, 0.779105f, -1.892950f, -2.650735f, 0.080548f, 1.429320f, -2.071391f, -1.640233f, 3.561598f, 6.424178f, 1.503986f, -0.678401f, 4.796640f, 1.515132f, 0.519338f, -0.519125f, 1.060498f, 2.213684f, 0.507566f, 0.846308f, 1.249699f, 2.631639f, -1.881640f, -0.766061f, 0.975213f, -1.960361f, -1.280044f, -2.874947f, 1.626363f, 0.152489f, -0.646811f, -2.132339f, 0.031487f, -0.936697f, 0.884229f, 0.092010f, 1.779438f, 2.617597f, -0.836218f, 0.726608f, 0.967017f, -3.404763f, 0.895727f, 0.317489f, -3.338279f, -2.135735f, -2.971219f, 1.216250f, -6.320877f, 0.311087f, 2.693635f, -2.581271f, 1.948883f, -0.715244f, -1.683295f, -1.349728f, -0.228036f, -4.058203f, 1.823408f, -1.445813f, 0.588938f, -0.132344f, -1.031261f, 0.107806f, 0.690011f, 0.665838f, 1.955347f, -1.640796f, -2.728900f, -0.128901f, -0.115307f, 0.551797f, 0.040630f, 0.131672f, 0.213523f, 0.371040f, -0.609942f, -0.443588f, 0.089977f, 0.307405f, 0.172596f, -1.611070f, 0.126306f, 0.398098f, 1.747152f, -0.203389f, 0.195103f, 0.338542f, 0.119786f, 0.639310f, 0.502058f, -0.257207f, 0.950611f, 0.052391f, 0.143157f, -0.096763f, 0.497636f, -0.752268f, -0.659679f, -0.066695f, -0.112261f, -0.670262f, -0.873328f, 0.055176f, -0.571452f, -0.164007f, -0.075514f, -0.097856f, -0.313383f, -0.195323f, -0.180930f, 0.372031f, -0.290845f, 0.267623f, 0.252373f, -0.076294f, -0.051120f, -0.198162f, 0.078197f, -0.331904f, -0.306556f, -0.049810f, -0.374141f, -0.141151f, -0.158567f, -0.164794f, -0.255032f, -0.321582f, -0.200012f, 0.062194f, 0.289823f, 0.305950f, -0.059585f, -0.260363f, 0.081718f, -0.005429f, 0.413239f, -0.315688f, -0.252336f, -0.189763f, -0.340400f, 0.089518f, -1.285194f, 0.014891f, -2.912676f, 2.509033f, -1.754787f, -1.630098f, -2.068309f, -1.376797f, 1.244564f, -0.909758f, -2.220319f, 0.387765f, -2.713613f, -0.419265f, 2.914354f, 2.896130f, 0.411410f, -0.435439f, 1.924424f, -0.122861f, -1.014975f, -3.190577f, 2.254430f, 1.605926f, -1.388561f, -0.821802f, -0.009772f, 1.273676f, -0.793097f, -4.504331f, -3.143203f, 3.810587f, 7.641390f, -1.647458f, -1.983842f, -0.716840f, 1.917365f, 0.756908f, -0.697053f, 1.551604f, -0.829826f, -0.414835f, 4.427252f, -0.434777f, -1.679385f, -0.435459f, 2.510085f, 4.446058f, 0.732764f, 0.526312f, -6.277900f, -0.336021f, 3.035151f, -1.873712f, 0.977392f, 2.318686f, -0.610607f, 3.268603f, -1.793584f, -2.767353f, 1.442268f, -1.354182f, 1.197678f, -2.353022f, -1.264696f, 1.575792f, 4.567887f, -2.433874f, -5.185170f, -1.750742f, -0.315489f, -0.765658f, -0.113097f, 0.288155f, 0.246238f, -0.306596f, -0.167469f, -0.036304f, -0.268599f, -0.102958f, 0.163110f, 0.122633f, 0.083340f, 0.143013f, -0.200466f, -0.107238f, 0.119760f, 0.257604f, 0.029653f, -0.147543f, -0.319116f, 0.143556f, -0.334335f, -0.086494f, 0.020842f, 0.286759f, -0.278888f, -0.063908f, -0.323200f, -0.106918f, 0.083028f, -0.150092f, -0.197172f, -0.261189f, 0.052329f, 0.132236f, 0.116761f, 0.304909f, -0.332993f, 0.098389f, 0.067182f, 0.071777f, 0.299135f, -0.319305f, 0.130361f, 0.204423f, 0.006706f, -0.095308f, 0.203537f, -0.363460f, -0.051402f, 0.020169f, 0.133685f, -0.274069f, -0.188009f, -0.055116f, 0.086382f, 0.263234f, 0.107067f, -0.248823f, 0.348981f, 0.260567f, -0.001731f, 0.187460f, 0.107721f, 0.151794f, 0.185195f, 0.314801f, 0.384847f, -0.346579f, -0.279000f, -0.086164f, 0.283783f, -0.332945f };
static const float X20_MLP_L36_layer_1_biases[10] = { 7.166761f, -1.072537f, 1.189690f, -1.124017f, 0.923468f, 0.613520f, 0.901015f, -2.125498f, -3.269762f, -2.415376f };
static const float X20_MLP_L36_layer_1_weights[360] = { 3.230813f, -3.934404f, -1.329409f, -2.538332f, -0.560871f, 2.384216f, -0.844593f, 1.570271f, 1.968135f, 0.244985f, 2.556009f, 1.198191f, 0.684779f, 1.453358f, 1.141727f, -1.275982f, 0.324319f, -1.323016f, -2.548957f, -1.800740f, 1.243808f, -3.563778f, 2.671102f, -6.172525f, 1.292299f, 1.641768f, 2.428929f, 0.155347f, 0.190131f, 0.856545f, 1.793769f, 1.073844f, 5.216615f, -3.054914f, -1.125956f, -4.962127f, 0.528613f, -0.841222f, 0.492425f, 1.089325f, -1.804380f, 0.328712f, -1.076614f, -0.657525f, 2.382507f, -1.185335f, -0.282660f, 0.632325f, 0.892197f, 0.505688f, 3.956802f, -0.819950f, 1.498616f, -5.524709f, -1.166748f, 0.482642f, 2.136091f, -1.369141f, 0.621797f, -0.254459f, -4.783552f, 1.692162f, 1.482714f, 0.909197f, -0.350432f, 0.084985f, 1.331828f, -0.357482f, -0.075125f, -0.175843f, -2.285284f, 0.235102f, 2.742553f, -2.756856f, -1.675418f, 2.555775f, -1.197073f, 0.949782f, 0.722576f, 0.550006f, -1.677009f, -2.997562f, 0.270141f, 0.933403f, -0.111079f, -0.621560f, -0.278195f, 2.227541f, 0.278286f, 1.250209f, 0.176527f, -1.083921f, 3.225844f, 0.169209f, 0.283300f, -1.496478f, -0.656376f, -0.774258f, -1.024627f, -0.652364f, 0.308467f, 2.777146f, -3.841655f, 0.150108f, -2.634237f, 1.847990f, -0.861084f, 1.616200f, 0.054839f, 0.837349f, -3.837774f, 4.462813f, 1.831912f, -0.849161f, -0.910888f, -0.345329f, -1.072674f, 0.217506f, 0.752099f, 0.383521f, -0.586361f, 0.780319f, -3.297718f, 1.967819f, -0.167160f, -0.075320f, -2.141123f, 1.409109f, 0.167568f, 1.148328f, 2.077334f, -2.557726f, -2.282088f, -0.130101f, 1.520218f, -1.383550f, 0.464220f, 0.942338f, 0.652198f, 0.554228f, 3.675269f, 4.214827f, -2.331733f, 2.308225f, 0.535027f, -5.794380f, -0.098395f, -1.549934f, -1.400087f, 0.334775f, 0.203157f, 4.802093f, 0.110645f, -1.431952f, -0.460614f, -4.406442f, 1.629614f, 1.711286f, -1.327525f, 0.364181f, -1.250070f, -3.482024f, 3.836560f, -0.601407f, 2.621969f, -1.148660f, 1.260264f, -1.834435f, 0.578236f, -0.172009f, -1.963199f, 3.468104f, 1.127007f, -0.074970f, 0.522121f, -1.451300f, -0.913210f, 0.593702f, -1.258830f, -1.027225f, -0.368557f, -0.888251f, -0.587095f, -3.611885f, 1.531841f, 0.888349f, -0.306077f, 1.307539f, 1.391088f, 0.404590f, 2.825228f, -4.675162f, -1.240852f, 0.039416f, 4.574563f, -0.682626f, 0.412420f, 0.244403f, -0.450947f, -0.138508f, 0.074900f, -2.255176f, 2.320778f, -0.213409f, -0.048769f, -0.102967f, -0.005266f, 0.412752f, -0.592294f, -0.432584f, 1.153628f, -1.343922f, -1.465034f, -0.743987f, -3.082265f, 2.283788f, 0.237546f, 1.011493f, 1.466551f, 0.039244f, 0.601210f, 1.870511f, 0.244210f, 1.234737f, -1.274046f, -0.986469f, 0.956651f, -0.334161f, -2.040531f, -0.113284f, 2.678350f, -3.486785f, 0.762485f, -1.674576f, 0.554420f, 1.533441f, -1.782693f, 0.884985f, -0.118167f, 1.326419f, -2.774330f, -0.528960f, 3.713226f, -2.310523f, -2.793692f, 2.409092f, -0.334414f, -0.004896f, 1.904589f, 0.972380f, -2.171545f, -1.168718f, 1.466446f, -3.005564f, -1.278328f, 2.171061f, -0.566323f, 1.681492f, 1.748702f, 1.152048f, 0.301709f, 0.366056f, 0.621922f, 0.584692f, 0.943337f, -1.949388f, 1.374317f, -0.789013f, -0.534127f, -0.863919f, -1.341282f, 0.812522f, -2.858189f, -0.804046f, 1.339292f, 1.221176f, -0.592069f, 1.428383f, 0.510165f, 0.962273f, -1.225403f, 1.013073f, 0.140724f, 1.836841f, -3.140914f, 1.497608f, 0.211965f, 0.528057f, 0.021495f, -0.444830f, 3.831052f, -1.514665f, -1.562756f, 1.371559f, -2.995409f, -0.503799f, -0.315119f, 0.641970f, 0.408675f, -0.251385f, 0.357008f, 1.076107f, 0.718369f, 1.320387f, -2.589483f, -2.406758f, 1.472309f, -0.593942f, 0.841673f, 0.139307f, -1.208590f, 2.241118f, 1.344303f, -1.082636f, -2.220302f, 2.004840f, 1.235422f, 0.327961f, -1.739464f, -0.564738f, -5.702068f, -0.449751f, 3.233537f, -0.125644f, 1.775585f, -2.307614f, 1.011262f, 0.221774f, -0.020812f, 1.417089f, -3.348297f, 1.064255f, -0.036030f, -0.791074f, 0.386026f, -0.416180f, -1.342940f, 1.474137f, 1.607455f, 1.597452f, -3.490638f, 0.804025f, -1.210549f, -0.975312f, 1.110065f, 0.631420f, 0.975282f, 0.339448f, 0.717139f, 0.786204f, -4.281362f, -1.832588f, 5.138174f, -0.345459f, -1.347115f, 1.795615f, -0.328130f, -0.270554f, 0.768540f, 0.183809f };
static float X20_MLP_L36_buf1[36];
static float X20_MLP_L36_buf2[36];
static const EmlNetLayer X20_MLP_L36_layers[2] = { 
{ 36, 16, X20_MLP_L36_layer_0_weights, X20_MLP_L36_layer_0_biases, EmlNetActivationTanh }, 
{ 10, 36, X20_MLP_L36_layer_1_weights, X20_MLP_L36_layer_1_biases, EmlNetActivationSoftmax } };
static EmlNet X20_MLP_L36 = { 2, X20_MLP_L36_layers, X20_MLP_L36_buf1, X20_MLP_L36_buf2, 36 };

    int32_t
    X20_MLP_L36_predict(const float *features, int32_t n_features)
    {
        return eml_net_predict(&X20_MLP_L36, features, n_features);
    }
    

    int32_t
    X20_MLP_L36_regress(const float *features, int32_t n_features, float *out, int32_t out_length)
    {
        return eml_net_regress(&X20_MLP_L36, features, n_features, out, out_length);
    }
    

    float
    X20_MLP_L36_regress1(const float *features, int32_t n_features)
    {
        return eml_net_regress1(&X20_MLP_L36, features, n_features);
    }
    