
#include <eml_net.h>
static const float X20_MLP_L46_layer_0_biases[46] = { -1.004182f, -0.001217f, -0.705604f, -0.840452f, -0.795337f, 0.850896f, 0.965589f, 2.068410f, -0.349304f, -4.643291f, 1.364187f, 0.089450f, 2.173528f, 0.181864f, -1.226480f, -0.359716f, 0.955805f, 1.343637f, 1.459106f, 1.551857f, -2.342684f, 0.063827f, -1.289954f, -0.285238f, -0.940853f, -0.819655f, -0.165390f, 0.247650f, 1.137760f, -0.782273f, -0.713603f, 0.019104f, 1.361529f, 0.998251f, -0.865881f, -1.922721f, -1.855121f, 1.409363f, -0.659565f, -2.161213f, 0.242699f, 0.161135f, 0.070658f, -0.353611f, -0.399951f, -0.070127f };
static const float X20_MLP_L46_layer_0_weights[552] = { -2.160587f, -0.477004f, -0.003554f, -0.708978f, -1.210800f, 1.967776f, 0.571302f, 0.275088f, 0.862635f, 1.444981f, 2.841457f, -0.636307f, -1.413204f, 0.424841f, -1.128583f, -2.797946f, 0.633454f, 1.092524f, 0.889602f, 3.450499f, 0.252430f, 1.407198f, -3.490201f, -1.273929f, -3.368757f, 2.589089f, -1.496514f, 0.120167f, -1.984163f, 1.148008f, -4.643921f, 2.730536f, -0.784871f, -1.049014f, 0.833579f, 1.429615f, -3.081586f, -0.417393f, 1.077740f, -0.895586f, -3.892983f, 0.104010f, 1.116438f, -0.303835f, 1.671072f, -0.150891f, 2.239551f, 1.167144f, 1.031082f, -0.594290f, -0.136456f, 2.298086f, -1.190421f, -1.041296f, -2.074882f, -1.045387f, -1.329013f, -2.244535f, 0.746188f, -0.525629f, 0.074115f, 1.792853f, 1.110836f, -0.393264f, 6.535989f, -3.820821f, 5.305841f, -0.260333f, 2.080066f, -2.122249f, -1.553488f, 1.583461f, -0.309216f, -1.062703f, 0.837338f, -3.348927f, 0.777954f, -0.353495f, 0.221064f, 0.024347f, -2.024684f, 0.444827f, -2.391492f, -0.753304f, -1.626127f, 1.556991f, 4.120219f, 1.774730f, -1.880859f, 1.540961f, -0.390312f, -0.657830f, -0.679115f, 3.173124f, -0.969765f, -0.598119f, -1.158177f, -0.811291f, 0.623050f, -4.676708f, 1.475263f, -1.774098f, 2.592664f, 7.673192f, -1.134914f, 0.062261f, 0.254114f, -3.586781f, -2.226852f, 0.055757f, -0.056788f, 1.451419f, 3.577118f, -1.410428f, 2.731352f, -0.645286f, 5.207139f, 7.675556f, 3.108152f, 3.723622f, 3.841361f, -5.567870f, 1.766516f, 0.893576f, -4.898723f, 3.147101f, -1.202816f, -2.452663f, 0.701083f, -6.114050f, 0.426384f, -4.022571f, -9.336032f, 2.738652f, -3.907091f, 2.600809f, 1.193381f, 5.616025f, 0.013821f, 1.377152f, -0.489610f, 1.680938f, -0.193191f, -2.200672f, -0.185490f, -1.042279f, 1.435477f, -0.314621f, 1.236187f, 2.129205f, 0.187343f, 1.147941f, -0.390215f, -0.450445f, -0.551888f, 1.229919f, 2.168838f, 0.162016f, 1.187656f, -0.425677f, 1.729322f, 0.952511f, 1.448632f, 3.614585f, -0.172534f, 0.627871f, 1.136310f, -2.316739f, 3.434612f, 1.050352f, -0.257597f, 0.532996f, -1.351391f, -3.301495f, 0.738163f, -5.080926f, 0.193498f, -1.354729f, -4.268307f, -0.306366f, 0.525355f, 1.397625f, -0.723781f, 0.778187f, 1.335840f, 0.911842f, -0.632275f, 2.451191f, -0.335920f, -0.889371f, -0.070353f, 0.413877f, -1.904537f, 4.846578f, -0.037030f, -0.040175f, -0.979222f, 0.557537f, -0.026309f, -0.326550f, 1.429833f, -0.427006f, -2.284731f, -2.975144f, -2.607901f, 0.983074f, 0.148436f, -1.043980f, -1.195112f, -0.848092f, 0.081212f, 0.164769f, 5.847445f, 1.610773f, -0.669933f, 1.907840f, -1.487354f, 2.947031f, 1.162577f, 5.818251f, 1.772193f, 9.741513f, 3.170584f, -2.268480f, -0.860487f, 3.037168f, 1.394399f, 0.885395f, 0.569126f, -1.340143f, 0.205478f, -0.691014f, 0.877885f, 1.484355f, -0.164346f, -1.089221f, 0.269021f, 0.303591f, 0.861468f, 2.841508f, 1.114472f, -2.513336f, -1.054322f, -0.934216f, -0.654804f, -1.712746f, -2.199529f, 1.228593f, -1.406833f, 0.715887f, -2.714840f, 1.383014f, -1.690784f, 2.817327f, -0.342723f, 0.348954f, -1.163211f, -2.273809f, 3.715104f, 2.429011f, 2.525469f, -0.152937f, -2.641959f, 0.790302f, -0.556228f, 1.053278f, 2.497633f, -0.221342f, -0.684779f, -4.943503f, 0.760470f, 0.674259f, 0.578404f, -0.641533f, -1.361683f, -0.380097f, -1.846549f, -0.327573f, -0.762225f, -0.801768f, -1.752773f, 1.979079f, 0.243964f, -0.598038f, -0.606765f, -6.979462f, 1.911896f, -0.053585f, 1.355160f, 0.642727f, -1.291366f, 0.623114f, 3.099771f, 1.126692f, 3.006469f, 1.979782f, 1.814934f, -0.334294f, -0.240124f, -1.336048f, -1.261916f, -0.398963f, 1.458950f, 0.518923f, -2.684985f, -3.639299f, -3.409506f, -0.403195f, 3.736706f, -0.389306f, -0.287806f, -2.140639f, -4.917145f, 0.765718f, -0.035754f, 1.238556f, -0.423084f, -0.568846f, -0.748639f, 0.492810f, 0.473577f, -0.180395f, 0.513804f, 0.884960f, -1.003430f, -1.352441f, 1.093487f, 0.320594f, 0.228921f, 1.700149f, -1.126864f, -0.254455f, -1.712387f, 2.283992f, 2.059717f, 0.233157f, 0.593279f, 0.076014f, 0.148991f, -1.862264f, -0.714815f, -1.225253f, -1.610966f, -0.690212f, 1.017843f, -1.453615f, 1.415536f, -1.234101f, -0.450524f, 1.820578f, 0.657324f, -0.280463f, -0.239034f, 0.309728f, -0.002272f, 0.838449f, 0.414596f, -0.834706f, 0.366811f, 0.687886f, -0.464420f, 1.374500f, 0.078518f, 0.288484f, 0.740265f, -0.108876f, 0.400675f, 0.496269f, 0.304138f, -0.240731f, 0.567257f, 0.144123f, 0.488236f, 0.092117f, 0.095879f, -0.633207f, -0.036810f, 0.552378f, -0.642235f, -0.411737f, -0.110606f, -0.694722f, 0.065918f, -0.144740f, 0.250289f, 0.119212f, -0.061561f, -0.394602f, 0.077665f, -0.068634f, -0.546877f, 0.155195f, -0.430583f, 0.393905f, -0.291838f, -0.085531f, -0.327940f, 0.191861f, 0.088372f, -0.590078f, -0.496973f, -0.029811f, -0.450977f, 0.273519f, 0.440392f, -0.347300f, -0.065943f, -0.789283f, 0.040743f, -0.826387f, -0.609966f, 0.034552f, -0.320516f, -0.057366f, -1.984113f, -0.615074f, -0.640240f, -0.439749f, -1.872362f, 0.603776f, 0.639660f, 1.065603f, -0.275391f, -1.985272f, 3.377334f, -1.153345f, 1.219721f, 0.622029f, -2.268718f, 0.159369f, -0.531528f, 4.200096f, -1.518142f, 1.645984f, -2.103606f, 0.082635f, -0.714325f, 0.782939f, 0.506522f, -0.409316f, 0.331432f, 0.209427f, 4.691944f, -0.024901f, -2.886307f, -0.170040f, 1.237388f, 3.269464f, -2.389498f, 1.685924f, -2.801679f, 1.259789f, -1.303401f, -1.158224f, 2.707461f, 2.512939f, -0.698862f, -3.194163f, -1.379123f, 1.479433f, 0.647086f, 0.727422f, -0.947099f, -0.546961f, 0.512665f, 0.165535f, 0.256081f, 1.358309f, 0.236484f, -3.062522f, -1.615549f, 1.752540f, 1.693876f, -0.088207f, 1.704993f, -0.572156f, 1.192924f, -2.607705f, 3.126054f, 0.455358f, -0.289579f, -0.126444f, -0.789099f, -1.333691f, -1.056585f, -0.816135f, -0.635312f, 0.623127f, -2.524798f, -1.406653f, 1.492416f, 0.810031f, 0.888052f, -1.549916f, 2.347351f, -3.198367f, 0.866283f, 0.458333f, 0.120168f, -0.890851f, -2.373986f, -2.096855f, 1.331202f, 2.315860f, 1.151218f, -1.112959f, 0.233218f, -0.290307f, -0.158543f, -0.034021f, -0.253911f, -0.097650f, 0.154322f, 0.116185f, 0.079048f, 0.133189f, -0.190448f, -0.102005f, 0.113286f, 0.244153f, 0.028849f, -0.140349f, -0.301894f, 0.134659f, -0.316190f, -0.081717f, 0.019692f, 0.271662f, -0.264309f, -0.060478f, -0.307317f, -0.101118f, 0.078136f, -0.142863f, -0.188344f, -0.247482f, 0.051993f, 0.126641f, 0.111613f, 0.288196f, -0.318881f, 0.094013f, 0.064956f, 0.057127f, 0.298482f, -0.311348f, 0.125593f, 0.201089f, 0.006925f, -0.105686f, 0.187672f, -0.260607f };
static const float X20_MLP_L46_layer_1_biases[5] = { 1.105180f, 0.272541f, -0.796804f, 1.329972f, -1.971735f };
static const float X20_MLP_L46_layer_1_weights[230] = { -0.593849f, -0.567755f, 3.565019f, -2.139966f, -0.235484f, 1.308168f, 1.490199f, -0.202964f, -1.643703f, -1.520721f, -0.186712f, -0.640896f, 1.105526f, -0.425627f, 0.248503f, -0.580865f, 0.848296f, 1.817025f, -2.912411f, 0.364113f, -0.088424f, 1.503411f, -0.659087f, -1.085864f, 0.746648f, -1.989112f, 0.830939f, 1.850745f, 1.235058f, -0.801309f, -1.020745f, -0.041474f, -0.487746f, 0.640023f, 0.031871f, -0.494964f, 0.193880f, 3.848244f, -1.972711f, -1.589440f, 4.065475f, -0.290650f, -3.053036f, -0.479780f, 0.857298f, -1.127391f, -2.023333f, -2.155748f, 3.442899f, 1.705548f, 2.622549f, -4.012493f, -3.098631f, 4.884421f, -0.546946f, -1.560536f, 2.396694f, 4.157323f, -3.123658f, -2.436732f, 1.303171f, 0.699615f, -1.421298f, 1.112083f, -1.463649f, 2.021038f, 1.579693f, -1.732358f, -0.877583f, -1.271389f, 1.260610f, 0.659420f, -0.106566f, -1.327042f, -0.281720f, -0.037988f, 0.694211f, -0.072653f, 0.636823f, -1.008328f, -1.285119f, 1.888692f, -0.787950f, -0.181396f, -0.476711f, -0.262590f, -1.992145f, 1.492913f, 1.235769f, -0.274084f, 2.920039f, 1.538056f, 0.464891f, -3.376551f, -1.550747f, 2.944521f, -0.435263f, -5.533175f, 1.668260f, 0.671869f, 3.757890f, 0.769164f, -5.151675f, -0.391099f, 0.698473f, 0.397134f, -0.347508f, -0.195689f, -1.236955f, 0.174235f, -0.607845f, -0.109511f, 1.059886f, 0.904853f, -1.304225f, 1.242066f, -2.593809f, 0.280700f, 0.091716f, 0.478958f, -1.554106f, -0.255387f, 1.416786f, 1.018455f, -0.393809f, -2.285178f, 1.338610f, 5.409193f, -2.514411f, -1.025712f, -0.677248f, 0.452068f, -2.199434f, 2.390096f, -0.057273f, -1.715375f, 0.534406f, 1.087877f, 1.364076f, -1.449113f, 1.399863f, -3.036523f, -3.400182f, 3.350746f, 0.861958f, -0.003769f, -0.662436f, -1.953494f, 1.187322f, 1.414769f, 3.329784f, -0.054497f, -3.364873f, -0.998309f, 1.605648f, 2.464889f, 1.036730f, -1.189162f, -2.854640f, 0.225713f, 2.227822f, 1.587861f, 1.843102f, -2.993971f, -2.782952f, 0.724926f, -0.939405f, -2.089331f, 2.701873f, 0.308813f, 2.038873f, 0.760492f, -2.257923f, 0.371209f, -0.641641f, 2.012371f, -1.919238f, -4.266554f, 2.818103f, 1.238652f, 3.239399f, -0.270997f, -4.652066f, 0.108503f, 1.939587f, 5.992049f, -0.539705f, -5.960181f, 0.369158f, -0.577232f, 1.693286f, 0.525383f, -0.704374f, -1.709968f, -0.186091f, 2.785267f, 2.040898f, -0.776822f, -0.721702f, -3.217919f, 1.188925f, -3.084332f, -5.649633f, 6.727263f, 0.352531f, 1.513381f, -1.060241f, 0.970457f, -0.874269f, -0.067706f, -0.599023f, 1.489154f, 1.332487f, -0.952729f, -0.971366f, 0.693791f, 0.598593f, -0.909051f, -1.520435f, 0.646836f, -0.258741f, 0.594134f, -0.343838f, -0.094072f, -0.113046f, -2.454276f, -0.620646f, 1.435874f, 1.659630f, -0.172916f };
static float X20_MLP_L46_buf1[46];
static float X20_MLP_L46_buf2[46];
static const EmlNetLayer X20_MLP_L46_layers[2] = { 
{ 46, 12, X20_MLP_L46_layer_0_weights, X20_MLP_L46_layer_0_biases, EmlNetActivationTanh }, 
{ 5, 46, X20_MLP_L46_layer_1_weights, X20_MLP_L46_layer_1_biases, EmlNetActivationSoftmax } };
static EmlNet X20_MLP_L46 = { 2, X20_MLP_L46_layers, X20_MLP_L46_buf1, X20_MLP_L46_buf2, 46 };

    int32_t
    X20_MLP_L46_predict(const float *features, int32_t n_features)
    {
        return eml_net_predict(&X20_MLP_L46, features, n_features);
    }
    

    int32_t
    X20_MLP_L46_regress(const float *features, int32_t n_features, float *out, int32_t out_length)
    {
        return eml_net_regress(&X20_MLP_L46, features, n_features, out, out_length);
    }
    

    float
    X20_MLP_L46_regress1(const float *features, int32_t n_features)
    {
        return eml_net_regress1(&X20_MLP_L46, features, n_features);
    }
    