
#include <eml_net.h>
static const float X60_MLP_L36_layer_0_biases[36] = { 0.599065f, 0.052513f, 1.120290f, 0.986202f, 1.004958f, -0.168830f, 0.493923f, 0.174364f, 1.096850f, 1.063003f, 0.342538f, 0.120503f, 1.818317f, -0.083982f, -0.064939f, 0.299481f, -0.918496f, 1.299354f, -0.499083f, -0.751526f, -0.429470f, 0.532520f, 0.179871f, 0.249957f, -0.753286f, 1.493311f, 0.825638f, 0.195790f, 0.351305f, -0.294869f, -0.311359f, 0.180255f, -0.245332f, -0.083438f, -0.053180f, -0.112931f };
static const float X60_MLP_L36_layer_0_weights[1080] = { 0.798912f, -0.875674f, 2.837694f, -0.572222f, 0.831377f, 0.365488f, 2.483174f, 1.343102f, 0.106385f, 0.277629f, -0.767938f, 1.825073f, -0.147712f, 2.041096f, -1.752576f, -0.030107f, -0.150832f, -0.572782f, -0.703737f, 0.949698f, 0.976627f, 0.408372f, -0.749508f, -0.085001f, -0.360477f, -0.094898f, -1.465136f, 0.069273f, -0.189676f, 0.512008f, -2.573903f, -0.984776f, 0.578348f, 1.186734f, -0.409777f, 0.997540f, -0.001032f, 0.197434f, 0.499588f, 0.250212f, 0.384774f, 1.041664f, -0.297125f, -0.201964f, -1.823215f, -0.393709f, 0.855634f, -0.730243f, -0.292103f, 1.692780f, -0.293509f, 0.279675f, 1.315861f, -1.405740f, -0.144454f, -0.923520f, -0.729803f, 0.644866f, -0.437794f, -0.168943f, -0.011313f, 0.512331f, -0.341006f, -0.098576f, 0.998056f, 0.152772f, 1.719839f, -1.419917f, 0.500648f, -0.045631f, 0.602772f, -0.783234f, 0.762957f, -0.508229f, -0.493123f, 0.078114f, 1.426342f, -0.575520f, -0.280193f, -1.084559f, -0.772268f, -1.491775f, -0.322896f, -0.076350f, -0.218825f, -0.709230f, 1.441355f, -0.326735f, 1.016839f, 0.171748f, 0.282088f, -1.501241f, -0.046133f, 0.341471f, 1.002549f, -1.538485f, 1.199670f, 0.733216f, 0.766585f, 0.822753f, 1.873555f, -1.151115f, -0.685488f, 0.153589f, -0.727262f, 0.988467f, 1.796306f, -0.592461f, -0.449002f, 0.107131f, 2.179763f, 0.454912f, -0.064591f, -0.394357f, 0.964904f, 0.409894f, 2.111973f, 0.759152f, 1.544902f, 0.786692f, 5.365896f, -1.850944f, 1.546956f, 0.179248f, -1.631265f, 1.199273f, 0.295889f, 0.671252f, 0.501298f, -1.613676f, -0.594651f, -0.392850f, -0.678519f, 1.453678f, -1.134787f, 2.670414f, 0.277064f, 0.239104f, 0.090549f, 0.036707f, 0.018709f, -0.165078f, -0.045987f, 0.623869f, -0.085285f, 1.013462f, -1.977106f, 0.255071f, 0.308883f, 0.424790f, -1.165042f, 1.118379f, -0.012094f, 0.062399f, 0.617625f, 0.234726f, -0.685913f, -0.040046f, 0.076417f, 0.273747f, 1.697513f, 0.230010f, -0.307121f, -0.715177f, 0.854064f, 0.712988f, -1.050406f, -0.161581f, 0.239179f, 0.240596f, 0.191043f, -1.865670f, 1.066240f, -0.283578f, 0.184124f, 0.031695f, 0.079357f, 1.927794f, 0.677429f, -0.025526f, -0.265928f, -0.846323f, 1.612012f, 0.082684f, -0.005712f, 0.872028f, 0.321821f, -0.924074f, -0.181589f, 1.292061f, -0.204925f, 0.170817f, 0.167738f, 1.545937f, -0.967919f, 0.923527f, -0.140476f, -0.162495f, -0.397616f, 0.188392f, 0.598816f, 0.845202f, 1.541119f, 1.410429f, 0.553088f, 0.383664f, 1.609335f, 0.767782f, -0.739897f, -0.480920f, 0.347089f, 0.674962f, 0.352215f, -0.922866f, -0.806567f, 1.513092f, 0.945331f, -1.102844f, 4.903734f, 0.241334f, 0.419748f, 2.406869f, 1.209056f, 1.104748f, -0.750149f, 1.891309f, 0.514490f, 0.004641f, 3.924329f, 0.675011f, -1.685282f, 0.250909f, -2.526945f, -0.904014f, -0.874016f, 2.463291f, -0.177332f, -1.344582f, -0.608566f, 3.338939f, 0.989704f, 1.712173f, 0.029391f, -0.893252f, 2.710780f, 0.590502f, -0.614430f, -0.216153f, -1.011624f, -0.653352f, -2.341938f, 2.863120f, 1.736152f, 0.345130f, 0.566488f, 0.134699f, -0.550696f, 2.014382f, 0.790775f, 0.306330f, 0.411646f, 0.336975f, 0.579350f, -0.434173f, 0.454156f, 0.705876f, 0.081932f, 0.442996f, -1.123962f, -0.948548f, -0.400874f, 0.585540f, 0.484731f, -0.068582f, -0.440198f, 0.063341f, 0.019560f, 0.667050f, 0.628951f, -0.123980f, 0.330815f, 0.519993f, -1.100640f, -0.169449f, 1.537396f, -0.261094f, 1.339565f, -0.231469f, -0.607358f, 0.071537f, 0.896761f, -0.126608f, 0.218946f, -0.469727f, 0.062064f, -0.073470f, -0.260706f, 0.207438f, 0.277827f, 0.271816f, 1.177472f, 0.211809f, -0.003280f, -0.180860f, 0.815408f, -0.555256f, -0.262304f, -0.350190f, 0.092022f, -0.310925f, 0.350039f, -0.097454f, -0.631207f, -0.653959f, 0.410214f, -0.161365f, 0.628086f, -0.049981f, 0.599253f, 0.407132f, -0.131916f, -0.566233f, -0.899893f, 0.048576f, -0.802504f, -0.091891f, 1.231404f, 0.234719f, -0.057516f, -0.451068f, -0.150008f, 0.247162f, -0.281149f, 0.100169f, 0.159672f, 0.160433f, 0.935883f, 0.685017f, 0.163541f, -0.063730f, 0.922834f, -0.669609f, -0.080610f, -0.389008f, 0.168382f, -0.307327f, 0.197368f, 0.045597f, -0.524568f, -0.221084f, 0.364630f, -0.289100f, 0.711787f, 0.025526f, 0.472309f, 0.431778f, -0.125344f, -0.630300f, -0.788069f, 0.281330f, 0.261961f, 0.868931f, -0.845053f, -0.393196f, -0.046122f, 2.038020f, -0.721834f, -0.242230f, -1.244177f, 2.147471f, 1.219075f, -1.009537f, 1.828925f, -0.748537f, 0.376619f, -0.343156f, -0.486759f, -0.728673f, -0.009338f, 0.054781f, 0.200540f, -1.694212f, -0.413384f, 0.888629f, 0.205268f, 0.074008f, 0.426815f, 0.423913f, -0.586715f, 1.096978f, 2.881932f, -1.115953f, 1.749814f, -0.615403f, -0.121356f, 0.366033f, 0.044481f, -0.374393f, 1.485032f, -0.274918f, 0.739466f, -0.617363f, 0.516404f, 0.577022f, 1.291455f, -1.381128f, 0.081513f, 0.248668f, -1.503529f, 0.120449f, -1.044086f, 0.094507f, 0.684641f, -1.082098f, 0.065287f, 0.332399f, -0.358237f, -0.251753f, -0.890385f, 0.062860f, 0.618832f, 0.551549f, -2.341743f, -0.282157f, -0.349222f, 0.332337f, 0.291910f, -0.482698f, -0.049211f, 0.375778f, -0.552191f, 0.353903f, -0.025713f, -0.130049f, -2.129541f, 0.123053f, 0.235607f, 1.019526f, -0.205157f, 0.229803f, -0.382939f, 1.376493f, 0.241033f, -3.268050f, 2.203264f, 2.677460f, 0.336331f, -0.088807f, -0.373012f, 1.190329f, -0.067198f, 0.192903f, -0.005104f, -1.150509f, 0.296577f, -0.707469f, 0.839877f, 0.467204f, 1.381105f, 0.578743f, -0.841383f, -2.138510f, 0.043164f, 1.773957f, -2.228815f, -0.584670f, 0.721571f, -0.376896f, 0.771713f, 0.211978f, 0.420287f, 0.348956f, 1.169953f, 0.221308f, 0.454637f, 0.716783f, 0.622198f, 0.346361f, 0.271872f, -0.661178f, -1.184372f, -9.708561f, -1.869904f, 0.015857f, 0.115812f, -0.434143f, 1.205998f, 0.569657f, 2.203989f, -1.602189f, 0.335037f, -0.028632f, 2.287515f, -1.728575f, -1.024564f, -0.315869f, -0.050562f, -0.337199f, -1.935256f, -0.898065f, 0.351318f, 0.040794f, 2.852945f, 2.010342f, 1.017261f, 1.257831f, -0.491107f, 0.150465f, -0.806564f, 1.032576f, -0.386862f, -0.355158f, 2.177916f, 0.651484f, 1.132979f, 2.083498f, -0.355414f, -1.785799f, 0.841744f, 1.105987f, 0.154064f, 0.567951f, 0.578376f, -0.753183f, 0.169817f, 0.481595f, -0.467120f, 2.754334f, -0.327164f, 0.084433f, -1.961487f, 0.519828f, 0.090516f, -1.691603f, -0.259968f, -0.816281f, 0.975855f, -0.375520f, 0.215628f, -1.111752f, -0.059551f, 0.023079f, 0.688714f, 0.623249f, 0.594167f, -0.419436f, 0.344601f, 0.182837f, 0.517082f, 0.615897f, 0.760337f, -0.002172f, 0.416797f, -0.148411f, 0.220297f, -0.186832f, -0.308993f, 0.702103f, -0.343922f, -0.187169f, 0.023372f, -0.119591f, 0.470120f, 0.243409f, -0.491764f, 0.804642f, 0.841149f, 0.418641f, 0.476096f, -0.102178f, 0.068440f, -0.305670f, -0.279087f, -0.202214f, 0.425947f, -0.284813f, 0.215547f, 0.185617f, 0.676300f, 0.380608f, 0.267197f, -0.014523f, 0.507421f, -0.195826f, 0.454933f, 0.179838f, -0.432133f, -0.156579f, 0.948175f, 0.090156f, 0.217437f, 0.323475f, -0.378375f, 0.278967f, -0.268117f, -0.062350f, -0.341243f, 0.154508f, 0.067295f, 0.322029f, -0.748601f, 0.668733f, 0.106745f, 0.030683f, 0.155453f, 0.113449f, -0.077692f, 0.094479f, -0.067837f, 0.175085f, -0.197341f, 0.096327f, 0.851891f, -0.151077f, 0.472358f, 0.632417f, 0.530349f, -0.210071f, 0.532583f, 0.206163f, 1.269517f, 1.388764f, 0.442527f, 0.367149f, 2.213135f, -0.133990f, 0.584970f, 0.233941f, -1.078360f, 0.977122f, -0.867511f, -1.145525f, -0.713836f, 0.361513f, 0.837241f, 0.479988f, -1.646842f, 1.081405f, 0.860336f, 0.669401f, 1.052707f, -0.114524f, -0.035125f, 0.675273f, -0.389963f, -0.594690f, 0.546427f, -0.339350f, 0.310781f, -0.425846f, 0.619965f, 0.026426f, 0.155888f, -0.133307f, 0.391857f, -0.118057f, -0.528915f, -0.438730f, 0.044987f, 0.460542f, -0.307362f, 0.268240f, -0.480083f, -0.109026f, 0.293874f, -0.232281f, 0.138654f, 0.113100f, 0.495484f, 0.009331f, -0.412338f, -0.192429f, 0.439323f, -0.255248f, 0.202357f, 0.028553f, -0.338335f, 0.141970f, -0.040388f, -0.566627f, 0.101185f, 0.393764f, -0.736185f, 0.607056f, 0.008745f, 0.195167f, 3.586883f, -0.122643f, 1.187052f, -0.829878f, 1.678868f, 0.547733f, 0.448818f, -0.800006f, 0.279616f, 1.828518f, -2.332604f, -0.392515f, -0.128248f, 0.820924f, 1.347488f, -1.084474f, -0.234317f, -0.338983f, 0.779590f, -0.472967f, -0.735025f, -0.793137f, -1.586402f, 0.192070f, -1.398383f, -0.632981f, -0.905129f, 1.174666f, -0.092582f, -1.170408f, 1.512952f, 1.424517f, -1.318068f, 0.890842f, 2.017903f, -0.254251f, -2.761138f, 0.788214f, -0.411572f, 1.200360f, -0.395029f, 0.133891f, -0.807322f, 0.918190f, 0.491923f, -1.237096f, 2.654519f, -1.151399f, -0.089501f, -0.337978f, -1.662947f, 2.834628f, -0.609074f, -0.972454f, -0.597182f, 0.186565f, -0.309824f, -0.676892f, 1.322339f, 0.746677f, 1.873574f, 0.885095f, 0.733468f, -0.862540f, -0.000013f, 0.537691f, -0.073424f, -0.338012f, 1.205050f, -0.526464f, -1.527200f, -0.032886f, 0.197395f, 0.249097f, 0.440152f, -0.646338f, -0.211236f, -0.717242f, 1.613100f, 1.058933f, -0.029250f, -0.472154f, 1.355731f, 0.969606f, 0.508326f, -0.177181f, -0.693518f, -1.086242f, 0.046181f, -0.051075f, -0.958406f, 0.599066f, 1.092759f, 1.274242f, -1.193290f, 0.301989f, 0.572287f, 0.565550f, 0.745991f, -0.798653f, -0.487003f, 0.451682f, -1.425133f, -1.174207f, -0.094842f, -0.089786f, 0.627678f, -0.236674f, 0.515022f, 0.010828f, -0.200805f, -0.490962f, 0.043564f, -0.027638f, -0.005895f, -0.041870f, -0.464833f, 0.144897f, 0.214286f, -0.483504f, 0.397799f, -0.017005f, 0.172375f, -0.344773f, -0.187620f, -0.280348f, -0.124536f, 0.161342f, -0.471511f, 0.022816f, -0.651435f, -0.089520f, 0.056404f, -0.221193f, -0.107299f, 0.099788f, -0.217471f, 0.113943f, -0.060837f, 0.805197f, -0.506651f, 0.805879f, 1.906701f, -0.391855f, 1.347597f, 0.355622f, 0.384181f, 0.156372f, 1.692884f, 0.447573f, 0.640904f, -0.385894f, 0.800854f, 2.094790f, -0.071150f, -0.314412f, -0.908710f, 0.796006f, 0.226275f, 1.062429f, -0.591414f, -1.198310f, -0.050306f, -0.663568f, 0.189482f, 0.082210f, -1.905641f, 1.179766f, 0.032421f, 0.368355f, 0.610586f, 0.384806f, -1.128616f, -1.079580f, 1.023431f, -0.148834f, -0.010994f, -1.275855f, -1.571439f, 0.358686f, -0.385425f, 0.219248f, 0.900935f, 0.017154f, -0.688483f, -0.578787f, 0.206187f, 1.183865f, -0.196590f, -1.866444f, 1.618266f, 0.312480f, 0.976309f, -0.393509f, -0.668432f, 0.560078f, 0.311947f, 0.879773f, -0.157207f, 0.917118f, 0.767354f, 0.064123f, 0.804954f, 0.512140f, 1.090802f, 0.445258f, -0.367825f, -1.012252f, 1.025147f, 0.843619f, -0.812017f, 0.055810f, 0.138332f, 0.568732f, 0.186358f, -0.091582f, -0.176062f, -0.264517f, 0.227069f, 0.252581f, -0.229307f, -0.099806f, -0.196847f, -0.231812f, 0.241324f, -0.267252f, 0.289762f, -0.231260f, 0.217250f, 0.039744f, -0.076392f, -0.088460f, 0.155381f, -0.108797f, 0.094968f, 0.010654f, -0.009116f, 0.236764f, 0.033535f, 0.196413f, 0.136054f, -0.278282f, 0.163830f, -0.170920f, 0.243096f, -0.276590f, -0.101951f, -0.241141f, -0.015252f, 0.193474f, 0.114875f, -0.278708f, 0.535931f, 0.756099f, 0.095838f, -0.296968f, -0.025075f, 0.112002f, 0.474499f, 0.598412f, 0.707544f, 0.154776f, 0.591031f, 0.057512f, -0.094660f, 0.346677f, -0.332109f, 0.615061f, -0.613607f, -0.511234f, -0.050044f, 0.123043f, 0.369167f, 0.242471f, -0.682094f, 0.623947f, 0.579501f, 0.125723f, 0.159561f, -0.455872f, -0.203900f, 0.128079f, -0.348693f, 0.136501f, 0.223146f, -0.315248f, 0.688873f, -0.040996f, 0.999912f, -0.044995f, 0.495548f, -0.233703f, 0.416556f, 0.120204f, 0.564260f, 0.519783f, -0.010223f, 0.131481f, 1.465581f, -0.188205f, 0.325952f, 0.283752f, -0.671332f, 0.440076f, -0.442121f, -0.471915f, -0.431479f, 0.168115f, 0.307929f, -0.198158f, -0.523509f, 1.036949f, -0.163223f, 0.413812f, 0.157250f, -0.207860f, 0.046682f, 0.362739f, -0.345649f, 0.440377f, -0.087266f, -0.132746f, 0.610673f, 0.270349f, 0.934640f, 0.449107f, 0.353585f, -0.286603f, 0.299530f, -0.132651f, 1.323014f, 1.141123f, 0.431106f, 0.179551f, 1.779397f, -0.893683f, 0.705724f, 0.449640f, -0.924824f, 1.092996f, -0.568840f, -1.143444f, -0.280696f, 0.121037f, 0.644838f, -0.075019f, -0.897318f, 1.572749f, 1.105568f, 0.419780f, 0.552538f, -0.483310f, -0.445785f, 0.701815f, -0.376518f, -0.451901f, 0.684465f, -0.278337f, -0.403110f, -0.151930f, 0.543535f, 0.231592f, 0.290612f, 0.303656f, 0.039825f, -0.160768f, -0.491538f, -0.394578f, 0.247997f, 0.161498f, -0.388284f, 0.825805f, -0.315674f, -0.000846f, 0.588947f, 0.085710f, -0.303711f, -0.124109f, 0.280028f, -0.322181f, -0.611726f, 0.147363f, 0.335639f, -0.179808f, -0.460195f, 0.213555f, -0.466386f, -0.105264f, 0.204380f, -0.695758f, -0.140952f, 0.747247f, -0.541786f, 0.458126f };
static const float X60_MLP_L36_layer_1_biases[5] = { 1.041428f, -0.254765f, 0.716148f, -0.110266f, -1.181134f };
static const float X60_MLP_L36_layer_1_weights[180] = { -1.249815f, -1.391954f, -0.086565f, 2.977885f, 0.004766f, 0.341058f, 1.096490f, -0.367945f, 0.072624f, -0.336163f, -1.098126f, -2.531838f, -0.268740f, 2.400587f, 1.348534f, 0.655388f, 0.320024f, 0.689485f, -1.284612f, -0.453180f, 1.476722f, 0.002340f, -0.825768f, -0.155097f, -0.187602f, -0.282793f, 0.530901f, 1.515417f, -2.062980f, -0.238607f, 0.071329f, -1.844273f, 0.598213f, -0.289335f, 0.977375f, 1.379967f, -0.768629f, -0.725870f, 0.897371f, -0.485147f, -0.403183f, 0.358929f, -2.262187f, 1.337832f, 1.069877f, -2.475138f, 1.849679f, 2.341927f, -1.220748f, -1.187085f, 1.468702f, 0.997562f, -0.957462f, -0.656444f, -0.433535f, 2.450394f, -2.839469f, 0.186830f, 0.658520f, 0.036453f, -2.434697f, 0.590663f, 3.606356f, -1.568782f, -0.228921f, 4.245680f, -1.565909f, 0.785142f, -2.799910f, -0.604116f, -3.249648f, 0.694702f, 2.568870f, 0.684481f, 0.424286f, -0.622627f, -0.118080f, -0.019046f, 0.190663f, 0.567297f, 0.913414f, -0.363045f, 0.615260f, -1.486880f, -0.304481f, 1.288198f, 1.318803f, 1.378755f, -2.520880f, -0.555909f, -0.676424f, 0.867928f, -0.303002f, -0.138658f, 0.100917f, 0.964281f, 0.769358f, -1.189793f, -0.836014f, 0.525219f, 2.012734f, -0.903776f, -1.139848f, -0.166595f, 0.306242f, 0.367769f, 0.590866f, -1.452458f, 0.758762f, 0.329044f, -1.136163f, 1.301063f, 0.208593f, 0.343898f, -0.968824f, -1.853245f, -0.082698f, -1.269695f, 3.363115f, -1.298655f, 0.992638f, 0.189705f, -0.036236f, -2.320656f, 0.403708f, 0.113132f, -1.642462f, -0.497186f, 1.288450f, 0.873646f, -0.624836f, 1.633823f, 0.569713f, -1.116361f, 0.076968f, 1.113699f, 1.419789f, -1.249418f, -0.810532f, -0.378952f, -0.662119f, -0.258171f, 1.194925f, 0.692746f, -0.532361f, -0.832176f, -1.452650f, 0.811896f, 0.884867f, 1.526074f, -0.572481f, 2.017470f, -1.022964f, 1.013078f, -0.917140f, -1.330120f, 0.814662f, -0.722330f, 0.695970f, 0.803624f, -0.859026f, -1.434231f, 0.999663f, 1.248233f, 0.364550f, -0.229677f, -1.040529f, -0.714333f, 0.074073f, 1.584514f, -3.010554f, 1.326480f, 2.092475f, 0.019152f, -1.442837f, 1.496698f, -0.668293f, -1.569287f, -0.457377f, 1.604160f };
static float X60_MLP_L36_buf1[36];
static float X60_MLP_L36_buf2[36];
static const EmlNetLayer X60_MLP_L36_layers[2] = { 
{ 36, 30, X60_MLP_L36_layer_0_weights, X60_MLP_L36_layer_0_biases, EmlNetActivationTanh }, 
{ 5, 36, X60_MLP_L36_layer_1_weights, X60_MLP_L36_layer_1_biases, EmlNetActivationSoftmax } };
static EmlNet X60_MLP_L36 = { 2, X60_MLP_L36_layers, X60_MLP_L36_buf1, X60_MLP_L36_buf2, 36 };

    int32_t
    X60_MLP_L36_predict(const float *features, int32_t n_features)
    {
        return eml_net_predict(&X60_MLP_L36, features, n_features);
    }
    

    int32_t
    X60_MLP_L36_regress(const float *features, int32_t n_features, float *out, int32_t out_length)
    {
        return eml_net_regress(&X60_MLP_L36, features, n_features, out, out_length);
    }
    

    float
    X60_MLP_L36_regress1(const float *features, int32_t n_features)
    {
        return eml_net_regress1(&X60_MLP_L36, features, n_features);
    }
    