
#include "eml_net.h"
static const float X20_MLP_L46_layer_0_biases[46] = { 0.995482f, 0.762436f, 0.880134f, -0.589538f, -0.602078f, 2.128902f, -1.055913f, -2.604383f, 0.345842f, -0.867075f, 1.521979f, 1.789276f, 2.571785f, -0.420126f, 0.562078f, 0.683316f, -0.079505f, 0.540336f, -2.920057f, 0.939127f, 2.502341f, -0.929326f, 0.531418f, -2.154159f, 1.711075f, 1.126012f, 0.205047f, 0.097693f, 2.397389f, -0.164402f, 1.782462f, -2.153342f, 0.508814f, -1.159629f, -2.289150f, -0.681503f, -3.460938f, 0.233907f, 2.993614f, -0.800771f, -1.060048f, -1.274544f, -2.420733f, -0.007008f, 2.505867f, -0.624570f };
static const float X20_MLP_L46_layer_0_weights[736] = { -1.463329f, 3.214793f, 2.662141f, 0.739003f, 3.948633f, 2.004984f, -3.012833f, -0.853948f, 1.792295f, 0.189556f, 0.845596f, 3.951688f, 2.613019f, 1.981957f, -2.047141f, -0.665315f, 0.648528f, 1.854347f, -1.035732f, -1.032373f, 1.150448f, 1.549383f, 3.346384f, 0.082265f, -3.710835f, -1.204312f, -2.611425f, 1.198516f, 0.902156f, -0.576462f, -6.701305f, 0.784049f, -2.129949f, -1.563762f, 1.137440f, 7.646929f, 0.297199f, 1.425844f, 0.957713f, -1.894592f, 2.461753f, -0.415154f, 1.704974f, 1.280424f, 1.044661f, -0.322594f, -2.152845f, -0.572316f, 0.692251f, 2.520396f, 0.483434f, 1.359650f, 3.641685f, -1.911041f, 0.405503f, 3.371732f, 0.502499f, -5.312928f, -5.171986f, 4.008121f, -4.649521f, 0.404392f, -0.422220f, 0.228976f, -3.961734f, 0.364395f, 2.023623f, -2.223142f, -0.251995f, -2.497010f, 0.772123f, 1.809414f, -1.988270f, 0.831921f, -0.003423f, 0.196624f, -0.040171f, -9.651034f, 1.424103f, 1.004137f, 0.495983f, 0.854927f, -6.521758f, -3.300430f, 1.384706f, 0.748942f, 0.552986f, -0.257391f, -0.524107f, 1.240381f, -0.603287f, 1.587019f, -4.392350f, 2.381261f, 0.502118f, -2.167548f, -0.704140f, -1.269298f, -3.103389f, -0.714537f, 3.066162f, -0.363824f, 0.280146f, -0.201683f, 1.367039f, 0.833572f, 1.147734f, 1.112642f, -2.114239f, 1.643121f, -0.437433f, 0.343220f, 1.092796f, 0.443220f, -0.988473f, 0.135109f, 2.440553f, 0.821587f, -3.721483f, 1.096756f, 2.370750f, -4.019252f, 0.005301f, 2.177226f, 1.247709f, -0.334621f, 0.860994f, -1.333750f, -0.583966f, 1.100320f, -0.198055f, 0.192959f, -1.936268f, 0.242157f, 0.282055f, -0.860716f, 1.070736f, -0.499828f, 2.276614f, 2.942250f, 2.416852f, 1.030066f, -2.309128f, 0.468691f, 3.814562f, -0.547772f, -1.446378f, -1.911714f, 1.427414f, 4.275079f, 3.571442f, -5.525107f, 0.855865f, -1.276625f, -8.035938f, 2.507261f, -1.986758f, -1.845373f, 2.282704f, -2.096806f, 4.238485f, -0.126185f, 0.450664f, -0.454374f, -0.252863f, 1.476985f, -2.495507f, -2.769958f, 3.961946f, -0.453671f, 2.377913f, -1.411817f, -1.360979f, -12.477249f, -3.223748f, -0.355109f, 0.851000f, 3.979260f, 1.728899f, 0.210488f, -1.248789f, 0.774577f, 0.608289f, -1.015739f, 2.228388f, -0.302078f, -0.298325f, 0.892964f, -1.402737f, -0.145859f, -0.191710f, -0.581492f, -2.306994f, 0.653154f, -0.430294f, 1.697992f, 0.149516f, -0.609218f, 0.952514f, -1.872758f, 3.415786f, 0.524562f, -0.768846f, -0.453248f, -0.232030f, -0.070118f, 1.820442f, -1.582422f, 1.600563f, 0.033545f, -0.439649f, -3.141868f, 1.779226f, -0.566251f, -0.558852f, 4.559369f, 0.695422f, 1.910877f, -0.028142f, 0.893537f, -0.798225f, 1.332836f, -1.258453f, 0.869459f, -1.239737f, 0.124767f, 0.332835f, 1.695159f, -0.809990f, -1.378478f, -0.124159f, -0.379156f, -0.009340f, -0.298563f, -0.309725f, 0.116686f, -0.144894f, -0.105171f, -0.068697f, 0.066376f, 0.351717f, -0.321209f, 0.047103f, -0.051121f, 0.158208f, -0.039016f, -0.000695f, -0.224397f, -0.367329f, -0.048603f, -0.117850f, 0.239527f, 0.155480f, 0.017509f, 0.214309f, -0.179183f, -0.184476f, 0.004973f, 0.260791f, -0.100813f, -0.222257f, -0.265626f, -0.243815f, 0.362717f, 0.222337f, 0.251934f, -0.467460f, -0.008195f, -0.071434f, -0.036789f, 0.364378f, 0.178951f, -0.097731f, 0.415548f, -0.209447f, 0.252977f, 0.274613f, 0.186158f, 0.081562f, 0.232458f, -0.129417f, 0.217135f, 0.073691f, -0.303835f, -0.094794f, -0.219124f, 0.300512f, -0.016786f, 0.000524f, 0.087155f, -0.081183f, -0.226660f, 0.199986f, -0.193025f, 0.005635f, -0.171412f, -0.249436f, 0.225850f, 0.292591f, 0.285707f, 0.252295f, 0.171141f, -0.104183f, -0.260756f, -0.057864f, -0.165876f, -0.229666f, -0.278101f, 0.140632f, -0.303926f, 0.168625f, -0.215861f, -0.264185f, -0.255385f, 0.107063f, -0.158325f, -0.049134f, 0.035537f, 0.224546f, 0.141157f, -0.142660f, -0.229507f, -0.275733f, -0.127066f, -0.147374f, -0.028927f, 0.112950f, 0.123298f, -0.134449f, -0.079981f, -0.197829f, 0.178618f, -0.271932f, 0.120938f, 0.175714f, 0.173492f, -0.148505f, -0.079252f, 0.053762f, -0.142444f, -0.086559f, -0.190614f, -0.025382f, -0.283393f, 0.184989f, -0.268994f, 0.011261f, -0.118826f, 0.047705f, 0.283436f, 0.089749f, -0.289143f, -0.043667f, 0.002568f, 0.022617f, 0.113791f, -0.135515f, -0.230642f, -0.071610f, 0.283597f, -0.193628f, 0.251350f, 0.027934f, -0.027763f, 0.237478f, -0.024288f, 0.139462f, -0.063468f, 2.571610f, 0.534432f, -0.329785f, 0.096043f, 1.198443f, 0.012954f, -0.850280f, -1.226439f, 0.667838f, 0.774318f, 0.038995f, 1.006331f, 1.132919f, -1.778119f, 1.960059f, 1.465480f, -0.341455f, 0.450817f, -2.068466f, -1.778460f, 1.572897f, -0.571154f, -0.151797f, -1.147846f, 2.380444f, 0.563506f, 1.039801f, -0.225310f, -0.953125f, -0.049639f, 0.281465f, -1.441320f, 0.507451f, -1.464941f, -1.532738f, -1.601118f, -1.099400f, -0.556475f, 0.333572f, -0.936952f, -1.502895f, -0.859914f, -3.316606f, -2.221555f, 0.407650f, 0.230203f, -1.389529f, 0.381918f, 1.362261f, -0.879236f, -1.468587f, 1.816279f, 0.302383f, -0.995322f, -0.334855f, -1.316220f, 1.175816f, 0.785085f, 1.634997f, 0.877101f, -0.841475f, -0.921644f, 0.075161f, 0.460578f, -0.514457f, 2.417262f, 1.127746f, -0.124313f, 0.614935f, -0.928977f, -0.876223f, 0.670504f, -0.959547f, 0.965148f, 3.315669f, -0.792427f, 0.790064f, -0.904559f, -0.211561f, 0.596405f, -0.942803f, 1.528749f, -1.742748f, 1.338123f, 1.932381f, -0.119427f, 0.755538f, -0.810826f, 0.536527f, 1.551559f, 2.239877f, -0.698689f, -0.100397f, -0.467930f, -0.048515f, -0.159501f, -0.303158f, -0.126673f, 0.103302f, -0.763634f, 0.333737f, -0.331582f, 0.525313f, -0.461792f, 0.307710f, 0.442360f, 0.432058f, 0.091676f, -0.136402f, 0.058467f, -0.615574f, -0.168649f, -0.165960f, -0.055745f, -0.425764f, -1.049401f, -0.192808f, 0.598140f, -0.364652f, -0.073172f, -0.634721f, 0.000666f, -0.279159f, -0.551898f, 0.270416f, -0.009987f, 0.518548f, -0.055854f, -0.589843f, -0.027967f, -0.058799f, 0.000314f, -0.025987f, -0.192669f, -0.045197f, 0.452227f, -0.061684f, 0.232536f, 0.230380f, -0.278556f, -0.153568f, -0.070268f, -0.349898f, -0.011763f, 0.201405f, 0.030288f, 0.085330f, 0.104652f, 0.040587f, -0.193525f, 0.332459f, 0.363734f, 0.118799f, -0.198634f, -0.309976f, 0.128437f, -0.569848f, -0.072517f, 0.006820f, 0.239809f, -0.259671f, -0.323081f, -0.281522f, 0.077540f, 0.055581f, -0.195721f, -0.206789f, -0.234503f, 0.022025f, -0.079551f, 0.114727f, 0.359447f, -0.257930f, 0.100852f, -0.188046f, 0.062303f, 0.298592f, -0.300210f, 0.193903f, 0.175915f, -0.015103f, 0.046862f, 0.193072f, -0.276250f, 1.475200f, 0.474457f, 2.399355f, 0.317202f, -1.154653f, 2.170765f, 0.491943f, 0.602441f, -0.838298f, -0.684038f, 0.687617f, 1.209692f, 0.054257f, -1.030705f, -1.777314f, 0.643645f, -0.079441f, 1.035061f, -0.046033f, -0.744986f, 0.640589f, -2.459816f, 1.379671f, 1.196615f, 0.920088f, -1.087541f, -0.560861f, -0.772321f, -1.115927f, -1.937584f, 1.046145f, -0.638008f, 1.279441f, -2.547184f, -3.302174f, -0.034813f, -1.606453f, -0.349735f, 2.413928f, -0.101958f, -1.278520f, -0.379582f, -1.340900f, -1.272729f, 0.445290f, -0.458208f, -0.529680f, 0.973889f, -1.389389f, -0.682356f, 1.038989f, -0.829672f, -1.279632f, -2.035073f, 0.919831f, -0.079321f, 0.108197f, 1.434876f, 1.722811f, 0.415301f, 2.513648f, 0.182654f, 0.000018f, -0.077254f, -1.170868f, 1.417717f, 1.584540f, 2.026726f, -0.293929f, -1.602209f, 0.394259f, 1.940603f, 1.376915f, 1.848298f, 4.189798f, 1.747394f, 0.459342f, -1.003186f, -1.245057f, 0.749096f, -0.109049f, -0.845580f, -0.796319f, 1.297259f, 0.118425f, -0.562333f, 0.238267f, -0.546573f, -1.076796f, 1.175480f, 2.446105f, -0.132640f, -0.074432f, -0.219125f, 0.115054f, 0.097530f, 0.225262f, -0.250567f, -0.001404f, 0.050433f, -0.160793f, -0.205923f, 0.223722f, -0.274669f, -0.018275f, -0.239008f, -0.026712f, 0.298621f, -0.047469f, 0.222187f, -0.238096f, -0.142323f, -0.059859f, -0.062341f, 0.106627f, -0.096612f, 0.132992f, 0.086612f, -0.062745f, -0.042462f, 0.071248f, -0.267507f, 0.200580f, 0.095458f, 0.140823f, 0.022976f, -0.242335f, -0.059077f, -0.058875f, -0.111352f, -0.292446f, 0.147605f, -0.242772f, 0.066139f, 0.126439f, 0.083867f, 0.285664f, -0.246823f, 0.258957f, -0.292792f, 0.018807f, -0.082839f, -0.002634f, -0.076574f, -0.195477f, -0.320094f, 0.013028f, 0.173954f, -0.030291f, -0.183026f, -0.228947f, -0.247461f, -0.154738f, -0.259559f, -0.181640f, -0.271279f, -0.323931f, 0.195601f, -0.208441f, 0.042431f, 0.175695f, -0.386634f, -0.218827f, -0.161852f, -0.043072f, 0.014981f, -0.101814f, 0.171530f, 0.152641f, 0.157961f, -0.289849f, 0.257082f, 0.079719f, 0.237427f, -0.053602f, 0.296201f, 0.162302f, -0.086519f, 0.009577f, -0.117927f, -0.083279f, -0.138197f, -0.002466f, 0.101263f };
static const float X20_MLP_L46_layer_1_biases[10] = { 3.262026f, -0.132599f, 0.600770f, -0.185519f, 0.793352f, 0.713315f, 0.674239f, -2.068358f, -1.517894f, -1.309178f };
static const float X20_MLP_L46_layer_1_weights[460] = { -0.059661f, 3.295715f, -2.828044f, 0.839619f, -0.966469f, 1.868875f, -0.654049f, -1.170178f, -1.138511f, -0.073502f, -2.764302f, 0.653657f, 1.773316f, -1.044908f, 0.371862f, 1.648869f, -0.316196f, -0.073539f, -0.305639f, -0.159242f, -0.529022f, -2.578035f, 0.201481f, 1.752637f, 0.338664f, -0.424858f, 0.650519f, 0.626341f, 0.159947f, 0.625212f, -1.302809f, -0.530179f, 1.027309f, -0.128170f, -0.771684f, 0.046084f, -1.836497f, 1.305323f, 0.891124f, 0.536339f, -2.287782f, 0.200609f, 0.115085f, -0.275417f, 0.873263f, 0.530771f, -1.198795f, 0.358518f, 0.700743f, 0.581540f, 1.266553f, 1.206291f, 0.539902f, 0.537204f, 0.354939f, -1.919362f, -0.354773f, -0.444285f, -0.583826f, -0.458694f, 0.784418f, -2.101651f, 1.159039f, -1.053324f, 1.840103f, -1.508482f, 0.243981f, 0.241364f, 0.295467f, 0.713464f, -1.813168f, 0.724580f, 0.522098f, 0.908727f, -1.425405f, 0.320505f, -0.906475f, 0.736795f, 0.520839f, 0.640326f, 1.210604f, -0.277301f, -1.554069f, 0.511447f, -1.131874f, 1.123131f, -0.598575f, 0.233852f, 0.427643f, 0.081671f, -2.054152f, 0.971629f, -1.552360f, 1.225538f, -0.679864f, -0.557870f, 1.385077f, 0.240373f, 0.811595f, 0.260414f, 2.225376f, -0.394055f, -0.237043f, 0.401329f, -0.100208f, 0.104730f, 0.694863f, -0.713324f, -0.768176f, -0.598797f, -3.002910f, 2.881728f, 1.635249f, -0.470377f, 1.239132f, -0.200222f, -0.200453f, -0.715843f, -0.266666f, -0.502110f, 2.065951f, -0.174579f, -2.548982f, 4.914335f, -2.286471f, 0.968186f, -2.050995f, -0.764523f, -0.116152f, -0.813291f, 0.949683f, 0.596171f, -1.137651f, 3.490478f, -2.049073f, -0.869108f, -0.837344f, -0.081640f, 0.381840f, -0.139757f, 2.940140f, -0.021513f, -2.465739f, -0.224493f, 2.787893f, -0.853397f, 0.096338f, -1.834922f, 0.735032f, -0.853079f, -0.932664f, 0.261622f, -0.273570f, 0.832848f, 0.678176f, -0.168951f, -0.966306f, 0.460643f, -0.511572f, -0.238195f, -3.155248f, 4.431683f, 0.442505f, -0.241726f, 1.716142f, 0.379339f, 0.518803f, -2.673056f, -1.145747f, -0.096140f, -0.359517f, -1.055517f, -1.051451f, 0.686720f, 2.185123f, -0.739531f, 0.208197f, 0.124533f, -0.277502f, -0.004660f, -3.011814f, 1.678531f, 0.749963f, 0.696529f, -0.116113f, 1.416314f, -1.007939f, 0.391580f, -0.667335f, -0.600162f, -2.096506f, -1.798210f, 0.999067f, -0.010672f, 0.495543f, 1.244040f, 0.469935f, -0.184466f, 1.401942f, 0.192848f, 0.635331f, -1.956138f, -1.048068f, 0.129692f, 0.621119f, 1.436443f, 0.200816f, 0.461729f, -0.065846f, 0.059972f, 0.350526f, -2.111728f, -0.365106f, -1.861311f, 0.059429f, 2.164601f, -1.076479f, 1.316909f, 1.389547f, -0.172093f, -0.881914f, 1.048676f, -0.085869f, -0.978448f, 0.736688f, -0.412677f, 0.131327f, 0.316820f, -0.248835f, 0.064396f, -2.607171f, 0.174029f, -0.759118f, 0.428143f, 0.532029f, 1.984333f, -1.014279f, 0.714559f, -0.268878f, 0.232509f, -0.397039f, 1.763592f, 2.390887f, -0.026309f, -0.713562f, -2.070629f, 1.483575f, -1.828863f, -0.011687f, -0.226453f, 1.666325f, 0.360487f, 0.986600f, 0.450940f, -0.124836f, -0.381651f, -0.322501f, -1.137605f, -0.866025f, -0.887380f, -0.358421f, -0.880621f, 2.007300f, 0.474427f, -0.017689f, -0.118318f, 0.532685f, -0.091256f, -0.927363f, -0.596077f, -0.789039f, -0.332944f, -1.445368f, 1.498701f, -0.518143f, 1.025044f, 0.924695f, 0.228547f, -0.167743f, -0.230632f, -3.538481f, -1.109778f, 4.052161f, -1.918734f, 0.591093f, 0.735816f, -0.474754f, 0.433155f, 0.668194f, -0.367539f, 1.643737f, -1.159183f, -2.194102f, 2.552444f, -0.978733f, 1.234012f, 0.231721f, -1.520755f, 0.181057f, -0.096945f, -3.410818f, -0.715520f, 0.560110f, 3.360779f, 0.056471f, 1.375769f, -0.287841f, -0.380923f, -0.578875f, 0.180060f, -2.108359f, -0.587450f, -2.107887f, 3.959766f, -3.627786f, 3.249126f, -0.637244f, 1.391677f, 0.523107f, 0.518537f, 0.767404f, -0.021689f, -0.359875f, 0.606397f, 0.401082f, 1.273083f, -0.002022f, -1.012203f, -1.247401f, -0.414810f, 1.455310f, -0.192840f, -1.333185f, -1.152389f, -0.392876f, 0.094480f, 0.977160f, 0.427274f, 0.057440f, 0.000592f, 1.681922f, -0.160765f, -0.554629f, -1.018647f, 0.983342f, -0.385640f, -0.672771f, 0.006613f, 0.512750f, -0.257876f, 4.596483f, -5.362347f, 0.121223f, 0.260564f, 0.501323f, 0.398334f, 0.109689f, -0.053059f, 0.172443f, -0.414650f, -4.437641f, 1.401773f, 2.542806f, 0.914191f, -2.104031f, 2.569823f, -0.730407f, -0.262208f, -0.559517f, -0.053414f, -0.924100f, -0.849495f, 3.210187f, -2.420474f, 0.141666f, 0.101803f, 0.367515f, 0.281955f, 0.418642f, -0.299258f, 1.083169f, 1.069551f, -0.385272f, -0.357303f, -0.111689f, -1.022800f, 0.063037f, 0.228885f, -0.598312f, -0.050311f, -1.296230f, -3.031263f, 1.237238f, 2.527955f, 1.164629f, -0.834140f, 0.609375f, -0.078884f, -0.232326f, 0.676521f, 1.332293f, -0.235126f, 1.411315f, -2.339866f, -1.849789f, -0.373184f, 0.873383f, 1.158023f, 0.178062f, 0.848495f, 0.116570f, 0.413590f, 0.500422f, -1.360245f, -0.885332f, -0.011894f, -0.318124f, 0.242624f, 0.310974f, 0.474591f, 0.896969f, -0.325064f, -0.383367f, -0.652822f, 1.802883f, 1.166119f, -0.077214f, -1.045712f, -0.460485f, -0.353575f, 1.080483f, 1.145556f, -0.362486f, -0.879343f, 1.658883f, -1.964331f, -0.274888f, 0.104323f, 0.251398f, -0.358565f, -1.121282f, -0.533161f, 0.979163f, -1.175568f, -0.820784f, -0.033451f, 0.849494f, 0.527859f, 0.714967f, 0.331401f, -1.035116f, -0.195756f, 1.143983f, -0.959498f, 0.292012f, -0.118587f, -0.570993f, -0.143344f, -0.062218f, 0.055765f };
static float X20_MLP_L46_buf1[46];
static float X20_MLP_L46_buf2[46];
static const EmlNetLayer X20_MLP_L46_layers[2] = { 
{ 46, 16, X20_MLP_L46_layer_0_weights, X20_MLP_L46_layer_0_biases, EmlNetActivationTanh }, 
{ 10, 46, X20_MLP_L46_layer_1_weights, X20_MLP_L46_layer_1_biases, EmlNetActivationSoftmax } };
static EmlNet X20_MLP_L46 = { 2, X20_MLP_L46_layers, X20_MLP_L46_buf1, X20_MLP_L46_buf2, 46 };

    int32_t
    X20_MLP_L46_predict(const float *features, int32_t n_features)
    {
        return eml_net_predict(&X20_MLP_L46, features, n_features);
    }
    

    int32_t
    X20_MLP_L46_regress(const float *features, int32_t n_features, float *out, int32_t out_length)
    {
        return eml_net_regress(&X20_MLP_L46, features, n_features, out, out_length);
    }
    

    float
    X20_MLP_L46_regress1(const float *features, int32_t n_features)
    {
        return eml_net_regress1(&X20_MLP_L46, features, n_features);
    }
    