
#include "eml_net.h"
static const float XX_MLP_L56_layer_0_biases[56] = { -0.149201f, -0.012145f, -0.201447f, -0.092734f, -0.111762f, -0.028756f, 0.223361f, -0.165515f, -0.051208f, 0.060029f, 0.231893f, -0.190503f, 0.216999f, -0.217555f, -0.010001f, -0.023581f, -0.150801f, -0.079213f, -0.023802f, 0.189649f, 0.236311f, 0.009828f, 0.192189f, 0.056173f, -0.078368f, -0.158802f, -0.045108f, 0.011852f, -0.236567f, -0.183912f, 0.052023f, -0.142804f, 0.175171f, -0.089867f, -0.205207f, -0.216269f, 0.226994f, -0.198359f, -0.186472f, 0.188330f, -0.127596f, 0.086177f, 0.164473f, 0.055663f, 0.237570f, 0.108471f, -0.201095f, 0.030332f, 0.113302f, 0.156803f, -0.245977f, 0.113662f, 0.169123f, 0.128180f, 0.006413f, -0.021799f };
static const float XX_MLP_L56_layer_0_weights[1848] = { 0.025348f, 0.083922f, 0.057177f, 0.023307f, -0.039648f, 0.058482f, -0.031627f, 0.188569f, 0.240524f, -0.060253f, 0.151490f, 0.015005f, 0.035230f, 0.221098f, -0.222757f, -0.214400f, -0.248325f, 0.172609f, 0.144734f, 0.073431f, 0.259306f, 0.152208f, -0.019756f, 0.145676f, -0.198227f, 0.071962f, -0.185203f, 0.231269f, -0.013034f, -0.048785f, -0.203708f, 0.142407f, -0.020782f, 0.035537f, -0.267248f, 0.062047f, 0.058961f, 0.061196f, 0.246847f, 0.103530f, -0.063303f, -0.032699f, 0.102628f, 0.010846f, 0.086765f, 0.089899f, -0.150449f, -0.192906f, -0.095844f, -0.094228f, 0.036453f, -0.038799f, 0.253609f, -0.109205f, -0.150950f, -0.175879f, 0.079508f, -0.152612f, -0.008774f, -0.132717f, -0.177037f, -0.213447f, 0.081456f, -0.204506f, -0.157424f, -0.068744f, 0.166689f, -0.209222f, 0.175678f, -0.209733f, 0.247421f, -0.016279f, 0.248015f, 0.054445f, 0.124605f, -0.274889f, -0.112390f, -0.197115f, -0.105568f, -0.197991f, -0.094520f, -0.044726f, -0.226334f, 0.099832f, 0.025886f, -0.121628f, -0.005704f, -0.210863f, 0.043696f, 0.222930f, -0.104993f, 0.087121f, -0.191519f, 0.112342f, -0.113959f, -0.109281f, 0.043716f, -0.249204f, 0.170816f, -0.242053f, 0.092888f, -0.119346f, 0.122140f, 0.239859f, -0.130629f, 0.039303f, 0.047797f, 0.034083f, -0.143801f, 0.234946f, -0.027499f, 0.179887f, 0.103588f, -0.105196f, 0.162953f, -0.053744f, 0.197903f, 0.042205f, 0.198232f, 0.099978f, 0.116972f, 0.000688f, 0.236840f, 0.074773f, -0.039541f, 0.055249f, -0.249679f, -0.103040f, 0.083177f, -0.109011f, 0.061284f, -0.036982f, -0.189290f, -0.104750f, 0.036332f, 0.047189f, 0.038596f, 0.079556f, 0.078986f, -0.035614f, 0.205920f, -0.068775f, -0.033315f, 0.203522f, 0.159005f, 0.105877f, -0.207601f, 0.217834f, 0.111254f, 0.259047f, -0.182033f, 0.191158f, -0.175263f, 0.060009f, -0.195347f, 0.180746f, 0.159588f, 0.035884f, -0.048199f, -0.223728f, 0.102523f, -0.024132f, 0.115311f, 0.190258f, 0.246934f, 0.184775f, -0.253562f, -0.072712f, 0.119432f, -0.170533f, 0.010924f, -0.231428f, -0.155789f, -0.250028f, 0.152515f, -0.143360f, -0.080307f, 0.222298f, 0.106151f, -0.243112f, -0.174121f, 0.063082f, 0.040104f, -0.136110f, 0.225486f, 0.059181f, 0.018504f, 0.046653f, 0.119500f, -0.097662f, -0.052851f, -0.150675f, -0.162957f, 0.230757f, 0.124397f, -0.004955f, -0.141552f, -0.127567f, -0.229522f, -0.034057f, -0.097731f, 0.101959f, -0.063494f, -0.166379f, -0.246830f, -0.224723f, 0.093145f, -0.024045f, 0.018993f, 0.205988f, 0.254628f, -0.146988f, 0.084683f, -0.122904f, -0.248922f, 0.134174f, -0.093463f, -0.060516f, 0.045862f, 0.171912f, 0.066979f, 0.193718f, -0.117598f, 0.154773f, -0.163246f, 0.235154f, 0.097333f, -0.147734f, 0.232322f, 0.119840f, -0.127779f, -0.148888f, 0.009460f, -0.246311f, -0.151908f, -0.039110f, -0.065322f, -0.018890f, -0.115475f, 0.045066f, 0.188973f, -0.198612f, 0.009055f, -0.191081f, 0.112613f, -0.053963f, 0.033963f, -0.164470f, -0.184427f, -0.006203f, -0.074979f, 0.228729f, 0.137631f, 0.129119f, 0.209580f, -0.216325f, 0.027105f, 0.043868f, 0.239853f, -0.107942f, -0.134611f, -0.207570f, -0.251147f, 0.223055f, 0.088253f, 0.148077f, -0.113346f, 0.045076f, -0.226418f, -0.007440f, 0.247955f, 0.195495f, -0.084073f, 0.239668f, -0.139325f, 0.233308f, 0.229203f, 0.155405f, 0.067745f, 0.194364f, -0.107483f, 0.181203f, 0.061212f, -0.252772f, -0.079330f, -0.182719f, 0.250210f, -0.011232f, -0.001355f, 0.072427f, -0.068243f, -0.188554f, 0.167273f, -0.161059f, 0.005878f, -0.143160f, -0.208835f, 0.188083f, 0.245583f, 0.239305f, 0.211121f, 0.142310f, -0.086646f, -0.217530f, -0.048169f, -0.139048f, -0.190846f, -0.231901f, 0.117147f, -0.253711f, 0.140509f, -0.183337f, -0.218350f, -0.213115f, 0.089342f, -0.132228f, -0.041263f, 0.029791f, 0.187231f, 0.117903f, -0.119267f, -0.191368f, -0.230890f, -0.103023f, -0.123530f, -0.022776f, 0.095176f, 0.101586f, -0.112417f, -0.062353f, -0.165575f, 0.149839f, -0.230125f, 0.102300f, 0.144724f, 0.144055f, -0.124930f, -0.065391f, 0.045479f, -0.117971f, -0.067083f, -0.157338f, -0.020848f, -0.236476f, 0.155679f, -0.219678f, 0.009781f, -0.100322f, 0.040262f, 0.238576f, 0.075593f, -0.241282f, -0.036160f, 0.005202f, 0.018859f, 0.094212f, -0.115484f, -0.192700f, -0.055745f, 0.237007f, -0.162470f, 0.209786f, 0.022748f, -0.022373f, 0.198339f, -0.021511f, 0.116403f, -0.052435f, 0.209896f, 0.098678f, 0.103679f, -0.089464f, 0.133403f, 0.070655f, -0.135036f, -0.176366f, 0.153925f, 0.238441f, -0.021738f, 0.047238f, 0.185765f, -0.022209f, 0.234649f, 0.039331f, 0.166547f, 0.212349f, 0.163849f, -0.176891f, 0.066936f, -0.052787f, -0.227077f, -0.039449f, -0.125313f, 0.181252f, -0.242351f, 0.238345f, -0.075106f, -0.074411f, -0.251166f, -0.163456f, -0.051275f, 0.222927f, -0.207916f, 0.231241f, 0.191872f, -0.023803f, -0.089993f, -0.138784f, 0.059440f, -0.242470f, -0.251541f, -0.036977f, -0.224295f, -0.128815f, -0.144799f, -0.128166f, -0.191590f, -0.253395f, -0.199675f, 0.061526f, 0.246275f, 0.254632f, -0.047228f, -0.175025f, 0.072058f, -0.005034f, 0.254146f, -0.225733f, 0.147081f, -0.109883f, -0.134279f, 0.084386f, -0.131867f, 0.086129f, 0.008988f, -0.039420f, 0.028399f, -0.110582f, 0.107272f, -0.044214f, -0.072417f, 0.170668f, 0.220681f, -0.235754f, -0.138844f, -0.078663f, 0.163559f, 0.252111f, 0.243533f, 0.210271f, -0.105644f, 0.255497f, -0.130124f, -0.204656f, 0.234176f, -0.138429f, 0.098545f, -0.229342f, 0.119805f, 0.198224f, -0.118171f, -0.062805f, -0.065277f, 0.129193f, -0.136154f, -0.170404f, -0.026332f, -0.101619f, 0.176136f, -0.136188f, 0.001241f, 0.229830f, 0.069584f, 0.190730f, 0.228597f, 0.130220f, 0.103622f, 0.243010f, 0.256710f, -0.025019f, -0.222841f, -0.107600f, -0.180560f, -0.042848f, -0.191468f, 0.054068f, -0.060858f, 0.205327f, 0.242921f, 0.024347f, -0.116932f, 0.047904f, 0.206034f, -0.048432f, 0.027044f, -0.118579f, -0.023138f, -0.051039f, -0.130647f, 0.003044f, -0.098467f, -0.065929f, 0.012967f, 0.130132f, -0.086458f, 0.343921f, 0.195203f, -0.234361f, -0.126062f, -0.034671f, -0.205008f, -0.074786f, 0.114315f, 0.063547f, 0.063553f, 0.109325f, -0.146212f, -0.063951f, 0.091521f, 0.196933f, 0.009297f, -0.112827f, -0.207171f, 0.133048f, -0.251241f, -0.048400f, 0.010692f, 0.219199f, -0.213172f, -0.119648f, -0.247020f, -0.059262f, 0.088933f, -0.157525f, -0.154354f, -0.199562f, 0.086979f, 0.101402f, 0.083648f, 0.228642f, -0.242327f, 0.071493f, -0.000919f, 0.099838f, 0.279955f, -0.250884f, 0.102032f, 0.157335f, 0.042760f, -0.060414f, 0.146257f, -0.226689f, -0.034377f, 0.045890f, 0.100720f, -0.234119f, -0.141378f, -0.182225f, 0.079484f, 0.200945f, 0.061705f, -0.190340f, 0.249562f, 0.193065f, 0.001413f, 0.219322f, 0.021489f, 0.219819f, 0.171314f, 0.243170f, 0.217989f, -0.240933f, -0.168887f, -0.057571f, 0.234794f, -0.103843f, -0.176317f, 0.200604f, -0.027836f, 0.211807f, -0.176439f, 0.083668f, -0.031015f, -0.219927f, 0.102022f, -0.131178f, -0.239073f, -0.228518f, -0.227926f, 0.211728f, 0.124569f, 0.206710f, 0.089623f, 0.015028f, -0.101550f, 0.258586f, -0.071561f, -0.015242f, -0.063232f, 0.249012f, -0.168944f, -0.089324f, 0.093653f, -0.226823f, 0.055698f, -0.011607f, -0.112167f, -0.135841f, 0.007539f, -0.068581f, -0.022579f, -0.084397f, 0.244323f, -0.190356f, -0.209376f, -0.081325f, 0.047269f, 0.082661f, -0.053352f, 0.259270f, -0.076910f, 0.114975f, 0.071445f, 0.162566f, 0.247301f, 0.202416f, 0.137385f, 0.102949f, -0.085424f, -0.182954f, -0.227119f, -0.134028f, -0.035167f, 0.011422f, 0.141811f, 0.238221f, -0.198722f, -0.204078f, 0.046583f, 0.127433f, 0.180791f, 0.226321f, 0.251039f, -0.052033f, -0.062139f, -0.182893f, 0.096034f, 0.081405f, 0.188019f, -0.209140f, -0.001155f, 0.042105f, -0.134203f, -0.171872f, 0.186722f, -0.229251f, -0.015254f, -0.199494f, -0.022299f, 0.249240f, -0.039617f, 0.185452f, -0.198725f, -0.118787f, -0.049957f, -0.052024f, 0.088998f, -0.080637f, 0.111007f, 0.072273f, -0.052365f, -0.035436f, 0.059473f, -0.223264f, 0.167421f, 0.079670f, 0.117538f, 0.019173f, -0.202274f, -0.049314f, -0.049139f, -0.092931f, -0.244092f, 0.123204f, -0.202635f, 0.055205f, 0.105529f, 0.069993f, 0.238430f, -0.206004f, 0.190667f, -0.244486f, 0.018143f, -0.049724f, 0.012558f, -0.070052f, -0.160686f, -0.249716f, 0.009425f, 0.178001f, -0.065860f, -0.143913f, -0.217818f, -0.215344f, -0.144673f, -0.207709f, -0.121999f, -0.225295f, -0.225577f, 0.185011f, -0.175460f, 0.030992f, 0.141994f, -0.022636f, -0.180002f, -0.155997f, -0.034801f, 0.014662f, -0.078184f, 0.146169f, 0.130353f, 0.221847f, -0.244611f, 0.205472f, -0.055788f, 0.196483f, 0.099073f, 0.253076f, 0.134643f, -0.070332f, 0.000539f, -0.064190f, -0.070152f, -0.124163f, -0.002093f, 0.094363f, -0.115625f, 0.012661f, -0.198691f, -0.176639f, -0.235334f, 0.244453f, -0.257641f, -0.166910f, 0.058611f, -0.217391f, 0.198333f, 0.114019f, 0.242184f, 0.003972f, -0.103658f, 0.025705f, 0.223720f, 0.010783f, -0.120887f, 0.195991f, -0.066581f, -0.258939f, -0.131093f, -0.094390f, 0.186324f, -0.021549f, -0.028810f, -0.085112f, 0.197694f, 0.231096f, 0.255430f, -0.063999f, 0.242084f, 0.151570f, 0.091234f, -0.132273f, -0.147233f, -0.173408f, 0.219532f, -0.106944f, -0.024375f, -0.003177f, 0.144452f, 0.178742f, -0.187426f, -0.037912f, 0.178049f, 0.165152f, -0.206463f, -0.178472f, -0.101673f, -0.220512f, -0.039122f, -0.203766f, 0.035426f, -0.131625f, 0.050077f, -0.198616f, 0.247122f, 0.224625f, -0.056189f, -0.133884f, -0.129616f, -0.008624f, -0.238877f, 0.072548f, -0.047617f, -0.063694f, 0.160666f, 0.108548f, 0.235933f, -0.076888f, 0.206440f, 0.140191f, -0.074038f, 0.063180f, -0.109821f, 0.194418f, -0.201328f, -0.149330f, -0.164592f, -0.050358f, 0.127314f, 0.013974f, -0.006399f, -0.259362f, -0.038724f, -0.226630f, -0.151499f, 0.224538f, -0.147791f, 0.186287f, 0.157290f, -0.177000f, 0.054895f, -0.199584f, 0.118340f, 0.071353f, 0.161987f, -0.010713f, 0.215435f, -0.233946f, -0.107551f, 0.111675f, -0.042525f, -0.169865f, -0.203967f, 0.164791f, -0.013947f, 0.198511f, 0.121146f, -0.046878f, -0.065685f, 0.008121f, 0.202035f, 0.123217f, -0.256969f, 0.100825f, 0.217846f, 0.109288f, -0.167727f, -0.008559f, -0.186781f, -0.073231f, 0.227007f, 0.219820f, -0.112770f, -0.083278f, 0.052040f, 0.240533f, -0.182894f, -0.126231f, 0.193957f, -0.004208f, 0.207156f, -0.163308f, 0.016971f, -0.090217f, -0.095301f, -0.027586f, -0.034752f, -0.074078f, 0.215504f, 0.120273f, 0.118165f, -0.109096f, 0.040354f, 0.144975f, 0.153497f, -0.080732f, 0.140662f, 0.122497f, -0.186163f, 0.190002f, -0.030471f, -0.007063f, -0.026811f, 0.035230f, 0.062922f, -0.000945f, 0.190470f, 0.066207f, -0.050977f, -0.043261f, 0.165197f, -0.092929f, -0.148371f, -0.228565f, 0.201605f, 0.216840f, -0.197268f, -0.085956f, -0.161846f, -0.196641f, 0.207647f, -0.230110f, 0.249005f, -0.209492f, 0.188031f, 0.052977f, -0.068638f, -0.083600f, 0.134958f, -0.096290f, 0.081694f, 0.009234f, -0.007807f, 0.208153f, 0.028502f, 0.159289f, 0.114224f, -0.239623f, 0.146805f, -0.147027f, 0.212735f, -0.252233f, -0.090857f, -0.208742f, -0.017506f, 0.164630f, -0.098808f, -0.181266f, -0.088141f, 0.162089f, -0.191648f, -0.140574f, -0.236432f, 0.079958f, -0.067512f, -0.097117f, 0.113531f, -0.085250f, 0.118576f, 0.162518f, -0.148684f, 0.246050f, -0.175334f, -0.108688f, -0.158849f, -0.080227f, -0.016094f, 0.007962f, 0.187482f, 0.205816f, -0.144547f, 0.064024f, -0.201747f, -0.021307f, -0.090315f, -0.087221f, -0.009044f, 0.119347f, -0.226032f, 0.197045f, 0.126097f, -0.167329f, 0.233845f, 0.022150f, 0.260353f, -0.157210f, 0.018128f, -0.109039f, -0.101691f, 0.047221f, 0.219222f, 0.148127f, 0.114693f, 0.030728f, 0.222638f, -0.003967f, 0.196647f, 0.173040f, -0.130507f, 0.140094f, -0.257929f, -0.092680f, -0.076051f, 0.003564f, 0.122996f, -0.236312f, -0.008349f, 0.228854f, -0.156050f, 0.075085f, 0.034436f, -0.253880f, -0.012553f, 0.108288f, -0.236761f, 0.189668f, -0.007380f, -0.243723f, -0.143109f, 0.235590f, 0.042748f, -0.203836f, -0.110323f, -0.022477f, -0.248766f, -0.045897f, -0.005461f, -0.133106f, 0.046029f, 0.131505f, -0.137169f, 0.062574f, 0.072505f, 0.232923f, 0.144515f, 0.180892f, -0.004975f, -0.163393f, 0.257472f, -0.192472f, -0.014822f, -0.224285f, 0.230488f, 0.241430f, 0.113927f, -0.077900f, -0.127548f, -0.121879f, -0.193545f, 0.013402f, -0.186001f, -0.095170f, 0.065798f, 0.118161f, -0.247077f, -0.036291f, 0.078978f, 0.183437f, -0.012815f, 0.243654f, -0.121705f, -0.252630f, -0.008429f, -0.126647f, 0.168104f, -0.138780f, -0.098336f, 0.151234f, 0.111722f, 0.030145f, 0.106428f, -0.042253f, -0.256888f, -0.253749f, 0.005827f, -0.216393f, -0.233122f, 0.241739f, 0.186427f, -0.180699f, -0.259300f, 0.229354f, -0.115114f, -0.163110f, 0.099448f, -0.203093f, -0.122215f, 0.246712f, 0.072422f, 0.010738f, -0.053010f, 0.142546f, -0.186447f, 0.242684f, 0.187528f, 0.061098f, -0.237365f, 0.104302f, 0.214615f, 0.012763f, -0.075700f, -0.197186f, 0.132368f, 0.199938f, -0.207586f, 0.134488f, -0.250786f, 0.242537f, 0.059749f, 0.027231f, -0.105961f, 0.222927f, -0.121563f, 0.170404f, 0.251912f, 0.147165f, 0.009861f, -0.225334f, -0.014325f, -0.032063f, -0.154335f, -0.039680f, -0.073865f, -0.174646f, -0.030444f, -0.123176f, 0.011457f, -0.241387f, 0.210952f, 0.164285f, 0.027305f, 0.182773f, 0.240118f, -0.202252f, 0.067933f, 0.258608f, 0.253356f, 0.053654f, -0.193164f, 0.043200f, -0.258573f, -0.156353f, 0.236850f, -0.088051f, 0.071865f, -0.113798f, 0.232538f, 0.118688f, -0.088459f, 0.151510f, -0.203473f, -0.055909f, -0.144769f, 0.095407f, -0.206446f, -0.053473f, -0.115984f, 0.003285f, -0.077948f, 0.107190f, -0.246883f, 0.069578f, -0.139901f, -0.120107f, 0.155934f, 0.236572f, -0.095230f, 0.169706f, -0.205639f, 0.069562f, 0.130350f, -0.178647f, -0.038426f, 0.203924f, -0.205874f, -0.250247f, 0.047039f, -0.033477f, 0.155112f, 0.219901f, -0.104298f, -0.057962f, -0.007129f, 0.045776f, 0.251261f, 0.102472f, -0.057356f, 0.066663f, 0.020951f, -0.189256f, 0.117312f, 0.209863f, 0.059661f, -0.154197f, -0.154044f, -0.109634f, 0.107427f, 0.077652f, 0.222783f, 0.207259f, 0.164174f, 0.213663f, -0.106318f, -0.068288f, -0.003701f, -0.148557f, 0.081978f, -0.018289f, -0.252886f, -0.052333f, -0.099430f, 0.216650f, 0.201621f, 0.197376f, -1.156694f, -0.035446f, -0.187689f, 0.163693f, -0.186138f, 0.156345f, -0.203743f, 0.152430f, 0.201687f, -0.234828f, 0.060806f, 0.052427f, -0.124054f, -0.182594f, 0.141901f, 1.675386f, 0.249999f, 0.296817f, 0.245904f, -0.204699f, 0.219583f, -0.398226f, -0.021700f, -0.016939f, -0.153886f, 0.604709f, -0.156858f, -0.205257f, -0.199118f, -0.079308f, -0.379345f, -0.039023f, 0.081749f, -0.211719f, -0.228053f, -0.226615f, -0.123522f, -0.177482f, 0.241520f, -0.181113f, 0.172474f, 0.055222f, 0.035980f, 0.006273f, 0.249693f, -0.070348f, 0.221359f, 0.145054f, -0.042542f, 0.280742f, 0.051575f, -0.197893f, -0.042821f, 0.138496f, 0.100613f, 0.215808f, -0.913203f, 0.191329f, 0.199117f, 0.038225f, 0.258862f, 0.248889f, 0.251329f, -0.069204f, 0.216319f, 0.071869f, -0.048335f, -0.797152f, 0.132936f, 0.001093f, 0.148615f, 0.128217f, 0.149332f, -0.111346f, 0.144869f, -0.017188f, -0.088722f, -0.286940f, -0.248554f, -0.258674f, -0.107724f, 0.240701f, -0.186878f, -0.087970f, -0.233134f, -0.087623f, -0.093303f, 0.232023f, 0.179235f, -0.060881f, -0.246722f, 0.171880f, 0.083365f, -0.180527f, 0.257605f, -0.207595f, 0.190639f, -0.106831f, -0.033570f, 0.153428f, 0.092190f, 0.227379f, 0.062907f, -0.208856f, 0.199595f, 0.140363f, 0.110002f, -0.231742f, -0.053891f, -0.172698f, 0.167162f, 0.104133f, 0.198925f, 0.242288f, 0.142674f, 0.256651f, 0.059618f, -0.240364f, -0.252249f, -0.081994f, 0.167976f, 0.190130f, 0.239296f, -0.225829f, -0.236500f, 0.214614f, -0.101237f, 0.030117f, 0.250500f, -0.051696f, 0.086138f, -0.051472f, 0.139271f, 0.014391f, -0.136302f, -0.118758f, -0.125638f, 0.016785f, 0.105514f, 0.233307f, 0.100788f, 0.146021f, -0.171924f, -0.065398f, -0.044773f, 0.096786f, -0.105991f, -0.102149f, -0.074835f, 0.161137f, 0.040292f, -0.220555f, -0.219013f, -0.066839f, 0.138438f, 0.097982f, 0.108003f, 0.138760f, -0.110530f, 0.025059f, 0.022513f, 0.124439f, 0.237249f, -0.115288f, 0.152298f, 0.083071f, 0.041667f, 0.142743f, 0.230582f, -0.240592f, -0.183102f, 0.133088f, -0.216133f, 0.008373f, -0.145474f, -0.117206f, 0.104814f, -0.243967f, 0.193861f, -0.028832f, 0.001243f, 0.020797f, 0.075580f, -0.080565f, -0.207141f, -0.094314f, -0.172331f, 0.029149f, -0.094496f, 0.237870f, 0.241852f, 0.062380f, 0.061015f, 0.252053f, 0.201113f, 0.137648f, -0.096801f, -0.069824f, -0.155129f, -0.006674f, 0.254644f, 0.214026f, -0.198188f, -0.246564f, 0.207009f, 0.019302f, -0.155689f, 0.090177f, 0.074894f, -0.196247f, -0.124837f, -0.228447f, -0.150667f, -0.190940f, -0.159300f, 0.096311f, -0.233941f, -0.206753f, -0.189970f, -0.095269f, -0.104507f, -0.127193f, 0.130101f, 0.258619f, 0.017644f, 0.230670f, -0.053689f, -0.204246f, -0.047373f, -0.105869f, -0.003424f, 0.081551f, -0.020226f, 0.225975f, 0.199805f, 0.104885f, -0.005357f, -0.191261f, -0.053480f, 0.106144f, -0.111707f, -0.205645f, 0.211818f, 0.108558f, 0.059862f, 0.151892f, 0.174298f, -0.008590f, 0.197948f, 0.216243f, -0.118631f, 0.055847f, 0.013805f, 0.019705f, 0.227274f, -0.101164f, 0.251043f, 0.208823f, -0.021435f, 0.164851f, 0.139714f, 0.092379f, -0.093559f, -0.157630f, 0.089073f, 0.178103f, -0.251205f, 0.074156f, -0.029666f, 0.206723f, -0.092707f, -0.013406f, 0.007668f, -0.186716f, 0.110553f, 0.171613f, -0.229574f, -0.108330f, -0.239889f, 0.237079f, 0.086809f, 0.241055f, 0.016355f, 0.156861f, -0.065216f, -0.075910f, -0.063214f, 0.081976f, -0.072985f, 0.207907f, 0.250960f, -0.243845f, -0.159099f, -0.201355f, -0.237646f, -0.141382f, -0.027630f, 0.174996f, -0.144454f, -0.003144f, 0.223097f, 0.086833f, 0.154790f, 0.026481f, 0.249502f, 0.046041f, -0.236012f, -0.156835f, -0.049450f, 0.051715f, 0.140286f, -0.045134f, 0.109136f, 0.150925f, -0.094506f, 0.249114f, 0.077629f, 0.197629f, 0.029048f, 0.125462f, 0.140577f, 0.212074f, -0.181570f, 0.030266f, -0.037277f, 0.219618f, -0.204972f, 0.244915f, 0.193472f, -0.221081f, -0.004760f, 0.112977f, 0.123670f, 0.210594f, 0.155717f, -0.098003f, -0.017696f, 0.105480f, -0.190033f, -0.158908f, -0.007087f, -0.104769f, 0.190595f, 0.044920f, -0.078464f, 0.181106f, 0.158056f, 0.265333f, 0.179014f, -0.044422f, -0.193436f, 0.180973f, -0.229193f, -0.077503f, 0.217934f, 0.239096f, 0.072994f, 0.098163f, -0.237599f, 0.003588f, 0.024339f, -0.082242f, -0.223903f, -0.140776f, -0.073748f, -0.030987f, 0.046821f, 0.115486f, -0.094579f, -0.088215f, -0.248701f, -0.238357f, -0.125750f, 0.124549f, 0.066632f, 0.140099f, 0.139834f, 0.185021f, 0.114410f, 0.248746f, 0.207748f, 0.045032f, 0.045775f, -0.241507f, 0.257202f, -0.190722f, 0.124886f, 0.166700f, -0.065922f, -0.157952f, -0.208360f, 0.129331f, -0.034684f, 0.111102f, 0.215800f, -0.183526f, 0.219335f, -0.045892f, -0.100325f, 0.230021f, 0.254917f, -0.156269f, 0.079620f, -0.204304f, 0.078841f, 0.169971f, 0.095808f, -0.042966f, -0.060808f, -0.055016f, 0.046548f, 0.198018f, 0.222768f, -0.231622f, -0.165331f, -0.204356f, -0.159248f, -0.080833f, 0.003302f, 0.067228f, 0.120549f, 0.202581f, 0.253968f, 0.084570f, 0.179382f, 0.144261f, -0.099962f, 0.195093f, -0.237338f, -0.259459f, -0.117499f, -0.019682f, 0.071995f, -0.206787f, 0.089843f, 0.156730f, -0.163330f, -0.044075f, 0.010321f, -0.025010f, 0.155702f, 0.239221f, 0.155244f, -0.219144f, 0.158350f, -0.225066f, -0.137108f, -0.180204f, -0.157041f, 0.014627f, 0.089136f, -0.015412f, 0.238679f, -0.134864f, 0.136646f, 0.192224f, 0.031902f, -0.022739f, 0.049632f, -0.036976f, 0.029024f, -0.043135f, -0.051685f, 0.101442f, -0.211213f, -0.173146f, 0.182380f, 0.140738f, -0.113469f, -0.063669f, 0.221232f, 0.165175f, 0.059379f, -0.144645f, -0.236671f, -0.035697f, 0.089644f, 0.170577f, 0.183148f, -0.242625f, -0.132857f, -0.083557f, -0.161639f, 0.157332f, 0.138893f, 0.008741f, 0.250779f, -0.184837f, 0.207536f, -0.199167f, -0.174907f, 0.101895f, -0.202747f, 0.034193f, -0.041422f, 0.118644f, 0.208067f, 0.140142f, 0.181591f, -0.242537f, -0.098564f, 0.008014f, -0.043645f, -0.139557f, -0.099769f, 0.231308f, -0.106880f, -0.075866f, -0.257719f, 0.179196f, -0.179238f, -0.153635f, -0.127090f, 0.199731f, -0.152438f, 0.154503f, 0.159969f, 0.221748f, -0.199635f, -0.146814f, 0.126136f, -0.157864f, -0.110957f, -0.173058f, -0.169966f, -0.009579f, -0.202688f, -0.092591f, -0.038119f, -0.246898f, -0.057988f, -0.210768f, -0.003335f, 0.169151f, 0.165354f, -0.217869f, 0.052567f, 0.173801f, -0.136068f, 0.136016f, 0.202920f, 0.158968f, -0.203925f, -0.254941f, -0.160085f, -0.119189f, 0.060333f, -0.060096f, 0.105627f, -0.076297f, -0.179454f, -0.097253f, 0.199577f, 0.238112f, -0.151886f, 0.149799f, -0.117698f, 0.201034f, -0.173679f, 0.086181f, -0.215915f, 0.246089f, 0.104185f, 0.177502f, 0.034621f, -0.012047f, 0.063295f, 0.014925f, -0.015898f, 0.134730f, -0.167107f, -0.170779f, -0.035394f, -0.093084f, -0.221153f, 0.178880f, 0.141043f, 0.022808f, 0.248909f, -0.221945f, 0.138479f, -0.121322f, -0.068235f, -0.145776f, 0.150095f, -0.184743f, 0.176568f, 0.083906f, -0.228995f, 0.158425f, 0.066342f, 0.210304f, 0.129155f, 0.031736f, 0.174766f, -0.115256f, 0.024385f, -0.107254f, 0.243134f, -0.142184f, -0.251472f, -0.090477f, 0.001303f, -0.244917f, 0.030767f, 0.194486f, 0.106279f, 0.063855f, 0.238788f, 0.237980f, 0.169556f, 0.055949f, -0.006354f, -0.252730f, 0.055181f, 0.253978f, 0.165187f, -0.082788f, -0.180727f, 0.147509f, 0.126679f, 0.242533f, 0.194655f, 0.028789f, -0.207089f, -0.008456f, -0.096817f, 0.006444f, -0.208087f, 0.187891f, 0.178806f, -0.095827f, 0.051712f, -0.032682f, 0.212438f, -0.163523f, 0.102413f, 0.244247f, -0.168626f, -0.154599f, 0.100599f, 0.144962f, -0.004899f, 0.056959f };
static const float XX_MLP_L56_layer_1_biases[10] = { 0.269086f, 0.112525f, -0.272563f, -0.014556f, 0.309119f, 0.081484f, -0.171565f, -0.053322f, 0.173305f, -0.023669f };
static const float XX_MLP_L56_layer_1_weights[560] = { -0.006399f, 0.083981f, 0.240284f, 0.010996f, 0.213399f, 0.145344f, -0.292676f, 0.029410f, -0.023016f, -0.085381f, 0.003866f, -0.169288f, -0.036424f, 0.199877f, -0.137458f, -0.289115f, -0.291349f, 0.038087f, -0.156267f, -0.270694f, 0.388742f, 0.129697f, -0.257692f, 0.249308f, 0.226909f, -0.101032f, -0.314097f, -0.241428f, -0.139232f, 0.215175f, -0.253550f, 0.157531f, -0.311169f, -0.084760f, 0.066673f, -0.237248f, 0.036325f, 0.297540f, -0.096675f, 0.183043f, 0.096473f, -0.160039f, -0.274888f, -0.356323f, 0.010121f, 0.303528f, 0.112936f, 0.126291f, -0.044619f, 0.017024f, -0.161074f, 0.272210f, 0.157593f, 0.265102f, -0.176315f, -0.089607f, -0.268397f, 0.282581f, 0.136806f, -0.223821f, 0.205056f, 0.045057f, -0.245595f, -0.334795f, 0.200041f, -0.116680f, 0.219824f, -0.239511f, -0.023745f, -0.218651f, -0.279033f, -0.018818f, -0.256537f, 0.066007f, 0.099183f, -0.174513f, 0.229660f, 0.159513f, -0.025724f, 0.163425f, 0.112372f, -0.122452f, -0.095001f, -0.024732f, 0.070227f, 0.201918f, -0.222779f, 0.229135f, -0.240077f, 0.128937f, -0.083844f, 0.146778f, 0.112144f, 0.053549f, 0.096418f, -0.036423f, 0.161383f, -0.012001f, 0.050416f, -0.118199f, 0.101816f, -0.077276f, 0.058893f, -0.138575f, -0.199274f, -0.072851f, -0.012481f, -0.167711f, -0.318503f, -0.321503f, -0.108706f, -0.047702f, -0.056758f, 0.150767f, -0.079584f, 0.178248f, -0.319353f, -0.203042f, -0.158206f, 0.038716f, 0.240355f, -0.062595f, -0.119228f, -0.324126f, 0.183474f, -0.032937f, 0.069655f, 0.288919f, -0.337872f, -0.245789f, 0.199202f, 0.208755f, 0.185592f, -0.035357f, 0.274455f, -0.024010f, 0.087093f, -0.265683f, -0.091056f, 0.102140f, -0.116246f, 0.305495f, 0.131362f, -0.069214f, 0.182698f, -0.279173f, 0.318826f, -0.301296f, 0.153423f, -0.193536f, 0.182648f, -0.261683f, -0.128204f, 0.210370f, 0.040306f, -0.255185f, -0.031602f, -0.103805f, -0.063747f, 0.057436f, 0.036978f, -0.077094f, -0.030581f, -0.115449f, 0.256305f, 0.130459f, -0.009687f, -0.002937f, 0.107035f, -0.204968f, -0.317701f, -0.149787f, 0.032294f, -0.067965f, 0.107861f, 0.218609f, -0.039723f, -0.191726f, 0.311544f, 0.089034f, -0.033913f, 0.032517f, 0.316042f, -0.135876f, 0.187877f, -0.014221f, -0.025988f, -0.151283f, -0.032892f, 0.278297f, -0.078074f, -0.193445f, 0.123007f, -0.124533f, -0.006420f, 0.197410f, -0.126526f, -0.065437f, -0.022332f, -0.004856f, 0.309638f, 0.161344f, 0.187697f, 0.197949f, -0.078937f, -0.005460f, -0.319187f, -0.183375f, -0.186725f, -0.215262f, -0.033195f, -0.080151f, 0.152850f, 0.172648f, -0.096484f, -0.040652f, 0.168379f, -0.053901f, -0.218289f, -0.031021f, 0.225424f, -0.092994f, -0.154407f, 0.335919f, 0.112645f, -0.141899f, -0.196335f, 0.174492f, 0.161214f, 0.281082f, -0.204671f, -0.275991f, 0.113035f, -0.092841f, -0.194692f, -0.147372f, 0.164593f, 0.026169f, -0.229604f, 0.010220f, 0.072319f, -0.015063f, 0.026563f, -0.224535f, 0.189963f, 0.062334f, 0.096665f, 0.319724f, 0.062255f, 0.273961f, -0.261791f, -0.261456f, 0.084560f, -0.167617f, -0.158351f, -0.103258f, -0.078872f, 0.132460f, -0.005748f, 0.141198f, 0.225255f, 0.238406f, -0.028631f, -0.109674f, 0.243038f, 0.139197f, -0.229274f, 0.023594f, -0.123055f, 0.262262f, -0.256026f, 0.088832f, 0.165919f, -0.191848f, 0.288469f, 0.247419f, 0.279840f, -0.294413f, -0.007644f, -0.157157f, 0.231733f, 0.114940f, 0.015094f, -0.127304f, 0.002959f, 0.030347f, 0.236423f, 0.054175f, 0.231944f, 0.281525f, -0.075124f, -0.100869f, 0.017429f, 0.209833f, -0.214849f, -0.166511f, -0.198695f, 0.164622f, -0.035888f, 0.093233f, 0.024324f, -0.022503f, 0.082208f, 0.012932f, 0.268987f, 0.010580f, 0.095857f, -0.241327f, 0.258243f, 0.020506f, 0.208385f, -0.236954f, -0.034299f, -0.203811f, -0.154960f, 0.218431f, 0.097199f, -0.037475f, -0.330060f, 0.248620f, 0.181925f, -0.252685f, -0.290535f, 0.087801f, 0.355344f, 0.251485f, 0.094561f, -0.133431f, -0.096966f, 0.242113f, 0.031514f, -0.183871f, -0.134848f, -0.075390f, -0.208669f, -0.046557f, 0.283387f, 0.072689f, -0.362304f, -0.342287f, -0.271453f, -0.178087f, 0.224298f, 0.314098f, 0.006770f, 0.110237f, 0.345550f, 0.137827f, 0.097021f, -0.236433f, -0.088632f, 0.293559f, -0.116425f, 0.265507f, 0.107867f, -0.065192f, -0.018318f, 0.003611f, 0.035440f, -0.027598f, -0.193007f, 0.194661f, -0.034707f, 0.215157f, -0.141636f, -0.102716f, -0.073789f, 0.041166f, 0.200956f, -0.227012f, -0.158598f, 0.019446f, -0.084113f, 0.028082f, 0.216859f, 0.186228f, 0.033909f, 0.110504f, 0.210774f, 0.037347f, -0.104914f, 0.132058f, 0.126391f, 0.302658f, -0.318302f, 0.269870f, -0.023795f, -0.309878f, -0.173885f, 0.100253f, 0.182761f, 0.332318f, -0.110048f, -0.069044f, 0.131875f, -0.021982f, 0.066524f, 0.174799f, 0.066202f, -0.048301f, -0.258196f, -0.000865f, 0.206861f, 0.010537f, 0.301068f, -0.086278f, 0.121960f, 0.192134f, 0.064834f, -0.223396f, 0.259001f, -0.191739f, 0.103370f, -0.056805f, -0.034543f, -0.127679f, 0.101007f, -0.204125f, 0.403144f, 0.252452f, 0.058279f, -0.007467f, -0.110915f, 0.060020f, 0.249207f, -0.161128f, 0.033185f, -0.189466f, -0.204763f, -0.231056f, 0.281222f, 0.025105f, 0.163297f, -0.169406f, -0.046555f, 0.218271f, -0.210905f, -0.228827f, 0.015791f, 0.042452f, 0.238955f, 0.303433f, -0.197267f, -0.106747f, -0.030921f, -0.316569f, -0.223958f, -0.191253f, -0.107688f, -0.192694f, 0.245548f, -0.079913f, 0.301460f, 0.229398f, -0.034049f, -0.096482f, -0.161131f, 0.167907f, -0.172782f, -0.098874f, 0.024696f, 0.085214f, 0.313984f, -0.101465f, -0.079512f, -0.166503f, -0.051256f, -0.269153f, -0.182469f, 0.190021f, -0.160952f, -0.116843f, 0.245018f, 0.077109f, 0.000072f, 0.186574f, -0.245082f, 0.006560f, -0.129991f, -0.117644f, -0.192840f, -0.064578f, -0.038783f, 0.224700f, -0.126425f, 0.023786f, 0.189688f, 0.185291f, 0.099895f, -0.159419f, -0.070520f, -0.252043f, -0.215293f, 0.050310f, 0.166307f, -0.017409f, 0.220965f, 0.201832f, -0.223718f, 0.072160f, 0.030924f, 0.233823f, -0.305689f, 0.102489f, -0.168945f, -0.307385f, 0.025109f, 0.166261f, 0.202502f, -0.251192f, 0.075794f, -0.192797f, -0.167938f, -0.277174f, -0.247176f, -0.099034f, -0.180235f, 0.296483f, -0.090729f, 0.239233f, -0.229775f, 0.120997f, -0.282255f, -0.081535f, -0.318613f, 0.212513f, 0.238823f, -0.250953f, 0.368118f, 0.209407f, -0.057244f, 0.258526f, -0.091190f, -0.113364f, -0.231740f, 0.125048f, -0.253884f, -0.014155f, 0.063345f, 0.161419f, -0.246864f, 0.129098f, 0.102438f, 0.099500f, 0.055491f, -0.277405f, 0.031680f, -0.067354f, 0.265854f, -0.079612f, 0.021509f, -0.073531f, 0.207624f, -0.089419f, -0.253309f, 0.109012f, -0.076361f, 0.056030f, -0.241625f, 0.304671f };
static float XX_MLP_L56_buf1[56];
static float XX_MLP_L56_buf2[56];
static const EmlNetLayer XX_MLP_L56_layers[2] = { 
{ 56, 33, XX_MLP_L56_layer_0_weights, XX_MLP_L56_layer_0_biases, EmlNetActivationTanh }, 
{ 10, 56, XX_MLP_L56_layer_1_weights, XX_MLP_L56_layer_1_biases, EmlNetActivationSoftmax } };
static EmlNet XX_MLP_L56 = { 2, XX_MLP_L56_layers, XX_MLP_L56_buf1, XX_MLP_L56_buf2, 56 };

    int32_t
    XX_MLP_L56_predict(const float *features, int32_t n_features)
    {
        return eml_net_predict(&XX_MLP_L56, features, n_features);
    }
    

    int32_t
    XX_MLP_L56_regress(const float *features, int32_t n_features, float *out, int32_t out_length)
    {
        return eml_net_regress(&XX_MLP_L56, features, n_features, out, out_length);
    }
    

    float
    XX_MLP_L56_regress1(const float *features, int32_t n_features)
    {
        return eml_net_regress1(&XX_MLP_L56, features, n_features);
    }
    