
#include "eml_net.h"
static const float X60_MLP_L46_layer_0_biases[46] = { -0.147822f, 0.926258f, -0.720094f, -0.175907f, -1.150034f, -0.694074f, 0.984527f, 0.648532f, 0.275165f, 0.679549f, -1.429137f, 0.817018f, -0.273057f, 0.123573f, -0.862666f, -0.812746f, 0.561151f, -0.366627f, 0.064709f, 1.288347f, 0.310555f, 0.114492f, -1.215146f, -0.230106f, 0.026235f, 0.058181f, 0.803371f, 0.340879f, -2.292575f, -1.125689f, -1.146412f, -0.459143f, -1.805974f, 1.146200f, -0.207449f, -0.633843f, -0.052058f, 1.214411f, 0.013240f, -1.633201f, 0.903038f, -0.689579f, -0.010367f, 0.039539f, 1.852394f, 0.537875f };
static const float X60_MLP_L46_layer_0_weights[2070] = { 2.530120f, 1.192523f, 1.592460f, -1.050358f, -0.099919f, 1.395915f, -0.795655f, -1.458346f, -0.213931f, -2.337488f, 0.428710f, -0.282445f, -0.000380f, 1.794429f, 0.905654f, -1.772539f, 0.769266f, 1.998973f, 1.292790f, 0.423885f, 2.249305f, 1.378617f, 0.645736f, -1.100616f, -0.953484f, 1.870040f, 0.281572f, 1.320617f, 0.265792f, -2.590214f, 0.131533f, 2.688650f, -0.338172f, -0.811579f, 0.634939f, 2.286327f, -1.315096f, 1.410200f, 2.668296f, -0.229193f, -0.574367f, -2.246325f, 0.743204f, -0.161146f, 0.846075f, -1.284237f, -0.725587f, 2.704190f, -0.849641f, 0.048110f, 0.239652f, 1.399237f, -0.066381f, 0.645408f, 1.413685f, -0.447643f, -0.035994f, 1.917895f, -0.612698f, -0.437684f, 0.332544f, 0.971031f, -0.771770f, 0.113941f, 0.679304f, -0.656862f, 1.820663f, -2.020827f, -0.413896f, -0.542009f, 0.294296f, -1.437623f, -0.147004f, -0.603622f, 0.271294f, 0.843981f, -0.164535f, -0.645187f, -0.036135f, 1.261110f, -1.514121f, -0.097286f, 0.981910f, 1.183369f, -1.031683f, -0.345363f, -0.883394f, -0.844328f, -1.288404f, -0.200981f, -0.220306f, 0.612750f, 0.226779f, -1.742742f, 0.400961f, 0.350078f, -0.214995f, 0.650312f, 0.641360f, 2.210248f, 0.357969f, -0.403701f, 0.856453f, 1.007760f, -0.154867f, 0.227288f, 0.855496f, -0.112709f, 0.335706f, -0.168948f, -0.010945f, -0.006890f, 1.630080f, -0.373556f, 0.132535f, 0.151464f, 0.682256f, -0.092957f, -0.385599f, -1.122380f, 0.291483f, -0.278446f, 0.091514f, -1.400607f, -0.607908f, 0.189177f, -0.996482f, -0.380228f, 0.763156f, -0.492625f, -0.107879f, -0.474823f, -1.308350f, 0.035284f, -0.558139f, 2.178066f, 0.969219f, -0.339601f, 0.110304f, -1.701228f, 0.173129f, 0.754208f, -0.177584f, 0.269449f, 0.510239f, 2.836547f, -0.089257f, -0.951916f, 0.749320f, 0.832871f, -0.057919f, -0.327424f, 1.144537f, 0.196232f, -0.055844f, 0.069515f, -0.325850f, 0.130386f, 1.792164f, -0.878414f, 0.739780f, 0.073083f, -0.342801f, -0.082525f, -0.462094f, -0.575622f, 0.300236f, 0.023927f, 0.048431f, -1.015611f, -0.310579f, -0.335132f, -0.693466f, 0.457178f, 0.421344f, -0.394461f, 0.036646f, -0.128374f, -1.743701f, -0.352086f, -0.853423f, 3.067663f, 0.518745f, 0.022534f, 0.855238f, 1.953764f, 2.773534f, 2.185446f, 0.917989f, -0.459291f, -1.190266f, 0.325982f, 0.592109f, 0.113653f, -0.160083f, -0.471561f, -1.179350f, 0.810656f, -1.616686f, -1.182975f, 2.446262f, 0.745049f, -0.459113f, -0.304677f, -1.418955f, -0.675214f, 2.014136f, -0.478863f, -1.156267f, 2.616549f, 0.530548f, -1.563998f, -0.222865f, -1.313504f, -0.302134f, 0.673322f, -0.063203f, -0.380639f, 2.402190f, 1.756110f, 1.311100f, 1.603763f, 0.732250f, 0.350395f, 0.917688f, 0.117184f, -0.129145f, 1.243348f, 0.834676f, 1.252986f, -4.828860f, -0.613320f, 0.362501f, 0.367635f, -1.073573f, -0.431137f, 0.819427f, 7.707972f, -1.107959f, 0.179464f, -1.060008f, -2.749832f, -0.596435f, -1.499416f, 0.569460f, -0.745819f, -1.894074f, -0.752766f, 2.171912f, 3.625728f, 1.122643f, 0.695308f, 0.114156f, 0.705781f, 0.801166f, -0.152984f, -1.070747f, -0.338598f, 0.387458f, -2.755307f, -2.975487f, 0.150675f, -6.480606f, 2.996886f, -5.037905f, -1.003300f, -0.677479f, 2.035852f, -0.141601f, -1.720606f, -1.226821f, 2.301291f, 0.984948f, -0.850294f, -0.257768f, 0.582124f, -1.177762f, 1.561986f, -1.756587f, 2.010225f, -1.165611f, 0.419436f, 0.270469f, 2.480713f, -2.234681f, 0.129887f, 7.915678f, -2.263346f, -0.734219f, 1.560646f, 0.104610f, -4.305350f, 1.817476f, -2.382166f, 0.469920f, -1.205077f, -2.583628f, -2.234280f, 6.102910f, -0.028849f, -1.083533f, -0.418978f, 0.545549f, 0.718421f, -0.568665f, 1.692789f, 0.436420f, -0.948831f, 0.146560f, -3.437911f, 1.615690f, 0.539470f, 0.634609f, -0.501681f, 1.322392f, 0.983794f, 0.304893f, -1.494359f, 1.756857f, 1.157130f, -1.504075f, -0.163772f, -0.509424f, -1.349285f, 0.204622f, 1.827668f, -0.462738f, 1.806469f, 0.161833f, 1.383952f, -1.400467f, -2.040760f, 0.062079f, -1.391553f, 1.204206f, -0.455452f, -0.437200f, -0.634435f, 0.832124f, -1.510277f, 0.470137f, -0.292823f, -1.993664f, -2.728985f, 3.937072f, -0.624107f, -1.324107f, -0.024392f, -0.304927f, 1.033144f, -0.246915f, -0.554290f, 0.518949f, 0.390866f, 0.272082f, 0.026250f, 1.479979f, 0.672999f, 0.225615f, -1.877672f, -2.776289f, 1.526371f, -0.155641f, 2.078253f, 0.598989f, 1.512953f, 0.376666f, 1.027937f, 0.197457f, 0.098040f, 0.110723f, -0.117039f, 0.044859f, 0.065264f, -0.131625f, -0.166826f, 0.170251f, 0.240865f, -0.044770f, -0.190142f, 0.204513f, -0.048506f, 0.252515f, 0.035422f, 0.124763f, 0.204173f, 0.184225f, -0.180381f, 0.112085f, -0.039454f, -0.230468f, -0.038610f, -0.011690f, 0.185854f, -0.229818f, 0.241139f, -0.083846f, -0.010731f, -0.247945f, -0.162208f, -0.035215f, 0.204580f, -0.210321f, 0.226946f, 0.121681f, 0.011014f, -0.113847f, -0.195166f, 0.076450f, -0.260815f, -0.244480f, -0.035502f, -0.217147f, -0.107811f, -0.153091f, -0.122327f, -0.192612f, -0.304850f, -0.250065f, 0.050566f, 0.246945f, 0.246777f, -0.007435f, -0.170996f, 0.089369f, -0.119468f, 0.270004f, -0.221584f, 0.204516f, -0.060420f, -0.179666f, 0.137609f, -0.216782f, 0.071336f, 0.009362f, -0.104291f, -0.016557f, -0.111084f, 0.223638f, 0.031817f, -0.090574f, 0.158321f, 0.210944f, -0.208531f, -0.135954f, -0.078557f, 0.242719f, 0.241989f, 0.241938f, 0.238475f, -0.250313f, 0.300522f, -0.154567f, -0.251324f, 0.235959f, -0.160327f, 0.167423f, -0.223574f, 0.123863f, 0.230724f, -0.294604f, 0.405764f, -0.280540f, 0.906334f, 0.029139f, 0.009467f, -1.572947f, -1.215360f, -0.731406f, -0.312810f, -1.138458f, 3.114011f, -0.300305f, -0.262460f, 0.284506f, -0.905286f, 0.940761f, -0.553008f, 2.455679f, 0.740296f, -2.216139f, 0.003983f, -1.355124f, 0.115068f, 0.744923f, -3.012084f, 0.099773f, -0.451321f, 1.141529f, -0.738214f, -0.675884f, -1.457984f, 1.798974f, -2.193422f, -0.144276f, 0.044552f, 2.393465f, -2.820905f, -6.088855f, -0.420754f, -0.282355f, 2.265134f, 2.442258f, -3.546978f, 0.129191f, 0.475941f, -0.589559f, -1.018951f, -1.836740f, 1.216965f, -0.444234f, -0.532379f, -0.381642f, 3.347730f, 0.339009f, 0.883315f, -0.127984f, -0.003039f, -0.258649f, -0.353855f, -0.055281f, 1.226242f, -1.243358f, -0.026536f, -0.274752f, 0.882435f, 0.958772f, -0.466218f, 0.213209f, -0.154935f, -1.067810f, -0.156335f, 0.590724f, 0.757965f, -1.872770f, -0.545227f, -0.978268f, 1.039898f, -0.598614f, 1.460255f, -0.786746f, 1.066291f, -0.203510f, 0.551864f, 0.309146f, -0.651196f, 1.301628f, 2.666698f, -0.667281f, 1.358814f, 0.152559f, -0.323651f, 0.624474f, -0.301572f, -0.714554f, 0.061601f, -0.063614f, -0.138318f, 0.346018f, 0.163930f, 0.079408f, -0.259833f, 0.234342f, 0.193270f, -0.234137f, 0.132115f, -0.477583f, -0.780190f, 0.159283f, 1.004036f, 0.174496f, 0.123666f, -0.201196f, -0.190722f, 0.412537f, -0.013667f, 0.239026f, 0.188738f, 0.250398f, -0.207025f, 0.033520f, -0.270165f, -0.173441f, -0.302209f, 0.246561f, 0.135031f, -0.533132f, -0.685000f, -0.285983f, -0.047842f, 0.302036f, 0.131923f, 0.301547f, 0.244974f, -0.067405f, 0.332042f, 0.128434f, -1.022934f, -0.201416f, 4.276799f, -1.713768f, -2.762417f, -0.915904f, 1.746110f, 0.380139f, -0.336423f, -5.275996f, -0.512694f, 0.621890f, 1.742083f, -0.475193f, 0.324089f, -1.104141f, -5.568647f, -0.259280f, 1.863143f, -1.168246f, -0.198591f, -0.976818f, 2.894504f, 1.431110f, -1.578629f, -1.341141f, 0.168305f, 0.389196f, 2.122253f, 0.359926f, 0.747663f, 0.174083f, 1.875980f, -1.511615f, -6.271931f, 1.495004f, 0.458997f, 0.278356f, 6.140216f, -1.066731f, 0.222136f, 0.718390f, -7.321807f, -2.319303f, 1.324488f, 0.759346f, -2.986223f, 0.472148f, 0.323379f, 2.634664f, 0.472280f, -0.483985f, -1.222797f, 0.617671f, 2.347583f, -1.758036f, -0.522679f, -0.218267f, -1.755099f, -1.101622f, -0.334608f, 3.175660f, 0.043220f, -1.510911f, -1.351713f, 0.785144f, 0.061333f, 1.197694f, 0.192743f, -0.158417f, 0.104749f, -1.020010f, -1.293784f, -0.682993f, -0.268551f, -0.738548f, 0.081717f, 0.373563f, 1.277448f, -0.076216f, 1.595501f, -0.910287f, -0.422250f, -2.029246f, 1.388033f, -0.450257f, -1.038143f, 0.254915f, -0.292221f, 0.648388f, -1.200174f, -0.030786f, -1.258978f, 0.242629f, -0.317486f, -0.002121f, -0.065864f, -0.063520f, -0.095513f, -0.152978f, -0.145318f, -0.002622f, 0.172381f, -0.096824f, -0.180416f, -0.239082f, -0.048470f, -0.248286f, -0.244109f, -0.123994f, -0.157146f, -0.236297f, 0.263628f, -0.143986f, 0.021588f, 0.248415f, -0.064615f, -0.273028f, -0.210160f, -0.022806f, -0.056656f, -0.117965f, 0.049736f, 0.096148f, 0.180337f, -0.573565f, 0.334424f, -0.017953f, 0.148879f, 0.105141f, 0.014404f, 0.153023f, -0.152966f, 0.063448f, 0.125083f, -0.024043f, -0.118060f, 0.000348f, 0.019439f, -0.110224f, -0.000054f, -0.196623f, -0.174656f, -0.233682f, 0.239478f, -0.250774f, -0.160284f, 0.055382f, -0.217710f, 0.194086f, 0.107806f, 0.234815f, 0.006634f, -0.124507f, 0.024084f, 0.220117f, 0.016178f, -0.115067f, 0.197810f, -0.065225f, -0.259534f, -0.121117f, -0.098240f, 0.184236f, -0.016182f, -0.028073f, -0.092754f, 0.188133f, 0.216096f, 0.249344f, -0.068746f, 0.229486f, 0.154959f, 0.095842f, -0.132227f, -0.145925f, -0.194095f, 0.213889f, -0.107201f, -0.020274f, 0.005001f, 0.146998f, 0.179314f, -0.178637f, -0.046133f, 0.672695f, 0.660647f, -0.155022f, -1.486748f, -0.311443f, -1.101737f, 0.264136f, -0.809329f, 0.935857f, 0.195384f, 0.014176f, 0.452995f, -0.608835f, 0.499352f, -0.180988f, -1.407619f, -0.007828f, 0.484677f, -1.226268f, 0.666225f, 1.172326f, 0.748517f, -0.865293f, -0.911653f, 0.143262f, 0.009736f, 0.893118f, 0.948342f, -1.692551f, -0.360628f, -0.800771f, 0.466656f, -1.161757f, -0.107633f, 0.355000f, 0.096121f, -0.705409f, 2.186927f, 0.691283f, -0.938055f, 0.764351f, -1.963400f, -0.448854f, 0.384083f, 1.012716f, 0.501693f, -0.511142f, 0.364307f, -0.759962f, 1.136607f, -0.421361f, 0.390749f, 0.774667f, 1.141366f, -0.484182f, -0.023359f, -1.450769f, 0.538143f, 0.390741f, -0.617097f, -0.906164f, 0.584049f, 0.191751f, -0.753648f, 1.063586f, 0.608033f, -0.958450f, -0.536579f, -0.028803f, 0.730673f, 0.058767f, 0.252887f, 0.274955f, -0.156145f, -0.772091f, -0.771753f, -0.448175f, -0.714523f, -0.219838f, 1.056048f, -1.125239f, -0.903147f, 0.703699f, -0.648564f, -0.851131f, -0.876199f, 0.449683f, 0.978407f, 0.586755f, -0.128605f, 0.572175f, 0.202502f, -0.094203f, -0.027285f, -0.034366f, -0.073264f, 0.213109f, 0.118999f, 0.116859f, -0.107885f, 0.039920f, 0.143363f, 0.151797f, -0.079859f, 0.139105f, 0.121158f, -0.184116f, 0.187935f, -0.030136f, -0.006976f, -0.026518f, 0.034847f, 0.062231f, -0.000942f, 0.188374f, 0.065596f, -0.050621f, -0.042777f, 0.159634f, -0.077962f, -0.148200f, -0.226281f, 0.193109f, 0.214946f, -0.195091f, -0.085004f, -0.166710f, -0.197271f, 0.205350f, -0.227567f, 0.246762f, -0.207247f, 0.186668f, 0.034156f, -0.067838f, -0.080953f, 0.132172f, -0.095237f, 0.091736f, -0.022705f, -0.027376f, 0.195210f, -0.052997f, 0.159531f, 0.124034f, -0.232122f, 0.127458f, -0.157261f, 0.197347f, -0.263920f, -0.090051f, -0.115788f, -0.041335f, 0.140662f, -0.104380f, -0.055182f, -0.072913f, 0.184988f, -0.176429f, -0.141496f, -0.220130f, 0.102623f, -0.048848f, -0.096714f, 0.112480f, -0.084828f, 0.111639f, 0.158232f, -0.161271f, 0.234070f, -0.287509f, 0.000366f, -0.162589f, -0.084281f, -0.013257f, -0.042208f, 0.194766f, 0.158848f, -0.133680f, 0.095732f, -0.207226f, -0.021190f, -0.093102f, -0.101680f, 0.635622f, 0.584070f, -0.233704f, -0.805264f, -0.281416f, -1.219651f, 0.713030f, -0.268992f, 1.182350f, 0.034706f, -0.077296f, 0.271732f, -1.062669f, 0.750198f, -0.181365f, -1.025950f, 0.241913f, 0.831188f, -0.656634f, 0.805242f, 1.534077f, 0.793952f, -0.962070f, -0.695096f, -0.523884f, -0.103952f, 0.617784f, 0.579007f, -1.664951f, -0.778711f, -0.652498f, 0.441682f, -1.810270f, 0.509827f, 0.687263f, -0.204804f, -0.825364f, 1.910282f, 0.798449f, -0.734333f, 1.086850f, -1.385484f, -0.275910f, 0.472495f, 1.217100f, -0.052713f, -0.052278f, 0.479651f, -0.542707f, 0.609293f, 0.068425f, 0.172258f, -0.772407f, -1.567077f, -1.072836f, -1.165430f, -0.291780f, 0.740451f, 0.243181f, 0.095683f, -0.547526f, -0.684521f, 0.262385f, -0.376643f, -0.014765f, -1.012360f, -0.435094f, -0.385095f, -0.204691f, -0.148784f, 0.738186f, 0.556679f, -0.314915f, -0.019004f, -0.563333f, 0.361938f, 0.796601f, -0.234597f, -2.009696f, 0.161525f, 0.479774f, -0.543142f, 0.750879f, -0.416719f, -0.475668f, 0.310737f, 0.053051f, 0.233381f, 0.307044f, 0.276532f, 0.386387f, 1.006264f, 0.143784f, 0.024963f, 0.101382f, -0.065173f, -0.255837f, -0.283223f, 0.008122f, -0.200510f, -0.221768f, 0.215217f, 0.167529f, -0.242418f, -0.271989f, 0.283078f, -0.152668f, -0.159573f, 0.090711f, -0.197868f, -0.134095f, 0.249181f, 0.085914f, -0.022390f, -0.024600f, 0.124327f, -0.180060f, 0.243020f, 0.189072f, 0.039337f, -0.290018f, 0.096342f, 0.202073f, 0.012439f, -0.095458f, -0.188545f, 0.155689f, 0.165968f, -0.222462f, 0.129297f, -0.242034f, 0.216934f, 0.080564f, 0.031293f, -0.111246f, 0.244504f, -0.118418f, 0.144969f, 0.218237f, 0.225178f, 0.032719f, 0.051888f, -0.022524f, -0.187854f, -0.127681f, 0.722855f, 0.011024f, -0.498776f, -0.402060f, -0.462118f, 0.196626f, 0.507668f, 0.012223f, -0.234704f, 0.180553f, -0.088187f, 0.890988f, 0.584400f, -0.103741f, 0.072457f, 0.862075f, -0.113986f, -0.296822f, -0.127633f, -0.204004f, -0.287205f, -0.068007f, -0.425735f, -0.601256f, -0.120593f, -0.981028f, -0.545488f, -0.441489f, 0.069123f, -0.084813f, -0.300033f, -0.270400f, -0.083676f, 0.041405f, 0.058482f, -0.551065f, 0.059442f, 0.135333f, 0.019427f, -1.048878f, -0.057116f, -0.653241f, -0.028585f, -0.414718f, 0.571652f, 1.144350f, 2.017016f, -0.108446f, 1.971222f, -0.446787f, 0.342635f, 0.200963f, -1.136130f, -0.013699f, 0.935754f, 0.086644f, -0.643238f, 0.345985f, 0.766571f, -0.261301f, 0.413257f, -0.648961f, 0.674764f, -0.108256f, -0.206934f, 0.015470f, -0.045735f, 0.472933f, -1.022966f, -0.283712f, -0.059878f, 2.889753f, 1.123385f, -1.317821f, -0.004309f, -0.118889f, 0.154449f, -0.279115f, -0.800914f, -0.105329f, 0.353996f, 0.446140f, -0.598430f, -0.212815f, -0.344956f, 0.806706f, 0.135979f, -0.660756f, -0.769932f, -0.228143f, 1.409188f, 0.255688f, 0.223884f, 1.250806f, -2.021644f, -2.100306f, 1.223502f, -0.446203f, 1.432897f, -2.617486f, 2.355565f, 1.778933f, 0.214336f, 0.068711f, 1.269883f, 0.908892f, -0.637600f, -2.175784f, 2.034676f, 2.276872f, 1.549207f, 0.945149f, -0.830742f, -0.995046f, 0.510030f, -0.552841f, -0.499041f, -0.968339f, -3.444778f, -1.183446f, -1.465241f, 0.236645f, -1.646297f, -1.284555f, -1.323039f, 0.892398f, 2.839426f, -0.671372f, 1.293266f, -0.712538f, -0.336205f, 0.379986f, -0.943359f, 1.320032f, -0.358077f, 0.058517f, -0.883255f, 0.646437f, 0.644567f, -0.554969f, 1.181746f, 0.581458f, 0.303415f, 1.367403f, -1.680736f, -0.475069f, -0.533274f, -1.568330f, 0.515572f, -1.892584f, 0.434414f, 1.209095f, 0.812471f, -0.138760f, 0.141765f, -0.348031f, -1.527534f, 0.054906f, 0.955158f, 0.550421f, -0.144665f, 0.189671f, 1.288986f, -0.989606f, 0.908971f, 0.120275f, 0.329497f, 0.095096f, 0.315486f, 0.940670f, 0.344662f, -1.106012f, -0.653910f, 0.005050f, 0.886602f, 0.302243f, 1.026825f, -0.155332f, -0.142999f, -0.123670f, 0.205513f, 0.095900f, -0.036350f, -0.177016f, 0.333264f, 0.140441f, -0.451868f, 0.073321f, -0.620525f, -0.017641f, 0.278071f, -0.218659f, 0.136811f, 0.075325f, 0.258228f, 0.192695f, -0.090138f, 0.241971f, 0.014090f, 0.507812f, -0.515489f, -0.033075f, -0.171319f, 0.236053f, -0.156530f, -0.122133f, 0.128281f, -0.171307f, 0.244910f, -0.290537f, -0.205257f, -0.033827f, -0.150524f, 0.103611f, 0.186660f, 0.322269f, -0.557218f, -0.007163f, 0.275139f, -0.112059f, 0.147740f, 0.244044f, -0.244375f, -1.866451f, -1.003931f, -1.426487f, 1.253902f, -0.887764f, -0.598009f, 0.392082f, 0.233878f, -0.837301f, 2.899538f, 1.228232f, 1.192809f, -0.448358f, -1.693004f, 2.848598f, -1.018496f, -0.386226f, -3.024406f, 0.543190f, 1.029294f, -1.087137f, -0.206222f, 0.293085f, -0.631503f, -1.346158f, -1.635741f, -0.291523f, 0.172018f, 0.129319f, -1.250628f, -0.181206f, -0.759407f, 0.808691f, 2.678248f, 0.103456f, 1.297679f, 0.086725f, 1.388140f, -1.284461f, 0.136503f, -1.074924f, -0.758001f, -1.280344f, -0.912423f, 0.807361f, 0.807592f, -0.269737f, 0.655987f, -0.694809f, 0.389731f, -0.165731f, 0.355772f, -0.933843f, -1.631375f, -0.035880f, 0.296325f, 0.690345f, 0.399777f, -0.323342f, -0.103102f, 1.138840f, -1.119660f, 1.750637f, 0.997971f, 0.961231f, -1.558540f, -1.732559f, -1.055803f, 0.831506f, -0.948961f, -0.382259f, 1.788041f, -0.091514f, -0.306395f, -0.297730f, -0.564548f, -0.305913f, -0.113616f, 1.067260f, 1.111901f, -0.795367f, -0.485102f, -0.516883f, -0.432983f, -0.548080f, 0.896885f, 0.204718f, -1.622347f, 0.545878f, -1.016618f, 0.731085f, 0.532690f, 0.320593f, 0.131299f, -0.378590f, 0.047748f, -0.084527f, -0.264161f, -0.118832f, 0.193055f, -2.039651f, 0.365024f, -0.450128f, 0.047572f, 0.162640f, 0.567258f, -0.879957f, -0.610309f, -0.220147f, 0.179127f, -0.172447f, 0.116596f, 0.227491f, -0.218286f, 0.250094f, 0.452458f, -0.098714f, 0.104124f, 0.202543f, 0.188883f, -0.220280f, -0.021994f, -0.008316f, -0.107403f, -0.516731f, 0.207986f, 0.398021f, -0.059152f, -0.020519f, 0.449816f, 0.028744f, -0.394599f, 0.119694f, 0.306995f, 0.775504f, -0.614434f, -0.226119f, -0.360918f, -0.026288f, 1.430607f, 0.274276f, -0.270144f, -0.061209f, -0.184817f, 0.137703f, 0.321385f, -0.274214f, -0.303217f, -0.223347f, 0.340682f, 0.356953f, 0.268627f, 0.027084f, 0.287150f, -0.140291f, -0.007009f, -0.460730f, 0.035080f, -0.068985f, 0.495584f, 0.081788f, -0.224864f, -0.366450f, -0.394474f, -0.272326f, 0.359124f, -0.036917f, 0.481264f, -0.123375f, 0.313762f, 0.771268f, -0.133271f, 0.180118f, -0.006903f, 0.501876f, 0.971078f, 0.267696f, 0.123498f, 0.073930f, -0.611781f, -0.023730f, 0.236584f, 0.033479f, 0.508859f, 0.998600f, 0.692068f, 1.034972f, 0.115664f, 0.329885f, -0.585085f, 1.082749f, 0.833469f, 2.325433f, -1.539726f, -1.361304f, -0.843416f, -1.254520f, 1.628816f, -0.721822f, -0.052277f, -0.787095f, 1.102646f, 0.797346f, 0.429987f, 0.908128f, 0.972766f, -0.365371f, -0.776701f, 1.029111f, 0.424617f, 0.456635f, -0.074263f, -0.763731f, -0.248562f, 0.065063f, 0.005168f, -0.780356f, -0.143647f, 1.106347f, -0.528177f, -0.611703f, 0.218542f, 1.332637f, -1.240934f, 1.300971f, -0.285500f, 0.364422f, 0.377042f, -0.131950f, -1.735030f, -0.047985f, 1.181141f, -0.839463f, -0.151312f, -0.753390f, -0.334807f, 0.890898f, 0.433263f, 0.124560f, 0.641161f, -1.449001f, 0.835230f, -0.643448f, 0.055625f, -0.578782f, -0.702557f, 0.410353f, 0.067909f, -0.132725f, 1.292663f, 0.127406f, 0.049653f, -1.178868f, -0.630563f, 0.529729f, 0.035994f, 0.885467f, 0.876099f, -1.723733f, -1.301763f, -1.121674f, -0.073786f, -1.218802f, 0.791601f, -0.067500f, -0.493664f, 0.620394f, 1.188413f, -0.021578f, -1.142987f, 1.068468f, -1.024699f, 0.010294f, -0.309889f, 1.529727f, 0.494682f, 0.065881f, -0.388920f, -0.247061f, -0.046563f, -0.180697f, -0.102898f, 0.311584f, 0.107071f, -0.205441f, -0.412775f, -0.378353f, -0.144948f, 0.069309f, 0.219299f, -0.221991f, 0.123599f, 0.299623f, -0.062664f, 0.382506f, 0.453450f, 0.342836f, 0.440664f, -0.145710f, -0.325532f, -0.257149f, -0.056035f, 0.069696f, -0.450613f, -0.531517f, 0.003772f, -0.253951f, -0.263624f, -0.657966f, 0.416172f, -0.016432f, -0.177804f, -0.426883f, -0.475916f, 0.135354f, -0.410983f, 0.185202f, 0.164509f, 0.039511f, 0.324422f, 0.357496f, 0.177616f, -2.373966f, 0.892731f, -0.599516f, 2.433619f, -0.929144f, -0.393053f, 1.327635f, -0.089136f, -0.353532f, 1.313423f, 1.194317f, 3.054004f, 0.735100f, -2.597349f, 1.631285f, -0.476197f, -0.419870f, -2.362522f, 0.642153f, -0.422731f, -0.574801f, -0.040248f, -2.221335f, -1.253992f, -0.852899f, 0.033035f, -0.211613f, 0.872259f, -0.200388f, -2.367110f, -0.575343f, 2.274963f, 0.104687f, 1.388623f, -1.232228f, 0.485660f, 0.579707f, 0.057510f, -0.880684f, 0.585604f, -1.149540f, 0.101557f, -1.319424f, -0.294908f, 1.074538f, 3.565856f, 1.848650f, 0.101317f, 0.908823f, -0.787798f, 0.338768f, -0.234528f, -0.162375f, 0.448459f, 0.424651f, -0.429250f, -1.718851f, -0.918292f, -0.985847f, 1.270132f, -1.760614f, 0.051321f, 0.276553f, 1.563811f, -0.473876f, 1.318977f, 0.691351f, 0.254371f, 0.656588f, 0.234656f, 0.607862f, 0.159966f, 0.744613f, -0.557818f, -1.747925f, 0.360574f, -0.450707f, -1.772118f, -0.583930f, -0.075016f, 0.871012f, -0.652265f, 0.021499f, 0.006156f, 0.247647f, -1.000703f, 1.095085f, -0.506609f, 1.395471f, 0.735313f, 0.267616f, -1.765148f, 0.681714f, -0.568482f, -1.016919f, -1.510887f, -0.223659f, -0.209179f, -0.456171f, 0.392176f, 0.225112f, -0.251136f, -1.354841f, -0.705256f, -0.704160f, 1.287589f, -0.973834f, -0.070868f, -0.012262f, 0.870285f, 0.272237f, 1.019269f, 0.143196f, -0.261310f, 0.383119f, 0.382274f, 0.341028f, 0.128414f, 0.075457f, -0.267710f, -0.697445f, 0.442655f, -0.398037f, -0.835914f, -1.163939f, -0.369363f, 0.400935f, -0.794884f, -0.270610f, 0.378462f, 0.502540f, -1.015325f, 1.005119f, -0.136503f, 0.382977f, 0.119997f, 0.157042f, -1.235103f, 0.065635f, 0.208102f, 0.127747f, 0.031289f, 0.172816f, -0.113526f, 0.023719f, -0.106079f, 0.240511f, -0.140486f, -0.248712f, -0.089368f, 0.000326f, -0.241894f, 0.030619f, 0.192071f, 0.104902f, 0.063205f, 0.232942f, 0.235352f, 0.166581f, 0.055229f, -0.006408f, -0.249868f, 0.054540f, 0.249174f, 0.163356f, -0.081737f, -0.178681f, 0.146197f, 0.125144f, 0.239754f, 0.192461f, 0.029870f, -0.204856f, -0.008461f, -0.095839f, 0.006439f, -0.102629f, 0.185741f, 0.176819f, -0.094988f, 0.051046f, -0.036660f, 0.210075f, -0.160539f, 0.128041f, 0.228383f, -0.176345f, -0.164309f, 0.075850f, 0.048661f, 0.006960f, 0.078904f, -0.143925f, -0.052331f, -0.450161f, -0.352364f, -0.182260f, 0.076166f, 0.168419f, -0.221210f, -0.074158f, 0.076642f, 0.185139f, -0.183949f, 0.234827f, -0.230266f, 0.264341f, -0.132637f, -0.153468f, -0.163372f, 0.000634f, 0.039692f, 0.125556f, -0.069571f, 0.014466f, 0.053772f, -0.433464f, -0.142979f, -0.013336f, -0.012510f, -0.267202f, -0.184898f, 0.083556f, -0.381519f, 0.254431f, -0.080720f, -0.209182f, -0.177620f, 0.223408f, -0.243864f, -0.184412f, 0.186170f, -0.126253f, 0.085237f, 0.162634f, 0.055046f, 0.234848f, 0.107310f, -0.198994f, 0.030071f, 0.112055f, 0.155168f, -0.243286f, 0.112486f, 0.166886f, 0.126425f, 0.006340f, -0.021561f, 0.025385f, 0.105107f, 0.217175f, 0.060059f, 0.199399f, 0.102995f, -0.221752f, 0.000331f, -0.109637f, -0.110415f, -0.073993f, -0.095465f, 0.040365f, 0.094133f, -0.118951f, -0.190036f, -0.226543f, 0.038879f, -0.161169f, -0.252062f, 0.219645f, 0.019068f, -0.209305f, 0.176174f, 0.248346f, -0.026448f, -0.234747f, -0.196436f, -0.060247f, 0.197103f, -0.180938f, 0.166336f, -0.249748f, -0.022277f, 0.074133f, -0.224853f, 0.058887f, 0.228252f, -0.174564f, 0.116886f, 0.055902f, -0.159766f, -0.253635f, -0.251404f, 0.016467f, 0.227619f, 0.073606f, 0.110285f, -0.002670f, 0.041958f, -0.189283f, 0.192978f, 0.131491f, 0.254330f, -0.103856f, -0.140370f, -0.192534f, 0.238172f, 0.143864f, -0.171386f, 0.023417f, -0.042249f, -0.178641f, -0.173563f, 0.238002f, -0.102885f, 0.227290f, -0.219271f, -0.019433f, -0.187841f, -0.253662f, 0.027609f, -0.198592f, 0.113845f, 0.773749f, 1.029722f, 0.004275f, 0.760894f, -1.037168f, -1.181529f, 0.604600f, -0.492118f, 0.643399f, -0.216016f, 0.363939f, 1.194131f, 0.609073f, 0.804026f, -1.917782f, -1.264446f, -1.436826f, 1.571479f, 0.309024f, 0.580367f, -0.062082f, 0.181342f, -1.288934f, -0.484236f, -0.393493f, 0.647026f, 0.549648f, 1.465948f, -2.216852f, -0.972953f, -0.166004f, 0.281841f, 0.738233f, -1.212457f, -0.689722f, -1.902578f, -1.113674f, 0.804995f, 0.889829f, 0.264200f, 0.130416f, -0.485703f, -0.728654f, 0.138803f, 1.277409f, 0.783213f, -0.618807f, -0.341939f, -0.691655f, -0.864846f, 0.215518f, 0.721922f, 0.474997f, 1.291307f, -0.790426f, 0.517171f, -1.332888f, 0.434630f, -1.019872f, -0.613907f, 0.988125f, 0.432878f, 1.789470f, -1.925133f, -0.237762f, 0.876321f, 0.345368f, 0.315599f, 0.132748f, 0.012750f, 0.683133f, -0.713935f, 0.484584f, -1.185358f, 0.308420f, -0.541077f, -0.708438f, -1.000722f, -2.404947f, 2.327858f, 0.034245f, 0.765999f, 0.673190f, -0.005846f, -0.849899f, -1.379055f, 1.087115f, 0.153791f, 0.564505f, -0.319765f, 0.518926f, -0.066491f };
static const float X60_MLP_L46_layer_1_biases[10] = { 3.690922f, 0.178325f, -1.170456f, -0.125844f, 0.277709f, 0.162453f, -0.086599f, -0.496441f, -0.930767f, -0.837975f };
static const float X60_MLP_L46_layer_1_weights[460] = { 0.648004f, 0.940537f, -2.555558f, 1.609844f, -1.094477f, 1.388575f, 0.229525f, 0.404478f, -0.575945f, -1.042487f, -0.687606f, 1.136965f, -0.298783f, 0.221277f, 0.263172f, -0.408202f, -0.943763f, 0.284190f, 0.140779f, 0.412589f, -0.750696f, -0.305333f, 0.708255f, -1.791553f, 1.761552f, -0.184760f, -0.690536f, 0.409321f, 0.409334f, 0.114837f, -1.380839f, 0.511839f, -1.175990f, 3.194230f, 0.123388f, 0.631045f, -0.739706f, 0.005666f, -0.063637f, -0.941398f, -2.156654f, -0.889887f, 0.970910f, 1.083740f, -0.364810f, 0.218184f, 0.257053f, -0.163922f, 0.753518f, 0.623552f, 0.175225f, -0.769239f, 1.115714f, 0.696044f, -1.698390f, 0.636000f, -0.858134f, 0.255211f, 0.058822f, 0.399143f, -0.439067f, 2.277978f, -0.022059f, 0.541391f, -0.249537f, 0.424781f, 1.379232f, -2.142733f, -0.106580f, -0.925618f, 1.295412f, 0.794167f, 1.319629f, -2.476097f, 1.795981f, -3.700456f, 0.899695f, 0.048387f, 0.592614f, 0.381009f, 0.525204f, 1.168083f, 0.152113f, -1.481031f, -1.191608f, 0.701353f, -0.596886f, 0.802153f, -0.207710f, -0.313756f, 0.108789f, -1.841327f, 1.933457f, 0.025266f, 1.504466f, 0.047242f, 0.270895f, -0.228756f, 0.263412f, -1.620359f, -1.777743f, -1.195350f, 2.677705f, 0.660343f, 2.030524f, -1.414693f, 1.040887f, -0.887357f, -0.351315f, -0.812451f, -1.723753f, -1.834136f, 2.377859f, -0.875526f, -0.189552f, 1.721518f, -1.003133f, 0.357662f, 0.979790f, 0.302094f, -0.901024f, 0.096708f, 0.426687f, -1.195759f, 1.711291f, 0.203792f, -0.767064f, -0.422744f, -0.152519f, -0.037940f, 2.348678f, 0.241521f, -0.867132f, -0.521775f, -1.708397f, 0.831796f, 0.539487f, 0.254962f, -0.591597f, 0.460625f, -0.724704f, 0.619043f, 1.467006f, -0.796303f, 1.607989f, -0.278951f, -0.337763f, -0.267408f, -0.403050f, -0.678748f, -0.777681f, 3.029179f, 0.706033f, -3.573287f, -0.291939f, 3.476864f, -0.611769f, -0.080347f, -1.208215f, -0.829691f, -0.231432f, -0.018474f, 1.185231f, 0.994714f, -1.430338f, 1.054955f, -0.706675f, -0.279558f, -0.050493f, 0.180423f, 1.623460f, 1.586429f, -1.987174f, -0.218476f, -0.903192f, 0.659854f, -1.444521f, 0.985209f, -0.703981f, 0.753907f, -0.308507f, 0.666804f, -0.221920f, 1.902887f, -1.447373f, 0.376356f, -0.208768f, -0.162824f, -0.236727f, -0.094315f, 1.350224f, 1.078925f, 1.624719f, -0.557411f, 0.508774f, -1.708141f, -1.146422f, -0.394612f, 0.233915f, -0.291584f, 0.603126f, 0.002753f, -1.379420f, 0.430803f, 1.451572f, -0.443071f, 0.681236f, 0.001615f, -0.422647f, -0.554020f, -1.384477f, 0.734900f, 1.564361f, -1.265281f, 1.441450f, -1.778348f, -0.546966f, -0.180807f, 0.430713f, 0.831929f, 2.146986f, 0.408806f, -2.606842f, 0.283535f, -1.746004f, 1.415245f, -0.574447f, 0.261156f, 1.212708f, -0.564377f, -0.530428f, 1.669902f, -0.422018f, 0.116327f, 0.369983f, -1.009248f, -0.429295f, -0.138312f, -0.679822f, -0.217373f, -1.258863f, -0.196848f, -0.617053f, 2.957419f, 0.677551f, 0.719433f, -0.141332f, -0.598111f, -0.625405f, -0.686340f, -2.143432f, -0.463859f, 0.703217f, 2.044115f, -1.982109f, 0.729739f, 0.187666f, 0.417908f, 0.335420f, -0.336192f, 1.218012f, 0.045558f, 0.162552f, 0.815257f, 0.165682f, -0.029080f, -0.668863f, -0.663452f, -0.789893f, -0.642033f, -2.588159f, 0.657699f, -0.218464f, 1.065978f, 1.471819f, -0.470808f, 0.078885f, 0.644843f, -0.593104f, 0.220936f, -0.416859f, -1.009903f, 1.860827f, 0.368670f, 0.542308f, -0.838933f, 0.117916f, 0.000751f, -0.279183f, 0.163576f, -1.277586f, 0.050179f, -0.937656f, 0.595275f, -0.302062f, 2.070121f, -0.944342f, 0.108965f, -0.525957f, 0.134922f, -2.000091f, -0.411832f, -0.297783f, -0.041066f, -0.122844f, 1.874393f, -0.714133f, 0.801497f, -0.298596f, 0.834740f, -0.374007f, -0.181619f, -0.556910f, 1.183797f, 0.174394f, -1.115817f, 1.350529f, 0.175055f, -0.589488f, 0.131076f, -3.954166f, 0.467650f, -0.612355f, 1.283008f, -1.426470f, 3.070259f, -1.020670f, 1.717765f, -0.155356f, 0.225871f, 1.332546f, 0.231937f, 1.038023f, -1.064336f, -0.158812f, -1.124024f, -0.042031f, -0.181178f, 0.398691f, -0.351994f, 0.476208f, -0.144026f, -1.223710f, -1.714488f, 1.009019f, 3.182446f, -1.150265f, 0.489377f, -0.079885f, -0.556879f, -2.056203f, -1.853150f, 1.962379f, -1.918104f, 1.451084f, -0.156855f, 0.912577f, 0.661459f, -0.193492f, 1.074135f, 0.043400f, 0.344001f, 0.249046f, -1.946686f, 0.816687f, -0.333893f, -0.205483f, 1.044167f, -0.167361f, -0.374349f, -2.978498f, 2.342761f, 0.847009f, 1.394377f, -0.478561f, -0.688407f, 0.674540f, 0.097490f, -0.655650f, -0.110683f, -0.012410f, 1.708931f, -1.017321f, -1.826695f, 3.282623f, -0.803976f, -1.504664f, 0.217013f, 0.453728f, 0.140852f, -0.838168f, 0.514807f, 2.177420f, -0.324595f, 0.153149f, 0.236670f, -0.927293f, -0.718051f, 0.306895f, -0.286014f, 0.430254f, 0.127426f, 0.193436f, -1.220239f, -1.412922f, 0.756800f, 0.363890f, 0.262265f, 0.007944f, 0.368891f, 0.730026f, -2.691105f, -1.322061f, -0.235692f, 0.167429f, 0.810223f, 1.590660f, -0.070729f, 0.971554f, 0.488908f, 0.471479f, 0.095784f, -1.530300f, -1.603724f, -0.113826f, 1.271846f, -0.784507f, 0.907124f, 0.363054f, 1.243684f, -1.293076f, 0.106207f, -1.226742f, -0.121999f, 2.213937f, 0.378968f, 0.271645f, 0.481439f, 0.169216f, 0.006378f, -0.759953f, -0.498578f, -1.143886f, 1.039321f, 0.986886f, 0.328203f, 0.471979f, -0.256806f, -0.055561f, -0.313258f, -1.569830f, -1.277501f, 1.466395f, -0.695391f, 0.041348f, 0.461413f, 1.256777f, -0.438053f, 0.331728f, 0.197555f };
static float X60_MLP_L46_buf1[46];
static float X60_MLP_L46_buf2[46];
static const EmlNetLayer X60_MLP_L46_layers[2] = { 
{ 46, 45, X60_MLP_L46_layer_0_weights, X60_MLP_L46_layer_0_biases, EmlNetActivationTanh }, 
{ 10, 46, X60_MLP_L46_layer_1_weights, X60_MLP_L46_layer_1_biases, EmlNetActivationSoftmax } };
static EmlNet X60_MLP_L46 = { 2, X60_MLP_L46_layers, X60_MLP_L46_buf1, X60_MLP_L46_buf2, 46 };

    int32_t
    X60_MLP_L46_predict(const float *features, int32_t n_features)
    {
        return eml_net_predict(&X60_MLP_L46, features, n_features);
    }
    

    int32_t
    X60_MLP_L46_regress(const float *features, int32_t n_features, float *out, int32_t out_length)
    {
        return eml_net_regress(&X60_MLP_L46, features, n_features, out, out_length);
    }
    

    float
    X60_MLP_L46_regress1(const float *features, int32_t n_features)
    {
        return eml_net_regress1(&X60_MLP_L46, features, n_features);
    }
    