
#include <eml_net.h>
static const float X40_MLP_L36_layer_0_biases[36] = { 0.484715f, -0.375336f, -0.364236f, 1.069130f, 0.664600f, 0.756357f, 1.218274f, -1.788424f, -0.676721f, 1.064268f, 0.957218f, -0.865669f, 1.211527f, 0.622693f, 1.282812f, 0.264525f, -0.489413f, 0.119296f, 0.368765f, 0.166234f, -0.082935f, -0.226924f, 0.606350f, 0.621955f, -1.257448f, -0.230991f, 0.266463f, -0.574392f, 0.150234f, 1.168332f, -0.409413f, -0.521969f, -0.708645f, -0.990708f, 0.212366f, 0.213765f };
static const float X40_MLP_L36_layer_0_weights[756] = { 0.809909f, 0.377508f, 1.134669f, 0.584590f, -0.323846f, 1.646318f, 1.748784f, 0.933519f, 2.627611f, 1.198426f, -0.185274f, 0.686959f, 1.139537f, 1.606348f, 0.279820f, -0.785954f, 0.327824f, 0.659023f, -0.152113f, -0.771424f, 1.389751f, -0.576348f, 0.442500f, 0.789768f, -0.966602f, -1.307901f, -0.192696f, -0.040152f, 1.622567f, 0.536139f, -1.149953f, -0.489589f, -0.408352f, 1.303384f, -2.161346f, 1.124119f, 0.141845f, -0.521530f, 0.999279f, -0.054565f, 1.725720f, 0.378665f, -0.714632f, -1.950920f, 0.230114f, 1.198969f, 0.066510f, 0.570461f, -0.216553f, -0.605312f, -0.622468f, 2.105585f, -0.586867f, -0.355971f, 0.107107f, -1.924872f, -1.300880f, -0.913786f, 0.565654f, 0.711735f, -0.345834f, -0.732070f, 0.869710f, 0.239618f, -0.455752f, 0.315401f, -0.033303f, -0.214844f, 0.061600f, -0.313599f, 0.636609f, -0.918393f, 1.136512f, 0.452619f, 0.764324f, 0.788483f, 1.904901f, 0.097783f, 0.461009f, -4.573739f, -2.079204f, 1.231705f, 0.646123f, -1.695188f, 0.963857f, -1.595069f, -0.104194f, 2.256235f, -0.308940f, 1.951871f, -0.079000f, 0.720323f, -0.560929f, 0.103102f, 1.141466f, 0.257522f, 1.451792f, -0.050623f, 0.296930f, -0.775551f, 0.927045f, 3.273974f, 0.190880f, -0.114337f, -0.495830f, -0.936646f, -1.236097f, -0.383008f, 0.697982f, 0.458038f, 0.181886f, -3.494177f, 0.173447f, 2.149415f, 0.116247f, 0.623146f, 1.998765f, 0.001016f, 0.141387f, 0.480746f, 0.083897f, 0.496337f, 0.548992f, 0.289925f, 0.494365f, -0.420753f, 0.043428f, 0.005752f, 0.585794f, -0.131409f, -0.012588f, -0.073141f, 0.065202f, -0.399026f, -2.373398f, -1.286840f, 0.868366f, 2.198614f, -0.694993f, -0.263995f, 1.910680f, -0.762732f, -0.476175f, 0.306518f, 0.151278f, -0.049915f, -0.786552f, 0.405539f, -1.187445f, 1.432486f, 0.272866f, -1.967081f, -1.481237f, -0.265648f, -0.308114f, -0.060807f, -0.529273f, 0.374988f, 0.905508f, 0.301857f, -0.136004f, -0.510220f, -0.351430f, 1.063492f, -0.166553f, 0.396689f, 0.512225f, -1.051700f, 1.283520f, -0.726528f, 0.181784f, 1.757689f, -1.225590f, -0.802626f, 0.775671f, -1.132779f, -1.159971f, 0.269938f, 0.068359f, -0.627124f, -1.461406f, -0.753304f, 2.559156f, -1.012754f, 1.876278f, 3.560592f, 1.849450f, -2.566778f, -2.582696f, 2.244264f, 0.218687f, -4.032051f, 0.344162f, 2.024770f, 1.749377f, -2.413278f, 0.035500f, -0.911717f, 0.558914f, 3.830841f, 0.110818f, -2.263873f, 0.731414f, -3.363293f, 0.021653f, -1.285859f, 2.418246f, -0.008232f, 1.571385f, 4.029462f, -0.006955f, -0.188906f, -0.150589f, -2.373217f, -1.296031f, 2.104230f, -0.687721f, -0.167151f, 0.962266f, -0.784369f, -1.506132f, 0.519099f, 1.580315f, -0.175743f, -1.587405f, 0.656460f, 1.170541f, -0.405003f, 0.308724f, 0.259580f, -0.689339f, -0.474780f, 0.286825f, -0.772645f, 0.675130f, 2.098069f, 0.666992f, 1.350405f, 1.082699f, 0.543384f, 1.359570f, 0.846460f, 0.378258f, 0.629234f, 0.352411f, 1.167283f, 0.027190f, -0.235127f, -1.060496f, -0.181588f, 0.771045f, 1.551983f, -1.857569f, 1.373600f, 0.930801f, 0.266072f, 1.867792f, 1.398752f, 0.174071f, -2.380556f, -0.576850f, 0.857761f, 0.194275f, -0.732695f, 0.817206f, -3.040809f, -1.966674f, 0.532424f, -0.107182f, 0.007609f, 0.968093f, 1.680800f, -0.208895f, -0.267315f, 0.266419f, -0.079950f, -1.789408f, -0.022608f, 0.009463f, 0.020532f, 0.674987f, 3.156866f, 0.298602f, -0.194015f, 0.258796f, 2.873031f, 2.100457f, 0.250614f, 2.858593f, -5.373927f, 0.091179f, -4.289168f, -0.031295f, 1.929127f, 0.763651f, 2.181249f, 1.993258f, -0.065518f, 0.636449f, 1.854959f, 0.382913f, 0.559456f, -0.713729f, 0.025660f, 2.617026f, -2.553819f, -0.990457f, -0.404667f, -0.603216f, -2.017523f, 0.524806f, -1.871170f, -0.323534f, 0.415710f, -0.835089f, -1.486570f, -2.496322f, -0.523321f, -2.673881f, 0.103216f, -3.100920f, -1.562006f, -0.228454f, -1.067934f, 0.931300f, -0.227190f, -0.522941f, 0.518727f, -2.425715f, 0.851744f, 0.410107f, 0.208029f, -1.084975f, 0.352831f, 0.376501f, 1.139554f, 1.095402f, -0.337246f, 2.726892f, 0.866801f, -0.272715f, 0.376693f, -1.257294f, 1.153600f, 0.907836f, -3.077594f, 0.820687f, 0.484062f, -0.065502f, -0.699875f, 0.968395f, 0.194638f, 1.647185f, -0.445565f, -0.664098f, 0.241759f, -0.369955f, -2.071281f, 0.756616f, 0.436885f, 0.181503f, 0.078001f, -0.553407f, 0.885601f, 0.399785f, 0.741332f, 1.195494f, -0.587681f, 0.332560f, 0.953674f, 0.768280f, -0.282343f, 1.231082f, -0.025924f, 0.357770f, 0.189403f, -0.141797f, 0.030081f, -0.345308f, -0.537203f, -0.183269f, -0.782424f, 0.769143f, 0.289253f, -0.075451f, 0.115970f, 0.185374f, -0.244762f, 0.513512f, -0.127375f, -0.578978f, -0.374401f, -0.615161f, -0.250711f, -0.355797f, 0.674062f, 0.089456f, 0.039367f, 0.067472f, 0.069266f, 0.215838f, 0.293650f, -0.055609f, -0.870962f, -0.754364f, -0.084617f, -0.113162f, -0.788553f, -0.081137f, 0.244528f, 0.328027f, -0.025816f, -0.251575f, 0.442897f, 0.231655f, 0.735946f, 0.123489f, 0.215032f, -0.299586f, 0.235367f, -0.431917f, 0.283941f, 0.004341f, -0.975702f, 0.068391f, 1.446479f, 0.330439f, -0.203386f, -0.017398f, -0.396205f, 0.053277f, 0.107433f, 0.735515f, -0.064884f, -0.156545f, -2.776992f, -1.812774f, -2.188179f, 1.392705f, 2.961652f, -0.332824f, -2.072730f, 0.139508f, 2.608580f, -2.150992f, 2.525921f, 2.675944f, 0.014292f, 0.558669f, -0.017985f, -0.534188f, -0.476302f, 0.729756f, 0.959797f, 0.064639f, -0.103202f, 0.415382f, -0.164277f, -0.220196f, 0.887837f, 0.511680f, -0.771746f, 0.091421f, 0.957477f, 0.068019f, -3.237794f, -0.294225f, -0.447057f, 0.388108f, 0.379947f, -0.023265f, 3.209575f, 1.983852f, 2.497924f, 1.285631f, -3.335287f, -0.594924f, 3.390669f, 1.154385f, -2.527046f, 1.664263f, -0.479715f, -2.371410f, -0.264343f, -0.136457f, 0.235305f, 0.389850f, 1.782229f, 0.384350f, -1.869225f, 0.600249f, 0.294845f, 0.390727f, -0.753031f, 0.368888f, -1.251688f, 0.426720f, 2.287950f, -0.389083f, -0.233553f, -0.714255f, 1.990118f, 0.008517f, 1.025579f, -0.608515f, -0.154175f, 0.227183f, 0.699572f, 0.223293f, 0.538736f, -1.260968f, -1.299289f, 0.198817f, 0.091607f, 0.020121f, -1.056464f, 0.752358f, -1.948376f, 0.957432f, 1.187680f, -0.634238f, 0.307995f, -0.274096f, -0.293769f, -1.344984f, 0.378510f, -0.072721f, 0.367712f, -1.715137f, 0.325620f, -0.229872f, -0.419514f, -0.627438f, -0.410520f, -0.417856f, -1.054472f, -0.256643f, 0.342972f, 0.548688f, 0.126688f, 0.322826f, -0.240888f, 0.173447f, -0.505088f, 0.032734f, -0.602970f, 0.260613f, 0.200671f, -0.331089f, -0.536842f, -0.076959f, -0.227980f, -0.755254f, 0.429183f, 0.283151f, -0.284906f, 0.397687f, -0.000906f, 0.200175f, 0.468125f, 0.019433f, 0.044813f, 0.102001f, 0.014129f, 0.253414f, -0.021506f, 0.020520f, -0.200958f, 0.147868f, 0.473902f, 0.691313f, -0.071768f, -0.318537f, -0.422464f, 0.510829f, -0.338493f, 0.165074f, 0.030715f, 0.493943f, 1.002092f, -2.344029f, 0.492057f, 2.303486f, -0.579313f, -0.711803f, 0.589178f, 0.743734f, 0.142402f, 0.673281f, 1.910174f, 2.211468f, 0.553023f, 0.092904f, 1.027866f, -0.279814f, 1.136237f, -0.277188f, -0.241141f, 1.028570f, 1.908961f, -0.329199f, 0.025505f, 0.552778f, -0.212603f, 2.168459f, 0.203732f, -0.590811f, -0.205432f, -0.711672f, -1.037115f, -0.426292f, 0.762875f, -0.156192f, 0.264512f, -1.099068f, 0.910293f, 2.881902f, 0.788554f, -1.287799f, -1.050728f, 0.156887f, 0.595207f, -0.050504f, -1.043853f, 0.977283f, -1.375620f, -0.872031f, 0.283511f, -0.965747f, -0.950763f, -0.156701f, -0.893125f, 0.148714f, -0.269577f, -0.294610f, -0.672680f, -1.405210f, -0.280088f, -0.327145f, -0.217305f, -1.398309f, 1.285724f, 0.061971f, -0.505065f, 0.090940f, 0.336532f, 0.474002f, -0.179630f, 0.233344f, -0.259137f, -0.001545f, 0.053017f, -0.167634f, -0.214783f, 0.233320f, -0.286459f, -0.019055f, -0.249306f, -0.026838f, 0.311431f, -0.049171f, 0.231743f, -0.248914f, -0.148527f, -0.064108f, -0.073251f, 0.111306f, -0.105404f, 0.138992f, 0.090605f, -0.065508f, -0.046030f, 0.074404f, -0.279033f, 0.209120f, 0.100144f, 0.146642f, 0.024065f, -0.251669f, -0.061599f, -0.061159f, -0.115343f, -0.310271f, 0.153923f, 0.405190f, -0.419594f, 0.303590f, 1.579648f, 0.703640f, 0.953051f, 0.886896f, -2.093617f, -0.882126f, 0.951778f, 0.648944f, -1.122798f, 0.931265f, -0.937040f, 0.818288f, 0.933894f, -0.097568f, 0.722292f, -0.036414f, 0.187049f, -0.387740f, -0.854745f, 0.116541f, 0.724083f, -1.455757f, 0.388635f, -0.074963f, -1.008928f, 0.137960f, 1.474051f, -0.641758f, -0.836144f, -1.055716f, -0.549495f, 0.826806f, 0.581535f, 0.072314f, 0.713996f, -0.677893f, -0.048354f, -0.043626f, -0.181662f, 0.729381f, 0.422276f, 0.149291f, -0.326312f, 0.005476f, 0.169366f, -0.310658f, 0.903157f, 0.359684f, -0.163480f, -0.434608f, -0.550309f, -0.389605f, -0.377001f, -0.139611f, 0.677648f, -0.165093f, -0.815581f, 0.223875f, -0.612656f, 0.147514f, 0.409404f, 0.750337f, -0.106082f, 0.004959f, 0.426911f, 0.632023f, -0.154808f, -0.907458f, 0.224223f };
static const float X40_MLP_L36_layer_1_biases[5] = { 1.403236f, 0.564859f, -0.171791f, 0.089707f, -1.367699f };
static const float X40_MLP_L36_layer_1_weights[180] = { -1.997074f, 0.640873f, 1.307775f, -0.526312f, 0.968149f, 3.434517f, -0.257725f, -2.481526f, -0.521114f, -0.820144f, -1.328674f, 0.252384f, 0.809962f, 1.053885f, -0.207279f, 1.277465f, 1.120009f, 0.835823f, -2.145979f, -0.705891f, 1.548796f, 1.706542f, -0.008395f, -2.919395f, -0.961912f, -0.735041f, 0.236995f, 2.854046f, -1.830232f, -0.783307f, 1.632331f, -1.898779f, -1.233338f, 0.793826f, 0.204825f, 0.212232f, -0.307045f, -1.206333f, 1.511435f, -0.178347f, 0.861139f, 0.991800f, 1.522832f, -0.504155f, -2.051792f, 1.633949f, -0.252000f, 1.696082f, -1.797173f, -1.932448f, 0.909758f, 0.177487f, 0.514343f, -0.899277f, -0.309616f, 2.011507f, 0.435877f, -1.405013f, -0.785687f, 0.068643f, 1.231219f, 0.971354f, -0.929372f, -0.361451f, -0.906945f, 2.336517f, -2.065865f, -1.081034f, 0.375386f, 0.697615f, 0.999936f, -1.396070f, -2.407833f, 2.888892f, -0.212175f, -2.060947f, 0.105333f, 1.862972f, 0.935396f, -0.684499f, -1.953395f, -0.786614f, 0.986323f, 0.549741f, 0.863812f, -3.094728f, 0.624948f, 1.169532f, 2.385766f, -0.686506f, -0.948211f, 0.704475f, 0.909642f, -0.459752f, 0.381346f, -1.876333f, -0.195607f, 1.615405f, 0.649776f, -0.062352f, 0.584604f, 1.232819f, 0.672683f, -2.878617f, 0.772857f, 2.463980f, -0.245863f, 0.705859f, -3.198949f, 0.355220f, 1.093827f, -0.111748f, -0.982098f, 0.278418f, -0.518995f, -3.005764f, 0.882076f, 2.547427f, 0.085172f, -1.210891f, 0.908369f, -1.197516f, -0.066802f, 0.735142f, -0.092413f, -2.001086f, -0.030073f, 2.716137f, 0.091567f, -0.708509f, 0.399464f, -0.137011f, -0.358426f, 0.709223f, 0.146645f, 2.562616f, -0.219538f, 0.002211f, -1.940716f, -0.806544f, 0.919656f, -1.270603f, -1.468813f, 1.518845f, -0.061277f, -1.448250f, 1.085667f, 2.802417f, -2.516212f, -0.564136f, 1.921181f, -1.652048f, -2.400491f, 0.856900f, 1.044366f, 1.718687f, -0.598031f, -0.551331f, -0.477745f, 0.344852f, 1.768934f, 0.051511f, -0.296488f, -2.224273f, -0.096481f, 0.767095f, 0.530725f, 1.423560f, -1.378162f, -0.877868f, -2.893788f, 1.351530f, 0.597657f, -0.287224f, 0.613542f, -1.079177f, 0.841097f, 1.171597f, 0.416051f, -1.281095f };
static float X40_MLP_L36_buf1[36];
static float X40_MLP_L36_buf2[36];
static const EmlNetLayer X40_MLP_L36_layers[2] = { 
{ 36, 21, X40_MLP_L36_layer_0_weights, X40_MLP_L36_layer_0_biases, EmlNetActivationTanh }, 
{ 5, 36, X40_MLP_L36_layer_1_weights, X40_MLP_L36_layer_1_biases, EmlNetActivationSoftmax } };
static EmlNet X40_MLP_L36 = { 2, X40_MLP_L36_layers, X40_MLP_L36_buf1, X40_MLP_L36_buf2, 36 };

    int32_t
    X40_MLP_L36_predict(const float *features, int32_t n_features)
    {
        return eml_net_predict(&X40_MLP_L36, features, n_features);
    }
    

    int32_t
    X40_MLP_L36_regress(const float *features, int32_t n_features, float *out, int32_t out_length)
    {
        return eml_net_regress(&X40_MLP_L36, features, n_features, out, out_length);
    }
    

    float
    X40_MLP_L36_regress1(const float *features, int32_t n_features)
    {
        return eml_net_regress1(&X40_MLP_L36, features, n_features);
    }
    