#pragma once
namespace Eloquent {
    namespace ML {
        namespace Port {
            class DecisionTree {
                public:
                    /**
                    * Predict class for features vector
                    */
                    int predict(float *x) {
                        if (x[12] <= 29.0) {
                            if (x[1] <= 96.0) {
                                if (x[21] <= 3.5) {
                                    if (x[21] <= 2.5) {
                                        if (x[1] <= 73.5) {
                                            return 0;
                                        }

                                        else {
                                            if (x[9] <= 1456.5) {
                                                if (x[19] <= 4000.0) {
                                                    if (x[8] <= 4294136.5) {
                                                        if (x[8] <= 4294135.5) {
                                                            if (x[0] <= 63110.5) {
                                                                if (x[0] <= 528.5) {
                                                                    if (x[9] <= 850.0) {
                                                                        if (x[8] <= 4294122.0) {
                                                                            return 2;
                                                                        }

                                                                        else {
                                                                            return 1;
                                                                        }
                                                                    }

                                                                    else {
                                                                        return 1;
                                                                    }
                                                                }

                                                                else {
                                                                    if (x[8] <= 4294119.5) {
                                                                        if (x[0] <= 62906.5) {
                                                                            if (x[8] <= 4294090.5) {
                                                                                return 1;
                                                                            }

                                                                            else {
                                                                                if (x[8] <= 4294091.5) {
                                                                                    return 2;
                                                                                }

                                                                                else {
                                                                                    return 1;
                                                                                }
                                                                            }
                                                                        }

                                                                        else {
                                                                            if (x[8] <= 4294091.5) {
                                                                                if (x[9] <= 881.5) {
                                                                                    return 2;
                                                                                }

                                                                                else {
                                                                                    return 1;
                                                                                }
                                                                            }

                                                                            else {
                                                                                return 1;
                                                                            }
                                                                        }
                                                                    }

                                                                    else {
                                                                        if (x[8] <= 4294122.5) {
                                                                            return 2;
                                                                        }

                                                                        else {
                                                                            return 1;
                                                                        }
                                                                    }
                                                                }
                                                            }

                                                            else {
                                                                if (x[8] <= 4294072.0) {
                                                                    return 1;
                                                                }

                                                                else {
                                                                    if (x[8] <= 4294091.5) {
                                                                        if (x[9] <= 881.5) {
                                                                            return 2;
                                                                        }

                                                                        else {
                                                                            if (x[9] <= 892.5) {
                                                                                return 1;
                                                                            }

                                                                            else {
                                                                                return 2;
                                                                            }
                                                                        }
                                                                    }

                                                                    else {
                                                                        if (x[0] <= 64921.5) {
                                                                            return 1;
                                                                        }

                                                                        else {
                                                                            if (x[8] <= 4294116.5) {
                                                                                return 1;
                                                                            }

                                                                            else {
                                                                                if (x[8] <= 4294122.5) {
                                                                                    return 2;
                                                                                }

                                                                                else {
                                                                                    return 1;
                                                                                }
                                                                            }
                                                                        }
                                                                    }
                                                                }
                                                            }
                                                        }

                                                        else {
                                                            return 2;
                                                        }
                                                    }

                                                    else {
                                                        if (x[0] <= 44827.5) {
                                                            if (x[3] <= 11.5) {
                                                                if (x[9] <= 133.0) {
                                                                    return 2;
                                                                }

                                                                else {
                                                                    if (x[8] <= 4294216.5) {
                                                                        if (x[9] <= 766.5) {
                                                                            return 2;
                                                                        }

                                                                        else {
                                                                            if (x[0] <= 5101.0) {
                                                                                return 1;
                                                                            }

                                                                            else {
                                                                                if (x[9] <= 789.0) {
                                                                                    return 1;
                                                                                }

                                                                                else {
                                                                                    if (x[9] <= 796.5) {
                                                                                        return 2;
                                                                                    }

                                                                                    else {
                                                                                        return 1;
                                                                                    }
                                                                                }
                                                                            }
                                                                        }
                                                                    }

                                                                    else {
                                                                        if (x[8] <= 4294420.5) {
                                                                            return 1;
                                                                        }

                                                                        else {
                                                                            if (x[8] <= 4294428.0) {
                                                                                return 2;
                                                                            }

                                                                            else {
                                                                                if (x[3] <= 2.5) {
                                                                                    return 1;
                                                                                }

                                                                                else {
                                                                                    if (x[9] <= 430.0) {
                                                                                        return 1;
                                                                                    }

                                                                                    else {
                                                                                        if (x[9] <= 461.0) {
                                                                                            return 2;
                                                                                        }

                                                                                        else {
                                                                                            return 1;
                                                                                        }
                                                                                    }
                                                                                }
                                                                            }
                                                                        }
                                                                    }
                                                                }
                                                            }

                                                            else {
                                                                if (x[8] <= 4294241.5) {
                                                                    if (x[9] <= 726.5) {
                                                                        return 2;
                                                                    }

                                                                    else {
                                                                        return 1;
                                                                    }
                                                                }

                                                                else {
                                                                    if (x[0] <= 934.5) {
                                                                        if (x[0] <= 735.5) {
                                                                            if (x[3] <= 142.0) {
                                                                                if (x[8] <= 4294342.5) {
                                                                                    if (x[3] <= 57.0) {
                                                                                        return 1;
                                                                                    }

                                                                                    else {
                                                                                        return 2;
                                                                                    }
                                                                                }

                                                                                else {
                                                                                    return 1;
                                                                                }
                                                                            }

                                                                            else {
                                                                                return 1;
                                                                            }
                                                                        }

                                                                        else {
                                                                            if (x[9] <= 495.5) {
                                                                                return 1;
                                                                            }

                                                                            else {
                                                                                if (x[8] <= 4294469.0) {
                                                                                    return 1;
                                                                                }

                                                                                else {
                                                                                    return 2;
                                                                                }
                                                                            }
                                                                        }
                                                                    }

                                                                    else {
                                                                        if (x[9] <= 705.5) {
                                                                            return 1;
                                                                        }

                                                                        else {
                                                                            if (x[8] <= 4294260.5) {
                                                                                return 1;
                                                                            }

                                                                            else {
                                                                                return 2;
                                                                            }
                                                                        }
                                                                    }
                                                                }
                                                            }
                                                        }

                                                        else {
                                                            if (x[0] <= 50136.5) {
                                                                if (x[9] <= 772.5) {
                                                                    if (x[9] <= 465.5) {
                                                                        return 1;
                                                                    }

                                                                    else {
                                                                        if (x[9] <= 466.5) {
                                                                            return 2;
                                                                        }

                                                                        else {
                                                                            if (x[9] <= 529.5) {
                                                                                if (x[8] <= 4294439.5) {
                                                                                    return 2;
                                                                                }

                                                                                else {
                                                                                    if (x[8] <= 4294470.5) {
                                                                                        if (x[8] <= 4294468.5) {
                                                                                            return 1;
                                                                                        }

                                                                                        else {
                                                                                            return 2;
                                                                                        }
                                                                                    }

                                                                                    else {
                                                                                        return 1;
                                                                                    }
                                                                                }
                                                                            }

                                                                            else {
                                                                                return 1;
                                                                            }
                                                                        }
                                                                    }
                                                                }

                                                                else {
                                                                    if (x[9] <= 774.0) {
                                                                        return 2;
                                                                    }

                                                                    else {
                                                                        if (x[8] <= 4294177.5) {
                                                                            return 1;
                                                                        }

                                                                        else {
                                                                            if (x[8] <= 4294179.5) {
                                                                                return 2;
                                                                            }

                                                                            else {
                                                                                return 1;
                                                                            }
                                                                        }
                                                                    }
                                                                }
                                                            }

                                                            else {
                                                                if (x[0] <= 64489.5) {
                                                                    return 1;
                                                                }

                                                                else {
                                                                    if (x[0] <= 64511.5) {
                                                                        if (x[9] <= 498.0) {
                                                                            if (x[9] <= 496.5) {
                                                                                return 1;
                                                                            }

                                                                            else {
                                                                                return 2;
                                                                            }
                                                                        }

                                                                        else {
                                                                            return 1;
                                                                        }
                                                                    }

                                                                    else {
                                                                        if (x[0] <= 64541.5) {
                                                                            if (x[0] <= 64540.5) {
                                                                                if (x[0] <= 64520.5) {
                                                                                    if (x[0] <= 64519.5) {
                                                                                        return 1;
                                                                                    }

                                                                                    else {
                                                                                        if (x[9] <= 498.0) {
                                                                                            if (x[8] <= 4294476.5) {
                                                                                                return 2;
                                                                                            }

                                                                                            else {
                                                                                                return 1;
                                                                                            }
                                                                                        }

                                                                                        else {
                                                                                            return 1;
                                                                                        }
                                                                                    }
                                                                                }

                                                                                else {
                                                                                    return 1;
                                                                                }
                                                                            }

                                                                            else {
                                                                                if (x[9] <= 516.0) {
                                                                                    if (x[9] <= 428.0) {
                                                                                        return 1;
                                                                                    }

                                                                                    else {
                                                                                        return 2;
                                                                                    }
                                                                                }

                                                                                else {
                                                                                    return 1;
                                                                                }
                                                                            }
                                                                        }

                                                                        else {
                                                                            return 1;
                                                                        }
                                                                    }
                                                                }
                                                            }
                                                        }
                                                    }
                                                }

                                                else {
                                                    if (x[3] <= 142.0) {
                                                        if (x[8] <= 4293521.5) {
                                                            return 2;
                                                        }

                                                        else {
                                                            if (x[8] <= 4293756.0) {
                                                                if (x[8] <= 4293748.5) {
                                                                    if (x[0] <= 60.0) {
                                                                        if (x[8] <= 4293647.0) {
                                                                            if (x[9] <= 1343.5) {
                                                                                return 2;
                                                                            }

                                                                            else {
                                                                                if (x[8] <= 4293570.0) {
                                                                                    if (x[9] <= 1409.5) {
                                                                                        return 2;
                                                                                    }

                                                                                    else {
                                                                                        return 1;
                                                                                    }
                                                                                }

                                                                                else {
                                                                                    return 1;
                                                                                }
                                                                            }
                                                                        }

                                                                        else {
                                                                            return 1;
                                                                        }
                                                                    }

                                                                    else {
                                                                        if (x[8] <= 4293739.5) {
                                                                            if (x[3] <= 57.0) {
                                                                                return 1;
                                                                            }

                                                                            else {
                                                                                if (x[9] <= 1288.0) {
                                                                                    if (x[8] <= 4293685.5) {
                                                                                        return 2;
                                                                                    }

                                                                                    else {
                                                                                        return 1;
                                                                                    }
                                                                                }

                                                                                else {
                                                                                    return 1;
                                                                                }
                                                                            }
                                                                        }

                                                                        else {
                                                                            if (x[8] <= 4293747.0) {
                                                                                return 2;
                                                                            }

                                                                            else {
                                                                                return 1;
                                                                            }
                                                                        }
                                                                    }
                                                                }

                                                                else {
                                                                    return 2;
                                                                }
                                                            }

                                                            else {
                                                                if (x[0] <= 5101.0) {
                                                                    return 1;
                                                                }

                                                                else {
                                                                    if (x[8] <= 4294084.0) {
                                                                        return 1;
                                                                    }

                                                                    else {
                                                                        if (x[8] <= 4294091.5) {
                                                                            return 2;
                                                                        }

                                                                        else {
                                                                            return 1;
                                                                        }
                                                                    }
                                                                }
                                                            }
                                                        }
                                                    }

                                                    else {
                                                        return 1;
                                                    }
                                                }
                                            }

                                            else {
                                                if (x[9] <= 1457.5) {
                                                    if (x[0] <= 11522.0) {
                                                        return 1;
                                                    }

                                                    else {
                                                        return 2;
                                                    }
                                                }

                                                else {
                                                    if (x[9] <= 1516.5) {
                                                        if (x[0] <= 43642.0) {
                                                            return 1;
                                                        }

                                                        else {
                                                            if (x[0] <= 43836.5) {
                                                                if (x[8] <= 4293494.5) {
                                                                    if (x[9] <= 1480.5) {
                                                                        return 2;
                                                                    }

                                                                    else {
                                                                        return 1;
                                                                    }
                                                                }

                                                                else {
                                                                    return 1;
                                                                }
                                                            }

                                                            else {
                                                                return 1;
                                                            }
                                                        }
                                                    }

                                                    else {
                                                        if (x[9] <= 1518.5) {
                                                            return 2;
                                                        }

                                                        else {
                                                            if (x[0] <= 26151.0) {
                                                                if (x[0] <= 25785.5) {
                                                                    if (x[0] <= 23292.0) {
                                                                        return 1;
                                                                    }

                                                                    else {
                                                                        if (x[0] <= 23735.0) {
                                                                            if (x[8] <= 4293388.5) {
                                                                                if (x[8] <= 4293381.0) {
                                                                                    return 1;
                                                                                }

                                                                                else {
                                                                                    return 2;
                                                                                }
                                                                            }

                                                                            else {
                                                                                return 1;
                                                                            }
                                                                        }

                                                                        else {
                                                                            if (x[0] <= 25768.5) {
                                                                                return 1;
                                                                            }

                                                                            else {
                                                                                if (x[8] <= 4293427.0) {
                                                                                    return 1;
                                                                                }

                                                                                else {
                                                                                    if (x[8] <= 4293434.5) {
                                                                                        return 2;
                                                                                    }

                                                                                    else {
                                                                                        return 1;
                                                                                    }
                                                                                }
                                                                            }
                                                                        }
                                                                    }
                                                                }

                                                                else {
                                                                    if (x[9] <= 1540.0) {
                                                                        if (x[8] <= 4293434.5) {
                                                                            return 2;
                                                                        }

                                                                        else {
                                                                            return 1;
                                                                        }
                                                                    }

                                                                    else {
                                                                        return 1;
                                                                    }
                                                                }
                                                            }

                                                            else {
                                                                return 1;
                                                            }
                                                        }
                                                    }
                                                }
                                            }
                                        }
                                    }

                                    else {
                                        if (x[19] <= 4000.0) {
                                            if (x[9] <= 1080.5) {
                                                if (x[8] <= 4293887.5) {
                                                    return 2;
                                                }

                                                else {
                                                    if (x[0] <= 22826.5) {
                                                        if (x[9] <= 1033.5) {
                                                            if (x[9] <= 529.0) {
                                                                if (x[8] <= 4294449.0) {
                                                                    if (x[0] <= 5128.5) {
                                                                        return 2;
                                                                    }

                                                                    else {
                                                                        return 1;
                                                                    }
                                                                }

                                                                else {
                                                                    if (x[0] <= 714.5) {
                                                                        if (x[9] <= 490.0) {
                                                                            return 1;
                                                                        }

                                                                        else {
                                                                            return 2;
                                                                        }
                                                                    }

                                                                    else {
                                                                        return 1;
                                                                    }
                                                                }
                                                            }

                                                            else {
                                                                if (x[8] <= 4294324.0) {
                                                                    return 1;
                                                                }

                                                                else {
                                                                    if (x[8] <= 4294326.5) {
                                                                        if (x[0] <= 5229.0) {
                                                                            return 1;
                                                                        }

                                                                        else {
                                                                            return 2;
                                                                        }
                                                                    }

                                                                    else {
                                                                        return 1;
                                                                    }
                                                                }
                                                            }
                                                        }

                                                        else {
                                                            if (x[8] <= 4293930.0) {
                                                                if (x[0] <= 14796.5) {
                                                                    if (x[0] <= 13922.5) {
                                                                        return 1;
                                                                    }

                                                                    else {
                                                                        if (x[0] <= 13982.0) {
                                                                            if (x[8] <= 4293906.5) {
                                                                                return 1;
                                                                            }

                                                                            else {
                                                                                if (x[9] <= 1048.0) {
                                                                                    return 1;
                                                                                }

                                                                                else {
                                                                                    return 2;
                                                                                }
                                                                            }
                                                                        }

                                                                        else {
                                                                            return 1;
                                                                        }
                                                                    }
                                                                }

                                                                else {
                                                                    if (x[0] <= 15624.0) {
                                                                        if (x[8] <= 4293914.5) {
                                                                            return 1;
                                                                        }

                                                                        else {
                                                                            if (x[9] <= 1046.5) {
                                                                                return 1;
                                                                            }

                                                                            else {
                                                                                return 2;
                                                                            }
                                                                        }
                                                                    }

                                                                    else {
                                                                        if (x[9] <= 1064.0) {
                                                                            if (x[0] <= 15631.5) {
                                                                                if (x[8] <= 4293914.5) {
                                                                                    return 1;
                                                                                }

                                                                                else {
                                                                                    return 2;
                                                                                }
                                                                            }

                                                                            else {
                                                                                return 1;
                                                                            }
                                                                        }

                                                                        else {
                                                                            if (x[9] <= 1069.0) {
                                                                                return 2;
                                                                            }

                                                                            else {
                                                                                return 1;
                                                                            }
                                                                        }
                                                                    }
                                                                }
                                                            }

                                                            else {
                                                                return 2;
                                                            }
                                                        }
                                                    }

                                                    else {
                                                        if (x[9] <= 905.0) {
                                                            if (x[0] <= 56370.5) {
                                                                if (x[8] <= 4294395.0) {
                                                                    if (x[14] <= 2856.0) {
                                                                        if (x[0] <= 38758.5) {
                                                                            return 1;
                                                                        }

                                                                        else {
                                                                            if (x[0] <= 38760.5) {
                                                                                return 3;
                                                                            }

                                                                            else {
                                                                                if (x[0] <= 39720.5) {
                                                                                    if (x[0] <= 39698.0) {
                                                                                        return 1;
                                                                                    }

                                                                                    else {
                                                                                        return 3;
                                                                                    }
                                                                                }

                                                                                else {
                                                                                    return 1;
                                                                                }
                                                                            }
                                                                        }
                                                                    }

                                                                    else {
                                                                        return 1;
                                                                    }
                                                                }

                                                                else {
                                                                    if (x[8] <= 4294402.5) {
                                                                        return 2;
                                                                    }

                                                                    else {
                                                                        return 1;
                                                                    }
                                                                }
                                                            }

                                                            else {
                                                                if (x[0] <= 62743.5) {
                                                                    if (x[9] <= 827.5) {
                                                                        if (x[9] <= 593.5) {
                                                                            return 1;
                                                                        }

                                                                        else {
                                                                            if (x[9] <= 672.0) {
                                                                                if (x[14] <= 2856.0) {
                                                                                    return 1;
                                                                                }

                                                                                else {
                                                                                    if (x[0] <= 56588.0) {
                                                                                        if (x[8] <= 4294326.0) {
                                                                                            return 2;
                                                                                        }

                                                                                        else {
                                                                                            return 1;
                                                                                        }
                                                                                    }

                                                                                    else {
                                                                                        if (x[8] <= 4294349.5) {
                                                                                            if (x[0] <= 59493.0) {
                                                                                                return 2;
                                                                                            }

                                                                                            else {
                                                                                                return 1;
                                                                                            }
                                                                                        }

                                                                                        else {
                                                                                            return 2;
                                                                                        }
                                                                                    }
                                                                                }
                                                                            }

                                                                            else {
                                                                                if (x[14] <= 2856.0) {
                                                                                    if (x[0] <= 61169.5) {
                                                                                        if (x[9] <= 812.0) {
                                                                                            if (x[0] <= 60616.0) {
                                                                                                return 2;
                                                                                            }

                                                                                            else {
                                                                                                if (x[9] <= 759.0) {
                                                                                                    return 2;
                                                                                                }

                                                                                                else {
                                                                                                    return 1;
                                                                                                }
                                                                                            }
                                                                                        }

                                                                                        else {
                                                                                            if (x[9] <= 820.0) {
                                                                                                return 1;
                                                                                            }

                                                                                            else {
                                                                                                return 2;
                                                                                            }
                                                                                        }
                                                                                    }

                                                                                    else {
                                                                                        if (x[8] <= 4294223.0) {
                                                                                            return 1;
                                                                                        }

                                                                                        else {
                                                                                            if (x[8] <= 4294275.0) {
                                                                                                return 2;
                                                                                            }

                                                                                            else {
                                                                                                return 1;
                                                                                            }
                                                                                        }
                                                                                    }
                                                                                }

                                                                                else {
                                                                                    return 1;
                                                                                }
                                                                            }
                                                                        }
                                                                    }

                                                                    else {
                                                                        return 1;
                                                                    }
                                                                }

                                                                else {
                                                                    return 1;
                                                                }
                                                            }
                                                        }

                                                        else {
                                                            if (x[8] <= 4294060.5) {
                                                                if (x[0] <= 44576.5) {
                                                                    if (x[8] <= 4294028.5) {
                                                                        if (x[9] <= 941.0) {
                                                                            return 2;
                                                                        }

                                                                        else {
                                                                            if (x[8] <= 4294012.5) {
                                                                                if (x[8] <= 4294011.5) {
                                                                                    if (x[0] <= 40585.5) {
                                                                                        if (x[9] <= 970.5) {
                                                                                            return 1;
                                                                                        }

                                                                                        else {
                                                                                            if (x[9] <= 971.5) {
                                                                                                return 2;
                                                                                            }

                                                                                            else {
                                                                                                if (x[0] <= 36747.5) {
                                                                                                    if (x[8] <= 4293981.0) {
                                                                                                        if (x[8] <= 4293976.5) {
                                                                                                            if (x[9] <= 1001.5) {
                                                                                                                return 1;
                                                                                                            }

                                                                                                            else {
                                                                                                                if (x[8] <= 4293964.5) {
                                                                                                                    if (x[0] <= 32977.0) {
                                                                                                                        if (x[9] <= 1065.5) {
                                                                                                                            if (x[9] <= 1017.5) {
                                                                                                                                return 1;
                                                                                                                            }

                                                                                                                            else {
                                                                                                                                if (x[9] <= 1064.0) {
                                                                                                                                    if (x[0] <= 24878.5) {
                                                                                                                                        return 1;
                                                                                                                                    }

                                                                                                                                    else {
                                                                                                                                        return 2;
                                                                                                                                    }
                                                                                                                                }

                                                                                                                                else {
                                                                                                                                    return 2;
                                                                                                                                }
                                                                                                                            }
                                                                                                                        }

                                                                                                                        else {
                                                                                                                            return 1;
                                                                                                                        }
                                                                                                                    }

                                                                                                                    else {
                                                                                                                        if (x[0] <= 32997.0) {
                                                                                                                            if (x[8] <= 4293942.5) {
                                                                                                                                return 1;
                                                                                                                            }

                                                                                                                            else {
                                                                                                                                return 2;
                                                                                                                            }
                                                                                                                        }

                                                                                                                        else {
                                                                                                                            return 1;
                                                                                                                        }
                                                                                                                    }
                                                                                                                }

                                                                                                                else {
                                                                                                                    return 2;
                                                                                                                }
                                                                                                            }
                                                                                                        }

                                                                                                        else {
                                                                                                            return 2;
                                                                                                        }
                                                                                                    }

                                                                                                    else {
                                                                                                        return 1;
                                                                                                    }
                                                                                                }

                                                                                                else {
                                                                                                    if (x[0] <= 36776.0) {
                                                                                                        if (x[9] <= 1001.0) {
                                                                                                            if (x[8] <= 4293981.0) {
                                                                                                                return 2;
                                                                                                            }

                                                                                                            else {
                                                                                                                return 1;
                                                                                                            }
                                                                                                        }

                                                                                                        else {
                                                                                                            return 1;
                                                                                                        }
                                                                                                    }

                                                                                                    else {
                                                                                                        return 1;
                                                                                                    }
                                                                                                }
                                                                                            }
                                                                                        }
                                                                                    }

                                                                                    else {
                                                                                        return 1;
                                                                                    }
                                                                                }

                                                                                else {
                                                                                    return 2;
                                                                                }
                                                                            }

                                                                            else {
                                                                                return 1;
                                                                            }
                                                                        }
                                                                    }

                                                                    else {
                                                                        if (x[0] <= 44232.5) {
                                                                            return 1;
                                                                        }

                                                                        else {
                                                                            if (x[8] <= 4294051.5) {
                                                                                if (x[8] <= 4294036.0) {
                                                                                    return 1;
                                                                                }

                                                                                else {
                                                                                    return 2;
                                                                                }
                                                                            }

                                                                            else {
                                                                                return 1;
                                                                            }
                                                                        }
                                                                    }
                                                                }

                                                                else {
                                                                    return 1;
                                                                }
                                                            }

                                                            else {
                                                                return 2;
                                                            }
                                                        }
                                                    }
                                                }
                                            }

                                            else {
                                                if (x[8] <= 4293451.5) {
                                                    if (x[9] <= 1523.5) {
                                                        return 3;
                                                    }

                                                    else {
                                                        return 1;
                                                    }
                                                }

                                                else {
                                                    if (x[8] <= 4293604.5) {
                                                        if (x[9] <= 1365.0) {
                                                            return 3;
                                                        }

                                                        else {
                                                            if (x[0] <= 50336.5) {
                                                                return 1;
                                                            }

                                                            else {
                                                                if (x[0] <= 50343.5) {
                                                                    return 3;
                                                                }

                                                                else {
                                                                    return 1;
                                                                }
                                                            }
                                                        }
                                                    }

                                                    else {
                                                        return 1;
                                                    }
                                                }
                                            }
                                        }

                                        else {
                                            if (x[9] <= 1560.5) {
                                                if (x[9] <= 1270.5) {
                                                    if (x[9] <= 1269.5) {
                                                        if (x[8] <= 4294169.5) {
                                                            if (x[8] <= 4293728.5) {
                                                                if (x[9] <= 1239.5) {
                                                                    return 2;
                                                                }

                                                                else {
                                                                    if (x[8] <= 4293712.5) {
                                                                        return 1;
                                                                    }

                                                                    else {
                                                                        if (x[8] <= 4293713.5) {
                                                                            return 2;
                                                                        }

                                                                        else {
                                                                            return 1;
                                                                        }
                                                                    }
                                                                }
                                                            }

                                                            else {
                                                                if (x[0] <= 43812.5) {
                                                                    if (x[8] <= 4293796.5) {
                                                                        if (x[8] <= 4293795.5) {
                                                                            return 1;
                                                                        }

                                                                        else {
                                                                            return 2;
                                                                        }
                                                                    }

                                                                    else {
                                                                        return 1;
                                                                    }
                                                                }

                                                                else {
                                                                    if (x[8] <= 4293894.5) {
                                                                        if (x[0] <= 47035.5) {
                                                                            if (x[0] <= 46139.5) {
                                                                                return 1;
                                                                            }

                                                                            else {
                                                                                if (x[9] <= 1171.5) {
                                                                                    if (x[8] <= 4293801.0) {
                                                                                        return 2;
                                                                                    }

                                                                                    else {
                                                                                        return 1;
                                                                                    }
                                                                                }

                                                                                else {
                                                                                    return 1;
                                                                                }
                                                                            }
                                                                        }

                                                                        else {
                                                                            return 1;
                                                                        }
                                                                    }

                                                                    else {
                                                                        if (x[9] <= 1071.5) {
                                                                            if (x[0] <= 54467.5) {
                                                                                if (x[9] <= 873.5) {
                                                                                    return 1;
                                                                                }

                                                                                else {
                                                                                    if (x[9] <= 874.5) {
                                                                                        return 2;
                                                                                    }

                                                                                    else {
                                                                                        if (x[9] <= 942.5) {
                                                                                            if (x[0] <= 50730.5) {
                                                                                                if (x[8] <= 4294026.0) {
                                                                                                    return 2;
                                                                                                }

                                                                                                else {
                                                                                                    return 1;
                                                                                                }
                                                                                            }

                                                                                            else {
                                                                                                if (x[8] <= 4294057.0) {
                                                                                                    if (x[9] <= 914.0) {
                                                                                                        return 2;
                                                                                                    }

                                                                                                    else {
                                                                                                        if (x[8] <= 4294043.0) {
                                                                                                            if (x[0] <= 53204.0) {
                                                                                                                if (x[0] <= 50990.0) {
                                                                                                                    if (x[8] <= 4294027.5) {
                                                                                                                        return 2;
                                                                                                                    }

                                                                                                                    else {
                                                                                                                        return 1;
                                                                                                                    }
                                                                                                                }

                                                                                                                else {
                                                                                                                    return 2;
                                                                                                                }
                                                                                                            }

                                                                                                            else {
                                                                                                                return 1;
                                                                                                            }
                                                                                                        }

                                                                                                        else {
                                                                                                            return 1;
                                                                                                        }
                                                                                                    }
                                                                                                }

                                                                                                else {
                                                                                                    if (x[0] <= 52838.0) {
                                                                                                        return 1;
                                                                                                    }

                                                                                                    else {
                                                                                                        if (x[9] <= 892.5) {
                                                                                                            return 1;
                                                                                                        }

                                                                                                        else {
                                                                                                            return 2;
                                                                                                        }
                                                                                                    }
                                                                                                }
                                                                                            }
                                                                                        }

                                                                                        else {
                                                                                            if (x[0] <= 48787.0) {
                                                                                                if (x[8] <= 4293915.5) {
                                                                                                    if (x[8] <= 4293910.0) {
                                                                                                        return 1;
                                                                                                    }

                                                                                                    else {
                                                                                                        return 2;
                                                                                                    }
                                                                                                }

                                                                                                else {
                                                                                                    if (x[0] <= 47107.5) {
                                                                                                        if (x[0] <= 47070.5) {
                                                                                                            return 1;
                                                                                                        }

                                                                                                        else {
                                                                                                            if (x[8] <= 4293945.0) {
                                                                                                                if (x[8] <= 4293939.0) {
                                                                                                                    return 1;
                                                                                                                }

                                                                                                                else {
                                                                                                                    return 2;
                                                                                                                }
                                                                                                            }

                                                                                                            else {
                                                                                                                return 1;
                                                                                                            }
                                                                                                        }
                                                                                                    }

                                                                                                    else {
                                                                                                        if (x[8] <= 4293959.5) {
                                                                                                            if (x[8] <= 4293939.0) {
                                                                                                                return 1;
                                                                                                            }

                                                                                                            else {
                                                                                                                if (x[9] <= 1022.5) {
                                                                                                                    if (x[8] <= 4293954.5) {
                                                                                                                        return 1;
                                                                                                                    }

                                                                                                                    else {
                                                                                                                        return 2;
                                                                                                                    }
                                                                                                                }

                                                                                                                else {
                                                                                                                    return 2;
                                                                                                                }
                                                                                                            }
                                                                                                        }

                                                                                                        else {
                                                                                                            return 1;
                                                                                                        }
                                                                                                    }
                                                                                                }
                                                                                            }

