
#include "eml_net.h"
static const float X20_MLP_L56_layer_0_biases[56] = { 0.058407f, -1.561706f, 1.070160f, -0.209724f, 0.138223f, -1.442606f, -0.436846f, 1.191268f, 1.898300f, -2.149211f, 1.381482f, 0.853387f, -0.400766f, -2.585084f, -1.178219f, 1.242251f, -0.662981f, 1.101154f, 3.700207f, -1.542832f, 1.582714f, -0.007920f, 0.994929f, -2.797744f, -1.014534f, 2.033471f, -0.093333f, 3.058471f, -0.034011f, 2.444217f, 0.411837f, -0.960941f, 2.155864f, -0.438108f, -0.858287f, -0.952314f, -0.991802f, 1.558798f, 0.522836f, 1.331532f, -0.034142f, 1.056881f, -1.021427f, 0.498284f, 1.108115f, -1.448039f, 0.220689f, -2.019006f, 0.511241f, -1.619059f, -0.633913f, 1.503495f, 0.118235f, 1.233207f, 0.450223f, 1.936869f };
static const float X20_MLP_L56_layer_0_weights[896] = { 1.177929f, 0.569539f, 0.472045f, 2.341163f, -2.653705f, 1.248144f, -1.466673f, -0.035592f, 2.309242f, -0.159024f, 0.502823f, 2.420774f, 1.360031f, -0.890852f, -3.235704f, -0.394819f, 0.372023f, -0.844663f, 0.425715f, -0.700188f, 2.377198f, 0.295628f, -0.878846f, -1.052041f, -1.294775f, 2.088369f, 1.685029f, 1.642184f, 0.207488f, 1.008943f, -0.733692f, 0.263818f, 0.936478f, -2.409604f, -1.564246f, -0.864209f, 2.895167f, -3.194776f, 0.972220f, 0.704547f, -0.858009f, -0.102480f, 1.175752f, -2.061957f, 0.484481f, -1.085811f, -4.090717f, -1.187685f, 1.998967f, 0.593351f, -0.001599f, -0.449458f, 3.443114f, -6.017666f, -0.639298f, -2.113649f, 0.527708f, -0.797669f, -0.277047f, -1.080093f, -0.374161f, -7.843235f, 6.227229f, 0.956519f, 2.378889f, -1.853385f, 0.565537f, 1.189813f, -1.679078f, -2.496635f, -0.391527f, 0.326349f, 3.339271f, 2.189957f, 4.228504f, -3.354393f, 1.405021f, -0.353967f, 0.992497f, 0.121819f, -1.133746f, -5.256287f, 2.028023f, 2.435267f, -0.645360f, 2.598428f, -0.974816f, -5.189418f, 1.524134f, -2.522433f, 0.598239f, -2.110738f, 0.375833f, 0.625998f, -0.779498f, 0.108276f, -1.802090f, 2.428626f, -0.602226f, -4.054471f, 0.939374f, -0.162487f, -1.371837f, 2.748796f, 0.553698f, -0.685368f, -3.335006f, 1.391382f, 1.703745f, -5.038499f, -1.286845f, -0.230622f, -0.449655f, 1.080416f, -0.711789f, 0.813991f, 0.339282f, -1.412431f, 0.369926f, 0.110497f, -0.339904f, 0.210369f, 1.068800f, 2.758149f, -1.105878f, 0.736035f, -4.348424f, 0.422084f, -1.356558f, 0.037196f, 0.309465f, -1.247305f, 0.581735f, -3.518305f, 1.805862f, 0.568014f, 0.791672f, 1.009762f, 0.471795f, 0.085667f, 0.740146f, 0.419309f, -1.935377f, 0.349114f, 0.614158f, -0.964317f, 0.702237f, 0.233543f, -0.000678f, 3.418069f, -1.247702f, -0.180636f, -2.240166f, -0.495980f, 0.792718f, 0.717122f, 1.514476f, 0.933286f, -0.784452f, 0.120795f, 2.051384f, -0.061728f, -2.694432f, -1.730818f, -0.689951f, 0.011379f, -4.617019f, 0.306070f, 0.594071f, 0.148317f, -2.174149f, -4.458476f, 0.666474f, 0.323623f, -1.798245f, -0.035741f, 1.044465f, -1.022890f, -3.165354f, 0.272610f, -1.074976f, 0.723377f, -4.429500f, 1.318818f, 1.577756f, 3.361756f, 4.016879f, -1.585186f, 1.897080f, 1.464833f, 0.506406f, -1.743531f, 0.446523f, 2.662403f, -0.159650f, 3.705261f, -1.760651f, 0.526318f, -3.718813f, -0.077594f, -0.702665f, -0.869118f, 1.645302f, 0.990782f, -2.097219f, -0.022300f, 1.790914f, 0.138607f, -0.697901f, 4.810711f, -0.433091f, -2.334633f, 0.568593f, -0.788459f, -6.418128f, -1.085930f, -1.381263f, 0.995265f, -0.331128f, 3.638872f, 2.776863f, 14.562843f, -4.509550f, 1.560846f, 0.506208f, -1.341090f, 0.055696f, 0.298238f, 0.596874f, 1.431496f, -1.810454f, -1.623998f, -1.834408f, -1.202405f, -1.220106f, -0.024882f, -0.719658f, 0.065465f, -1.561145f, 0.935056f, 1.276281f, -0.260488f, -0.036743f, -1.346729f, 0.386722f, -1.476858f, 0.544775f, 0.044700f, 0.200058f, 0.228656f, -1.124620f, 0.314120f, 0.081433f, 0.862127f, 1.119937f, 2.556580f, 0.578350f, -0.434123f, 2.130977f, 1.114457f, 0.308005f, -0.098981f, -1.331794f, -0.623814f, -0.974068f, 1.927394f, -1.011091f, 2.409221f, 0.142839f, 0.479761f, 0.357728f, 0.041279f, -0.831395f, 1.963706f, 2.033668f, 0.828226f, 1.142739f, 0.732101f, 1.116097f, -0.418885f, -0.179584f, 0.143362f, 0.009420f, -0.231165f, -0.106205f, -0.165038f, 0.263606f, 0.050568f, 0.569837f, -0.245287f, -0.123287f, -0.290129f, 0.093907f, -0.399687f, 0.357312f, -0.136074f, -0.245364f, 0.463118f, 0.689057f, -0.019716f, 0.108743f, 0.187686f, -0.074017f, -0.284612f, -0.263257f, -0.189398f, -0.262065f, -0.066799f, -0.108626f, 0.139654f, 0.046593f, -0.370363f, -0.285175f, -0.439444f, 0.166446f, -0.325366f, -0.168568f, -0.033648f, 0.446610f, 0.194014f, -0.224453f, -0.230520f, -0.129817f, -0.052066f, -0.190845f, 0.068495f, 0.151124f, 0.022908f, -0.177770f, -0.074581f, -0.236485f, 0.063421f, -0.257465f, -0.131143f, 0.146253f, 0.146302f, -0.139035f, -0.072454f, 0.049452f, -0.131672f, -0.073984f, -0.174930f, -0.023079f, -0.262591f, 0.173422f, -0.244766f, 0.010801f, -0.111399f, 0.044822f, 0.265405f, 0.084080f, -0.268467f, -0.040368f, 0.006377f, 0.022005f, 0.104500f, -0.128462f, -0.214296f, -0.061675f, 0.263618f, -0.180524f, 0.233467f, 0.025608f, -0.023671f, 0.218876f, -0.023360f, 0.129401f, -0.057878f, 0.234358f, 0.109771f, 0.115688f, -0.099178f, 0.147962f, 0.078339f, -0.149038f, -0.195901f, 0.170868f, 0.265382f, -0.023455f, 0.052895f, 0.206617f, -0.024647f, 0.261066f, 0.043641f, 0.184870f, 0.235848f, 0.182522f, -0.196733f, 0.074297f, -0.061422f, -0.252467f, -0.043205f, -0.139815f, 0.199139f, -0.269526f, 0.264690f, -0.083272f, -0.082531f, -0.277863f, -0.181844f, -0.054608f, 0.244003f, -0.232833f, 0.251621f, 0.213015f, -0.027534f, -0.098977f, -0.154103f, 0.066870f, -0.265587f, -0.269496f, -0.045544f, -0.251025f, -0.145500f, -0.159942f, -0.144950f, -0.214755f, -0.282387f, -0.223527f, 0.073338f, 0.266280f, 0.285746f, -0.052901f, -0.197318f, 0.081547f, -0.006725f, 0.284093f, -0.251639f, 0.163204f, -0.122928f, -0.146237f, 0.094560f, -0.147623f, 0.096273f, 0.011644f, -0.038032f, 0.032239f, -0.122165f, 0.119888f, -0.049200f, -0.082973f, 0.189826f, 0.244025f, -0.264469f, -0.154602f, -0.087648f, 0.181702f, 0.285548f, 0.061754f, -0.565506f, -1.450238f, -0.612061f, -0.845787f, -0.491352f, 1.365623f, 0.776870f, -1.384920f, -0.402683f, -1.964982f, 0.525019f, -0.708608f, -1.576775f, -0.714541f, 0.773542f, -0.897612f, 1.818927f, 1.021220f, -0.254102f, 2.289375f, -0.602614f, 0.241784f, -1.687919f, -0.065713f, 2.190150f, 0.273670f, 1.164466f, 1.506797f, 0.696186f, 0.641167f, -0.126765f, -0.076614f, 1.199474f, 2.593313f, -1.193165f, -0.986803f, 0.659535f, -0.356479f, 1.010626f, -0.254842f, 2.508173f, -1.548961f, 1.880574f, 1.104747f, -1.768703f, 0.549539f, -1.025881f, 0.000312f, -0.816408f, -0.881322f, 2.130965f, -0.578236f, 2.021799f, 1.371573f, 1.892087f, 0.020237f, -0.531184f, 2.728873f, 0.424881f, 0.534835f, -1.160520f, -1.590692f, 0.364125f, 2.740226f, -1.808758f, 3.818805f, 0.851697f, 0.285844f, -0.726230f, -1.017252f, 1.064055f, -0.156356f, -1.058291f, 1.741337f, -1.028139f, -0.591005f, 0.433632f, 0.599914f, -0.458434f, -0.987954f, 0.026306f, -0.327714f, 1.519135f, -1.138463f, 1.277026f, -0.131656f, -0.648620f, 1.911472f, -1.277439f, -3.854876f, 0.894987f, -0.285310f, 1.343198f, 0.641147f, 0.351896f, 0.967597f, -1.484665f, 0.479710f, -1.397798f, 0.498478f, 0.233716f, 0.071953f, -1.386087f, 0.567794f, -0.733287f, 0.141285f, -0.659964f, 0.300279f, -0.847811f, -0.657946f, 0.147270f, -0.034633f, -0.523640f, 0.232632f, -0.229378f, 0.042133f, 0.213258f, 0.070268f, 0.291730f, 0.687555f, -0.258401f, 0.099848f, -0.780747f, -0.370242f, -0.242833f, 0.504731f, -0.092617f, -0.182732f, 0.966834f, 1.138967f, -0.593923f, -0.319151f, -0.103922f, 0.159122f, -0.492827f, -0.083012f, -0.128395f, -0.475836f, 0.671749f, -0.849605f, 0.585723f, 0.044197f, -0.245030f, 0.575342f, -0.036596f, 0.476714f, 0.219501f, -0.239663f, -0.065851f, 0.585842f, 0.371682f, -0.316085f, 0.209635f, 0.420037f, 0.158631f, 0.115255f, 0.019062f, 0.157674f, -0.186420f, -0.492073f, -0.097678f, -0.102820f, -0.424565f, 0.145834f, -0.296805f, -0.294994f, 0.621628f, 0.029088f, -0.016669f, -0.049802f, 0.257768f, -0.058622f, 0.041690f, 0.107481f, 0.178339f, 0.312000f, -0.024110f, 0.146950f, 0.078444f, -0.133969f, -0.343754f, -0.253008f, -0.039651f, -0.025970f, 0.036255f, 0.659932f, 0.036265f, -0.222131f, -0.421694f, 0.192404f, -0.016068f, -0.035615f, 0.252433f, 0.281371f, 0.215887f, -0.224542f, 0.066474f, 0.100820f, 0.033537f, 0.253989f, -0.254908f, 0.020389f, -0.072594f, -0.728796f, -0.372259f, 0.365765f, -0.188246f, -0.023436f, -0.220386f, 0.099957f, 0.347688f, -0.009101f, 0.339074f, -0.209225f, -0.137751f, -0.356109f, -0.062029f, 0.020846f, -0.242463f, 0.118626f, 0.064768f, -0.063581f, 0.259006f, 0.323804f, -0.221629f, -1.151644f, -0.596251f, -0.779005f, 1.185443f, -0.945250f, 0.803543f, 1.571201f, -0.883882f, -1.715692f, -0.738682f, -0.991595f, -1.963450f, -1.779814f, 2.725806f, -0.169573f, 0.073199f, 1.092569f, -0.183626f, -0.254801f, 2.007511f, -0.246722f, -2.026190f, -0.816897f, 1.910904f, -0.841929f, 0.969932f, 1.891173f, 0.793521f, 0.667504f, -0.375661f, -0.239989f, -0.274752f, 1.033884f, -0.817197f, -3.003931f, 0.546640f, -0.123017f, 0.460132f, 0.569208f, 1.341182f, -1.904733f, -2.667183f, -0.296975f, -1.493792f, -0.638318f, -1.524644f, 0.675860f, -0.515213f, 0.196061f, 3.905414f, 1.234206f, 0.121793f, -0.346836f, -0.993140f, -0.129476f, -1.307840f, 2.488461f, 0.968623f, 0.721816f, -2.546426f, 0.369619f, 0.650884f, -0.611367f, -0.661619f, 2.977992f, 2.180809f, 0.523801f, 0.271386f, -0.043634f, -1.475320f, -0.570963f, -0.039733f, 1.128070f, -0.306692f, 2.329108f, -1.555507f, 0.647462f, -0.264846f, 0.223850f, -0.156101f, 0.852035f, 1.054627f, -1.232784f, 0.367049f, -0.668622f, 0.026322f, 1.739175f, -0.169492f, -2.910944f, -0.018628f, 2.846033f, 1.961960f, -0.078089f, 0.446031f, 0.141344f, -0.246552f, 0.433025f, 2.167090f, 1.324521f, -0.145960f, 0.937115f, -0.527271f, 0.836339f, -0.736883f, -0.893978f, -1.333834f, -1.386795f, 1.208513f, 1.329705f, 2.100174f, -0.229554f, -0.198389f, -0.113048f, -0.245143f, -0.043494f, -0.226541f, 0.039383f, -0.146315f, 0.055683f, -0.220822f, 0.274747f, 0.249736f, -0.062471f, -0.148856f, -0.144044f, -0.009590f, -0.265588f, 0.080684f, -0.052935f, -0.070783f, 0.178607f, 0.120682f, 0.262322f, -0.085478f, 0.229521f, 0.155871f, -0.082316f, 0.070249f, -0.122109f, 0.216167f, -0.223778f, -0.166027f, -0.183002f, -0.055995f, 0.141596f, 0.015529f, -0.007123f, -0.288375f, -0.042999f, -0.251974f, -0.168459f, 0.249652f, -0.164288f, 0.206894f, 0.174871f, -0.196794f, 0.061058f, -0.221906f, 0.131569f, 0.079357f, 0.180097f, -0.011933f, 0.239518f, -0.260190f, -0.119583f, 0.124165f, -0.052436f, -0.200658f, -0.214452f, 0.140924f, -0.014322f, 0.226734f, 0.138426f, -0.055730f, -0.068994f, -0.147651f, 0.219155f, 0.133305f, -0.296725f, 0.093166f, 0.244195f, 0.129159f, -0.082506f, 0.053047f, -0.177663f, -0.259343f, 0.250645f, 0.216363f, -0.115295f, -0.135493f, 0.048686f, 0.252190f, -0.214257f, -0.121807f, 0.096264f, 0.022234f, 0.225471f, -0.339295f, 0.043494f, -0.109896f, -0.098851f, -0.040967f, -0.067489f, -0.108344f, 0.252168f, 0.176226f, 0.064949f, -0.124528f, 0.053760f, 0.176215f, 0.168180f, -0.082000f, 0.190232f, 0.135042f, -0.228582f, 0.222307f, -0.051636f, -0.070461f, -0.030295f, 0.037112f, 0.075993f, 0.009759f };
static const float X20_MLP_L56_layer_1_biases[10] = { 2.669024f, 0.206060f, 1.561040f, -1.134333f, 0.857515f, 0.656382f, 0.612726f, -1.549694f, -1.388038f, -1.575185f };
static const float X20_MLP_L56_layer_1_weights[560] = { -0.310801f, -0.533822f, 0.490449f, 0.522580f, 0.165586f, -0.251876f, 0.459330f, -0.258668f, -0.190474f, -0.353539f, 1.530868f, -1.652965f, 0.593124f, -0.459267f, -0.538564f, 0.869816f, -0.421049f, -0.095379f, -0.069957f, -0.189970f, -2.516483f, 0.431898f, 1.464605f, 0.749106f, 0.188321f, 0.459343f, 0.944514f, -0.792904f, 0.083863f, -0.355015f, -1.340535f, 5.516776f, -2.861834f, -0.008952f, 0.365498f, 0.610675f, -0.778413f, 0.050946f, -0.312037f, -0.804541f, 1.187400f, -0.391215f, -0.438872f, 0.291377f, -0.354865f, 0.808599f, 0.030012f, -0.257450f, -0.373797f, -0.782786f, 0.151248f, 0.995403f, -3.566131f, 3.074432f, 0.428605f, 0.386799f, -1.795616f, 1.053809f, -0.430312f, -0.583636f, 0.613261f, -0.871498f, -4.195335f, 4.123674f, -0.016394f, -0.911816f, -0.843892f, 0.235796f, 0.132437f, 1.195970f, 0.064068f, -0.719516f, -0.246394f, -0.104243f, -0.960571f, 1.414032f, -0.278566f, 0.344960f, 0.494355f, 0.326718f, 2.993721f, -0.097261f, -0.188075f, 0.203533f, -0.323053f, -1.771398f, 0.393737f, -0.662376f, -0.093428f, -0.690884f, -0.346743f, 0.287069f, 1.604200f, -0.981794f, -0.270179f, 1.551013f, -0.929480f, -0.035083f, -0.313197f, -0.543083f, -0.682023f, -1.349242f, 1.794411f, -0.381382f, -2.221775f, -0.622813f, 2.424068f, 0.145462f, 0.884738f, 0.186443f, -1.950380f, 1.224024f, -0.029760f, -0.756989f, -2.564328f, 1.227270f, 0.765512f, 0.184188f, 0.442932f, 0.601921f, -0.238072f, 0.088790f, -1.645651f, -1.236072f, 0.390422f, 0.193819f, -0.326670f, 1.096921f, 1.018217f, 0.559966f, 0.170489f, -1.300744f, -1.473327f, 0.827786f, -0.245499f, 1.765117f, 0.271822f, 0.479870f, -0.027871f, -0.320988f, 3.336689f, 2.909806f, -2.730541f, 0.664147f, -2.822848f, -0.717246f, 0.749831f, -0.191032f, -0.525819f, -0.144732f, 0.459910f, 0.601935f, -0.835862f, -0.359083f, 0.725404f, -0.879350f, -0.194428f, 0.578222f, -0.392152f, 0.286162f, -0.115281f, 0.680841f, 2.412618f, -0.254469f, 1.032944f, -1.420901f, -1.633003f, -0.671647f, -0.480703f, 0.395223f, 1.303252f, -0.850938f, 0.099883f, -1.069187f, -1.143891f, -1.237175f, -0.529552f, 1.658441f, 0.846012f, 1.046862f, 4.305956f, -1.956339f, 0.141214f, -0.512394f, 1.105962f, -1.546471f, 0.378470f, -0.569485f, -0.362221f, -0.680713f, -1.022133f, -1.064159f, 0.784160f, 0.126532f, -1.415404f, 1.936810f, -0.838082f, 0.447573f, -0.064379f, 0.447131f, 0.406367f, -1.994949f, -0.125216f, 0.252177f, 0.511405f, 1.539873f, -0.864107f, 0.129794f, 0.183661f, -0.012807f, -1.166909f, 0.913707f, -1.109518f, -0.852583f, -1.062824f, 1.822219f, -0.150061f, 1.325321f, -0.190655f, 0.396651f, 0.907270f, -0.800757f, -0.712960f, 0.563903f, 0.309041f, 0.223053f, 0.911020f, -1.116300f, 0.348695f, 0.051320f, -0.450903f, -1.063721f, -0.279869f, 0.441053f, 0.769384f, 0.360307f, -0.095914f, 0.540013f, 0.482972f, 0.221130f, -0.140033f, -0.718327f, 0.163008f, 0.373887f, -0.702263f, 1.562141f, -0.623473f, -0.189297f, -0.181884f, -0.019823f, 1.503304f, -0.103764f, -3.282962f, 3.635968f, -0.546600f, 0.923997f, -1.021088f, 0.021321f, -0.342632f, -0.264588f, -0.448709f, 1.708177f, 0.201803f, 0.258342f, -2.785811f, 0.459456f, -0.267294f, 0.179203f, 0.573521f, 0.490713f, 2.946121f, -0.923815f, 0.557427f, -1.153144f, 0.117239f, 0.396405f, 0.950222f, -1.018441f, -0.960234f, -1.170951f, -3.052341f, 0.916859f, -0.918917f, 0.975020f, 2.435629f, 0.810726f, -0.945768f, -0.275586f, -0.544080f, -0.869598f, 1.493497f, 0.312715f, -0.403964f, 0.593876f, -0.116250f, -1.211594f, 0.613455f, -0.480736f, 0.184368f, -0.220684f, 0.351637f, 1.805218f, 2.045399f, -1.201571f, -0.149253f, 0.586412f, -0.620995f, -1.419411f, -0.674053f, -0.183610f, -0.414598f, -0.115668f, -0.130091f, 1.213582f, -2.943761f, 1.473493f, 0.424985f, 1.245802f, 0.566723f, -0.608567f, 1.130494f, -1.454137f, 1.715356f, -0.547483f, -0.397349f, -0.681891f, 0.520567f, 0.113506f, 0.177493f, 0.266928f, 0.050390f, -1.247169f, 1.078535f, -0.520390f, -1.209428f, 0.329878f, 0.316263f, 0.243261f, -0.487278f, 0.552644f, 0.691188f, 0.567534f, -1.213827f, 0.780849f, -0.709261f, -0.401374f, 1.249220f, -0.837849f, -0.216060f, 0.182629f, -0.125346f, -1.311124f, -0.126662f, 0.304317f, -0.149718f, 1.050715f, 0.704715f, 0.368452f, 0.431863f, -0.553686f, -0.126610f, -1.454612f, -1.310699f, -0.445043f, -0.836906f, 2.900327f, -0.829912f, 1.426695f, 1.169749f, 0.325086f, -1.541539f, -1.079562f, 1.071244f, 1.709716f, 1.222886f, 0.002782f, -0.805741f, -0.777337f, 0.714581f, -0.581683f, 1.936389f, -1.066722f, -1.527077f, 0.277771f, -0.091083f, 0.356044f, -0.658255f, 0.629315f, 0.156486f, 0.014124f, 0.281577f, 0.007343f, 0.138890f, 0.647014f, 0.606422f, 0.494534f, 0.421991f, -0.509933f, -0.885276f, -0.979395f, -0.626458f, -0.433991f, -0.752396f, 0.716993f, 1.624845f, 0.496769f, 0.573364f, -0.661948f, -0.453424f, -0.363717f, 2.390045f, 0.861838f, 0.073711f, -1.089419f, -2.272955f, -2.024463f, -0.021290f, 1.506262f, 0.217307f, 1.059448f, 1.458704f, -0.712150f, -0.690870f, 0.061759f, -1.615764f, -0.153392f, -1.032823f, 0.996248f, 0.715899f, 0.194800f, 3.094248f, 3.186078f, -1.575021f, -1.692548f, -0.127000f, -0.612896f, -0.987192f, -0.928298f, 0.213321f, -0.875579f, 0.852842f, -0.454535f, -1.666416f, -0.116316f, 0.589128f, 0.761330f, 0.520137f, 0.234600f, 0.177970f, 0.184478f, 1.651800f, -0.968432f, -1.249833f, 0.282998f, -0.191592f, 0.317009f, -0.524875f, 0.563286f, -0.168826f, 0.315074f, -0.330065f, -2.572677f, 0.066988f, -0.622739f, 1.775757f, 0.583742f, -0.035243f, -0.393719f, 0.325866f, -0.330666f, 0.164270f, 0.905518f, -0.067830f, -1.835725f, 1.742442f, -1.430108f, 0.445579f, 0.385605f, -0.237142f, -0.232674f, -0.545980f, 1.205817f, 0.673667f, -0.738464f, -2.079108f, 0.986439f, 0.178442f, 0.211415f, 0.344115f, 0.040853f, 0.562436f, 0.839546f, -0.292752f, -1.426713f, 1.262065f, -0.962614f, 0.237375f, 0.195503f, 0.239756f, -0.151609f, -0.190136f, -0.523116f, 1.977532f, 0.348108f, -1.061088f, 0.060698f, 0.958748f, -0.567940f, 0.189406f, -0.064770f, -0.375465f, 1.997695f, 0.557772f, 0.888648f, -1.786000f, 0.389988f, -0.010325f, -0.155063f, -1.258602f, 0.000376f, -1.595646f, -1.457525f, -0.043183f, 0.798166f, 2.432091f, -0.867736f, 0.175309f, 0.314948f, -0.156161f, 0.209480f, -6.637461f, 5.811102f, 0.889978f, -0.137927f, -0.049799f, 2.417100f, 0.457496f, -1.107167f, -0.924749f, -0.282053f, 0.104411f, 1.167327f, 4.246067f, -1.594869f, -0.803899f, -1.369313f, -0.085787f, -1.455563f, -0.785864f, 0.054840f, 0.871906f, 1.889695f, 1.347908f, -0.233317f, 0.206627f, -2.058551f, 1.285202f, -1.420404f, -0.627121f, -0.975934f };
static float X20_MLP_L56_buf1[56];
static float X20_MLP_L56_buf2[56];
static const EmlNetLayer X20_MLP_L56_layers[2] = { 
{ 56, 16, X20_MLP_L56_layer_0_weights, X20_MLP_L56_layer_0_biases, EmlNetActivationTanh }, 
{ 10, 56, X20_MLP_L56_layer_1_weights, X20_MLP_L56_layer_1_biases, EmlNetActivationSoftmax } };
static EmlNet X20_MLP_L56 = { 2, X20_MLP_L56_layers, X20_MLP_L56_buf1, X20_MLP_L56_buf2, 56 };

    int32_t
    X20_MLP_L56_predict(const float *features, int32_t n_features)
    {
        return eml_net_predict(&X20_MLP_L56, features, n_features);
    }
    

    int32_t
    X20_MLP_L56_regress(const float *features, int32_t n_features, float *out, int32_t out_length)
    {
        return eml_net_regress(&X20_MLP_L56, features, n_features, out, out_length);
    }
    

    float
    X20_MLP_L56_regress1(const float *features, int32_t n_features)
    {
        return eml_net_regress1(&X20_MLP_L56, features, n_features);
    }
    